0.18909484 0.22556844 0.25483087 0.34286904 0.19301905 -0.033648353 0.19274883 -0.24151358 -0.27252775 0.07779407 0.26548654 -0.12560381 0.1728412 -0.09825363 -0.34506217 0.1158042 -0.43818054 -0.38650826 0.29806367 0.36134753 0.12533392 0.3563746 0.011936757 -0.076582275 0.2546209 -0.069424964 -0.21120986 0.11693117 0.10522631 0.05531767 -0.18671925 0.00751749 0.39696848 -0.06751767 -0.19168067 0.36044914 0.32611105 0.62857443 0.5456628 -0.10710068 0.15834562 0.73614764 -0.17867303 -0.04152362 0.5252993 -0.10949105 0.33286956 0.311308 -0.5997063 -0.2993381 0.16388328 -0.65967923 -0.69150877 -0.3120619 0.60107905 0.60577106 -0.4651201 0.29903468 -0.8914137 -0.516811 -0.70322526 -0.36629263 0.77784616 0.58659893 0.7988854 -0.5562392 0.49205726 -0.6753994 -0.53395444 -0.84745216 -0.21783212 0.68790877 0.44723675 0.73614323 -0.4604807 0.6916064 -0.7972585 -0.525808 -0.82759386 -0.3876587 0.3727842 -0.5238668 -0.99271333 -0.8826576 -0.7532139 -0.53650683 0.10533951 0.96269983 1.0125271 1.0198922 -0.5216897 -0.58996576 -0.70652944 -0.5413963 -0.40747607 0.3574457 0.56605244 0.71320635 0.6333096 -0.4519537 -0.5034394 -0.28115815 -0.5358321 -0.09995983 0.5124962 0.72050864 0.76290363 0.9090229 -0.30571103 -0.16004425 -0.014139546 -0.18055853 0.0144235315 0.18679954 -0.16378352 0.07061467 0.44178984 -0.35988262 -0.33856687 -0.027087662 -0.28598928 -0.17961761 0.17157263 -0.25869802 0.08313594 0.24221599 -0.3738744 -0.16573893 -0.047417182 -0.38108638 -0.12530833 -0.070994094 -0.33589762 -0.027368758 0.13101295 0.0021116254 -0.44310257 -0.5642961 0.021701114 -0.40885043 -0.46923056 0.18866412 -0.32751903 -0.43652335 0.25355104 -0.15408465 -0.44541454 0.31401742 -0.16351813 -0.23572357 0.37477472 -0.065735295 -0.22466259 0.49863017 0.16188596 -0.11483808 0.62572217 0.33531147 -0.10883526 0.6095804 0.31205374 -0.051401116 0.06809867 0.060004298 -0.031955507 -0.105975814 0.10832367 0.06297419 -0.1472181 0.03839897 -0.059403524 -0.066230774 -0.13984877 -0.13458039 -0.12646565 0.09703982 -0.045821834 -0.13213979 0.034716975 0.08340732 0.05797844 -0.02421403 0.1111572 0.113025844 -0.15654762 -0.056754686 0.11802667 -0.044795174 -0.06686191 0.05219199 -0.03408261 0.026317116 -0.12314792 0.00847001 -0.08012094 0.043099195 0.0950453 -0.04949552 0.11068711 -0.0110027185 0.030069154 0.08436398 0.004733828 -0.10975364 -0.08327263 -0.049011257 -0.06721598 0.0036625313 0.036353994 -0.0028937908 -0.066831216 -0.14825244 0.12524952 -0.06543423 0.0823359 -0.0034824628 -0.44645593 -0.4954127 -0.53760624 -0.3945769 -0.37133467 -0.38547307 -0.15135697 -0.16730405 -0.12792948 -0.05328513 -0.2986084 -0.27469793 -0.26717648 -0.13972527 -0.2084083 0.037137702 -0.020928932 0.114046544 -0.13709177 -0.09782389 -0.15126242 0.056467894 -0.18322285 -0.17012292 0.4755198 0.27696866 0.43182933 0.46419808 0.40205657 0.3047751 0.57378733 0.62039834 0.50411636 0.094115905 0.3514555 0.22423103 -0.7523156 -0.6964166 -0.5511812 -0.71333724 -0.8408413 -0.7911728 -0.5570814 -0.62143666 -0.42661682 0.14738205 0.109987706 0.2630464 -0.013047226 -0.05465485 0.17308228 0.2319154 0.10068205 0.20217419 0.5066958 0.51971185 0.18894683 0.21089979 0.1447109 -0.16615005 -0.17898703 -0.1872854 -0.05994849 -0.20322679 -0.42853385 -0.60390705 -0.16484763 -0.49009287 -0.53285754 -0.34799683 -0.68544877 -0.5673145 0.428582 0.18039635 -0.06858965 0.26309037 -0.081620336 -0.13389009 0.052359343 -0.11842435 -0.09584593 -0.24102986 -0.084668525 -0.29403287 -0.22767985 -0.14357384 -0.2021961 0.09847144 -0.03239791 -0.034480162 0.2288538 0.24465902 0.02725428 0.050074738 0.2937924 0.039483964 0.34456387 0.32774994 0.20227884 -0.26770034 -0.14056723 -0.22377591 -0.3593895 -0.3939062 -0.341727 -0.32847267 -0.32139945 -0.17478882 -0.36616758 0.5751906 -0.084133625 -0.79243 -0.25011837 -0.23729388 -0.12408908 0.107806236 -0.046359632 -0.15547301 0.8993463 0.2543708 -0.51402354 -0.08109406 0.024783133 0.26501918 0.1583724 0.042101055 -0.15735088 0.7515591 0.21511012 -0.674703 -0.091629885 -0.123748034 -0.026785579 -0.016462669 0.004724506 -0.0032279803 -0.029295895 -0.19518612 0.044850376 0.03735989 -0.07731804 -0.018682351 -0.16707769 -0.2113683 -0.18864344 0.02353753 -0.0950502 -0.06541184 0.03966269 -0.03180697 -0.13577835 -0.09629674 -0.2253108 0.53311044 0.7700845 0.4346518 0.5622679 0.6595347 0.57011473 0.31792706 0.4055421 0.27149233 0.12673138 0.06118549 0.23379435 0.37691665 0.37385178 0.53451216 0.23887275 0.46720386 0.5349251 -0.28773874 -0.042645104 0.017594235 -0.27885094 -0.13057397 0.23487054 -0.22236054 -0.0629572 -0.01596899 -0.3644425 0.031300407 0.24327907 -0.29885858 0.1633499 0.33028573 -0.18730098 -0.07397246 0.23496756 0.5080415 0.97505456 0.80874497 -0.5524216 -0.16319458 0.35941422 -0.5636358 -1.0557489 -0.8003605 0.2219186 0.7622969 0.6651205 -0.45472485 -0.3682056 0.24005648 -0.5334238 -0.8778817 -0.68904465 0.30566785 0.7419105 0.6578958 -0.35133997 -0.16912983 0.3530355 -0.22674064 -0.72797066 -0.38340938 0.04957698 -0.014560843 -0.1569221 0.15763184 -0.11629479 -0.17495827 -0.15735252 -0.18474166 0.022597896 0.16886745 0.00014142721 -0.24521194 0.022336747 -0.036909327 -0.112580575 -0.07179861 -0.1100662 -0.21354292 0.2097171 0.1973647 -0.014547637 0.3347341 0.024168069 -0.1354481 0.1366655 -0.08421536 -0.06258304 0.09558542 -0.12565762 -0.07704159 -0.049602106 -0.025508067 -0.021207437 0.09047326 -0.08642614 -0.06651748 0.04299578 0.014396567 0.054698806 -0.038572233 -0.12549344 -0.12010844 -0.010803639 -0.09807267 -0.0382938 -0.013848098 -0.10534149 0.12839754 -0.12825803 -0.046446715 -0.055332698 0.06509858 0.10651645 0.09691073 0.1044384 -0.17262371 -0.25155133 0.2189524 0.094000205 -0.06975779 -0.36208674 -0.4391609 -0.16181427 0.1758784 -0.00089212914 0.09264404 0.5470819 0.19574498 0.03613904 -0.22826067 -0.3341069 -0.061445862 -0.10394503 0.05217648 0.07639234 0.30563864 0.09462903 0.06631323 -0.47308058 -0.3533473 -0.24236141 -0.6547583 -0.4978475 0.04634735 -0.07424606 0.1184257 -0.70518744 -0.07750616 -0.23029827 -0.41938004 0.6117049 0.5712812 0.96037 1.0581188 1.1845118 0.1648142 0.83855945 0.7583159 0.37548578 -0.7217768 -0.6244848 -0.08329233 -0.6401262 -0.28946924 -0.77922094 -0.45978403 -0.5245888 -0.5390333 -0.64297783 -0.68115085 -0.7211166 -0.80799645 -0.85574913 -0.8121644 -0.7910133 -0.8300017 -0.5660983 0.26805013 0.0646885 0.17937782 0.0068296595 0.14876561 0.271317 -0.10499813 0.10440659 0.046642598 0.8908102 0.8491417 0.843051 0.55372494 0.7633942 0.76076597 0.2574308 0.5704312 0.7760909 0.46986553 -0.978204 -0.29238775 -0.19003913 -1.4074934 0.24278414 -0.0676175 -0.26646766 0.46307394 1.1028174 -0.3231094 0.3529598 0.6138394 -0.8696977 0.81850827 0.3651538 0.091220535 1.1250906 0.43757778 -0.74568367 -0.1600709 -0.027762784 -1.3227675 0.2984875 -0.39102334 -0.5086005 0.53489625 -0.2026361 -0.20406069 -0.15049562 0.027078917 -0.08722193 -0.1395233 -0.011340629 -0.13337456 -0.1941284 -0.15324111 -0.031526826 -0.109244786 0.009348032 -0.20715968 -0.0855142 -0.0045116814 -0.11399122 -0.16382767 -0.12446406 -0.1924915 -0.029363764 -0.19049504 -0.05519223 0.005886905 -0.016894078 -0.1823217 -0.10632133 -0.064219624 -1.3980343 0.46969837 1.2314426 -0.19553037 -1.1232374 -0.32962236 1.2411916 0.00042644446 -0.14249878 -1.4354849 0.4072652 1.3485442 -0.40456644 -1.2220688 -0.14503694 1.1964437 -0.15101163 -0.31639388 -1.2422211 0.5890792 1.1680473 -0.24255317 -0.96886915 -0.20381536 1.0423516 0.0898538 -0.11637304 0.123261705 0.06892362 -0.0092891585 -0.09973043 0.024147876 -0.014269676 -0.10957722 -0.008223397 -0.13527112 0.121655434 -0.12167638 -0.08746957 -0.07675188 0.041280016 -0.11237343 0.02794371 -0.14042832 0.015637847 -0.12589766 -0.03467389 -0.01557136 0.03472023 0.027732542 -0.0608466 0.033556454 -0.1072992 0.7883423 0.093486786 -0.54353887 0.72458327 0.031716358 -0.7324581 0.7145972 -0.13886188 -0.34561762 0.5591257 -0.21448536 -1.1102805 0.7169876 -0.22995012 -0.84293616 0.64116186 -0.28719595 -0.75389975 0.4674672 -0.028447926 -0.62449104 0.5246118 0.14156349 -0.5711188 0.56439 -0.15267238 -0.261075 0.3743753 0.7621623 0.50448745 0.7751416 0.88475007 0.59024465 0.2635149 0.38377875 0.22051571 -0.26244175 -0.58776724 -0.41734412 -0.44714463 -0.47509667 -0.42408818 -0.37670118 -0.45495245 -0.23081386 -0.19489673 -0.5076138 -0.18159969 -0.36381882 -0.71528643 -0.43898785 -0.03670194 -0.2434299 -0.13549042 0.7506976 0.041724935 -0.67301875 -0.23726429 -0.5674486 0.24641898 -0.48140073 0.1384823 0.5904524 0.6937448 -0.17846683 -0.5798147 -0.17199095 -0.5715029 0.19806705 -0.48879495 0.18734083 0.36359638 0.5886726 -0.05905632 -0.59204686 -0.17654987 -0.31328142 0.078396685 -0.5901245 0.24564725 0.51401764 0.42825314 0.35812426 0.16792384 -0.2700805 -0.5349394 -0.2556548 -0.2028209 0.062073592 0.16961434 0.32733107 -0.09814181 -0.3603229 -0.60684735 -0.49553913 -0.5542412 -0.06454488 0.06926082 0.1885658 0.49697143 0.34824532 0.14093716 -0.33687052 -0.3547511 -0.20587784 -0.008779702 0.25715595 0.33247638 -0.16320674 -0.37605077 0.85141766 -1.0423936 -0.24119802 1.117982 -1.0530168 0.10194883 1.1024034 -0.55251 -0.6735827 0.66612405 -1.1484637 -0.09028545 1.1357633 -0.98433346 0.040318582 0.95161676 -0.2423947 -0.45929015 0.45104852 -0.6339435 -0.09688412 0.7503971 -0.5624912 -0.028801717 0.7657719 -0.76419586 -0.94653136 0.023418492 -0.49551117 0.2735034 -0.2726339 -0.028382726 -0.050776765 0.9059559 -0.19292223 0.7492736 0.17172061 0.2896207 -1.8953104 -1.4234277 -0.090977736 0.08572611 -0.038343124 0.22566663 0.02357713 0.029762907 0.021777967 0.42658076 0.24094205 -0.0092532635 -0.077275425 0.09034869 0.08242766 0.044246506 0.023245413 -0.07787279 0.17768386 0.07710657 0.011029919 0.1568684 -0.30549034 0.19755185 -0.20312832 0.046509724 0.17258628 0.051130056 -0.004906285 0.14523453 -0.38741794 -0.29221344 0.10821355 -0.35481873 -0.45303994 0.16173886 0.21276338 0.44780266 -0.04361809 0.71895754 0.2652128 0.16004515 0.041292395 0.42248178 0.50011325 -0.19591025 -0.3277718 -0.14443758 -0.2876164 0.52870744 -0.0098678 0.5899339 -0.12223099 0.16271693 0.1279119 -0.15772204 -0.028705223 0.12859312 -0.014439916 0.062482882 0.078532666 0.12745789 0.11368769 -0.021349838 -0.18418942 0.08784611 -0.17117462 -0.21349107 0.027741713 0.07103582 0.0896836 0.11914879 0.09488169 -0.08844531 -0.04336384 -0.06200946 -0.048415102 0.057755228 -0.014590031 0.11362952 -0.06703284 -0.009227184 0.005182135 -0.08701884 0.059687354 -0.10082283 -0.103335686 0.0059119402 -0.10394809 -0.08907688 -0.20589347 -0.0037378673 -0.51333404 0.006257334 0.30935568 -0.17481652 0.16428758 0.089309305 0.014887286 -0.03718494 -0.056681428 -0.0813513 0.01659794 -0.19845256 -0.02478875 -0.008781877 0.0024868092 -0.13266924 0.04270584 0.38434604 -0.1642326 0.37330583 -0.0028452387 0.12612277 -0.12611611 -0.07626417 0.04734161 0.1570021 0.010737094 -0.029752722 0.12809692 -0.03437938 0.06243281 0.029608615 0.050858073 -0.08184009 -0.27709326 -0.12048372 -0.08022342 -0.29803753 0.10813936 -0.068384916 -0.23967712 -0.29135144 0.16635762 0.12747951 -0.19875318 0.14015238 -0.15955769 -0.37992716 0.1774776 -0.08696344 0.2286349 0.14085525 0.018672803 -0.12569153 0.016594937 -0.200249 -0.004291866 -0.03996207 0.15650198 0.049465057 -0.52208084 -0.36799303 0.25582173 -0.22897108 0.07402263 -0.26975292 0.05450812 -0.3774115 -0.1969477 -0.0072723753 0.088214956 0.025825763 -0.057935175 0.06551089 0.16251522 -0.1133103 -0.00370566 0.16806932 -0.11880822 -0.050781917 0.08942496 -0.06544503 0.03811397 0.043161757 -0.10457385 -0.10024895 -0.0047407723 0.0036379315 -0.0725539 0.14339499 0.093059875 0.028405825 0.004478899 0.007980898 0.042041935 0.06313728 -0.042197283 0.35218534 0.09284159 0.28654328 0.25911447 -0.286921 -0.00602991 -0.37211075 -0.2320426 0.3189844 0.118441135 -0.27486533 0.05984302 -0.23239356 -0.17955628 -0.16457449 -0.16016077 0.69168144 0.16618626 -0.06706713 -0.08072384 -0.2747939 0.00833853 0.4660155 0.073644266 0.11351273 -0.40490288 0.12118528 -0.052933376 0.021335019 -0.083032995 0.029392002 -0.033785798 -0.079315454 -0.06397908 -0.00980447 0.26084587 -0.5643195 -0.23392648 -0.18253562 -0.5254029 -0.18577331 -0.2322567 -0.020890787 -0.09971635 -0.08949418 0.07395088 0.057867225 0.040741216 0.09672021 -0.12000537 0.09911365 0.101295635 -0.12370013 -0.34382167 -0.35372582 0.24683999 0.019332906 0.4068576 -0.15130939 0.114646405 -0.28011557 0.06669571 -0.37762612 0.04416183 0.2240944 0.072982445 0.20657738 -0.06466782 0.13875085 0.093107745 -0.033436514 0.14019683 0.19187447 0.16213141 -0.11420217 0.26471946 0.42037785 0.009808384 0.14497139 0.41431367 0.12299551 -0.024070488 0.048037946 -0.11231218 0.23190485 0.21037348 0.18953423 0.013648241 0.11861811 0.2869025 -0.22510274 -0.3592669 -0.6780183 -0.15545858 0.83827466 -0.15688072 0.43442443 -0.4533316 0.17639244 0.22366895 0.26424512 0.075013466 -0.3760262 0.046293486 -0.10045259 -0.19862652 -0.24581276 -0.004687147 0.31617635 0.16452023 -0.13987716 -0.058999848 0.09302151 -0.22994012 -0.2725668 -0.18964055 0.044328324 0.1906713 0.27515507 0.14277643 -0.1556702 -0.11217973 -0.039130356 0.11511434 -0.03375687 0.003819157 -0.036810502 -0.08468391 -0.2595625 -0.48135108 -0.465281 -0.20596056 -0.04423666 -0.19313602 -0.17188068 -0.050742775 -0.14811149 -0.0651565 -0.054312978 -0.041373454 -0.09371272 -0.056221757 0.007118926 -0.011271662 0.11735774 0.15118808 -0.037027266 -0.17814597 -0.11597451 -0.07963538 0.0036078682 -0.12729248 0.0056674434 0.017739344 -0.036974344 0.038864866 -0.07812665 0.0706591 0.06708846 0.10595307 -0.010849281 0.09142953 -0.11280516 -0.003512307 -0.10414708 -0.021546887 -0.009855887 0.071585566 0.028788052 0.08558667 -0.09141737 -0.20395027 -0.19771248 -0.023011329 -0.081079096 -0.21301085 0.024301657 0.07624425 -0.13135582 0.0890328 0.22265793 0.08647851 -0.21697794 -0.090590075 0.09009754 -0.20261797 -0.10543686 -0.15932764 0.0038649153 0.054753814 0.13453338 -0.13737074 -0.057238676 -0.13508004 -0.055669617 0.20347218 0.23538686 0.10840719 -0.08308358 0.039325807 0.08590782 -0.0074463123 -0.0798436 -0.07976755 0.067425 -0.13791537 -0.008799331 0.04356567 -0.11071943 -0.15527166 -0.07446586 -0.022244224 0.16045815 0.07803656 0.04085454 0.49367142 0.4497962 0.3678602 0.025250493 -0.36277273 -0.1686126 -0.33578447 -0.20216554 -0.28956944 0.2888729 0.28320172 0.19589409 -0.2491032 -0.025503283 -0.098204724 -0.23179647 -0.18148641 -0.25423872 0.216164 0.5778372 0.1403366 -0.13441427 -0.46358714 -0.044398084 -0.13750248 0.42391145 0.12191398 -0.13278762 0.081667505 0.063050605 -0.050402425 -0.06970122 -0.049809624 0.045770735 0.103679016 -0.061990686 0.020010224 0.11875024 0.040538084 0.014241322 -0.02524861 -0.036706425 -0.07501703 -0.081129834 0.045966756 -0.10089232 0.007734569 -0.029416258 0.05724135 -0.02830716 -0.08939563 0.0737375 -0.011632576 0.12476477 -0.02186169 -0.05446466 0.03376718 -0.18944764 0.12765239 -0.021725208 0.13615732 0.08187746 -0.1195161 0.25343928 0.5710269 0.76377004 -0.48667613 -0.2353319 -0.03718968 -0.4340493 -0.4069286 -0.25640997 -0.31865594 -0.24371102 0.16818888 0.1410333 -0.07653039 -0.02479052 0.19298984 0.07085099 0.00021505913 0.032469574 -0.1497134 -0.15218039 0.025862996 -0.02066979 0.05268204 -0.10768308 -0.20609921 -0.037273448 -0.20853522 -0.007685999 -0.2244307 -0.012153143 0.19531123 -0.09254507 -0.16704655 -0.039475877 -0.076507844 -0.09855208 -0.11812565 -0.031822357 -0.050745808 0.020540677 -0.082837015 0.112116516 -0.08969557 0.058657844 -0.27300543 -0.32182014 0.06294278 0.3590159 -0.2546867 -0.23915163 0.3186943 0.35489967 -0.09365563 0.5274951 0.122884005 -0.0818082 -0.096003786 -0.046659783 0.13727665 -0.45269093 -0.09545371 0.15589271 0.05366937 -0.0016887143 0.18511815 0.2204302 -0.14929698 -0.098062314 -0.08344685 0.06631338 -0.0012524856 -0.012729811 0.11336696 0.18562701 -0.02593071 -0.010564305 0.113517635 -0.18434675 -0.05202473 0.086056694 -0.12444205 -0.1500711 -0.13663714 0.14613138 -0.073695295 -0.054615878 0.13308649 -0.024480956 -0.140626 0.10697001 -0.070098765 -0.046643734 0.11435733 -0.02565074 -0.027454846 0.08515303 0.013331208 -0.12202052 -0.08068588 -0.049452636 0.085766695 0.18570207 0.08693183 0.05265354 -0.3353554 -0.30609682 -0.027712699 -0.15577652 -0.10718978 -0.2618125 0.056547638 0.034217954 -0.1397054 0.21309213 0.030958721 0.047054213 0.21176025 -0.22744077 -0.1902302 0.14206244 0.27987874 -0.23552571 0.10955779 -0.02750627 -0.25226313 0.067276314 -0.02097248 0.004724994 0.08797542 -0.076167956 -0.1557862 0.18270274 0.046512954 -0.009517369 0.017399717 -0.08605176 -0.1832487 -0.038968008 -0.21838461 0.036781795 -0.0025285035 -0.010905361 -0.066612735 -0.026842747 0.10342251 0.006995485 0.06552008 -0.13153756 0.0050893603 -0.073617354 -0.070164315 0.06518634 0.020910162 0.10883301 -0.07243781 0.093021184 -0.035915338 -0.0058928058 -0.010944722 0.111130446 0.00024163988 0.15313458 -0.09407923 0.020523828 0.17219654 -0.025998833 -0.14878452 0.10589241 -0.09674772 -0.013533186 -0.16800646 -0.23627636 -0.18184179 -0.1202409 -0.27124983 -0.3051792 -0.15766032 -0.11537503 -0.11381329 0.12425689 0.029098505 9.427654e-05 0.2807084 0.28231424 0.1642645 0.09964192 0.15959951 0.2199464 -0.06562054 0.07721994 -0.10662099 -0.050362583 0.06931377 0.13133977 -0.037724193 -0.025392337 -0.0024612471 -0.074497655 -0.20410201 -0.18412018 -0.18417053 -0.07546185 -0.14347982 0.07551213 -0.0669181 0.018092744 0.08807317 -0.11877847 -0.12793544 -0.040906347 -0.059569363 -0.00560404 -0.03273301 -0.2001072 -0.075508066 0.240364 0.017101444 0.31414014 0.11298827 -0.15145443 -0.07082027 -0.2669197 -0.22846869 -0.119041964 -0.18085428 -0.15618795 -0.10212964 0.37644303 -0.11891798 -0.14924106 0.048053987 -0.002656756 0.17081395 0.045046452 0.052229013 -0.08680865 -0.016203856 0.041555807 0.07191512 -0.033133294 -0.05583844 -0.11319475 0.01780466 0.00805761 -0.02994306 -0.042653095 0.08293226 0.013307765 -0.006605833 0.025895676 0.07249608 -0.034183748 -0.08997845 -0.049017552 -0.007953155 -0.088916056 -0.13024685 0.027466139 0.033086747 -0.019520132 -0.44668925 -0.49502587 -0.638446 -0.25886405 -0.17892754 -0.20846361 0.2938706 0.48306826 0.06828099 -0.37944302 -0.25093874 -0.093650915 -0.20116597 -0.130616 -0.010095833 0.03003813 -0.028422495 -0.06974815 -0.5847751 -0.5961479 -0.38306925 -0.24002928 -0.20952277 -0.286327 0.2876605 0.16231441 -0.112042636 0.096241415 0.059406217 0.015625142 -0.03036535 0.10504691 0.108905084 0.008045957 -0.1657696 -0.09944271 -0.5207803 -0.47043538 -0.22162908 -0.36797598 0.10834856 0.0077983844 -0.07741697 0.025100932 0.7524201 -0.11607439 -0.014856977 0.054470945 -0.055367813 -0.00074418547 0.09609718 0.123822585 -0.1185195 -0.10783425 0.033294447 -0.21489987 0.052762706 -0.05634316 -0.07099319 0.06914574 0.13113743 -0.05983159 0.22254227 0.09414816 0.4173257 0.23728077 0.26049325 0.4971923 0.3294958 -0.1165891 -0.045121916 0.08626597 -0.069046296 -0.12092754 -0.25826135 0.037266083 -0.043328855 -0.1729445 0.18845458 -0.036713712 0.16268823 0.068525314 -0.045135614 -0.013591523 -0.01677744 -0.027269883 -0.01954916 0.25734362 -0.064861484 0.16532695 0.24447806 -0.17672077 -0.05433958 -0.09626884 -0.02594856 0.08826533 0.20193091 -0.1836312 0.3074091 0.018650321 -0.07372734 0.17842792 -0.00890929 -0.06633791 0.20017539 -0.044058733 -0.051435046 -0.2202244 -0.37233794 -0.19611335 0.32061842 -0.2523343 -0.12501514 0.2536801 -0.045937374 -0.06331769 0.16482276 0.14555775 -0.061899077 -0.25187713 -0.061310954 -0.26863945 -0.19819987 -0.269144 -0.40831023 -0.22781722 -0.25300667 0.029243749 0.18904911 -0.09273119 -0.43460956 0.010712837 -0.32651663 -0.43994394 -0.39033622 0.17168923 0.20055018 -0.043754306 0.13016473 0.14808686 0.08696801 0.104629956 0.037916504 0.11353134 -0.20568988 0.11656047 0.21109635 -0.013924293 0.11833967 0.36846933 -0.037914716 0.19803655 0.40897933 0.06048101 -0.0803079 0.024269443 -0.054492366 -0.03185651 -0.020944923 0.07070947 -0.12911174 0.035015445 -0.09374889 -0.03172705 -0.02772789 0.056323364 0.114558145 0.04896831 0.012698171 0.027589124 0.05306542 -0.012763904 -0.02745495 0.17039004 0.23036714 -0.07064123 -0.032099534 0.09507242 0.17332852 0.009986119 -0.3398236 -0.03404842 0.120328814 -0.23303169 0.05073784 -0.09648784 -0.21182403 0.07964095 -0.035343733 0.3850395 -0.003596323 -0.09194025 0.24756667 -0.12113587 -0.22199668 0.15959877 0.12451421 -0.17657612 -0.13332666 -0.23958898 -0.039013777 -0.123309985 -0.07006448 -0.16398293 -0.03575265 -0.21636474 -0.14447643 -0.044984486 -0.04789659 -0.12894747 -0.035223283 0.10355615 -0.033325154 0.13682297 0.14123675 0.08366491 -0.04764765 -0.15139045 0.43113858 0.051461816 -0.31867006 0.2759255 -0.26809117 -0.04162655 0.0555329 -0.35500503 0.14096037 0.283223 -0.3432837 -0.010985467 0.20167488 -0.13024966 -0.10728532 0.0692053 0.092604764 0.17049778 0.15615055 -0.4422785 -0.32187057 0.1854982 -0.70632344 -0.44945052 -0.085159086 0.009237361 0.103906594 0.056161955 -0.060970895 -0.095564485 0.029517397 -0.0023380145 0.03598624 -0.033731487 0.009953225 -0.11473682 0.03533741 0.101314105 -0.041218765 -0.073585495 -0.1035194 0.008077073 -0.021302877 -0.070471704 -0.16493836 -0.0705107 -0.0242698 -0.05348557 -0.05626142 -0.05943619 -0.025875276 -0.040609103 -0.20781052 -0.2718817 -0.044328682 -0.023883004 -0.14847475 -0.08476971 -0.120974086 0.03974324 -0.09478478 -0.89585847 -0.33619663 0.6567092 -0.4929437 -0.33849743 0.81754744 -0.19964553 -0.16624194 0.636971 -0.048989885 0.047260527 -0.2244129 0.12430012 0.22979105 -0.2462727 0.42725962 0.23250996 -0.3017901 -0.018246584 -0.15203561 0.033847522 0.045282364 0.025749864 -0.01671886 0.15610635 0.109167784 -0.12272925 0.23111491 -0.19505729 0.09221602 0.026473023 -0.144683 -0.21717481 -0.30162778 -0.16188018 -0.024151802 -0.05126615 0.08747997 -0.0054877345 0.1128847 0.014673652 0.10064048 0.015236958 -0.085820034 -0.06358123 0.27318862 -0.11713605 -0.12969236 0.35599154 0.36837247 -0.17849135 0.38817024 0.28037536 -0.07482014 0.32814753 0.1885778 -0.46611586 0.025912538 0.10236694 -0.21689697 -0.11385514 0.22091979 -0.13865791 0.073017135 0.1420275 0.09328531 -0.1498106 -0.148078 -0.2649273 -0.21109626 -0.1722524 -0.1973693 0.101734556 0.037203927 0.06548976 -0.031924523 -0.18636714 -0.13793974 -0.1189845 -0.08288436 -0.06413898 0.41133362 0.27797627 -0.16019064 0.33903903 0.023479156 -0.1146376 0.5518382 0.40904957 0.25769043 0.038365334 0.009955044 -0.01840036 0.127484 0.34146872 0.08998027 -0.29111993 -0.29672852 -0.10274912 0.00038111562 0.049684644 0.22364472 -0.42397282 0.15341756 0.43578067 -0.041789174 -0.43558785 0.0219409 0.09208026 0.026188336 -0.18926622 -0.22473757 -0.0090117995 -0.009900663 -0.16012655 -0.2161642 -0.169513 0.007243525 -0.10291622 -0.04009057 0.012611731 0.06040904 -0.17302458 -0.37492162 0.14600712 -0.10227135 0.06766464 -0.018163983 -0.16385874 -0.23533162 -0.09465863 -0.13614762 -0.034361888 -0.09372868 0.013656165 -0.16128644 -0.06798597 -0.075544894 -0.22687232 -0.10940882 -0.04784033 -0.20628592 -0.11287799 -0.015141834 0.10328853 -0.030516993 -0.008599592 -0.09501092 -0.016970098 0.034640633 -0.019843822 0.03407541 -0.06602296 -0.020454684 -0.08802671 -0.07666195 0.10544301 0.058144275 0.08240468 -0.09109455 -0.08077518 -0.10001606 -0.22048302 -0.29107684 -0.30448586 0.047459558 -0.20571446 -0.2764491 -0.016308118 0.32496604 0.10414554 -0.015880082 -0.027649634 0.1888372 0.013872793 0.11409384 0.0650491 -0.11146911 -0.017732851 -0.1642995 -0.11321494 -0.22240558 -0.20790763 0.059538834 -0.051008053 -0.05025403 -0.05168106 0.10560287 0.067020826 0.014658434 0.14973065 0.21507077 0.19862926 -0.04599967 0.058921963 0.064152144 0.027612103 -0.0946944 0.037406053 -0.1526696 -0.0031963792 0.056339256 0.29319227 0.14561434 -0.035292324 -0.032494374 0.20436342 -0.054527942 -0.06821385 -0.0028608683 0.050538078 0.2919772 0.24201065 -0.24890608 -0.13904935 0.071077265 -0.021535024 0.022757076 0.29359138 -0.06567928 0.054929778 0.16787629 -0.22782733 -0.10069526 -0.21266273 0.63689363 -0.5864215 -0.14741512 -0.2963321 0.5743954 0.3220457 0.13527633 -0.34604752 0.34340674 -0.12739357 0.023119671 -0.15068106 -0.12108277 -0.08871129 0.020703593 0.09759592 0.009679515 -0.15169066 -0.090326734 0.019865701 0.039737068 0.010735386 -0.01164912 -0.018416759 -0.018380199 0.08605074 -0.09963744 -0.053299293 0.025617974 -0.026549697 -0.08926988 -0.092095375 0.07020736 0.08115566 0.19288325 0.18390423 -0.21081454 0.1542761 0.42120248 -0.023719378 0.07306038 0.20709269 -0.14471146 -0.26060945 -0.38287282 -0.15675017 -0.24279508 -0.3059784 0.17574896 0.26953915 0.36182937 0.115868405 0.09532954 -0.15785356 -0.18237637 -0.053113397 -0.011476062 0.1280317 -0.21660244 -0.081665985 0.056553964 -0.17703213 -0.14421295 -0.042654794 -0.106962495 -0.12967922 0.08886331 0.061649777 -0.04394867 -0.049657885 0.086363845 0.03206185 -0.30985844 0.32640666 0.50355995 0.64419967 -0.2956489 -0.04995786 -0.16011147 0.5794571 0.55550724 0.09019619 0.11648198 0.0465278 -0.086440064 0.07337082 0.07315206 -0.033640355 0.12017454 -0.09045352 -0.13900492 -0.22257264 -0.20060173 0.12646118 -0.2195558 -0.4259335 0.094799206 0.23681603 -0.046143677 0.028031958 -0.020476462 0.2938398 -0.13708624 0.061667517 0.11610783 -0.10424928 -0.2285611 -0.17777641 0.0012062942 0.058778882 -0.19946885 0.110093765 -0.01898697 -0.008308322 0.21474828 -0.10882602 -0.1302918 0.08785342 -0.1143642 0.04015829 -0.10828219 0.15366112 0.08998111 -0.0056869714 -0.004734176 0.12628691 0.2573139 -0.3452481 -0.26783368 -0.2836376 0.24737166 -0.030708116 0.055647116 -0.074067555 0.13752966 -0.02631953 0.006959525 0.071749605 -0.13320117 -0.26961106 -0.16840388 -0.028510865 -0.03225203 -0.15667436 0.13875581 0.15818928 -0.2371275 0.08053389 -0.1027122 -0.23822254 -0.32726353 -0.26675877 -0.20674676 -0.20168391 -0.17490773 0.02760068 -0.21049185 -0.032051884 0.006255385 0.31023884 0.39767298 0.1967455 -0.1679806 -0.381534 -0.085147016 -0.03524691 -0.068388484 -0.4909255 0.2746666 -0.08374358 -0.10481476 -0.16360834 -0.00084957207 -0.15890096 0.026276497 0.15565616 -0.20824388 0.07247559 -0.047476407 -0.024401514 0.3331987 0.21925229 -0.04840823 0.271284 0.2248648 -0.16443834 0.2186309 0.090280294 -0.032272693 0.10638303 0.034781083 0.091372244 -0.06619922 -0.081171446 0.06399548 0.12027194 -0.03523212 -0.013053661 -0.09349886 -0.01922416 -0.049149282 -0.094408624 -0.0988708 -0.0049860314 -0.06374454 0.05092566 -0.10361921 -0.07916959 -0.41148326 -0.2060644 0.07112451 -0.00758026 -0.10032972 0.30364904 0.38986167 0.12864819 0.44147095 0.58479035 0.094005026 0.4982912 0.28801695 -0.0729643 0.034384772 0.068917684 -0.25951597 0.031443138 0.1132956 -0.026092915 0.09095309 0.06081596 -0.12538762 0.48938566 0.38529244 0.048884246 -0.0015255453 0.18497424 -0.045260232 -0.09919254 -0.05771775 -0.06714997 -0.09311699 -0.0029471805 -0.18923877 -0.14783727 -0.09335452 -0.081978284 0.07862521 0.13227192 0.002194961 0.13983288 0.25998944 0.20216386 -0.10186804 -0.3088144 -0.07029359 -0.12551789 -0.19404463 -0.068117894 -0.028557168 0.029019406 -0.083811015 -0.15179127 0.025692588 -0.17982627 -0.15124652 -0.08578196 -0.120386794 -0.11537336 -0.02382307 -0.28945532 0.101568215 -0.2679218 0.1095981 -0.13317011 -0.09229264 -0.24558799 0.5312268 0.49078757 0.12245961 0.008298174 -0.069626525 -0.091374114 0.13136132 -0.04739272 0.05202691 0.1506589 0.27252185 -0.0035052022 0.11829128 0.026696594 -0.09337227 0.07682453 -0.119222134 -0.100131944 0.11434334 0.044736058 -0.0050302465 -0.1498138 -0.19549862 0.09632804 0.13123268 0.2127973 0.044984195 0.27980804 0.18750967 0.16241162 0.28744015 0.6544774 0.19364952 0.10946056 0.15081447 -0.5160326 -0.5828854 -0.34183544 -0.8312535 0.53591144 0.23217791 -0.31183106 0.3503393 0.12219475 -0.2330948 0.47998932 -0.13612193 -0.6493652 -0.023902353 0.20687185 0.13698548 0.057100616 0.10374586 -0.024236735 -0.03786623 -0.3322203 -0.08957721 -0.24141583 -0.19689794 -0.26486236 -0.14323305 -0.038746424 -0.14467224 -0.16350807 -0.16611114 -0.14276436 -0.1504949 -0.30560356 -0.1665563 -0.103754036 -0.06900057 -0.13008112 0.009470865 0.017100902 -0.033097483 0.060428932 0.118656434 0.058798764 0.059482306 0.059552383 -0.07464565 0.115351185 -0.089887425 0.06915682 -0.26537567 0.31891924 -0.021364715 -0.13985553 0.17823978 0.033316273 -0.37905636 -0.04639508 -0.02937256 0.9281762 0.6315009 0.074673444 0.44977644 0.3318082 -0.48441568 -0.4105933 -0.7023142 -0.96922356 -0.19604002 -0.25847 0.036326032 -0.14164656 0.12358173 0.10137482 0.04742654 0.14069667 0.13110213 0.16867729 0.11179552 0.21234976 0.14946797 0.05064772 -0.17664073 0.14495596 0.008138216 -0.046891835 -0.22589633 0.19325204 -0.008338581 -0.19104517 0.26961058 0.21435548 -0.34332553 -0.067660324 0.40894055 -0.029517256 -0.24141705 -0.1872594 -0.09847435 0.07946233 -0.010262933 -0.04261076 0.09549501 0.06373184 -0.4743498 -0.23916267 -0.56919086 -0.18191366 -0.12467261 0.027694102 0.39173794 0.11392238 0.15582171 -0.0010298337 0.19121641 -0.2351533 0.08989729 0.09062913 -0.041312784 -0.2915024 -0.08728809 -0.42899737 0.3492572 0.1156078 -0.25174835 0.06887525 0.23320146 0.098753735 0.39579394 0.1796453 0.09085197 -0.26932627 -0.1562102 -0.23928694 -0.09914777 0.016680647 0.100673325 0.028123107 0.07188366 0.16750151 -0.10710024 -0.13208193 -0.16618189 -0.011929555 0.13036145 0.036736183 -0.01588029 0.06844115 -0.016339084 -0.063064 0.03633089 -0.027587453 -0.012688108 0.10937963 -0.07393536 -0.020358266 0.015584629 -0.011685263 0.033441335 -0.05939451 0.087481275 0.048441693 0.02998376 0.068028994 -0.0776084 -0.10184908 -0.094014004 0.13819003 -0.08015543 -0.31837127 0.10247382 -0.07095491 -0.12533231 -0.01103512 0.16246176 -0.20908551 0.016515547 -0.013858612 -0.009060404 0.043385062 -0.040999524 0.10361392 -0.017924262 0.15548545 0.15942127 -0.0062710517 0.20172343 -0.15135245 -0.26730174 0.023962015 -0.2697366 -0.26165876 0.058714636 -0.25493485 -0.18675084 0.006667496 -0.22553732 -0.0021554036 0.023747535 -0.10204596 0.024010932 -0.09945172 -0.015327675 0.24612457 0.308193 0.102735266 0.0051766587 -0.02162956 -0.005942631 -0.08256692 -0.24871618 -0.12351754 -0.38654375 -0.26787347 0.014438005 -0.036275167 0.05883318 -0.0042713783 -0.1639028 -0.03953766 0.005434735 -0.34150463 -0.14770295 -0.32897446 -0.0752789 -0.0012672296 -0.1473656 0.3202097 0.14486039 0.20124555 0.06805306 -0.07320625 -0.17711936 0.14365707 -0.09518008 0.11696196 -0.3981389 -0.3554267 -0.432663 -0.07193943 0.0046108533 -0.0506024 -0.061145272 0.104897864 -0.15577641 0.08281914 0.034910858 -0.06412481 0.034806434 0.11589436 -0.07087984 -0.08030767 0.09093679 0.087014765 -0.105225176 -0.018765267 0.11152435 -0.002583179 -0.08307921 -0.10296817 0.11909989 0.012440044 -0.16277158 -0.1434043 0.00398671 -0.179242 -0.42976958 -0.34861642 -0.48653176 -0.072344534 0.25838596 -0.063238226 0.25110003 0.47225282 -0.02358333 -0.12059868 -0.06651777 0.051763788 0.22131774 0.22847854 0.10226549 0.0057324683 -0.22729182 -0.3052664 0.36443648 0.10958311 -0.15448953 0.3384248 0.17978175 0.12992191 -0.24176452 0.02224495 -0.022348166 -0.1584764 -0.117468715 -0.21648858 -0.07570385 0.05247619 -0.15467075 -0.08431723 0.034052595 -0.08419095 0.21630828 0.28809795 0.20760362 0.28432682 0.110322505 0.0836593 -0.24021915 -0.14494579 -0.31533888 -0.023447508 0.09950134 0.020443087 -0.0121621 -0.071698 0.11674039 -0.03242378 0.06692569 -0.06621133 -0.2675076 0.34498596 -0.13865854 -0.47759914 0.53591895 -0.1833128 -0.9453101 0.12235148 -0.26710182 -0.31866908 -0.2830768 -0.04029616 -0.383694 -0.32884753 -0.17912903 -0.056340106 0.18219168 0.35617495 0.02538041 0.085840724 0.09793884 -0.0031846897 0.12706184 0.102350645 -0.1081763 -0.13304636 -0.17284204 0.068432115 0.109128974 -0.14320177 0.17747404 0.06150096 0.14167379 -0.023447577 0.020182377 -0.03495093 0.72830933 -0.4731734 0.4010443 0.23994236 -0.34173864 0.42644235 -0.5257468 -1.2497218 -0.21158794 -0.10720961 -0.079127 -0.21498686 -0.014809907 -0.18150353 -0.101211116 -0.045673963 0.1436483 -0.01234302 -0.15917102 -0.021359103 0.20304129 -0.19574891 -0.13658756 -0.006705096 -0.0011798699 0.36309972 -0.059214476 0.11168657 0.27028543 -0.29893714 0.08378991 -0.020153068 -0.06729785 -0.13209805 0.08692968 0.0397484 -0.11544499 -0.30553675 -0.034560308 -0.4015081 0.22622398 -0.21159893 -0.16820286 -0.3094318 -0.19363484 0.050933387 0.11757351 0.09842876 -0.063362755 0.17515226 -0.04948711 -0.12927477 7.718539e-05 0.09550569 -0.28697926 -0.17701091 -0.21204177 -0.2853145 -0.17812242 -0.23570529 -0.15628864 -0.116945066 -0.19687596 -0.07742222 -0.09782816 -0.010236023 -0.011836729 -0.040398844 0.101805046 0.024668073 0.07142895 -0.02903561 0.00910432 -0.03347433 0.0996922 0.0075356723 -0.06263045 -0.033584185 0.13087875 0.021645125 0.08749134 0.10791931 -0.037435226 0.10235466 -0.09362384 -0.32679892 -0.2546997 -0.05801603 -0.3629052 -0.36222976 -0.28497818 -0.13848704 -0.23417865 -0.12627366 -0.27443075 -0.19214043 -0.48658645 -0.26270542 -0.40900296 0.19411139 0.23752481 -0.28363585 0.17313161 -0.22703955 -0.1289909 -0.042667847 -0.0825575 -0.39294645 -0.036210395 -0.1212017 -0.018943265 0.0013385088 -0.14891897 -0.14937358 -0.20143789 -0.26974162 -0.26451114 0.029180294 0.04499723 0.13730966 0.13997868 -0.07006213 0.008999697 0.104635075 0.0063532297 0.019522827 -0.3405121 -0.26954854 -0.27682015 0.012532065 -0.07813289 -0.42142615 0.0018986115 -0.17198993 -0.28771728 -0.18396452 -0.40180218 -0.2576358 -0.27708292 -0.036920715 0.029049084 0.058942746 0.2586284 0.3061794 -0.14102864 0.13567847 0.21936482 0.0024315442 -0.41854554 0.27800632 0.25988203 0.30165207 -0.63834 0.0879469 0.035081733 -0.12092464 -0.041538995 -0.10397771 -0.19030106 -0.11925553 -0.05366001 -0.189289 0.03166714 -0.021211578 0.11663994 -0.040480815 0.059561882 -0.035215586 -0.07304459 0.001677254 -0.037341528 0.015431426 -0.050189584 -0.013947931 -0.08349019 -0.122933455 0.10440795 0.0013072046 0.023464795 -0.031513687 0.4706099 0.08625565 0.05928996 0.06394036 0.24439292 0.19954918 -0.56262696 -0.03632052 -0.07728019 0.020191133 -0.2681899 -0.04155286 0.12511392 -0.2811946 -0.29856017 -0.042651538 -0.59176916 -0.47914812 -0.029950848 0.31082144 -0.14438637 0.33354735 0.3596642 -0.008785639 -0.37338805 -0.18643855 -0.09165307 -0.08842021 0.09083279 0.105419636 -0.059060466 -0.016511906 0.13119264 0.0009011025 0.010736246 -0.0823957 0.3750026 -0.29613647 1.0085708 -0.15843157 0.29970992 0.02306302 0.4015766 -0.098788016 0.24564524 -0.04066169 0.076087445 0.108194344 0.048161805 0.017803598 -0.091170765 -0.045964327 0.043481607 -0.09297218 -0.3887001 0.20575918 0.10669134 0.11956288 -0.19601421 -0.26217803 -0.14619148 -0.023001557 -0.0878908 0.046868995 -0.06338747 0.093843274 -0.13996907 0.008924466 0.23829705 -0.007654303 -0.077144116 -0.13821915 -0.031034017 0.15087803 0.044686086 0.059157427 0.15778035 0.04116791 -0.024585232 0.078146145 -0.04467052 -0.05402592 0.058256667 -0.17946652 -0.060764868 0.12738183 0.07750121 0.007455697 -0.0013392562 0.0025653827 -0.12823328 -0.078893125 -0.060656145 -0.20330636 0.093950845 -0.31668276 0.0952517 -0.13795273 0.29485074 0.18565163 0.04360818 0.046667933 -0.08631294 -0.15691158 0.042567708 -0.109469265 -0.11587258 0.0013253426 0.06387023 -0.14626017 -0.026508935 0.15513366 -0.05777985 -0.21324047 0.105810426 0.09329067 -0.031347133 0.14708479 -0.03786247 -0.10389039 -0.03409899 -0.2723744 -0.32942745 -0.121619955 -0.23364508 -0.2875369 -0.55104053 -0.18419723 0.0959806 -0.23872493 -0.37037686 -0.39448363 0.27386624 -0.3840511 -0.22864148 -0.010404834 -0.05733789 -0.10045134 0.0924332 -0.085907556 -0.06078782 0.07228091 -0.038777765 -0.014575309 -0.1494814 -0.05799243 -0.0621589 0.08004087 -0.17052637 -0.08886073 0.27762672 0.016047267 -0.024274318 -0.045181762 -0.06659034 -0.010797661 -0.03307252 -0.10381351 0.0371517 0.07395918 -0.047359016 0.03957157 -0.106958576 -0.055329222 -0.078740105 0.07010636 0.029175866 0.0123782735 0.11262629 0.09900096 0.076229095 -0.2581869 -0.12187279 0.109006524 -0.1836828 -0.18988931 -0.20247056 0.24044631 0.11173574 -0.08587707 0.2725756 0.13996342 0.09684996 0.12335435 0.07988286 0.22264698 0.15832306 0.053519882 0.20641533 -0.031437192 -0.0095732855 -0.02026384 0.17466015 0.022481017 -0.06952355 0.1490543 0.007355169 0.09779805 -0.15231694 -0.08516397 -0.028119849 0.036526885 -0.11569474 0.007787041 -0.108307265 -0.10196464 0.03197126 -0.10752795 -0.20670009 -0.057780806 0.124439865 -0.06887561 -0.08616973 0.074469335 -0.053081986 -0.22123064 0.18179289 -0.026494646 0.058667544 -0.058357738 -0.059335776 0.1683932 0.05150016 0.07075301 0.2046719 0.050981134 0.03811258 -0.022592044 -0.08372792 0.001363989 0.015260289 0.07323888 0.038972486 0.06934232 0.40709928 -0.32734647 -0.33746752 0.60843974 -0.53563666 -0.31092286 0.010333329 -0.029847523 -0.24108878 -0.028441364 0.0035356395 -0.0912045 0.03313077 -0.026052123 0.11406214 -0.020546306 -0.026661057 0.0742338 0.061792295 0.043185074 0.07807765 0.068753526 0.012812592 -0.052042887 0.10918065 -0.029841471 0.10811794 0.07340365 0.042228974 -0.10698373 -0.04255516 -0.024546828 -0.124065794 -0.040187027 -0.15855995 -0.0127828065 -0.09671917 -0.017341958 -0.026608799 -0.27119365 -0.12824684 -0.019850789 -0.35927317 -0.114492685 -0.058074187 0.3810529 0.025072316 0.24997135 0.33500427 -0.25170547 -0.1188906 0.3322076 0.027814059 -0.02695926 -0.40729183 -0.28242794 -0.23151326 -0.23015434 -0.29554048 -0.1910182 -0.10830937 -0.11547547 -0.19830118 -0.09302392 0.0008861245 0.09385054 0.031549163 0.025657818 0.09010645 -0.0038007244 -0.029860087 0.0071338248 -0.48615116 0.05183818 0.48732093 -0.47635365 -0.58012277 0.027113829 0.039468937 -0.61178863 -0.4470398 -0.053954795 -0.02111389 -0.010039082 0.11296697 -0.08971151 0.07566055 -0.015110949 0.12275471 0.07611042 -0.22586146 0.00042413262 -0.09146613 -0.05955078 -0.398561 -0.19086552 0.24723917 -0.1693403 -0.025618725 0.06442771 -0.10683422 0.28192362 -0.0824862 -0.01363576 -0.117714636 -0.008069798 -0.2431903 -0.12759869 0.14468484 0.15773685 -0.10866967 -0.09610103 -0.051862936 -0.1025049 -0.15110077 -0.052067734 -0.20130457 0.10511768 -0.05396606 -0.06758506 0.011201547 -0.08444733 -0.0752039 -0.12678881 -0.06514109 -0.14210097 -0.46746197 -0.4310208 -0.21843258 0.3508989 -0.40582597 -0.39127955 0.24123362 0.16330427 -0.40194023 0.35274303 -0.0477508 -0.5037415 0.30754355 0.015916174 -0.30724984 0.34173647 0.08216081 -0.27937803 0.10726089 -0.25089985 -0.24436988 0.24839434 -0.122135065 -0.31213635 0.20908685 -0.090064935 -0.11794809 -0.20785367 -0.1188202 0.10726649 -0.104442224 0.0849428 -0.13119294 0.17312595 0.06768671 -0.10597568 0.047287572 -0.17794847 -0.30664298 -0.061707567 -0.19979863 -0.5037345 0.07094106 -0.22518194 -0.3163933 -0.038283333 -0.1729239 -0.08368973 -0.20209809 -0.18553807 -0.12528616 -0.008727789 -0.023154013 0.025976097 -0.015144598 -0.15045583 -0.37094364 0.051044133 -0.13563539 -0.18272784 0.24382778 -0.04694325 -0.099112004 0.035210364 -0.11950629 0.0015207437 0.03732432 0.0569622 0.10680777 0.08135717 -0.036807075 -0.0023997328 -0.11127696 -0.054945055 -0.056839447 0.0092344 -0.12430779 0.083219714 -0.060282376 0.012245904 -0.015130061 -0.2196402 0.24277811 0.29672247 -0.18497095 0.13407761 0.28683838 -0.049038056 0.16055797 0.32453692 -0.09992411 -0.21035191 -0.35053182 -0.095315345 -0.017784046 -0.2947584 0.04359509 -0.09448767 -0.17838627 -0.38241538 0.16868393 0.40288585 -0.26006728 -0.15514714 0.21304914 -0.23689833 -0.12268006 0.19145669 -0.0752856 0.0018297945 -0.07124271 0.005064771 0.032708913 -0.05000661 -0.104987286 -0.022449704 0.019042363 -0.081149615 -0.23503901 -0.07222735 -0.027440697 -0.30204484 0.092873566 -0.04648664 -0.117831014 -0.07614025 0.46101227 -0.36437207 -0.53950167 0.4749236 -0.13094077 -0.3973611 0.29748312 0.05962914 -0.00065557397 0.31002027 -0.19515216 -0.274547 0.15965909 -0.07074171 -0.31557447 0.089414656 -0.06356406 -0.038948007 0.06346071 -0.33782744 -0.028929818 0.19026175 -0.14472717 -0.3405994 -0.12373837 -0.09439966 -0.16283762 0.0040575364 -0.030466769 -0.009287497 0.03792658 -0.013121649 0.033852633 0.108187586 -0.011710753 -0.06661481 0.10763693 0.10874471 0.080884814 0.004370216 0.0067688287 0.07435203 -0.09070354 0.06554919 0.013933864 -0.016985057 0.056309182 0.031693455 -0.15431748 -0.024262272 -0.037937447 -0.038676955 0.025214445 0.032279115 -0.14749676 0.09561489 0.29048693 -0.18866003 -0.22986022 0.2339055 -0.039857753 -0.13048859 0.0366754 0.4861315 -0.64208525 -0.9893603 0.7309212 -0.03621025 -0.71318245 0.7614662 0.27677074 -0.38689777 -0.22114334 -0.49017707 -0.13145792 -0.22085486 -0.11359075 -0.22199202 0.14437631 -0.1397359 -0.15703267 -0.11697572 -0.025084578 0.111194976 -0.11570032 0.0153825525 0.044734135 0.0309517 -0.04014722 -0.06459468 -0.11960011 0.50928175 0.072634086 -0.5323143 0.38745302 0.45966217 -0.37527353 -0.2126949 0.388838 -0.12118216 0.009873328 -0.12094483 -0.06872402 0.097422026 0.060775317 -0.11785867 0.055572584 -0.06906527 0.14548819 0.20583594 0.019227155 -0.0979949 0.15927057 0.103164345 0.0713296 -0.14189476 0.06848345 -0.17315198 -0.15718096 0.3757923 -0.38222986 -0.0104838265 0.2545927 -0.1259474 -0.037016004 0.0393417 -0.10203467 -0.16952108 -0.11162147 0.03288896 0.028494362 -0.20957609 0.14160037 0.112992324 0.03719537 -0.08043691 -0.1281167 -0.049688518 -0.19663212 -0.028102217 -0.09714175 0.1455401 0.022679577 -0.025518147 -0.4541196 -0.7702947 -0.5085304 -0.12730731 -0.44809216 -0.14104977 -0.042759627 -0.15310022 0.12140365 0.021213235 0.012373873 0.14002441 -0.052326266 -0.14965157 -0.14453842 -0.31481886 -0.10422192 -0.11740827 0.122223966 0.004252186 0.20482707 0.055182755 -0.09931816 -0.16371015 -0.03042243 -0.3312422 -0.08390162 -0.18901436 0.14192829 -0.14935778 -0.10613464 0.047552515 0.11887582 0.20280257 -0.26727533 0.4194935 -0.40104485 -0.44763505 -0.5442979 -0.29680496 -0.5040338 -0.26782638 -0.17393231 0.15240681 0.07983764 -0.05125706 0.024722127 -0.030882882 -0.08806887 0.004834478 -0.13171254 -0.19611786 -0.03789809 -0.113522336 -0.16375703 0.07870878 -0.06529516 -0.1614256 0.074906394 0.00047829247 -0.21420082 -0.101522945 -0.16498348 -0.085839964 0.07640025 -0.08649024 0.010097828 -0.020586165 0.022940418 -0.11590115 0.008312721 -0.0056109075 0.0039709997 -0.033153303 -0.11377603 -0.015125469 -0.037477367 -0.12695226 -0.053585853 0.002253225 0.11335189 0.25748453 0.20379433 0.22150438 0.13961606 0.033394597 -0.036115244 -0.050957948 0.056428187 -0.02222706 -0.16683377 0.11314278 0.06110213 -0.084577926 -0.16660395 0.07044032 -0.12637693 -0.16151966 -0.08954445 0.22635221 -0.22350708 0.13706037 0.33161056 -0.2510172 0.24539837 0.3020929 -0.16519545 -0.042203657 -0.13093102 -0.069632664 -0.11188736 0.006078263 -0.14810443 -0.016005129 0.051037088 -0.11083402 -0.03931716 0.087794684 -0.028988082 -0.239567 -0.0433415 0.4117515 -0.10765579 0.056756563 0.1962498 0.07224224 0.16885263 0.08227816 -0.23446989 -0.094558574 -0.13101535 -0.31672296 -0.028709045 -0.02516444 0.09440774 -0.057579983 -0.06044243 -0.07119752 -0.08232498 -0.20090583 0.07401405 0.12523483 -0.2501042 0.17484833 0.044462133 -0.1600687 0.012334518 -0.4568747 0.3925378 -0.5632353 -0.519995 0.3960114 0.19897813 -0.19748506 -0.08509865 -0.0093207 0.082236364 -0.102900505 0.09236912 0.118028164 -0.008874827 -0.011756726 -0.026863087 0.12072205 -0.10203134 0.09143006 0.0949874 -0.07197163 0.049004063 0.09509183 -0.024634466 0.00038207305 -0.021921694 0.0009814665 -0.20198944 -0.023122232 0.139048 -0.038490612 -0.07256731 0.027207144 -0.2802548 0.07529946 0.32373902 -0.001764501 -0.33997068 -0.011115204 0.119010635 -0.1490245 -0.5016329 0.1170578 0.41356784 -0.042507593 -0.5435244 0.5311293 -0.051014055 -0.4041265 0.09441203 -0.22848798 0.03787369 0.16605657 0.5059131 -0.014012447 -0.32477272 0.2471739 -0.3438944 -0.28984764 -0.13926584 -0.10776552 -0.012840631 -0.10569714 0.06782442 -0.12889354 0.04578393 -3.0639538e-05 0.016487148 -0.15527175 0.1959169 0.14464866 0.20923175 0.5873847 0.22932921 -0.0054684607 0.08604024 0.73134184 -0.32591096 -0.028969312 -0.12369681 -0.063697904 -0.032796536 0.104683235 0.10488033 -0.12203057 0.10838524 -0.01216975 -0.106184445 -0.43540716 0.39912227 0.6983064 -0.2092191 0.48484284 0.13704844 -0.1032618 -0.48162818 0.21154648 0.049524974 -0.05150803 -0.01434136 -0.31281012 0.032401584 0.09424277 -0.30487144 0.082917795 -0.039895043 0.0819646 -0.009304741 0.015958326 -0.0919767 0.048216127 0.15418999 -0.0007187335 0.2329043 -0.126967 -0.044044163 -0.099830076 0.056058824 0.025859606 0.13647933 -0.071020514 -0.061390202 0.26897666 0.09798486 0.06224116 0.019733947 -0.055478357 0.7742308 0.06942299 0.043525368 -0.43477538 -0.08727145 -0.2252998 -0.22920674 -0.085378796 -0.07694884 -0.11591336 -0.12241896 0.2806687 0.21255267 0.16297738 -0.18685535 -0.27717197 -0.32371646 0.118287064 0.04645383 0.066425316 0.267505 0.28002787 0.23604119 0.18951735 0.059486207 0.028167274 -0.077823944 -0.12415009 0.028162772 -0.12109004 -0.3525623 -0.18762948 0.11001925 0.2779266 0.43684885 0.2605335 0.099674046 0.034477863 0.31316602 0.2580358 0.21281326 -0.12185445 -0.1292572 -0.052994862 -0.1146947 -0.061922614 -0.10983792 -0.15384667 -0.096960224 0.021711953 0.15512791 0.024373868 -0.02667659 0.09983004 0.053975195 0.041162305 -0.11472486 -0.10067047 -0.068326555 -0.10600959 0.01720038 -0.06934772 -0.01902838 0.020997217 -0.10517128 0.029801976 0.12408704 -0.11227186 -0.04167761 -0.018731441 -0.022622604 -0.06278354 0.033402883 0.038228165 0.09946083 -0.06525866 0.020014152 -0.13308163 -0.15929706 -0.18841906 0.10031229 0.038590368 -0.12259579 0.23530796 0.36710316 0.25156668 -0.067876205 -0.14503027 -0.10959361 -0.14528754 0.10588478 0.043125533 -0.050118692 -0.11717003 0.01108684 -0.1429895 -0.11555072 -0.096954085 0.04879973 -0.09197808 0.15226236 0.38410044 0.19226862 0.13433264 -0.019602016 -0.027265932 -0.18916212 -0.1679236 -0.12276434 -0.013329804 0.07151286 -0.098700695 0.031160992 -0.10449948 -0.07955891 0.06470616 -0.10540256 -0.032953903 0.04302197 -0.07333626 -0.10439092 -0.018773343 0.08825182 -0.10298377 0.01282507 0.04394726 -0.15122804 -0.16648114 0.16150889 0.2047692 0.18765543 -0.34391806 -0.5465474 -0.3369667 0.17936786 0.21685244 -0.051862817 0.30864152 0.32733852 0.12725623 0.099914655 0.039066907 -0.08338898 0.18686165 -0.20020853 -0.064419195 0.12562595 -0.13725398 0.079065345 0.065529786 -0.071272716 0.11944034 0.03408864 -0.11344127 -0.067185596 -0.07153663 -0.0655372 0.059927903 0.10179156 -0.06521528 -0.0632408 -0.06291175 0.115738 -0.078774065 -0.08566193 0.12613776 -0.12248972 0.20368192 -0.072469264 -0.11636432 0.08952229 -0.005433639 -0.06848266 -0.050219562 -0.22681853 -0.11322351 -0.10089751 -0.2246647 -0.017402746 0.21308233 0.35562843 0.14095154 0.095476136 0.13404942 0.15836467 0.4479365 0.3911911 0.21054935 -0.02677984 -0.27204844 -0.09052614 -0.381215 -0.2072706 -0.095066756 -0.21246059 -0.056972697 -0.13800062 -0.10891591 -0.2284637 -0.06272691 -0.07192647 -0.27593246 -0.07040744 -0.019405585 -0.1326916 -0.06899351 -0.059436843 -0.08352456 0.13266255 0.10534437 -0.07743124 -0.09029116 0.13330463 -0.3320545 -0.46377617 0.43096828 0.44202396 0.05124278 -0.03713266 0.13244003 0.55942315 -0.08203044 0.0031950197 0.06262064 0.09919459 -0.007480502 0.03498918 -0.07899315 -0.02321746 0.029679611 0.024284545 -0.25441268 -0.18674836 -0.08772101 -0.090576634 -0.36901206 -0.12411619 0.08126867 0.027591372 -0.51360285 -0.67769873 -0.70149744 0.15392402 0.048701815 -0.045725826 0.5599909 0.73155075 0.59108543 -0.14216146 0.110082924 0.10272523 -0.13203852 -0.09163178 -0.08059851 0.04730629 0.022634342 0.019767765 -0.0060567856 0.038085815 -0.10702574 0.05713798 0.08711152 -0.0066370666 0.056296255 0.14348201 0.039043207 -0.4106325 -0.5514228 -0.07932117 -0.3538075 -0.5500854 -0.48647344 0.008075164 -0.17484432 -0.35580808 0.17918742 -0.08690506 -0.18455246 -0.08473185 0.10644865 -0.053755727 -0.02992698 -0.16225256 -0.17953166 -0.02653764 -0.042500403 -0.1024175 -0.11210975 0.047420036 0.13697478 -0.27915275 -0.26179895 -0.12464953 0.13962643 -0.09003678 0.18966508 0.015975855 0.04188309 0.06898869 0.0344176 -0.019899717 0.01978758 0.1844849 -0.01559442 0.3908242 0.2594989 -0.09631943 0.15722601 -0.002462158 0.07355033 0.02311172 0.039096456 -0.032602046 -0.08840401 0.055295315 0.08594792 0.042629667 -0.08861441 -0.046559595 -0.1834729 0.078068614 -0.032803982 -0.20981237 -0.16718926 -0.11730474 -0.17413399 -0.21618454 -0.06429459 -0.09539463 0.08780895 -0.016622236 -0.10592643 -0.04655648 0.089540556 -0.06748004 -0.091830306 0.10719548 -0.072929844 0.072823614 -0.11575031 0.047590774 0.011684468 0.006262284 0.036318686 -0.086239494 -0.08372419 0.08129213 0.0373148 0.08461723 0.20465101 0.15106882 0.18841209 0.26851472 0.11473266 -0.104787506 0.009685638 -0.09054038 0.040387098 0.05096282 0.21879819 0.042742748 0.120729916 0.12000055 0.17639785 0.17081653 0.17950779 0.10429763 0.12000207 0.05080509 -0.102919504 -0.06565414 -0.046624854 -0.045147095 -0.15995555 0.014366355 0.008728145 0.12835915 0.06532363 -0.07053214 -0.040226955 0.07151446 0.07126726 -0.041236572 0.13343887 0.025949009 0.13763747 0.07227691 -0.029845772 0.03644976 -0.13487263 0.06038104 0.07426565 0.14394951 0.010180641 -0.07907064 -0.01973502 0.050069265 -0.06736671 -0.24024923 -0.24110511 -0.4314099 0.13861524 -0.09147225 0.0054173735 0.11032406 0.029796587 0.17170963 -0.30524465 -0.3474187 -0.29485452 0.13947757 0.27234057 0.12556732 0.037614986 0.096216515 0.3353313 0.26342407 0.18744282 0.18020129 -0.034253266 0.010264829 -0.108031675 -0.08284875 0.08667431 0.044546887 -0.068887524 -0.052437045 -0.032832127 0.0013713549 0.049821243 -0.03403209 -0.04074665 0.109521136 -0.07865553 -0.010621818 0.038515795 -0.034480236 0.14205375 0.005088655 -0.036460776 0.17558873 0.09141835 0.07558337 -0.059757076 0.05167801 0.06833361 0.17252448 -0.045728628 -0.046257205 -0.124630764 -0.061332695 -0.19453546 -0.09851681 -0.265735 -0.26514876 -0.44692194 -0.33292377 -0.27321765 -0.30000374 -0.18374099 0.16669343 0.3300082 0.7058302 0.80322903 0.0109898895 -0.0123896375 0.07762268 -0.062312063 -0.0908101 -0.08562904 -0.16014954 -0.29458004 -0.2822063 0.09003448 0.008677491 -0.0016084036 0.12115313 -0.077355176 0.07762672 0.051645953 -0.0849217 -0.058542885 0.12335737 0.014584232 0.015931284 0.07054289 0.17072856 0.23254472 -0.15703224 -0.4461094 -0.2164233 -0.11067282 -0.07677228 -0.029238243 -0.060765278 0.08815598 0.07155149 0.03617311 -0.04827416 -0.0035607682 0.13017708 -0.07867705 -0.23410515 -0.17147367 -0.2930114 -0.44414252 -0.5733173 -0.42253155 -0.3941429 0.28620908 0.14247867 0.045646507 0.07248785 0.09473914 -0.11957942 -0.16206408 -0.16715248 -0.33325398 -0.02524968 -0.08484351 -0.022130743 -0.01759707 0.10366225 -0.13416947 0.04193876 -0.02918328 0.059832588 0.0383219 0.076336555 0.08290281 0.040576432 0.011393733 0.16847883 0.18198912 0.20241931 0.2555279 -0.113340184 -0.3031865 -0.3107207 -0.26485464 -0.4604514 -0.33400363 -0.57134664 -0.47028378 -0.5869772 -0.14377603 -0.39438996 0.43171412 -0.17948437 -0.5173507 -0.5596801 -0.087530114 1.0691087 0.7048547 0.20590724 -0.37548578 -0.26870573 1.1188015 -0.06977337 -0.08990457 -0.12525597 -0.1666343 0.31306636 0.09908016 -0.07508569 0.09880369 0.03531031 0.078460276 0.005707504 -0.23328437 0.18463053 -0.08960767 -0.046811588 0.33312967 -0.00803631 0.00040225172 -0.035949107 0.12444122 0.05511862 0.061928965 -0.14478892 -0.088391885 -0.1505925 -0.06972542 -0.05142729 -0.044091973 0.15131158 0.08327222 -0.1147239 -0.09838026 -0.00742911 -0.14389752 -0.09174252 -0.09643776 0.06567697 0.02934191 -0.021360436 -0.05033116 0.10786395 0.13823844 0.02749313 -0.17974174 -0.10541147 -0.06927757 -0.054112338 0.00793546 -0.20588508 -0.23427792 -0.03266098 0.028982358 0.045096055 -0.15467007 0.10443965 -0.15738414 -0.12374868 -0.012062233 -0.12262025 -0.21314727 0.21527629 0.10854412 -0.14984463 -0.10740963 0.31990585 0.0684071 -0.048874915 -0.0714621 -0.1320364 -0.017780295 0.05227125 0.15012787 0.15660553 -0.11548344 0.13014786 -0.16050145 0.03897713 0.09479504 0.11428231 -0.21136776 0.10275609 -0.09742077 0.0058666915 0.029503426 0.016332915 -0.088044316 -0.16962412 -0.17173849 -0.11646174 -0.10317093 0.07783361 -0.4396366 0.26994848 0.18004726 -0.022425462 -0.044791628 0.0119095445 -0.017834991 -0.3373049 -0.044964224 0.25696248 -0.2236165 0.2578151 -0.24228698 -0.15344086 -0.12803896 -0.0992048 0.09408031 -0.03985213 0.00260336 -0.08938289 0.19616209 0.05967912 -0.01784048 -0.01461937 0.08957103 0.12903574 0.024008637 0.31740126 -0.087311275 -0.0875786 -0.027013721 0.08911298 -0.09757818 -0.09029471 0.10070788 0.2921279 -0.07668442 0.041768856 0.12447901 0.15850322 -0.07331208 -0.013608533 0.034569465 -0.10179057 0.034987062 0.0059590074 0.10713307 0.19139896 0.12390479 -0.13792256 0.11106922 0.02453415 0.08350787 0.017563691 -0.18805481 -0.0694282 0.039353445 0.18334244 0.23129155 0.059401453 0.050556734 0.06964001 -0.020958927 -0.004082234 -0.1572641 0.031410802 -0.0609129 -0.0045619914 0.06261969 -0.049300842 0.064609736 -0.000856711 -0.121850014 0.0045679095 -0.062277574 -0.0804102 -0.15871371 0.035193723 0.14146872 -0.26521927 -0.04072293 -0.005173191 -0.012240373 0.09255497 -0.076057695 0.16038896 -0.040524464 -0.09861312 -0.050106253 -0.14205657 -0.079927504 -0.116392896 0.075834654 -0.28459916 0.15857954 0.12972069 0.059283193 -0.07380892 0.0763758 -0.068058684 -0.29113105 -0.121215984 0.029164035 0.010932779 -0.24042745 -0.027911117 -0.039262444 0.23623273 0.013434717 -0.03186253 -0.077400476 -0.08900762 -0.057498213 -0.08536885 0.056869425 -0.03481926 0.14403372 0.18968292 -0.06258353 0.0685008 -0.07021924 0.0021018495 -0.16624023 -0.11120052 0.0717899 -0.07740837 -0.114884965 0.07348714 -0.07956897 -0.0955369 -0.08710845 -0.029333888 -0.04666189 0.3157619 -0.07260578 0.001403433 -0.24217294 0.015987001 0.060890324 0.0008681295 0.20391071 0.14749624 -0.24875492 0.07352514 -0.0153041035 -0.060794353 0.056849077 0.20562054 -0.0039252876 0.028232165 0.035788544 0.05407759 0.003116624 0.10819211 0.12434723 -0.17259198 -0.010079046 -0.07593539 0.030060936 0.044912416 -0.032821152 -0.059770223 0.12722284 0.0018589838 -0.16224538 -0.12414313 0.055975452 -0.14400445 0.099790975 0.07953012 -0.13554285 0.021337684 0.07917922 -0.06322935 -0.06619923 0.06465243 -0.027429726 -0.21518078 0.14938521 0.095422685 -0.031813547 0.061705194 0.07346911 0.21409571 -0.069216855 0.060772773 0.10746777 0.01115327 0.018886268 0.037636116 0.05123873 0.08920567 -0.024840118 0.042394552 0.10358092 0.015365476 -0.099111624 -0.035899665 0.0102192415 -0.057542365 0.050281294 0.12287275 0.018703299 -0.03589296 -0.034591436 -0.14303875 -0.051738746 0.22066502 -0.09786587 -0.08006234 0.0002926748 -0.0120033985 0.011195727 -0.04253033 -0.022049442 0.020549437 0.121517934 0.027693506 -0.08251793 -0.077292725 0.007904931 0.1288927 0.0038138255 0.032076973 -0.13415156 -0.13533112 0.047803644 -0.104321495 0.1339372 -0.10959348 -0.097191125 0.25811294 -0.02933643 0.1555966 0.14789225 -0.050190486 -0.02138236 0.19111578 -0.053108465 0.00046635425 0.10478299 -0.05352177 -0.11006878 -0.09509967 0.07127942 0.026225302 0.06241599 0.07114371 -0.20365557 -0.08467051 0.06321951 0.06619195 -0.037446197 -0.033123836 -0.061786156 -0.0474681 -0.15891795 0.056182414 -0.003969405 -0.034294832 -0.030769346 0.08781494 -0.028054375 0.05479393 -0.021707129 0.081052884 0.022908293 0.12941183 0.012437045 0.16116107 -0.11445339 0.0027261686 0.009142725 0.14371699 0.13564645 -0.005588743 0.084078126 -0.25686827 0.04936801 -0.00031703763 -0.06332818 -0.0667999 -0.107172236 -0.13395433 -0.1346799 0.020336088 0.09368161 -0.09420974 0.06737631 -0.013434685 -0.0026006901 -0.12397165 -0.0007175666 -0.006408354 -0.120407715 0.08367322 -0.072454974 -0.13930677 -0.062487904 0.040925812 -0.38217255 -0.13392004 0.07947649 0.11220474 -0.23153582 0.009334176 -0.10269199 -0.058146093 -0.032165136 -0.21299191 0.0825016 -0.18925004 0.01842943 -0.068066604 0.28890976 -0.046392698 -0.1082749 -0.016826762 0.07130741 0.11077019 0.0029705074 0.060086 -0.09924124 0.016849147 0.034917854 0.14392327 0.07999345 0.109989285 -0.11387764 0.0071582105 0.08078916 -0.14887415 -0.09205387 0.065235056 0.10601588 -0.102006845 0.06665847 0.08014626 0.09540397 -0.10243558 0.020163408 0.10624575 0.054939255 0.27472752 -0.050301038 -0.019130232 -0.042430382 -0.085918404 -0.0092470795 0.09885148 -0.1599908 -0.063049674 -0.04796375 -0.050399285 0.15564631 -0.19978303 -0.078977965 -0.15494184 -0.18745357 0.05943924 0.04863481 -0.003570279 0.013013268 -0.06567051 0.01561605 0.09963941 -0.04115021 -0.18923223 -0.024483485 -0.008428115 -0.25474975 -0.096431755 -0.06301797 -0.035910983 0.026749888 0.10060437 0.04100062 0.3692284 0.048600998 -0.059904628 -0.029688975 -0.25340295 0.053435985 -0.017685588 -0.10317849 -0.17194638 -0.02792753 -0.03157386 -0.1352003 0.03792154 0.012331812 0.049808633 0.05279426 -0.114178866 -0.011917716 -0.034801114 0.023045499 -0.039512765 0.12766574 -0.013041617 -0.10425517 -0.07487922 -0.09696958 -0.24844508 -0.034589875 -0.12282155 0.011822727 0.1317259 -0.14485876 -0.103385106 -0.09209284 -0.06641905 0.05513683 -0.15453242 0.048312232 -0.06435316 -0.10602769 -0.0676353 0.10141204 0.16787614 -0.106904924 -0.058527112 0.037145324 0.06235329 0.05816828 -0.04181341 -0.010042844 -0.047040746 -0.075828746 -0.1745582 0.02652813 -0.28515953 -0.10524147 -0.07733877 0.048247527 -0.29041907 -0.19824804 -0.044256497 -0.045045044 -0.12503372 -0.19067778 0.18980832 0.09090668 0.17168339 0.05924415 0.021369306 0.14885914 -0.09041413 0.016427737 -0.10487457 -0.1556592 -0.044340912 0.017249232 -0.18652809 -0.08708915 0.015275669 0.082484595 -0.17261872 0.0297784 0.19542238 -0.1849933 -0.2813216 0.053895537 -0.09020819 -0.083082795 -0.045658473 -0.05581136 0.00662366 0.10268223 -0.07041994 -0.10066179 -0.2243923 0.119941235 -0.036745723 0.0027508247 0.0086978795 0.13478279 0.029302735 -0.13509458 -0.13915811 0.09960565 -0.16158375 -0.089599155 0.14455757 0.12176475 0.077323325 0.14632536 -0.13242526 -0.10324879 -0.013386235 -0.03302009 -0.108166486 0.039482135 0.17445467 -0.11353348 -0.036964573 -0.1432545 0.008477173 0.0009765055 -0.15837866 0.09323828 0.0460586 -0.10637426 0.033670306 -0.113887586 -0.1008622 0.05911477 0.03285178 0.044115897 0.1592342 -0.048273772 0.0063263644 -0.037263088 -0.3129435 -0.062707044 -0.02465686 0.05687769 0.056439128 0.15019687 -0.084911674 -0.083790265 -0.08135662 0.06032176 0.09667707 -0.030678965 0.017125225 0.027616857 0.0012387737 0.2681792 -0.057304308 -0.08564138 0.0075308676 -0.33785346 -0.09622061 0.05913827 0.058920804 -0.025679745 0.023783498 -0.061763614 -0.05686466 -0.028658729 -0.09923804 0.07754596 -0.010066401 -0.018473143 -0.03081882 -0.08108957 -0.06233836 -0.031182468 0.0146996165 -0.12881626 0.18187009 -0.0837049 -0.020159658 0.28153396 -0.24688278 0.08769932 -0.044492695 0.20832868 0.012022681 -0.027547749 0.11680358 0.047033165 -0.011863752 -0.051935147 -0.13827664 -0.2818222 -0.07701571 -0.016294045 0.059251554 -0.16895796 -0.044117477 -0.09417727 0.0378065 -0.039093085 -0.04963678 0.077340946 -0.16438992 -0.162089 0.16138853 0.11642058 0.19215232 -0.055967577 -0.08772967 -0.037031963 0.08760612 -0.017681047 0.060862582 0.16372947 0.044230618 -0.033067506 0.036514755 -0.17102861 -0.00031462082 -0.064266905 -0.026634421 -0.012339967 0.15944253 0.1150613 -0.056276836 0.0067392406 -0.10044948 0.04490501 0.06828608 0.009366332 0.031918265 -0.0153505 -0.2699856 -0.056270383 0.060778994 0.059996042 0.08172074 0.14764926 0.092397474 -0.020824045 0.047170177 -0.045005623 0.11839128 0.0687369 -0.08953256 0.14487916 0.06556259 0.053408068 0.08017716 0.07333606 0.056847904 -0.0018728577 -0.061399862 0.100166574 -0.0174782 0.0055043455 -0.06570131 -0.09006054 -0.054529518 0.14372191 0.044563584 0.05495548 -0.0058959597 -0.09613533 -0.171851 0.041454505 -0.045718927 0.019563127 -0.063022375 -0.005328841 -0.027165499 0.14686161 0.034596052 0.07499358 -0.016355563 0.050468527 -0.09248945 -0.045245014 -0.11808441 -0.20953487 -0.03870369 0.07060744 0.048628807 0.02018148 0.10348174 -0.14843653 0.034835767 0.016227104 0.0685503 -0.25301 -0.017631518 0.11253276 -0.053912874 0.11467673 0.07277251 0.032612972 -0.12776956 -0.068263836 -0.19522491 0.06685828 -0.08808792 -0.10969118 -0.03316706 0.04562506 0.08797426 0.09754236 -0.06264947 -0.028068976 0.07524954 -0.05932351 0.039764486 0.026614493 -0.11031704 -0.07719042 -0.058706626 0.01103952 0.025439454 0.026871985 -0.049845815 0.02500895 0.02012382 0.048161246 0.0697303 0.025469102 0.052243374 0.03197228 -0.007248072 -0.12200872 0.19663964 -0.14017177 0.12891708 0.17039555 0.005046946 0.12504148 0.03018082 -0.06437095 -0.07409531 -0.008691771 -0.08762159 0.04326208 -0.089407936 0.29214144 0.08204587 -0.06497386 0.06734967 0.119958095 -0.09959173 0.074059986 0.042106837 0.08352166 0.17434126 -0.023434589 -0.2198664 0.18659379 0.0054393113 -0.074893564 -0.058349144 -0.071004726 0.035708506 -0.09029378 -0.0020235209 -0.02669692 0.05334005 0.07191103 -0.023812143 0.14313413 -0.075177625 -0.009147311 0.033722635 -0.0017363984 -0.12345575 -0.09781413 0.026274594 0.018513393 0.0020486896 0.012694951 -0.011614296 0.0047773854 0.17951019 -0.024737926 -0.061436143 -0.017613888 -0.016408395 0.04223672 0.20407946 0.1403084 0.0397537 0.13367397 -0.02570103 -0.12068258 0.008678946 -0.0761797 0.14295071 -0.10005015 -0.112956196 0.15242061 0.0051684817 0.027946439 -0.03631149 -0.2371732 -0.07606615 -0.061003383 -0.045015678 -0.06383615 0.021254566 -0.07135552 -0.06864035 -0.03820483 -0.051353235 0.18019193 -0.16439295 -0.094810955 -0.066668354 -0.066015325 -0.12133813 -0.04929988 -0.25764635 0.19308856 0.08162817 -0.10302582 0.07446933 -0.13502404 0.1599688 0.02627104 0.272278 -0.008717204 0.008385183 0.05565786 0.06325042 -0.029935421 0.13720576 -0.038610566 0.0011707479 0.040330566 -0.012212863 0.021146346 0.044683456 0.107596226 -0.016332934 -0.015397479 -0.14427112 0.14960152 0.047179673 -0.014223234 0.020492971 0.05741196 -0.018242253 -0.05122901 -0.004187952 0.12374434 -0.037645314 -0.07868767 -0.11846708 -0.0037997975 -0.03222187 -0.050812837 0.0142190615 0.0732885 0.0689369 -0.012871724 -0.1133575 -0.013455032 -0.01679555 0.035047207 -0.019328648 0.0764425 0.1310953 -0.13086297 -0.004564429 0.078195415 -0.1252583 0.026414227 -0.025532357 0.1456122 -0.12482873 0.0018005108 0.0077867657 -0.21583858 -0.022064624 0.11782823 -0.02767673 -0.110521466 0.16167827 -0.14982598 0.0059560444 0.02230214 -0.017601285 0.09870855 0.1267485 0.018329216 0.01644694 -0.02780345 -0.18286139 -0.1303672 -0.055238213 0.04522876 -0.0213293 0.09459899 -0.29994732 0.2638468 0.22150922 -0.019441728 0.13553132 -0.034639545 0.07944933 0.15055601 -0.10719887 -0.05117783 -0.058713395 0.31952104 -0.009149565 -0.06297454 0.08960079 -0.16446058 0.12067099 0.066168495 0.03121861 -0.008653483 0.2965635 -0.03088282 -0.1905836 0.06730442 0.1594625 -0.089080445 -0.06274872 0.1032905 -0.21731174 -0.1345298 -0.08015836 -0.12022085 0.1999095 0.14638205 0.082088776 0.038137134 0.112983316 -0.06971408 0.098273836 -0.1747484 -0.027985264 -0.21146315 -0.2376608 0.03206605 -0.13199313 0.15315592 -0.26178056 -0.11686804 0.10759507 0.010756209 -0.014068245 0.01075043 -0.03989791 0.09246554 -0.11871038 0.15608409 0.042394403 0.020379193 0.095441505 0.08093574 0.035443205 -0.035442185 0.2030908 0.017613083 -0.1371798 -0.2022299 -0.006541429 -0.23349674 0.09154859 0.038324762 -0.14999068 0.040160872 -0.013363445 -0.16870016 0.13482149 -0.07143357 -0.094933964 0.16555427 -0.02777704 -0.052586026 -0.1344309 -0.32004932 0.08334798 -0.18841812 0.19495487 0.06137596 -0.11396619 0.20682383 -0.10121411 -0.08534623 -0.10549747 0.08404884 -0.088034205 -0.100586854 0.18243875 -0.6377013 -0.33504304 0.0850031 0.21594283 0.11597933 0.19522615 -0.044226505 -0.0009668312 -0.11373081 -0.2795727 -0.048216175 0.0020987932 -0.07110889 0.034388106 0.0320071 -0.09434342 0.008182293 -0.19987908 0.06401205 0.11439786 0.09373 0.28722844 0.12427167 0.0682968 -0.018892754 0.0511346 -0.041258145 0.075707406 0.005695467 0.28270167 0.18554117 0.14562304 -0.013813234 -0.080199525 0.05022943 -0.14968015 -0.054422196 -0.03234311 -0.06992372 -0.13177378 -0.05528428 -0.090132095 -0.084756546 0.20131326 0.20708178 -0.18435015 -0.14581946 0.126214 -0.035974544 -0.07804157 -0.06809378 -0.17228346 0.04855788 -0.21338741 -0.00074053433 -0.039919663 -0.0543814 0.013551388 0.02761353 -0.1055763 -0.0489083 0.065935954 -0.026572151 -0.080708265 -0.15171236 -0.16115184 0.048202176 0.22669601 -0.074367896 0.035300393 -0.18498415 0.017158018 0.20894437 0.14289153 -0.14690487 -0.1073249 0.014794711 0.05702371 0.08708117 -0.04741577 -0.10092204 0.08659556 -0.015807623 -0.050228536 0.112285644 -0.06354803 0.21922185 -0.12641332 -0.08913686 -0.032724034 0.06617321 0.019333431 0.22912604 0.042728756 -0.0107807405 0.1063251 0.012469896 0.054902047 -0.10962707 -0.035590712 0.02933409 0.12660477 0.110058635 0.05821359 0.27211955 0.10524999 0.0071559036 -0.10094058 -0.046284698 -0.112202615 0.05563738 -0.08897404 -0.0032397301 0.010821817 -0.102174334 0.06904395 0.134539 -0.06738401 -0.0010708246 -0.1077168 0.17374349 -0.16175255 0.007944542 -0.01328682 -0.1791629 0.15203457 0.019093132 -0.069786094 -0.07175381 0.11881419 -0.072491445 -0.03753381 -0.048627276 -0.18413544 -0.0748562 0.051221263 0.08699875 0.043797664 -0.03743403 -0.019703476 -0.029114064 0.11923212 0.0746609 -0.08287486 -0.04550982 -0.18139318 -0.088703826 -0.3509791 -0.095803164 0.085152164 0.06279156 0.08315928 0.15585352 -0.030601632 -0.075974375 0.13326223 -0.12709832 -0.058690865 -0.10728261 0.012052934 0.044783507 0.03017008 -0.03390069 -0.06716365 0.19842756 -0.07662298 -0.05267444 0.063647196 -0.04089315 -0.028455608 0.010558836 -0.102776945 -0.239278 -0.0045912117 -0.09361596 -0.06148804 -0.016500585 0.010329602 -0.08296763 0.059463587 -0.19449385 -0.067986205 -0.03192015 -0.15635459 -0.03540127 -0.049437907 0.20810057 -0.07697988 -0.05202671 -0.051489167 -0.024752691 -0.038652744 0.075697295 0.19414096 -0.033314887 0.12912114 -0.025715064 0.13299288 -0.046040285 -0.07164685 -0.12221451 -0.06849035 0.10478132 0.07316529 -0.084884994 -0.27750897 -0.10781303 -0.031552926 -0.1338642 -0.07471869 0.061463058 0.12463068 -0.34130982 -0.010755465 -0.03954231 0.09190499 0.059857845 -0.07140078 0.09351565 -0.1791485 0.1147898 -0.081303805 -0.22453897 -0.0719245 0.018668916 -0.05206272 -0.058187775 -0.025710022 0.21745782 -0.082303695 0.13320334 0.07595345 -0.08077108 0.015854344 0.13233063 0.007395349 -0.017453851 0.010694968 -0.04935828 -0.043200463 0.114909776 -0.027685922 -0.2625728 -0.06730453 -0.11420676 0.30898672 -0.10330162 -0.037085816 0.006404627 0.09107109 -0.038759835 0.013841816 -0.02262989 -0.1294817 -0.13322783 0.09848554 -0.0019866058 -0.12193553 -0.019623771 -0.012273943 0.047539975 -0.036974512 0.12307952 0.011426309 0.07355541 -0.19803613 0.07828448 -0.115345255 0.059705112 0.009802735 0.22671112 0.06308224 -0.11139252 0.03491488 -0.094864085 -0.20398135 0.017823031 -0.09647842 0.123240106 0.13201766 -0.057010334 -0.031384572 -0.106289804 0.08595854 0.029428087 0.042476702 -0.039330594 -0.194505 -0.19947533 0.06281408 -0.007981863 0.010130883 0.03246543 -0.30199894 -0.089316584 0.03248643 -0.107874885 -0.10994198 0.09498132 -0.0005436692 0.07084513 0.07472414 0.07760395 0.046042208 0.049918145 0.0009139932 0.13392551 -0.06514184 0.037851628 -0.1258924 0.063924946 -0.35096267 -0.081343 0.050870396 0.19465597 0.09540989 0.044595 0.13813502 0.011468822 -0.20513034 0.035243273 -0.0055545997 -0.09962371 0.095825665 0.19990896 0.0012514797 0.091560155 -0.08405741 0.046474006 -0.14427917 0.049467295 -0.022321096 -0.25617683 -0.16035198 -0.094563484 0.0533843 -0.15900502 -0.19768709 -0.049947828 -0.009988098 0.053589635 -0.016831148 -0.020697746 -0.028987495 0.0007467839 0.018914372 0.10992237 0.084102914 -0.030634403 -0.05223325 0.017957063 0.0059585297 0.2352538 0.049284335 0.017921206 0.090467274 -0.05387232 0.06279383 -0.051357683 0.077372745 -0.05276338 -0.21180433 0.2155773 0.053374674 0.12531091 0.0733377 0.061341207 -0.03429651 0.023129752 0.10631015 -0.09852306 0.11783337 -0.15504946 0.027000936 -0.044163242 -0.027088365 0.0019255604 0.0439617 -0.08191646 0.10223585 0.12566732 -0.057454832 -0.07226071 -0.076991625 0.03271454 -0.24927515 -0.28044513 0.08739509 -0.061004523 -0.10467967 0.033184197 -0.14668785 -0.1167272 -0.07070473 0.030727083 0.20485482 -0.12808411 -0.020013142 0.006379514 -0.05103052 0.15177016 -0.023989543 0.014123224 0.05991172 -0.07742179 0.07816893 0.050001834 -0.10745632 0.033841297 0.08321497 -0.022253789 -0.12205481 -0.055080637 0.08628188 -0.0691054 0.010174042 -0.115352355 -0.035786215 -0.02494733 0.007663323 -0.067552015 -0.096540675 -0.2156506 0.22417122 -0.15177533 -0.10659279 -0.017936094 -0.26314098 0.030512895 -0.14294876 0.20116065 0.002509471 0.22671318 0.0011129964 0.020224614 0.11137965 0.008588639 0.12585562 -0.2593805 -0.020214496 -0.032056503 -0.058922775 0.02408879 0.029203445 -0.063219786 -0.08162213 -0.19658801 -0.02860074 0.012859566 0.062805146 -0.17466223 0.111857295 0.044246733 -0.06788808 0.083422326 -0.0007090452 0.057171263 0.12306957 -0.14902496 0.1804073 -0.08158321 0.028281936 -0.039721694 -0.02053185 -0.29726538 -0.13501416 0.0033692108 0.15829533 -0.11094157 -0.019608473 0.13671668 -0.100758515 -0.09870613 -0.09632121 -0.0034106185 -0.0663569 -0.26849213 0.10446547 0.029731052 -0.10532041 -0.022078661 0.12539813 0.06447571 -0.11660346 0.05233335 0.06423445 -0.059536804 -0.14968999 0.04614901 -0.10483205 0.059110906 -0.028506301 -0.14775667 -0.008605344 0.1498533 -0.19075489 -0.11100509 0.058297914 0.05824456 -0.036686774 -0.099761754 -0.14894004 0.03445109 -0.0748706 0.033462945 0.36644492 -0.00060030713 0.14907238 0.050151546 -0.09432137 -0.07731261 -0.31704164 -0.08048304 -0.002489506 0.06617168 0.29366863 0.4269829 0.14502841 -0.26912352 -0.05417889 0.020770114 0.11940342 -0.008472686 0.018728957 -0.070345744 -0.27980644 -0.16734694 -0.2539521 0.0787148 -0.04409974 -0.0954141 -0.0387334 -0.1231766 0.12388821 -0.36729437 0.0071039326 0.0091288835 0.018396918 0.017841041 0.07991021 -0.08674853 -0.07347722 -0.061405156 -0.049089547 -0.048081957 -0.09971561 0.06387238 0.09333829 0.24267553 -0.022218931 0.034996822 0.2837001 -0.030200487 -0.20899016 -0.11077859 0.020121025 -0.244597 0.13842775 0.07841016 0.054662578 -0.3095879 -0.13865025 0.0072521484 -0.044062376 -0.18183382 0.074699685 -0.06986512 0.0041052587 -0.18318401 -0.028826365 0.1589005 -0.010939693 0.30216658 0.039730065 -0.1815531 -0.12314644 -0.13052963 0.120151244 0.027310945 0.15346701 0.065646045 0.08144569 -0.00089725154 0.09515043 -0.03185758 0.020363426 -0.033234607 0.03020169 0.07169308 -0.15252917 0.11002185 0.055336766 -0.2844124 0.046666466 0.022429604 0.07494414 -0.022453012 -0.037584607 -0.05605505 0.0007648941 -0.14719437 0.09447266 -0.059281033 0.10488489 -0.0532277 -0.18640433 -0.031383738 -0.13253547 0.22965294 0.037308946 -0.06643649 -0.043533176 0.110339426 0.086974345 0.00805492 0.021513592 0.027031751 0.3401849 -0.07930722 0.094586685 0.12894548 0.09996414 0.10405805 0.05234584 -0.08971441 -0.004255358 -0.07247227 0.15651768 -0.09931489 -0.02796176 0.01632266 0.050869185 -0.060700785 -0.0034154782 0.021754632 0.027379151 0.01594887 -0.033165302 -0.029614625 0.15358698 0.0025766448 -0.13021287 0.03189892 -0.07605735 -0.005894026 -0.09019478 -0.19727525 0.07811157 -0.005345968 -0.08642564 0.13138446 -0.00798705 0.05617413 0.0030821862 -0.20020097 0.13139033 -0.10403292 0.026909929 -0.07065255 -0.026187072 0.24193458 0.04717623 0.14137037 0.036690872 -0.2065118 0.07039792 0.03775627 0.1130831 -0.021049928 -0.124743134 -0.00046914438 -0.1715667 0.07352159 -0.017858448 0.16459179 -0.0018111343 -0.07078765 0.06799176 -0.08877519 -0.15994035 -0.07955967 0.018369049 -0.05213986 -0.021243546 0.018044127 -0.24870302 0.18999392 0.08416837 0.0573115 -0.052288916 -0.0120880855 -0.041501727 0.10793432 0.048657488 -0.04183777 -0.09324691 -0.115016475 0.07110222 -0.054692313 0.045484405 0.054163374 -0.07814114 0.116835125 -0.049435854 0.05711139 -0.07256811 -0.047929462 0.023090126 -0.033932976 0.01903072 -0.09195031 -0.058594815 -0.02101784 -0.018467631 -0.052819744 -0.04128392 -0.04803685 -0.004979007 -0.175767 0.112390906 -0.16981767 0.060544115 0.038011592 0.037470218 -0.13632149 -0.018128306 -0.028597716 0.14927371 -0.10937298 -0.064259805 -0.07739421 0.023999061 0.15027745 0.13133426 -0.082401864 -0.03705901 -0.03932171 0.061698165 -0.05276454 -0.068562835 0.1196155 0.0062514623 0.015599877 -0.030274983 -0.079960704 0.0769848 0.034802414 -0.024018183 0.114559636 -0.018038208 -0.011053383 0.08624602 -0.101398036 -0.023048086 0.05568765 -0.033949748 -0.06998919 0.072231345 0.067504 -0.048674252 -0.06144973 0.0052651763 -0.11912993 -0.03376463 -0.055941556 -0.07132912 -0.08967144 0.036886256 0.0023233013 -0.18145697 0.18930784 0.072771974 -0.1265628 0.117775336 -0.025719948 0.13155553 0.100674346 0.08562341 -0.0037887138 -0.10577559 -0.052299783 0.15134247 -0.00898052 -0.067285866 0.08012338 -0.058539037 -0.0034686897 0.036596946 -0.08482367 0.042502254 0.015169009 0.0321724 0.039517462 0.014955794 -0.039761905 -0.03793426 -0.08791725 -0.07678066 -0.103688724 0.090413906 -0.01795944 -0.09843465 0.18624733 -0.04457862 -0.0112751145 0.04506779 -0.02995237 -0.07007349 0.11880547 -0.00863865 -0.11610251 0.021134289 0.15116061 0.061603475 -0.045515083 -0.06319457 -0.030770993 -0.11421504 0.059318267 -0.22336397 -0.04996287 -0.033123065 -0.0086363545 0.1441588 -0.025271686 -0.040334012 0.11630103 -0.008482677 0.04024185 0.047116596 -0.041355763 -0.03969554 -0.1182598 -0.05472585 0.057609573 -0.036582824 0.11323533 -0.039478723 0.07493488 -0.06727996 -0.055413026 0.0049709408 0.050975762 0.07216113 -0.039290156 0.014466021 0.07108758 0.07361426 -0.24191745 0.061253503 -0.03031316 -0.045060232 -0.01468253 0.15857673 -0.13014354 0.10026706 0.036835298 0.12609644 0.014223417 -0.048626203 -0.029699514 0.13747735 -0.1394087 0.060798336 -0.18934925 0.026055379 -0.06702368 -0.045491558 0.066840775 -0.08524526 0.10118956 0.13251743 0.053126 -0.10902754 -0.11630923 -0.1484519 0.0099527575 0.10141249 -0.19068982 -0.11437162 0.0501867 0.024076063 -0.044435427 -0.15533616 -0.17616613 0.080010794 -0.100494176 0.05434944 -0.007292709 0.105805084 0.040747337 0.19912176 -0.07352102 0.01319094 0.05935494 -0.176672 0.042743728 0.09296529 0.10725989 0.098216474 -0.1469886 0.084078334 0.110121146 -0.18816887 -0.026336944 -0.016196607 0.1458348 -0.032678135 -0.076297246 -0.050537106 -0.09744049 -0.172648 0.11805689 -0.09492948 -0.12245112 -0.24629708 0.009321279 -0.037176277 0.20553286 0.016224567 -0.30092087 0.011694644 -0.017855998 -0.106659666 -0.17841247 -0.09623106 -0.056995858 -0.0415922 -0.09910465 -0.019394916 -0.051095244 0.08882191 0.22420844 0.19330773 -0.055137534 0.1357607 -0.09786698 -0.17646897 -0.061174676 -0.15736209 0.07190949 0.12301833 -0.075347826 0.0019093248 0.03755166 -0.13403298 -0.0493353 -0.08174675 -0.06948466 0.094859414 -0.117113724 0.027433572 0.030412044 -0.013478171 -0.14412032 -0.03279548 0.13314648 0.13317314 -0.06258129 -0.0390752 0.108556226 -0.16408533 -0.039127897 -0.14510034 -0.17185335 0.1020826 -0.05579516 0.1479194 0.06350739 0.27964136 -0.007762705 0.048406653 -0.01505367 -0.12844701 0.11842211 0.014698571 -0.0023661563 -0.09321692 -0.015975814 0.13555755 0.017770186 0.17537282 -0.04113871 0.053564157 -0.06669214 0.26863042 0.004819923 -0.05840087 0.16451772 -0.0764055 0.16323218 -0.039298814 -0.12290888 -0.080790944 0.033039432 -0.09931827 -0.042139422 -0.10494517 -0.039278004 0.06754887 -0.13604881 0.09146471 0.049505416 0.055104706 -0.023609685 -0.16428094 -0.11806343 0.13127083 -0.0011726668 0.0050257687 0.099360086 -0.0070654326 -0.08581828 0.075833425 -0.099257514 -0.052217238 -0.06963331 -0.20375939 0.03907151 -0.006799798 0.021393897 0.064424895 0.035194986 -0.044495285 -0.045280494 -0.12589936 0.081416965 0.0029592242 0.0060305092 -0.06422369 -0.22557284 -0.075440295 0.037991636 0.027496902 0.17617413 -0.19171058 -0.018125199 -0.0033097921 0.153108 0.09044189 0.07547699 -0.1921724 -0.08310958 0.08363884 -0.0038552019 -0.12414287 0.25018224 0.07099172 0.0339017 -0.09537397 0.055583782 0.005043594 -0.1322165 0.034401767 0.0018574211 0.114635564 -0.18483515 -0.16782248 -0.04004855 0.006711711 0.059629794 0.16783938 0.021271434 -0.07245378 0.031829868 -0.08635234 0.14742962 0.19004397 0.053213634 -0.09213755 -0.054841574 0.04032713 0.23244081 -0.086747095 -0.09791118 0.024358537 -0.12819345 0.35127437 0.12919548 -0.15969007 -0.17444846 -0.037240375 0.07862289 -0.0125166895 -0.09648574 0.12455309 0.04564943 -0.0058507575 0.013620804 -0.18673594 -0.010742303 -0.025791222 0.11340112 -0.030853778 -0.07335305 -0.012300451 -0.18884724 0.30174062 -0.04643948 -0.02416898 0.10407057 0.017994743 -0.12635471 -0.02242785 -0.009371473 0.08430114 -0.18614611 0.07300387 -0.034722842 -0.110634044 0.09942063 0.021947103 -0.060628846 0.03541094 0.035746675 -0.017661389 -0.06150731 -0.13261287 -0.13260531 0.017564178 0.10675609 0.051141523 0.007090402 0.12316113 -0.04541018 -0.008492905 -0.025867105 -0.1220862 0.0074038613 0.07085671 0.12657817 0.020092474 0.047493137 -0.10595317 -0.073949546 -0.00584785 -0.12949656 0.018900776 0.09754063 -0.00061928015 -0.14981477 -0.0031825928 -0.08164964 -0.0027028301 -0.0073192064 -0.09668194 0.19199848 0.113433756 0.09517646 -0.102274805 0.015297378 -0.022067882 0.07811025 -0.020684814 0.0049711633 -0.15054904 0.01230016 -0.105852485 -0.0699321 -0.10137248 0.04327704 -0.048152275 0.03395341 0.13521068 0.03681351 0.14319251 -0.113025725 -0.12683588 0.034356665 -0.055453178 -0.04458528 0.0813261 -0.10580271 0.17168556 0.054529086 -0.00469883 -0.123356335 -0.006293224 -0.058616545 0.080082916 -0.14353801 -0.1433705 -0.048541863 -0.027861377 -0.0037423768 -0.05390396 -0.096984744 0.032763325 -0.03444645 0.14244145 0.15269986 -0.033763025 -0.019959237 0.01124165 0.033195112 -0.05297576 -0.065160364 0.15992907 0.038688723 -0.09646281 0.043155845 -0.049431097 -0.06137916 -0.024583498 -0.06347884 -0.063695654 0.013007024 -0.042919394 -0.06309052 0.13906612 -0.063825876 0.06627789 0.2470615 -0.18803021 0.14232282 0.029148778 0.09734722 0.3866796 0.025715517 0.2145609 -0.114145085 0.07481423 4.3358697e-05 0.04018619 -0.104849085 -0.18193835 0.06503949 0.02576225 -0.08503333 -0.068422675 -0.05488286 -0.03735164 0.112261124 -0.084557235 0.031402364 0.06391195 -0.13995102 0.01931027 -0.082624055 0.09070451 0.0062088673 -0.10606674 -0.038016047 -0.06424041 -0.074411795 -0.08927655 -0.08169275 0.0038584594 0.024915053 0.214657 -0.039029595 0.1974013 0.016813595 0.16343631 -0.0660465 -0.037754796 0.026324363 -0.030104369 0.103712216 -4.8125643e-05 0.15805472 0.06981718 -0.025763465 0.13636601 0.030227866 -0.16752121 0.086321846 -0.103914656 -0.062046804 -0.17868473 0.108830325 -0.055992056 0.009252237 0.055433095 -0.030778915 0.057836864 -0.062314387 0.21455315 -0.057513304 -0.043314345 -0.002239408 0.11624792 -0.005576065 -0.029204981 -0.054563243 0.09734984 0.018857421 -0.104511954 0.059362825 -0.049772743 0.009383629 0.06040162 -0.17304817 -0.12741132 -0.090746924 0.022597002 -0.14144687 0.0635973 0.1053512 0.11960199 0.04581946 0.109016135 -0.046091415 -0.14697972 -0.14865789 -0.049231045 0.017752005 -0.007443068 0.013599698 -0.09646161 0.03405431 -0.15529464 -0.08900641 -0.17969427 -0.0810182 0.14155889 -0.046810873 0.19567342 -0.10221001 -0.0078910915 -0.037558086 -0.070719525 -0.15004697 -0.07380524 0.016718235 -0.051041145 -0.03297913 0.061143246 -0.043289572 -0.2511197 0.060472887 -0.08543393 -0.05260447 0.021099983 0.005134165 0.0454147 0.111824594 -0.1688258 0.02461433 0.1057119 0.11692645 0.059013527 -0.060547467 -0.017555943 -0.003939277 0.022042504 -0.062171713 -0.10093387 0.02082504 -0.056261264 0.070838235 0.0019360592 0.14729467 0.08225889 0.015283488 0.0046430477 -0.08761857 0.03645908 -0.1138009 0.22896972 -0.012979173 -0.06643227 0.11640177 -0.14981046 0.035686906 -0.05986849 -0.16216885 -0.12910636 -0.014744236 -0.09121872 0.13921519 0.024656624 -0.07174634 -0.012266288 -0.00021073004 -0.105469964 0.10556995 -0.04300289 -0.01386297 -0.02830542 0.07205055 -0.0926344 0.03567685 -0.028663373 0.11495656 0.017929707 -0.06714757 0.039659176 -0.09597531 -0.05145056 0.014546723 -0.014567136 -0.05032333 0.10619674 -0.10089518 0.013064621 0.091127835 -0.056167856 0.13465665 -0.06132057 0.09982527 -0.07338185 -0.11877895 -0.05587851 0.009472799 -0.15021145 -0.11427907 -0.12862049 -0.016670085 -0.008071014 0.043222804 0.015016341 0.0064583044 -0.040028185 -0.03337948 -0.11697502 -0.015309205 -0.07603016 0.07985682 0.010061942 0.0053988383 0.0021767723 -0.01609541 -0.07244964 0.054291304 -0.04887269 -0.017617702 -0.05972364 -0.0514651 -0.07431695 -0.0012013497 0.10604737 -0.081963636 0.012689208 -0.095419966 0.042412423 -0.019528896 -0.18288296 -0.033011053 0.073580764 -0.1291048 -0.048463028 -0.04241752 -0.009054101 -0.10019264 -0.101102434 -0.10386017 -0.059738226 0.00684952 0.007862478 -0.055564813 -0.03924649 0.1326434 0.060956307 -0.03258004 0.16095562 0.0025303306 -0.0065504606 -0.06673922 -0.0789213 0.0051275566 -0.15080059 -0.015863216 -0.0011783689 -0.040798716 -0.18744755 0.11029101 0.017179321 -0.022686668 0.08834085 -0.09888455 -0.013067534 0.053559497 -0.05552353 0.0043398463 -0.1024248 0.20349683 -0.08185406 -0.049174137 0.1887165 -0.042096213 -0.015122341 0.1113179 -0.004785438 -0.0128309205 0.21432213 0.024448963 -0.06840939 0.04051709 0.036057316 0.032649998 -0.058261238 -0.09571703 -0.00045408282 0.055028424 -0.025186246 -0.09841614 0.102262616 -0.12285794 0.0018508676 0.093919516 0.034166604 -0.08079486 -0.015084606 -0.11083999 0.0440815 0.00943776 -0.14236778 -0.12796907 0.060867187 0.021534659 -0.032432992 -0.16841161 0.15776874 -0.058113255 -0.11217 0.11365489 0.052624427 -0.013678207 -0.07101783 0.09329132 -0.10445772 -0.049367957 -0.111049876 -0.023235407 0.039091244 -0.07944074 0.13759898 -0.040171273 0.0025192045 -0.09580867 0.010286422 -0.1144989 -0.07510467 -0.011941018 -0.042742006 0.009756843 -0.04492021 -0.09355454 0.018537683 -0.11550788 0.047833357 -0.03622566 -0.11232457 -0.042629413 0.046699338 -0.2263864 -0.02244031 -0.21622083 0.12818399 0.060462464 -0.08582224 0.07458765 -0.16200696 -0.24117565 -0.049226914 0.15078902 -0.040248096 -0.035142954 -0.083090685 -0.23199011 -0.083707444 -0.0798732 0.07727935 0.031610567 0.26186773 -0.03972834 -0.12974805 -0.022008331 0.063338265 0.066347085 0.17631148 0.12535849 -0.032541722 -0.082436085 -0.05864674 -0.05796134 -0.005669182 -0.013552816 0.056504827 0.06921369 0.11833427 0.08001616 -0.011726745 0.049973655 0.2602348 -0.026294254 0.15482715 -0.041285194 -0.050660815 -0.01806474 -0.10067809 0.053067375 -0.093747914 -0.076344065 -0.13098495 -0.12368218 0.1297249 -0.09777461 -0.032269996 0.03727526 0.07801812 0.053666312 -0.016709488 0.081691734 -0.10496286 -0.019069199 0.08613081 -0.07474256 -0.015893957 0.24687003 -0.043250468 -0.030345172 -0.15657938 0.07285506 0.12203249 0.00017214532 -0.056906663 0.08676758 -0.15908703 0.057856057 -0.06391937 -0.0077035497 -0.1433701 0.023990132 -0.22287251 -0.06419726 -0.10848043 -0.014860251 -0.042478323 -0.15660422 0.037272654 0.09368101 0.1843853 -0.03653845 -0.24838792 -0.17869034 0.106943935 0.10789707 0.09074854 -0.18526961 0.075914234 -0.008040351 -0.09110066 -0.007041303 -0.066488124 0.22281352 -0.11343863 -0.035820644 0.08716351 -0.07888125 0.061188497 -0.08789985 0.0019785753 -0.05296951 0.2236061 0.030863462 -0.0010758848 -0.020660045 -0.0009146961 -0.15314478 -0.013904196 0.0469249 0.036250304 0.06701504 -0.029871028 0.05305393 -0.07607303 -0.10155537 -0.14088479 -0.07667498 -0.1429149 0.052213404 0.05185142 -0.08589711 -0.04920977 0.11622313 0.10523697 0.20118679 0.17204577 0.027665697 -0.10942934 -0.10160457 0.112405516 -0.09497642 -0.18592317 -0.11294061 0.026077027 0.0528822 -0.041092675 0.054305017 -0.13375635 -0.09501956 -0.24292788 0.28712767 -0.05661785 -0.08155414 0.07087052 -0.014702575 0.16489317 0.10486589 0.20773599 0.112267435 -0.04775418 -0.026160149 -0.24180828 -0.1447926 -0.044941247 -0.006710862 -0.21590519 0.087128825 -0.0016679664 0.055413224 -0.13101307 0.18540551 0.12819573 -0.25558782 -0.002598195 0.01629258 0.088377126 0.091127 0.10193633 0.060695678 -0.14941809 0.05793061 0.049085144 -0.052656434 0.072783865 -0.11967437 -0.045886658 -0.07684438 0.036265723 -0.18704924 0.001340712 -0.009144272 -0.24684191 0.07854533 -0.06215506 -0.081902 -0.03862244 -0.22392063 -0.033359747 -0.005396956 -0.065488584 -0.0042455504 -0.031223925 0.20516345 -0.13164613 -0.028587978 0.0010864749 0.020971278 0.03595208 0.24378896 0.107800774 -0.033714235 0.07013434 -0.05272714 0.08241543 -0.04180145 0.12536384 -0.06998508 -0.08599413 -0.08559284 0.058429945 0.08384505 0.011288137 0.033483967 -0.05245918 -0.11776312 0.08692492 0.26585028 0.054222923 -0.36384314 -0.09167917 -0.10034176 0.0520675 0.08769845 0.08798442 -0.050045818 -0.09665719 0.12630734 0.17617257 -0.09141308 0.0043484345 -0.2087318 -0.082131945 0.09753747 0.12767206 0.18985319 -0.062447663 -0.1218211 -0.07795003 0.15639913 -0.030521 -0.043830395 0.20753694 -0.018629827 -0.008136017 0.109231316 -0.027214302 0.02644865 -0.040926877 -0.20338844 -0.09622159 -0.07995254 0.27384546 -0.063374646 -0.106040195 0.12842208 -0.13491686 -0.13236257 0.10502162 0.029616836 -0.12904863 -0.122165166 0.19467564 0.047219824 -0.16016763 -0.058073606 0.0048388415 0.19418032 0.09278946 0.08703169 -0.033552628 0.023381306 -0.08895846 0.066569515 -0.014233805 -0.0040009976 0.14690237 0.10742468 -0.14503801 -0.09618938 -0.07620905 0.092232175 -0.041724946 0.10494432 -0.061574314 0.21251826 0.060363714 0.035867617 -0.10951071 -0.19347428 -0.002141889 -0.05686894 -0.15544412 0.0396507 -0.098662905 -0.11012847 0.03801209 0.07837303 0.14741647 -0.012315047 -0.20544589 -0.113583945 0.14017324 0.09197304 -0.046271417 0.08410837 -0.038559344 0.26712555 -0.02542717 -0.023336539 -0.07158553 -0.05776609 0.011566838 0.08185577 0.04449079 0.017606061 -0.20717914 -0.1200888 -0.03080682 -0.09780466 -0.05132736 0.14047718 -0.1935617 0.09986463 0.16416994 -0.14107001 -0.07013698 0.035363924 -0.13304338 -0.21808171 0.081429005 -0.10092652 0.1779415 0.05078145 0.079600364 0.004554925 -0.17899063 0.0035145625 -0.03983868 -0.03682712 -0.16642632 0.02059794 -0.03991576 -0.19932552 -0.04705828 -0.016829371 -0.087638065 -0.0032190606 0.20002401 0.03917078 0.020058395 -0.077267185 -0.016980316 0.033156406 -0.046555962 -0.20055544 -0.11401133 -0.15343846 -0.070693865 0.32896405 0.11962195 0.06700071 -0.21190016 0.17753924 -0.08454594 0.018377405 -0.16228975 -0.12118288 -0.19102868 0.14026998 -0.059622884 0.014234226 0.014558929 0.045978293 -0.13940324 0.041767113 0.025442904 -0.046190467 0.055525724 -0.12664326 0.12580276 -0.08686396 -0.12268647 -0.008857021 0.10975384 0.06517815 -0.07238446 -0.017157638 0.118938625 -0.020096168 -0.05056752 0.00679229 0.12509915 -0.21535963 0.07438234 0.0213419 -0.09243956 -0.013988152 0.075813316 -0.17934985 -0.023447813 0.049473707 0.0059262854 0.003358589 0.0334412 0.041105088 -0.0123391505 -0.037831027 0.05224896 -0.014753737 -0.047715027 0.021705952 0.010979079 0.057992633 0.13981113 0.06534736 0.013007373 -0.05641985 0.06339613 0.090174705 -0.060158685 -0.04868514 0.10406659 -0.19085371 -0.055605784 -0.043910127 -0.11597807 -0.011585604 0.11180337 0.025369437 0.08867622 0.024375215 -0.10890976 -0.13147141 -0.1063531 -0.07175769 -0.107191905 -0.013103321 0.037833557 -0.008275983 -0.022095691 0.13571087 0.11728458 -0.028452111 -0.04212774 -0.059225418 -0.01795428 0.03860586 0.019177051 -0.022763615 0.03329226 -0.0041409815 -0.13008255 0.0032908616 0.09058548 -0.055246294 -0.05921268 0.052749936 -0.13486531 -0.36651316 0.03145227 0.011065724 0.062094457 -0.08345975 -0.04444132 -0.09473787 0.013009999 -0.06137052 -0.10308759 0.023948723 0.041909475 -0.055336628 -0.051216017 0.09457846 0.014723371 0.013459646 -0.13202581 0.0037345896 -0.084711 -0.037274927 -0.13546813 -0.0946347 0.03732425 -0.18888763 0.14335606 -0.055112835 -0.09554658 0.21597958 0.13890569 -0.041664526 -0.05977632 -0.0085709095 0.00084667944 -0.039875366 -0.09058241 -0.055537023 0.062098943 -0.07756149 -0.066188484 -0.077515885 -0.021612829 -0.06333327 -0.03337157 -0.0006381699 -0.07431475 0.011271901 0.16546285 -0.05125481 0.010619886 -0.077130206 -0.013881255 0.070054814 0.12871118 0.064701006 0.021108707 -0.106133774 0.0010408838 0.025442014 -0.20639947 -0.2974165 -0.08309671 -0.06591268 -0.13587618 0.2322376 -0.13527603 0.018735524 -0.099017985 0.100888945 0.14690346 -0.048668463 0.13211648 0.19693358 -0.15728724 -0.12984203 -0.05218599 -0.057478826 0.20962971 -0.25259683 0.07522498 0.22200906 0.049658246 -0.297295 -0.13605967 -0.1603595 -0.11498091 -0.040876903 0.009647293 0.039843943 0.0514505 0.0031770302 -0.13352875 -0.14373048 0.09615826 0.06555125 0.059121314 0.042994916 0.22272119 -0.1739277 0.0841484 -0.1397535 -0.33713096 -0.09329213 0.10820075 -0.0011871898 0.20655537 0.12363412 -0.056475528 0.032892015 0.091061585 0.13136044 0.0033236393 -0.1738338 0.028718997 -0.17067817 0.022085043 -0.21219759 -0.003358457 0.08592121 0.049467847 0.020768642 0.0032807728 -0.08637425 -0.33967942 -0.107472904 -0.0127300285 -0.04715669 0.012861991 0.0051738364 -0.0034150905 -0.0984474 0.12273469 -0.011468929 0.18700744 0.120170176 -0.042715427 0.052320905 -0.0770286 0.09139851 0.08479388 -0.29786196 -0.08490231 -0.012069856 0.06273418 0.1365833 0.103482276 -0.09993281 -0.18356596 0.113066725 -0.011400071 0.09534993 0.10277083 -0.10153726 0.00907438 0.11035087 -0.08051748 0.14333144 0.0872654 -0.17847452 0.25103733 -0.07203819 0.13466135 -0.22330087 -0.07994125 -0.1577901 -0.03700165 -0.009539396 -0.08368969 -0.0006337447 0.052205507 0.07182426 0.03326138 0.1055349 -0.08171284 0.04332481 -0.09994354 -0.003069908 -0.05139008 0.06023957 0.031567898 0.07281026 0.03646709 0.0201729 0.13168664 0.1565872 -0.048876587 -0.13056357 0.11261985 -0.105081655 -0.060898144 -0.04576838 0.007437087 0.19986033 -0.17608047 -0.14322704 0.10579868 0.009604073 -0.032269537 0.1902508 -0.1308568 0.16149174 -0.034353543 -0.17453681 0.11776274 -0.19948044 0.20039067 0.045517962 -0.035968266 0.021004003 0.08648293 -0.106152676 -0.085202314 -0.13537201 -0.06700136 -0.20594871 -0.009669715 0.07184548 0.11469521 -0.0053244876 0.00021163197 0.3031552 0.16152269 -0.010895523 -0.057225633 -0.19914137 -0.09307585 0.06421083 -0.06036772 -0.09767142 0.10402255 0.19562002 0.15310326 -0.06904106 0.03484048 0.014488587 0.059211664 0.019412084 -0.054913525 -0.08434564 -0.15473133 -0.103961736 0.13888052 -0.033974458 -0.028972922 -0.2216076 0.1909934 -0.04931858 0.0075449343 0.03570027 -0.12697501 -0.036890395 0.10349019 0.11282837 -0.10128486 0.043752268 -0.08383702 -0.0062264274 0.038374677 -0.009100434 0.13638447 0.086963035 0.04321193 0.0809715 -0.0165587 -0.07019277 0.028010463 -0.1112676 0.15520777 -0.2850522 -0.020642988 -0.10569427 -0.15492694 -0.04684753 0.0929468 0.03928086 0.2214989 0.042444874 0.047797747 -0.0050963005 -0.033487063 -0.078501806 -0.024012014 -0.19932841 -0.00019896847 -0.1882157 0.24037576 -0.09718297 -0.07668829 -0.0760224 -0.06968027 -0.050393604 0.065927535 -0.04930479 0.11732126 -0.002426684 0.09064619 -0.025084088 0.11239353 0.023226874 -0.07828843 -0.19119376 0.022436433 0.11433055 -0.101416424 -0.052009813 -0.07665669 -0.12986068 -0.088577054 0.08078833 0.1056766 -0.016247822 -0.05681612 -0.044136412 -0.07842628 -0.13640565 -0.076624885 -0.0378748 -0.11236991 0.02770507 -0.11513478 -0.022698363 0.070819914 -0.05884981 0.1348779 -0.01830087 0.12072912 0.08469421 -0.01616471 -0.061623357 0.12287361 -0.078708924 -0.052753434 -0.015026995 -0.09930628 0.20509604 0.065225765 -0.07049758 0.057068724 -0.061819013 0.0348471 0.121361576 -0.16180585 0.043677576 -0.021754492 -0.08257944 -0.08816594 -0.051371314 0.113327354 -0.028982243 -0.1260727 0.19748002 -0.023174679 -0.13333835 0.05553715 -0.1334283 0.080524154 0.14032984 -0.052550767 -0.1118469 0.043825038 0.07638399 0.2218968 -0.044700194 0.036098123 0.051918607 -0.18052381 -0.09522696 -0.07535409 -0.011030273 0.11571135 0.027203636 0.16271853 0.074349165 -0.020234734 0.10037693 -0.029067101 -0.06123693 0.17248145 0.05914406 0.027473547 0.038599323 -0.0575766 0.12776776 -0.054637972 0.0699558 -0.074494705 -0.032838706 -0.056325413 -0.025507664 -0.04804182 -0.10885374 0.1122788 -0.06445885 -0.0096110925 0.014378017 -0.08144794 -0.20639332 -0.08189472 0.03297047 -0.047198895 0.00065714127 0.0007663325 -0.08900724 0.089184105 0.061089847 0.08289734 -0.07120135 -0.10256435 0.018714575 0.22971542 -0.0084767435 -0.16948332 0.017941242 -0.2737681 -0.03170013 0.057503477 0.024536781 0.04502432 -0.010589689 -0.054379355 0.03489782 -0.05272719 -0.17622297 -0.14705364 0.014221582 0.06384409 0.058846414 0.058559448 0.11449989 0.006067233 -0.023414187 -0.16752195 0.06675148 -0.018724661 0.05794113 0.052908424 0.03291338 -0.11875895 0.062004518 -0.10364915 0.0006899211 -0.12037384 -0.10549347 -0.054387696 -0.10743351 0.016350232 -0.07672452 -0.05652136 -0.07498435 -0.06364617 0.04661365 -0.13328269 -0.14818342 0.058841605 0.11176644 -0.09995789 0.12998304 -0.027503362 -0.017456535 0.13231143 0.008346956 0.11906194 -0.12233129 -0.07494157 -0.086656004 0.01146819 0.0928798 0.087793365 -0.09131388 0.03181358 -0.051829435 -0.0787684 0.054948937 -0.104368754 0.07952347 -0.06665416 0.054957826 0.048324972 -0.04381479 0.08606137 0.038458426 -0.14345205 -0.15380207 -0.07338908 -0.15037079 0.06828543 -0.014428623 0.034140553 0.18155338 0.12504709 0.074265294 0.1053721 -0.0147594 -0.03683716 -0.07826174 0.04529972 0.12394939 -0.11274736 -0.038181156 -0.022894243 -0.06870233 -0.07671551 -0.03872678 0.12865728 -0.032672968 -0.080590434 0.098738305 0.14644352 -0.065803245 -0.1816004 -0.07447906 -0.033884805 -0.18160369 -0.200417 -0.059529796 0.0069015375 0.050111536 -0.04143231 -0.014544046 0.19043702 0.018106122 -0.040236976 0.08822582 -0.23738824 0.0064805923 -0.12138729 0.0063448627 0.10611328 0.16666366 0.44234657 -0.047019124 0.12098374 0.18668954 -0.029054012 -0.056008082 0.021075897 -0.0901844 -0.11419329 0.09982896 -0.18275581 -0.059631217 -0.07583404 -0.075747214 -0.04018553 0.13232453 0.029744582 -0.055173974 -0.079998456 0.06317694 -0.14456134 -0.15081362 0.22077753 -0.11557198 -0.21992493 -0.10043771 0.009033425 0.09292754 0.021883441 -0.10351296 -0.12107609 0.04465978 -0.01338116 -0.29768464 0.0076151327 -0.10009611 -0.07558396 -0.009615104 -0.09895818 -0.1449147 0.12171956 0.040595718 -0.23670332 0.013079139 -0.08339261 -0.07652042 0.20731395 0.045663502 -0.17094384 -0.24400692 -0.15093611 0.23009445 0.13216095 0.10637468 -0.101360135 -0.04708681 0.039911706 -0.03975652 0.06457798 0.1923566 -0.1511887 3.9057686e-05 -0.017825494 -0.19200638 -0.19978821 0.09171351 0.2002101 -0.072764955 -0.11021644 0.08354198 -0.09037275 -0.021703565 0.09164139 -0.17253998 -0.05142942 -0.15705977 -0.0858367 -0.0048896866 0.047292348 -0.18647175 0.18299267 -0.033880074 0.00018774375 -0.16610156 -0.081695564 -0.02289367 0.11344804 -0.02343103 0.06563743 0.06896684 -0.09383817 0.052474733 0.078674294 0.004504511 -0.030454794 -0.07462742 -0.0034388418 -0.11177959 -0.030048354 -0.08462885 0.10569344 0.09146529 0.070690565 -0.14666119 0.276552 0.091171786 0.049330987 -0.116576105 -0.107762665 0.09734471 0.07907254 0.059594847 -0.09684116 -0.30937904 -0.13423604 -0.12922487 0.06305761 0.016277708 -0.25149032 0.067308046 -0.14150715 -0.047256593 -0.096862935 0.09891312 0.03433003 -0.19201386 -0.04952503 0.025851069 -0.17750925 0.0060320348 -0.035244025 -0.102701254 0.0346366 -0.019626355 0.16415812 0.11275335 0.04547563 0.005563216 -0.17854041 0.020569118 0.032322478 -0.07048762 -0.07707697 -0.044772856 -0.002619954 0.1719185 0.11963894 0.040171295 0.04290097 0.0043407637 -0.073089905 -0.058064118 0.051229227 -0.07188896 0.11500902 -0.072083995 0.060217217 0.016208852 -0.04782347 -0.07649136 0.13195617 -0.013429802 0.0991148 1.8476698e-05 -0.12085549 0.048541028 0.3239859 -0.033083297 -0.016254993 0.020786287 0.16002351 0.07865729 -0.04712823 0.06986535 -0.016093342 -0.14840263 0.048727594 -0.016225677 -0.022558374 0.0025718731 -0.17868474 -0.020418067 0.12971652 -0.042092707 0.1803341 -0.071414866 0.052279204 -0.02453102 0.03835786 0.1512961 -0.09417028 0.07470873 -0.0524805 -0.0857183 0.0028955254 -0.055487156 0.18679403 0.012389027 0.06660175 0.08445588 -0.066431545 0.06509232 0.1712015 0.0098734135 0.07482618 -0.0050338507 0.03200068 -0.03239483 0.031007076 -0.11595422 -0.010294151 -0.086175345 -0.03679414 -0.021449767 0.007403333 -0.034540843 0.09617723 0.08218388 0.00069697906 -0.16982105 -0.0747617 0.025996413 -0.04906352 -0.088400066 0.1484282 -0.0094844615 -0.048683576 -0.05957399 0.00419976 -0.05274828 0.029888723 0.09451161 0.07068642 0.055294957 0.0069388743 -0.024254944 0.17749228 -0.09127438 -0.01708488 0.045480344 0.07083368 0.026442815 -0.004263595 -0.004643455 -0.07412756 0.040780194 0.118622154 -0.028827736 0.072653495 -0.08723537 -0.12948127 -0.08455298 -0.11510248 -0.027655032 0.26398903 -0.1432487 -0.013814982 0.08466489 -0.052227564 0.038147945 -0.1372766 -0.10175349 -0.107727475 -0.101652384 -0.1608908 -0.019258752 -0.047756214 -0.008570624 0.1094317 -0.027496172 0.03587364 0.020223565 -0.10662892 -0.017300174 -0.10979469 -0.033212483 0.142389 0.17207612 0.0001133152 -0.013065272 0.0011270638 0.033113554 0.18876302 -0.098797195 -0.007519426 0.078977115 -0.022525199 -0.14612246 -0.16948016 -0.09486946 -0.03660086 0.14711547 0.017857406 0.08040119 0.04587725 -0.043222908 0.14879063 -0.0742841 0.014165064 -0.02972726 0.0079609975 0.008184155 0.044913836 0.08939051 0.10720771 -0.08889176 -0.048835564 0.061565794 -0.045944728 0.053724512 -0.0022824788 0.054878782 0.05655588 -0.11012628 0.06036299 -0.15708981 0.09265382 -0.049960203 0.076892294 -0.034186136 0.017714469 -0.14120996 0.009579453 0.113757096 -0.109365806 -0.03973296 -0.02100562 -0.041251294 -0.12636192 -0.025644178 0.025329612 -0.005125181 0.041832652 -0.024907792 -0.12639256 0.02686663 0.06430477 -0.04525875 -0.08097786 0.049516704 -0.04907331 -0.05129603 0.031152882 -0.05478167 0.07321169 -0.060386837 -0.10640011 0.063128576 -0.05710719 0.078685194 -0.025585843 -0.12362105 0.14958419 -0.0032425795 0.0678352 -0.10652503 0.048001237 -0.08023692 0.17305343 -0.04210452 0.062313545 -0.08013381 -0.050209023 0.019709213 -0.12070303 0.13614653 -0.13905843 0.0037550265 0.0707764 0.04349356 -0.006190768 -0.00084912713 0.0070941867 -0.0054061767 0.074956715 -0.124562554 -0.08155672 0.10173687 -0.0499351 -0.09937668 0.015831541 0.071241304 -0.15984932 0.12658955 -0.04670845 -0.17852217 0.025486887 -0.062005475 -0.10321519 -0.026784912 -0.04199644 -0.02932439 -0.119344115 -0.028949881 -0.09852718 0.08070229 -0.04147754 0.061647873 -0.061361894 -0.0768351 0.04415315 0.03536483 -0.20553221 0.09009123 0.022941824 0.000566955 -0.14535753 0.041780874 -0.052339867 -0.046918605 -0.042778015 0.08994718 0.16176924 -0.05103433 0.07427613 0.022205977 -0.10628676 -0.047235426 0.09751568 0.05341209 0.038173582 -0.041660145 -0.07568162 -0.06593367 -0.037270423 0.12382397 -0.086486526 -0.06917525 -0.058049593 -0.0032997834 0.0051807472 -0.1664609 -0.097507074 -0.032972928 -0.0055075297 0.057340994 -0.10916747 0.0108940685 0.033901043 0.095041305 -0.1852289 -0.12987839 -0.013419756 0.09346836 -0.06336687 -0.04051526 -0.07364036 -0.053462844 -0.040548224 0.08849033 0.03161941 -0.043210667 -0.013850544 -0.00047313 0.1695184 0.058094088 -0.024806203 -0.07521185 -0.0031683515 0.139989 0.07868643 -0.081072874 0.09238704 -0.051797707 -0.08597426 -0.022768252 -0.00458333 -0.02787051 0.011153566 0.058014825 0.0017679246 0.016115384 -0.009111197 0.015744228 0.09992992 0.0072545386 -0.07062984 -0.09692725 0.086555466 0.017386166 -0.11189108 -0.028675 -0.094285905 0.013344415 -0.0019212845 -0.068876766 -0.053214718 -0.110985085 0.079518065 0.11662584 0.026740924 0.0053342176 0.103898495 -0.1019317 -0.08872494 0.0950509 -0.08914354 0.01786468 0.051750857 0.069089815 