-0.22263739 -0.49262753 0.06270332 -0.388148 -0.37361947 0.22342235 -0.23023076 -0.04236361 0.42286587 -0.2346858 -0.32266435 0.3894984 -0.017645145 -0.26842004 0.5563579 -0.15282466 -0.0032538 0.71216124 -0.4119821 -0.26162094 0.4297785 -0.35326824 -0.26550487 0.38817936 -0.21650311 -0.021996465 0.5672812 -0.14069903 -0.13483754 0.09589588 0.11665476 0.025255976 -0.13637255 0.044502247 -0.10191227 -0.035068348 0.087661535 0.085960835 -0.036655895 0.029437313 0.10708674 -0.112757236 -0.0978074 -0.0823636 -0.108460136 -0.1391053 0.10027487 -0.016726425 -0.115563616 -0.05322063 -0.11816067 0.12076279 -0.053695247 0.04453021 -0.5671079 0.33788845 0.3132794 1.0020398 1.0457977 -0.56148404 1.1986296 0.00018362585 0.0431922 0.43332353 1.1170706 0.59521246 0.97953975 0.64052975 -0.95585084 0.49282947 -0.4375745 -0.46288112 -0.2870437 0.18186125 -0.14537257 -0.123620935 -0.25147232 -1.5363045 -0.8900685 -1.2181119 -0.9122227 1.3074666 1.0936238 0.4273812 -0.7759197 0.16724703 0.77685255 -1.1296194 -1.1136712 -1.0849702 0.9339172 0.6128078 0.065644756 -0.8447828 -0.23796473 0.7536879 -0.9197588 -1.1734234 -0.8934138 0.9801015 0.3460273 -0.1664135 0.0325645 0.28567934 0.6854354 -0.47223178 -0.61767876 -0.60680795 0.838581 0.9080335 0.8531498 0.7874032 0.9660168 0.8439064 0.18397169 0.34060764 -0.13541584 -1.1136421 -1.1178766 -1.0900898 -1.1919501 -1.1459885 -1.1144654 -0.6975684 -0.84727305 -0.724694 0.2931614 -0.06737314 0.23254322 0.15109764 -0.25728446 0.09684839 0.10365051 0.10170445 0.18629041 0.78277206 1.6313298 0.4257007 0.21529876 -1.1501721 -1.6763608 -0.74706227 -0.82424605 0.14206031 1.2917612 1.944888 0.72044194 0.9172604 -1.1937754 -1.5453734 -0.9569888 -1.1271592 -0.08200885 1.0945011 1.423734 0.56677663 0.98889494 -0.96183157 -0.85803485 -0.60860103 -0.8630961 0.6489002 0.381169 0.5677945 0.7680177 -0.5855161 -0.0996579 0.74836105 -0.7479712 -0.69430375 0.6412772 -0.093828276 0.2656642 0.5854125 -0.93514526 -0.6150006 0.493724 -1.2475475 -0.8305624 0.26312143 -0.056819186 0.57646465 1.0709515 -0.86481863 -0.44035947 0.6078542 -1.1932362 -0.7723523 0.5097917 0.5060623 0.2841719 0.24221064 0.4950003 -0.31891045 -0.4950233 -0.11622534 -0.7627833 -0.47476164 -0.26241672 -1.130531 -0.94725955 -0.31319043 -1.0596873 -0.97417456 -0.7132406 -0.9969143 -0.91621935 0.9620066 0.2287722 0.5610809 1.0856932 0.15901859 -0.00870354 0.5084845 -0.14591724 0.004148005 -0.37874094 0.5557498 1.0019321 -0.729556 -0.82757807 0.5881942 0.8207148 -0.45553517 -0.5222385 -0.5305069 0.13271914 0.3374591 -0.63731426 -0.76777714 0.12811673 1.0925776 -0.10382541 -0.6757551 -0.6591215 -0.03789869 -0.0012143961 -0.98734415 -0.89295113 -0.20711787 0.57852995 -0.6077692 -1.029901 0.14167404 -1.2994657 1.0837249 0.10103453 -1.394193 1.3226296 0.17959322 -1.4801024 1.0863137 -0.030665409 -1.6332275 0.49649778 0.39549622 -1.6938436 0.81474394 0.35864025 -1.8060967 0.5019632 0.8366932 -0.8982643 0.5101358 0.6754065 -1.1392003 0.85783726 0.7757094 -1.2809819 0.5076067 -0.5213172 1.795457 -1.3784714 -1.9689661 0.012911342 1.8784733 1.1276252 -2.0326538 0.36404067 -0.30867156 1.9304466 -0.62528324 -2.2954865 0.05124555 2.1020033 0.7330574 -2.2405252 0.116862155 0.025121538 2.1542542 -0.99424374 -2.1050656 0.045476254 1.946514 0.9516274 -2.0852897 0.098019764 -0.6807511 -0.5210928 -0.33595747 -0.8817934 -0.69226 -0.6919108 -0.67697793 -0.9571477 -0.82208735 -0.45240077 -0.18979232 -0.040902786 0.018890176 -0.026704947 0.113596484 -0.18475035 -0.09010221 -0.024624022 0.462493 0.5362704 0.73174226 0.93822634 0.9096999 1.1520677 1.0981774 1.0394956 1.0453691 -0.57951224 -1.4552228 -0.31301233 -0.57953227 0.06512109 -1.0475119 -0.97686183 0.76715475 -1.4249558 1.2501531 0.48349112 1.4640102 1.5413027 2.1215978 0.98724693 0.62274015 2.6562011 0.09558258 -0.32811615 -1.3771198 0.042227358 -0.98414546 -0.5734637 -1.100239 -1.5321339 0.28888002 -1.424117 -0.3948847 -0.39371854 -0.32390872 -0.564252 -0.47270808 -0.46840787 -0.35589385 -0.605465 -0.5895715 0.031796753 -0.089092925 -0.28660756 -0.32743293 -0.28774863 -0.10563628 -0.5430743 -0.47966328 -0.3711923 0.59833145 0.7227568 0.58490497 0.57958424 0.6512558 0.69722134 0.30646107 0.2770759 0.42251444 0.09077165 0.2437716 0.757138 -1.3677236 -1.5297275 -1.0645705 0.18778 0.17591608 -0.34292442 0.869577 0.9803635 1.5576495 -0.8233055 -0.994208 -0.55512005 0.23036183 0.14257173 0.029860357 0.7920815 0.7213441 1.3740389 -0.8919212 -0.85705996 -0.42935756 0.14723724 0.14853182 -0.058507252 -0.10615881 -0.089895174 -0.059103195 -0.02705041 -0.051689703 -0.01142284 -0.05852401 0.09994052 -0.024237307 0.05505364 0.09141674 0.021893045 -0.097577706 -0.112220325 0.022546954 -0.010844206 -0.026092187 -0.13915972 0.08431016 0.12520464 0.001918711 0.08239728 -0.011812477 -0.006289666 0.017074708 0.0071494426 0.06084968 0.070049465 -0.1502904 0.0024592192 -0.10595913 -0.09095609 0.10963662 0.013674237 -0.1461824 -0.016041981 0.120064475 0.023651728 0.057751678 -0.0936627 -0.04741205 0.044534057 -0.009123475 -0.07240573 -0.10129916 -0.07125872 -0.10267451 0.013764234 0.019237813 -0.075100325 -0.015256873 0.0588587 0.049310867 0.054536354 0.016347686 -0.13136183 0.034375574 -0.14624855 0.04917116 -0.012892304 0.101367086 0.08501909 -0.08164265 -0.08518172 -0.05510625 0.09340608 0.100528516 -0.13788277 0.097106 -0.033640586 -0.109434836 -0.049034186 -0.089391634 0.06367095 -0.15557659 -0.06481088 0.0958838 -0.097648285 0.04811871 -0.055094294 0.015593251 -0.40538168 -0.24057397 -0.10096779 -0.25055346 -0.34876665 -0.40015978 -0.36991775 -0.3245525 -0.40422258 -0.44559956 -0.41403458 -0.33079907 -0.42880124 -0.45162556 -0.2456138 -0.42734507 -0.5396658 -0.3315374 -0.12910238 -0.0020978046 0.031076256 -0.026558094 -0.009435449 -0.11976095 -0.13595206 -0.07581658 -0.1167704 -0.1310851 0.058813076 -0.058644146 -0.031610567 -0.007535058 0.019509463 -0.066843964 0.06368496 -0.07347472 -0.081187114 -0.067414336 0.028409168 0.006109694 -0.09539998 0.030882675 -0.01268257 -0.051621217 -0.06921086 -0.12173506 -0.07615914 0.11898871 0.0798667 0.064928904 -0.059458185 -0.013704586 -0.018613337 0.061494246 0.4714624 -0.27660912 -0.4933343 0.5296638 -0.25841784 -0.47194287 0.6547505 -0.49942127 -0.44689953 0.7445703 0.045530185 -0.14592646 0.7946735 -0.16142859 -0.35242558 0.7042703 -0.26682478 -0.6169402 0.59890944 -0.085227445 -0.5337017 0.86493087 -0.16347322 -0.6425072 0.6105329 -0.1440042 -0.6898504 0.16357222 0.47265688 0.067279965 1.231749 1.5309093 0.60417247 0.97093356 1.2764888 -0.07817532 -0.4455548 -0.7633951 -0.43788883 -0.5166151 -0.5434454 -0.2989489 -0.5985902 -0.7018448 -0.66115373 0.3766115 -0.30558085 0.6187709 -1.035184 -1.2917957 -0.21752802 -0.69788927 -0.9850633 0.15141891 0.11736434 -0.07648134 -0.14191629 -0.027084265 -0.043082796 0.027528835 -0.070676334 -0.020881036 -0.0019412204 0.11040408 -0.02031816 -0.11367405 0.016902924 -0.10022463 -0.035076838 0.018465785 -0.1228506 0.12582855 -0.03462361 -0.02845701 -0.11665167 -0.14726773 -0.1314423 -0.08941028 -0.099613056 -0.11017784 -0.08232082 -1.125563 -1.3752861 -0.8822029 0.7203357 -0.06381706 -0.46426237 0.7936433 1.5303472 1.454129 -0.642394 -0.8255311 -0.38429925 0.7180072 -0.35071233 -0.4766666 0.5540359 0.6501104 0.583484 -0.3142207 -0.6121684 -0.19542974 1.0316064 -0.3572787 -0.7751507 0.33496827 0.42730814 0.3897458 0.77594775 -1.505901 0.6118719 -1.5515407 -0.31012732 1.6746768 -0.8414244 1.249584 -0.055793077 0.120863475 -1.900183 0.7059006 -2.182626 -0.25608212 2.3838284 -1.5145837 1.3261871 0.7528367 0.34459555 -1.6195301 0.45985037 -1.3805456 -0.2160092 1.7641209 -0.6660461 1.3250926 0.12971948 0.09452259 0.13003942 0.13872178 0.15737565 0.3159527 0.23249659 0.4245176 0.22933805 0.41701102 -0.19247608 0.070845276 -0.15922649 -0.26221418 -0.054973073 -0.12461987 -0.07243542 -0.040235467 -0.2699243 0.14399096 0.1947717 0.029487394 0.12607998 0.22244167 -0.028857728 -0.27222645 0.004605862 -0.28733832 -0.55467576 -0.73795223 -0.40973717 -0.4576128 -0.63915116 -0.3673529 -0.923005 -1.2201697 -0.99699783 -0.27565503 -0.22250524 -0.029441131 0.4009413 0.2670927 0.41395912 0.6325268 0.38236514 0.28321365 -0.58193076 -0.5609205 -0.16998494 0.253553 0.33715597 0.5659878 1.0855882 1.026745 1.2638037 0.14877032 -0.18433839 0.021330819 1.2062534 0.24765536 -1.2890358 1.0905118 0.95090175 -1.240274 0.5783384 -0.36087438 -0.69000846 1.4914215 -0.020134578 -1.8994768 0.938625 0.19792677 -1.8147123 0.6203206 -0.17389506 -0.30942428 1.1080573 0.29927665 -1.8230398 0.9205751 0.8163539 -1.2698761 -0.0065571493 0.21468177 -0.13840601 -0.025333714 -0.027333362 -0.059312318 0.09494486 -0.17752023 -0.42998767 0.26448357 0.52490294 -0.15535833 0.3598377 0.10566349 -0.15412816 0.12289037 -0.3566566 -0.58644325 1.3087258 1.5441341 0.90048486 0.7851337 0.61221194 0.5510862 0.38691378 0.46051833 0.13266402 0.56752396 -1.1154009 -0.60546714 -2.6152883 -1.5876439 0.51494014 0.8119152 1.5489079 1.0745568 1.2380697 -0.2229648 -0.039040115 -1.835692 -0.9131822 0.40055424 0.98202705 1.46582 0.38768697 1.2484974 -0.094978884 -0.37667665 -1.8247125 -1.0756844 -0.09330704 0.5843499 0.7002153 -0.29246852 -0.5618878 -0.019493151 -0.709218 0.012120198 -0.33356556 -0.7215278 -0.84701216 1.0712273 1.0595139 0.042833794 -0.09035917 -0.5212041 0.1162261 -0.10590897 -0.28655243 -0.27076966 -0.05455027 -0.04869319 0.9457533 -0.03228184 -0.87199545 0.22058125 -0.032732815 -0.87267274 0.07013623 -1.5966389 0.9119012 -0.042740643 -3.4794319 0.045584 -0.10829151 0.045843236 0.04654029 -0.037236955 -0.040755726 0.06884494 -0.13419676 -0.13260359 0.059766088 -0.1190555 -0.0691882 0.1062611 0.0004289699 -0.07216782 -0.027106825 -0.08004092 -0.06939977 -0.08923587 -0.22874212 -0.15349588 -0.055398606 0.1106506 0.31083027 0.14237541 -0.39713705 -0.07183769 0.06810981 0.045636468 0.042866733 -0.03905509 -0.2169114 -0.21390684 0.4008993 0.5193882 -0.14279874 0.21051064 0.529467 0.57006323 0.5055708 0.1536288 -0.07126058 -0.2620895 0.32308677 -0.03195984 -0.09844077 0.31854182 -0.10570759 -0.33085597 -0.27622178 -0.3475989 -0.05655574 -0.20898755 -0.68307585 0.08326041 -0.23580976 0.18334484 0.5183599 -0.08725747 -0.21993935 -0.12616196 0.21508919 -0.16568403 -0.26637012 0.28564492 -0.058711804 -0.24961932 0.23941377 -0.087134 0.40063655 0.33297786 0.07007159 0.14660443 -0.69311136 -0.35102868 -0.27890548 -0.020976039 0.14748111 0.02550646 0.56184053 0.5721362 0.17825815 -0.024692567 -0.41083136 -0.004772551 -0.01826451 -0.62531465 -0.37338755 -0.07249722 -0.44022283 -0.20985195 -0.5502917 0.054888695 0.34678864 -0.6511427 -0.76372683 -0.27740467 -0.058484238 -0.7056531 -0.772061 0.5435982 0.10001565 -0.008927032 0.25435582 -0.17201479 -0.28022957 0.57674205 0.10421151 -0.43350023 -0.059225645 0.016825307 -0.1506826 -0.0062587066 -0.053569354 0.016979378 0.018290732 0.12690479 0.08798694 0.4124664 0.11133455 -0.11453208 -0.028804796 -0.22086494 -0.190692 0.37782723 0.13564327 -0.26345435 -0.11857059 0.20571363 0.018677294 0.07237306 -0.052290782 0.18067008 -0.010314259 -0.16790287 0.04356801 -0.006762952 -0.07109589 0.12521344 0.07156126 0.03705453 -0.083599284 -0.04877647 0.09367383 0.020061817 -0.09013331 -0.06412807 -0.10239491 -0.047573958 -0.08172401 -0.10984171 0.113396645 0.104265355 0.101651855 -0.043118056 -0.08992696 -0.06826353 -0.11448855 0.09686628 0.05379104 -0.122966334 -0.07629626 0.029967261 -0.18140821 -0.32280806 -0.16624911 0.018508088 0.14262605 0.20530702 0.35204107 0.34653947 0.33379087 0.072631605 -0.10924304 0.09574094 0.035461254 0.04519272 0.10802989 0.10090414 0.094373986 -0.042253982 0.10806351 0.117081285 -0.036778644 0.12670112 -0.1093565 -0.011799964 0.17332402 -0.014061845 0.053880736 -0.060568005 -0.025894409 0.18480435 -0.1518581 -0.1821598 -0.15727508 -0.14727315 0.01182858 0.054396443 0.08243357 -0.03597534 0.11140553 0.09584315 -0.11497272 -0.047352254 0.019651502 0.07240247 0.09888721 -0.42037687 -0.4386195 -0.3993622 -0.45085964 -0.14654307 -0.2367416 0.8453649 0.23641911 0.06398121 -0.79282165 -0.9243231 -0.72685534 -0.6444136 -1.2500324 -0.5643083 -0.26569805 -0.55019367 0.24232826 -0.2132657 -0.10612634 -0.048766024 -0.057534404 -0.2412332 -0.050034925 -0.1165437 -0.025809808 0.3595392 0.13042636 -0.3761587 -0.39167777 0.28365937 -0.16453923 -0.30328906 0.9686301 0.3376303 0.09695283 -0.41539672 -0.5579615 -0.6051827 -0.8692143 -1.2094119 -0.3849593 0.08294835 -0.81091547 -0.5034127 -0.09179584 -0.17799057 -0.1628991 -0.09649316 -0.048588276 0.039696105 0.15729055 -0.10309633 0.28541377 -0.6879215 -0.5353739 -0.61088437 -0.43489757 -0.13574708 -0.063066624 0.10451599 0.63306564 0.48304498 -0.043334905 0.060598508 -0.129286 -0.010475574 0.06086378 -0.10810245 0.06340907 0.031469446 -0.09894995 -0.023090154 0.064632356 -0.05664391 -0.0139297545 0.09391312 0.064118624 -0.01165768 0.11772323 0.06338594 -0.5366961 -0.8528115 -0.26621416 -0.016237713 0.20208246 -0.27927887 0.31010085 0.80022687 0.42165616 -0.144969 -0.29424712 0.7372985 -0.465371 -0.034469374 0.10404409 -0.11782492 -0.09445982 0.3172327 0.034893993 -0.17781693 0.16314758 0.38968992 0.39870793 0.8168822 0.14396434 0.1618807 -0.29421082 -0.053624246 -0.6740578 1.051394 -0.37420845 0.15859044 0.2284676 0.055216 0.15823641 -0.4599337 -0.026321942 -0.53757405 -0.2891289 -0.3540437 -0.20162761 0.31275004 -0.04523968 0.30358556 0.0822614 -0.047198765 -0.17305237 -0.14477071 0.2894599 0.32537407 0.10451815 0.37664366 0.43471497 0.19836707 -0.3400966 -0.5189214 -0.13890085 -0.24954164 -0.30909845 -0.2743039 -0.12927657 0.37848702 0.43878996 -0.25223827 -0.48635057 -0.23146138 -0.3669611 -0.46916482 0.09002321 0.12692794 0.2929812 0.34625873 -0.07136444 -0.39851448 0.0552345 -0.94603735 -0.6170603 0.17545865 -0.31508195 -0.07079436 0.57965416 0.13773333 1.1894912 0.64526916 0.009822918 -0.10186717 -0.68951887 -0.094089225 -0.49451187 -0.2796694 -0.5319076 -0.39351857 -0.21279939 0.24667954 0.41590855 0.4952966 0.60815 0.4850944 0.096569076 -0.021327725 0.22012499 0.5351415 -0.17402546 0.21552874 0.12615572 0.06952471 -0.089005575 -0.17938718 0.21161647 -0.28136197 0.014028995 -0.6095421 -0.11445181 0.23070282 -0.39595386 0.50254047 0.071263626 0.06293021 0.10283012 0.14173636 -0.044592552 -0.017533626 0.005963993 0.021130659 -0.0021354437 -0.14471254 0.07209384 0.078731306 -0.093802676 0.07667496 0.0980318 0.004835495 -0.08859589 0.09865915 0.09398478 -0.0043013305 0.07369969 0.09372877 -0.119679004 -0.06757942 -0.0158515 -0.055948872 -0.11952536 0.0119464295 -0.42379868 -0.24961753 -0.26301584 -0.07012402 -0.13989843 -0.023498198 -0.15141746 -0.050217547 -0.286279 0.042334624 0.0057181255 -0.072427 0.036444932 -0.119679235 0.102532595 -0.0959942 0.044646177 0.020512085 -0.10423943 -0.20233655 -0.06483291 -0.050513327 0.05953216 -0.3030584 -0.082462646 0.07081817 -0.30052808 -0.6933204 -1.2755842 -0.37652567 0.077874005 0.7954339 1.1525736 -0.5784756 1.119158 0.29120097 -0.08784669 0.034685776 -0.029353578 -0.039214518 -0.09376348 0.11801725 0.013422544 -0.01353054 -0.08290717 0.047613155 0.057317864 0.989773 0.1570928 0.13414082 -0.08169491 -0.6671386 -0.19109067 -0.25098684 -0.16556974 0.27175933 -0.34257016 -0.5209183 -0.6606978 -0.44587943 -0.016967703 0.5182208 0.57979363 -0.02549355 0.011928227 0.138657 0.20135124 0.030173259 0.13427036 -0.02982832 -0.031333156 -0.39129257 0.06734997 0.45257303 0.17380211 0.3430699 -0.50585616 -0.63303 -0.40749797 -0.13252053 0.5675784 -0.99787647 -0.5826976 0.3308975 -0.7071621 -0.05046084 -0.4153033 0.5178724 0.39728698 0.29815027 -0.008844569 0.14873451 0.42040494 0.093938254 0.33274555 0.03632797 0.2571722 -0.030763678 -0.9850348 -0.08492304 0.15267226 0.23340343 0.3228775 0.70575374 -0.38306162 -0.3890038 -0.08638398 -0.2125225 0.19654384 -0.17338338 0.090109035 -0.055685304 0.058785543 -0.19439825 -0.1871399 0.08097204 -0.091031164 -0.1157993 -0.049345437 0.103548214 -0.08181135 0.1163699 0.0020633172 0.006169234 -0.043980725 0.11489337 -0.0028098626 0.14706653 -0.07307712 -0.28672123 0.29393056 -0.17330837 -0.26341137 0.59652686 -0.57118183 0.7260734 -0.03461482 0.3108159 -0.12719148 -0.93880475 -0.17212385 -0.848383 -0.90310675 -0.6142188 -0.44919735 -0.6301182 -0.31731468 -0.19291958 0.06363003 0.15962708 0.0614664 0.46280965 0.39288986 -0.12401082 -0.57690936 0.36985335 -0.19296634 -1.0525075 -0.10278527 -0.42355496 -0.9311742 -0.43593696 0.62966955 -0.44843185 0.13679212 -0.02783297 -0.25435483 -0.49602035 -0.43833095 -0.09768777 -0.34389785 0.06431471 -0.06646404 -0.0021974985 0.21840867 0.22992273 0.07673937 0.18081488 -0.16526888 0.03172041 0.19977951 0.3802766 -0.09486303 -0.07983087 0.36399385 -0.23616873 0.31175548 -0.25469846 -0.06246647 0.46486843 -0.09695408 0.0068418216 0.36255246 0.5800568 -0.20775874 0.36973995 0.311528 0.14012997 -0.01966823 -0.08237045 -0.06500147 -0.39594054 0.013591436 -0.22203714 -0.4527079 -0.45509535 0.029406313 0.1010176 -0.5782354 -0.5454004 0.27800667 -0.1433859 0.09286118 0.20324503 -0.3934201 -0.07346947 -0.47630444 -1.3308955 -0.92334265 -0.09230262 -0.6560449 -0.049582787 0.69850326 0.3352689 0.70792884 -0.3158782 -0.2872382 -0.2868958 0.033407416 -0.14857227 0.019032445 -0.040693738 -0.08149515 -0.11297998 -0.43031415 -0.6411537 -0.27826962 -0.18147539 -0.37527934 -0.58443904 -0.30204716 -0.335332 -0.44941163 -0.10287555 -0.06464594 -0.09673417 0.08505419 -0.049711857 0.03602174 -0.088932924 -0.09746214 -0.07956717 -0.057659823 0.09400321 -0.11768765 0.05464281 -0.004180427 -0.035775244 -0.06476094 -0.10713491 0.11822885 -0.041584715 0.008207213 -0.05871093 -0.08849625 -0.005894878 -0.01291309 -0.1008637 0.05048219 0.015285938 0.018125497 -0.36579385 -0.063743636 -0.13822125 -0.24410951 -0.071581714 0.10247093 0.028766865 0.08391885 0.10145134 0.09993546 -0.069446884 0.08347455 -0.11058617 0.11467826 0.078227974 0.064672716 0.06351327 -0.22496557 0.073714405 -0.21512365 -0.01692137 -0.04138127 -0.015878625 0.08141588 -0.26122108 0.054307893 0.16820443 0.96940595 1.2126406 -0.5515661 0.5546158 0.7447043 -0.8516421 -0.16601478 -0.84953374 0.074154 -0.09477715 0.0020039962 0.06605307 0.115215234 0.06511959 -0.103077024 -0.11753637 0.119052604 0.13261268 0.46922565 -0.38321048 0.21551453 -0.5136924 0.028798722 -0.34282017 -0.5105043 -0.069984145 0.4689383 -0.84806633 0.098972484 0.424455 -0.058889233 0.1328983 -0.11413278 0.5767884 0.41744915 0.12821734 0.05344055 -0.047476586 -0.09032583 -0.015515745 -0.11581794 -0.05504541 -0.05275084 -0.0003816582 0.10541171 -0.2949662 -0.54035455 0.13433768 -0.43307596 -0.48756942 0.54107815 -0.089653745 -0.37975442 0.09703819 0.6130812 -0.8100229 -0.3593607 0.9171349 -0.82579035 -0.31953296 0.5572294 -0.47084418 0.26639143 -0.32701185 -0.073942475 0.18089148 -0.2534898 -0.48834783 0.19005598 -0.5496521 0.11998978 0.641802 -0.35855046 -0.55402946 -0.06414804 -0.3609313 -0.3842233 0.38299808 -0.39260885 -0.1586776 0.066491105 0.07204324 -0.15376817 -0.05961621 -0.1939109 -0.16193452 0.052447498 -0.12415954 -0.25217658 0.07642171 0.05594245 0.11892503 0.005374433 0.115816124 -0.08857084 -0.114726186 0.044605315 0.11884242 0.14464912 0.6783653 0.15339282 -0.2577087 0.172374 -0.004078118 -0.9240555 -0.9374408 -0.5805632 0.4787838 -0.07738274 0.074186705 -0.043464046 -0.57521427 0.24075367 0.6116395 0.76172084 0.3757491 0.05494461 0.39174864 -0.022990994 0.38390827 0.38676122 0.058754668 -0.08258668 -0.053191938 -0.16800375 -0.34544432 -0.01557824 0.8344081 0.27560222 -0.4600023 0.055291597 0.7309272 0.3508854 0.1942165 -0.2824531 0.04929885 -0.23328772 -0.31293362 -0.34439307 -0.28772473 -0.5967694 -0.642493 -0.472743 0.27154073 -0.07719201 0.033897772 -0.09127401 -0.16722646 0.07598562 -0.031283345 0.18866582 0.3333815 0.008579694 -0.06070697 -0.18900934 0.5209083 -0.24812281 -0.32235983 0.0011741123 0.2463125 0.22315326 0.47866717 0.054595817 -0.0013628204 -0.39556903 -0.52080834 0.009770693 -0.3794982 -0.7133606 0.09824495 0.4279836 -0.003242509 0.19999194 -0.33999765 -0.44668978 -0.0145446025 -0.33885053 -0.32776237 0.13360605 -0.28816533 0.33575353 0.27868378 -0.3337137 0.052583028 -0.033704326 -0.17727932 0.2445509 -0.11845504 -0.07505174 0.20331272 0.32965973 0.26620278 -0.015921397 0.40196693 -0.6456963 -0.7345344 -0.6709255 -0.08756062 0.1965275 0.18606767 -0.25631684 -0.34630302 0.05475039 0.24394675 -0.05181731 -0.21525209 -0.047089692 -0.10988595 -0.02109877 0.005484017 0.28278723 0.2409086 0.5715358 0.4700536 -0.045535047 -0.010781593 -0.059177272 0.064563155 -0.09548044 0.064115934 0.089856215 0.05620816 -0.057135154 -0.055972673 0.0284517 -0.011676574 0.03369603 -0.11744428 0.113715015 -0.11092667 -0.027053082 -0.10554984 -0.045546144 0.08285437 0.08136691 0.029778354 -0.110490255 0.08215542 0.029876644 -0.07604139 -0.005852587 0.046503678 -0.11092782 -0.052005015 -0.008674087 -0.13362807 -0.10804192 -0.08421211 -0.06240733 -0.32697168 -0.10794558 0.09361824 -0.033168614 0.11415799 0.071475275 0.05910059 0.030460639 -0.078171 0.059142552 0.024680384 -0.16680457 -0.093894236 -0.42810607 -0.1509658 -0.42218605 -0.26152185 -0.1924715 -0.2287011 -0.071950555 0.6745037 1.1014404 0.5316098 0.42612642 0.44180858 -0.26104188 -1.1549636 -1.2393047 -1.588107 -0.03622642 0.03272208 0.006672522 0.0062919385 0.09079418 0.043694157 0.10441686 0.075789884 -0.12120617 0.3029951 0.1470378 0.085093126 -0.008901958 -0.33120042 -0.4162634 0.37504104 0.25621793 0.20614134 -0.05688785 -0.13765372 0.34679696 -0.18158798 -0.45842496 0.28134578 -0.16486561 -0.6812189 -0.294803 0.23487797 0.182859 0.06657375 -0.11630387 -0.23687443 -0.28061932 -0.1449048 -0.1841336 -0.030077146 -0.94768506 -0.67063683 -0.40824267 0.21105264 0.6404298 -0.06516292 0.24634796 0.14288025 0.48500195 0.16261667 -0.1634792 0.13753521 -0.15750003 -0.44659135 -0.12997366 -0.5289218 -0.49852908 -0.07080408 0.008151177 0.64808214 0.56321645 -0.041057255 -0.40487084 -0.16009611 0.037973564 -0.37453708 -0.38539743 -0.12273738 0.15220208 -0.05079907 0.47571316 -0.069168866 -0.13899317 0.3428269 0.58834815 0.38072973 -0.07249955 0.04636809 0.067670286 -0.20431307 -0.18460213 0.06110855 -0.2593588 -0.060990382 -0.028240418 0.026442252 0.025880165 -0.01646055 0.012751934 -0.010225732 0.10279336 0.0020939244 -0.083654925 0.026427502 0.7781369 0.32016602 -0.049857732 -0.36408833 -0.87461704 0.51442367 -0.879757 0.2527656 -0.02282541 -0.10427873 0.011419113 -0.24702244 0.020897573 -0.4123887 -0.21211286 -0.36643696 0.17234486 0.087503806 -0.24477781 -0.34390873 0.05446779 0.018766565 -0.05060745 0.22878587 0.10567342 0.4656938 0.27275944 0.49166653 0.29594493 -0.2844762 0.6616904 -0.11059462 -0.056839798 -0.67078185 0.410488 0.06805568 -0.34725553 -0.1884184 -0.1645271 -0.6892981 -0.59192926 -0.43270776 -0.41058496 -0.31275287 0.24365118 0.35677445 0.22306955 -0.25570586 0.38691127 0.13195093 -0.30632943 -0.5336437 -0.023382872 -0.012379378 0.17737691 0.19873652 -0.34892663 0.07973244 -0.3839789 0.033914357 0.23461337 -0.27703217 -0.15265119 -0.16916354 -0.11727544 -0.12844883 -0.16081999 -0.44917828 -0.22191498 -0.014610424 -0.55208975 0.0034383296 -0.44364914 -0.023618113 -0.28831214 -0.8576093 -0.899836 -0.70580924 0.13959403 -0.068726316 -0.043642886 -0.34649003 -0.6696832 0.008432225 -0.44868138 -0.067973055 0.50201833 0.35168087 0.05682154 0.40478066 0.3851816 -0.0874399 -0.37437695 0.029649494 -0.1963279 0.111616455 0.17323104 -0.0049677934 -0.3701728 0.23154558 0.012141456 0.045184724 -0.21694236 -0.10784077 0.16121097 -0.32156783 0.068196766 0.12825371 -0.16810855 -0.41218677 -0.32508335 -0.10723898 -0.1648549 -0.36515835 -0.011270108 0.021723436 0.092644185 -0.03619049 -0.12688617 -0.07790557 -0.0349265 -0.10590927 0.11021366 0.018443596 0.03501869 0.11695919 0.07097043 -0.025948813 0.105592184 -0.02210639 0.025567919 -0.034450967 0.11420867 0.07273232 0.097895786 0.027286656 -0.085544825 -0.028339218 -0.123605736 0.10356722 -0.026848515 -0.014552431 -0.11906019 0.111376606 0.25068283 0.034646668 0.12508714 0.17288831 0.15371767 -0.039924517 0.036726154 -0.031111412 0.050770823 0.123768926 -0.06043403 -0.104227334 -0.03224288 -0.05721806 0.11866377 -0.047628086 0.06847387 0.11217486 -0.4838051 -0.18755725 0.15017517 -0.013164598 -0.14956641 0.21411003 -0.18453807 -0.015261756 -0.18095922 -0.3354811 0.09706323 0.38786086 0.119171895 -0.23054937 0.0028205602 0.09357223 0.05012621 0.007536622 -0.05555389 0.051260713 0.07666284 -0.062028598 -0.025543628 0.07092212 -0.108654074 -0.0762523 -0.09306818 -0.042574022 -0.31783628 0.0042198496 0.55433255 0.07701908 -0.3457608 0.52516055 -0.65180206 -0.22791177 -0.105582334 -0.048556037 0.8282431 -0.102770746 1.2090615 0.06728855 0.6169819 -0.29154932 -0.7104105 0.0446856 -0.3071903 -0.057053864 -0.1390907 -0.01908837 0.13571118 -0.1088083 0.08932722 0.2215047 -0.41908422 -0.02662721 -0.11284094 0.05010595 0.22922473 -0.24815233 0.57599306 -0.056717936 -0.26417187 -0.00041107577 -0.012932688 -0.7454489 -0.34151193 -1.502684 0.14292473 -0.66034466 0.23436709 0.1740562 0.41106594 -0.5038057 -0.4342739 -0.59006727 -0.036146186 0.6666089 0.026502231 0.29728824 0.5899302 0.09883252 -0.25231558 0.5113169 0.49743256 0.58993614 -0.46636254 0.7852341 -0.3510108 -0.81219935 0.041328497 -0.10486527 -0.12144403 0.03202823 0.0063959 0.1282097 -0.13642983 -0.023596209 -0.0733663 0.0673419 0.03657352 0.057455957 -0.0998946 -0.047654696 0.120315336 0.016745446 0.015979035 -0.11112763 -0.16472864 -0.045985457 -0.22689594 -0.1575692 0.027670177 0.019889776 -0.19585249 0.24716058 0.45857412 -1.0998107 -0.3930772 -0.9220036 0.107867576 0.15077236 -0.8529669 0.44102976 0.81269115 0.9117833 0.14077301 0.23967119 0.1366068 -0.13307384 -0.17268251 -0.025182309 -0.24055536 -0.3857992 -0.07876738 -0.8386242 -0.33073768 -0.74407256 -0.14321086 0.43199402 -0.41881296 -5.373638e-05 0.7134863 0.579267 0.025772333 -0.04323057 0.1778878 -0.22873749 -0.20685975 0.08459884 -0.061617877 -0.12649322 0.19581053 -0.14387666 -0.3303384 0.004302381 0.19566186 -0.0017022304 -0.32876116 0.46133 0.123401254 0.19361976 -0.3759233 -0.5475575 -0.45582741 -0.034652807 -0.10195178 -0.48328525 0.94829124 0.5456946 0.17587839 0.30139983 -0.19465983 0.5320156 0.22474788 0.13244157 0.1373553 0.13618322 -0.10190774 0.09890182 -0.083532155 -0.26653892 -0.11441922 0.2676756 0.06429446 -0.07237672 0.13519947 -0.31919962 0.20905204 0.4146703 -0.005959379 0.23774043 -0.17180552 -0.3308173 -0.03164219 -0.51555365 -0.5971435 -0.68150264 -0.18171327 -0.07802312 -0.19523723 -0.24254076 0.3043372 0.1993858 -0.090518944 0.01589736 -0.09447201 0.005770005 0.009000636 -0.06940551 0.033769794 0.015153044 -0.11491986 -0.29434437 -0.25782007 -0.04143402 -0.1544132 -0.1384788 0.046121437 0.09303542 0.12749535 -0.16553701 0.57208717 0.26001868 0.02094468 0.04246086 0.032023318 0.07947934 0.0041561634 0.0042455415 -0.09220616 0.09466 -0.10467001 -0.042708904 -0.07284852 0.060062833 0.03621573 0.08087519 0.016346145 -0.06263987 0.114447124 -0.05806081 0.08514138 0.04790924 0.035773214 0.03341032 -0.12252803 0.111460164 -0.06749877 -0.08942368 -0.08845174 0.08655936 -0.17919809 0.008110108 -0.16529882 -0.20989732 -0.005909859 -0.031452887 0.34979123 0.40693188 0.22959487 0.032329526 0.106406 -0.07095233 -0.10497048 0.019692803 -0.0074064084 0.018355228 0.07000057 0.05547114 -0.023577744 -0.0067126737 0.20964955 0.05682439 -0.09012244 -0.04562795 0.028677965 -0.12674902 -0.092909686 -0.038914368 -0.02632928 -0.08189079 -0.033049587 -0.11913408 0.042554565 0.22069891 0.30291972 0.37422875 0.039150517 0.058242388 0.11497306 0.029796004 -0.011561775 -0.0075397287 -0.087956384 -0.000580082 0.02485247 -0.51348627 -0.9287583 -0.5484068 -0.111777775 -0.19263081 0.05400206 -0.10009723 0.030579144 0.15378559 -0.015220776 -0.6069574 0.060886838 0.32836798 -0.6092588 0.078170225 -0.43844244 -0.6985959 -0.063805856 -0.05596343 -0.07616152 -0.054946635 0.019393206 0.05048713 -0.08252048 -0.15275392 0.0223796 -0.0647134 0.004935473 -0.18946725 0.21108098 -0.6343248 -0.2616141 -0.2679475 0.42763796 0.33795804 -0.17374952 -0.73087454 0.5788807 0.036082026 -0.050657947 0.0028594057 -0.55861497 0.11648553 -0.5777938 -0.69142085 -0.32419482 0.0038636385 -0.35692528 -0.117263764 -0.008606721 -0.12137511 -0.4279581 -0.29881796 0.045473285 -0.24867266 -0.48787475 -0.36936986 -0.36686602 0.13441932 0.0023548373 -0.03810874 -0.4018689 -0.41776642 -0.07565913 -0.0072836704 -0.09656994 -0.10270923 0.1363542 -0.047883872 -0.13568354 -0.36927468 -0.10765686 -0.067972116 0.024111917 -0.025435353 -0.02972629 0.117289826 -0.030867804 -0.008386417 -0.008796731 -0.058206722 -0.14849755 -0.07860272 -0.6488439 0.085837424 -0.09161819 -0.5996929 0.99004114 -0.36605066 0.9208173 0.10731199 0.07266396 -0.26179403 0.04397561 -0.068961546 0.09027533 -0.1310573 -0.27071178 0.18745519 -0.52465826 -0.2343074 -0.21706156 -0.58342034 -0.34392214 -0.22105567 -0.56290567 -0.40368763 -0.40302747 -0.31219795 0.04936338 -0.08005054 -0.44663343 0.27710006 -0.29127538 0.028250117 -0.29000318 0.047394555 -0.22258708 -0.54231876 -0.30617318 -0.43582588 -0.041081544 0.00060778356 -0.4055521 -0.35996395 0.00026431444 -0.3248753 -0.17877756 0.16818824 -0.32718366 -0.020219356 -0.4978728 -1.1679989 -0.15355381 -0.5762948 -0.10060794 -0.0050422978 0.14250313 0.4298378 0.039718855 -0.12148062 -0.55261564 -0.2765946 0.29090703 0.1520076 0.031291597 -0.2611334 0.18588795 -0.16929674 -0.07041182 0.1506441 -0.022702694 -0.23202023 -0.003696037 -0.024114138 -0.16364229 0.34755337 -0.45187715 0.08194269 -0.26477033 0.7755997 -0.42018157 -0.60546106 0.39576933 0.33066994 -1.2774518 -0.07791225 0.26272073 -0.96986496 -0.72939163 0.52686065 -0.13246226 -0.340681 0.06474085 0.96635693 0.9906667 0.66584605 -0.11128192 -0.38886505 -0.15273026 -0.16949822 0.10493459 0.109605126 -0.6969915 -0.13296084 0.09704593 -0.61972195 -0.31622177 0.024787195 -0.42246893 0.11608824 -0.41356355 0.014352775 0.19243221 0.271803 -0.32481056 -0.17934504 0.74040407 -0.0029100894 -0.05183858 0.08947642 -0.054260887 -0.021854796 0.14830826 -0.17517954 0.027140621 0.026117196 0.11065899 -0.037676696 0.034339707 -0.08894987 -0.105898574 -0.03302247 0.049897 -0.034734953 0.039956223 -0.007331848 0.012888793 0.083030514 0.081205234 -0.06771532 -0.019913 0.06679214 0.09010196 -0.03334162 -0.14566974 -0.016850118 0.07814995 -0.20082082 -0.11015481 -0.026638318 -0.26689616 -0.07080744 -0.2383023 -0.0066056843 0.071025945 -0.026864808 -0.040455937 0.006591807 -0.023692306 -0.026285991 -0.060927793 -0.06078084 -0.40190122 -0.1356283 -0.32081994 0.039223567 -0.06167078 -0.25670984 -0.518648 -0.020976506 -0.262926 0.058523085 -0.04056235 0.2285443 0.12653647 -0.31203467 0.041628692 0.020627027 -0.29560328 0.0053918664 0.04563848 0.0020159013 0.016925262 -0.05358438 -0.0012631895 -0.0008514244 -0.10996428 -0.0438835 0.07801041 -0.24010763 0.245729 0.08381384 -0.3325032 -0.18872772 0.060940277 0.2915015 0.11690446 0.26379418 -0.18947119 0.48042303 -0.34984753 1.043841 -0.6139135 -0.71636415 -0.6446243 0.5894641 -0.6024582 -0.19766662 -0.26754662 -0.16843304 -0.21610734 -0.09930745 0.014518638 0.0827119 0.14941892 0.34678134 -0.63737816 0.030376129 0.45240325 -0.5456855 0.15989685 0.04052646 -0.83458185 -0.4159205 -0.32611978 -0.17447773 -0.04866384 -0.2937319 -0.16009776 0.06887976 -0.73182297 0.86487246 -0.9410201 0.3012638 -0.24382117 -0.3385562 -0.16512038 -0.6542163 -0.30211598 0.15943319 -0.679708 0.00887163 0.107876986 0.074629515 0.08573201 0.17411987 0.0770054 -0.08290599 0.22260126 0.30290657 0.25517672 -0.62855726 -0.092123374 0.04440344 -0.0057400065 0.20832632 0.058207944 0.12955268 0.27785167 0.05303964 0.05986018 0.037494246 -0.123706244 0.03159399 0.021510743 0.106144644 0.028283421 0.0034430756 0.0684343 -0.11976213 -0.2246046 -0.257126 0.20183179 -0.030540172 -0.2026285 0.06414513 0.37669566 0.015615118 0.11099926 0.42989853 -0.70740604 -0.62404263 0.1469376 -0.4637114 -0.42557535 -0.113347664 -0.39466688 0.1970096 -0.11477476 -0.09508148 0.043202896 -0.2145858 -0.17723311 -0.06416812 -0.28105873 -0.49218962 -0.20531324 0.15123898 -0.7628665 -0.43801033 -0.3820462 -0.3871016 -0.22236587 -0.31990626 0.11594342 -0.09160906 -0.043862857 -0.091157325 -0.1989722 0.5788855 -0.1632044 -0.048484776 0.17560467 -0.31840605 -0.27695915 -0.3102072 0.04789535 0.6058142 -0.22029033 -0.15354332 0.06693038 -0.16609518 -0.27583358 0.0033020806 -0.29568067 -0.15133113 0.16237985 -0.24416153 0.008345574 0.10537521 0.0026028585 -0.033183873 0.1293847 -0.7416017 -0.21583137 -0.1109971 -0.16206342 -0.16166389 0.02451269 -0.23441306 -0.22087072 -0.09555643 0.17791022 -0.552647 -0.8658422 0.23076966 -0.29812095 -0.7742513 0.041262012 -0.17848377 -0.4753083 -0.055694714 0.52470636 0.55590487 -0.38643727 -0.2925695 0.18729846 -0.25973782 -0.3002684 0.41589478 -0.33126846 -0.13967305 -0.12820432 -0.2731323 -0.42407328 -0.11723059 -0.25934967 -0.41973132 -0.14060207 -0.0076387585 0.046173763 -0.010689628 -0.09594656 -0.059144903 0.0781291 -0.1651783 -0.08403828 0.10547927 0.09361047 -0.3360386 -0.14648294 -0.16017812 -0.43886453 -0.3827519 -0.079018965 -0.24086367 -0.34110075 0.020123597 0.1506233 0.03414154 0.13031399 0.043300778 0.0673911 0.030615225 -0.028628906 -0.004295623 0.04016437 0.022567848 -0.079951346 -0.12543449 0.03669055 -0.046912696 -0.06585067 0.04679923 0.10459046 0.100982144 0.1023064 0.108816795 0.102043524 0.033736758 0.08729139 -0.065065555 0.110547476 -0.08694744 -0.036534257 0.010523389 -0.031638533 -0.09956874 -0.017493451 -0.1722775 -0.07602598 0.029645888 -0.12745269 -0.082980275 -0.032518417 0.09120341 -0.116904855 0.023480829 -0.10233554 -0.116692975 0.035560496 0.06398289 0.0329835 -0.007898819 -0.27006832 -0.1298611 -0.09025674 0.056137808 0.025958003 0.1188887 0.08929329 0.19443925 -0.5428199 0.32907894 0.49452004 -0.9140919 0.33633873 0.6347383 -0.8054666 -0.22011128 -0.06655368 0.12060407 0.042454384 -0.10996835 -0.084627494 0.07155768 -0.0905144 0.11354813 0.0978662 -0.17297934 0.9061682 0.15511051 -0.7450239 -0.6847606 0.36717394 -0.40293494 -0.8832212 -0.1118354 -0.5789346 -1.0297837 -0.75203574 0.1635167 -0.9600294 -1.1257429 0.9185161 -0.2509746 -0.67364484 0.32113403 0.14295022 -0.0268675 0.063112624 0.14445002 -0.19886857 -0.02559037 0.004956016 -0.093254246 -0.6008847 0.07455218 0.35091227 -0.56481767 -0.042079963 0.13113491 -0.48275673 -0.14300402 0.20676635 -0.6802583 0.68872553 0.7463633 -0.9018112 -0.48593402 0.51216906 -0.7078314 -0.16832007 0.19167049 0.87635547 0.1663711 0.20422514 -0.050917618 0.004120481 -0.4152318 -0.14083205 0.06856511 0.11451044 -0.022964692 -0.5821785 0.38265643 -0.4025409 -0.6117334 -0.36396477 0.22532114 -0.6643514 -0.65268534 -0.38435382 -0.16919121 -0.028690625 -0.19873098 0.012334913 -0.339532 -0.2364433 -0.33711696 -0.33895057 -0.030383667 -0.08183976 0.009857823 -0.08461513 0.058648016 -0.05175569 -0.014869503 0.033499137 -0.05081617 0.043674268 -0.42711723 -0.062950626 -0.72836846 1.2391149 -0.4962976 0.4307256 -0.2968517 0.20940956 -0.4833747 -0.2689925 0.27553684 -0.2258061 0.32698876 0.3837302 0.13717842 0.35228768 -0.6402893 0.07921507 0.16629457 -0.05357132 -0.04768985 0.019042812 -0.6044272 -0.34352 -0.23373914 -0.2843422 0.48845372 0.008872743 -0.25377008 -0.98700017 0.8561612 0.0649588 -0.10229278 0.13360663 -0.035197403 0.18516934 -0.20137003 -0.14265867 -0.20241809 -0.5674652 0.22219996 0.039881576 -0.29493985 -0.8279525 -0.09197298 0.06430392 0.48800975 -0.044165846 0.92661554 0.25071585 0.39922872 0.15622604 0.041559186 -0.20613447 0.059588548 0.03273878 -0.11431351 -0.38353902 0.62089866 0.6904368 0.347763 0.73117065 0.12742965 -0.2895632 -0.48639998 0.27999884 -0.3093043 0.54387707 -0.23312904 0.77767676 0.11559446 -0.25862017 -0.40763736 -0.3474032 0.46472543 -0.3228063 0.14811368 -0.019958874 -0.35621166 0.35978058 -0.41673326 0.53095907 0.22594908 -0.6251609 0.20874628 -0.27594638 -0.4422345 -0.6456738 -0.3784313 0.070047855 0.6928672 -0.09735312 -0.06604207 -0.6998156 -0.39489838 -0.92551666 -0.42368886 0.36202097 -0.15945897 0.2909981 0.2060023 -0.13158053 0.071146965 -0.05455079 -0.3062769 -0.47450638 -0.32955658 -0.24229603 0.09020847 -0.036950603 -0.2741353 -0.19496456 0.52951753 -0.08509853 -0.045119703 -0.6028312 -0.040809903 -0.053363655 -0.109993756 0.054478504 -0.06390203 -0.11401095 -0.110925704 0.06832994 -0.072989464 0.033349834 0.092470124 0.052170392 0.009962518 -0.07328675 -0.10206504 0.12298762 0.11301398 0.0917251 -0.03790757 -0.11525534 0.06490281 0.07669226 -0.059878685 -0.0609015 0.012396325 -0.029182622 -0.08168362 -0.21880685 -0.26283917 0.021326702 -0.28814775 -0.30543676 0.06574118 -0.30196798 -0.00067498814 -0.19567817 0.016385535 -0.10793177 -0.11431843 -0.07722545 0.118073985 0.083941534 0.0760425 -0.013916616 -0.043679558 0.044858478 -0.32689992 -0.054679528 -0.33499345 -0.39955017 -0.0467991 -0.76738816 -0.056274172 0.20336972 0.18645304 0.5563634 0.8133174 0.17768915 0.5142765 -0.7020616 -0.36691356 -0.5069289 -0.6375245 -0.047009725 0.06681648 0.07984718 -0.022388002 0.06566579 -0.013218344 -0.07616052 0.08023513 -0.044501383 -0.15851931 -0.28554723 -0.6275991 -0.1390764 -0.8680171 -0.49039283 -0.06231812 -0.0059342855 0.23698767 0.278877 -0.026965356 -0.2051196 0.6320723 -0.27859434 0.38510677 -0.7943094 0.72084606 -0.21157761 0.117290266 0.11149479 -0.16951051 -0.11975204 -0.18238889 -0.07153139 0.043580562 -0.16294906 -0.07056506 0.119053334 -0.04586886 0.47033212 -0.35422188 -0.22056454 0.53884864 -0.24323624 0.019757794 0.0023748605 -0.121835634 -0.58799595 0.42824766 -0.29558438 1.385705 -0.34014863 0.77544296 -1.0163815 -0.037484404 0.053925358 -0.00066842756 -0.29287353 -0.6317894 -0.25041667 -0.21953876 -0.50068897 -0.2637495 -0.43981296 -0.31702983 0.26179233 -0.17718886 -0.118752725 -0.31636003 0.5708347 -0.24373966 0.86607426 -0.15379395 0.05965274 -0.1262549 -0.104136854 -0.047712155 -0.0795514 -0.19363505 -0.066099286 0.12021208 -0.11514534 0.10030634 0.10181572 -0.08162667 -0.08171758 0.12321121 -0.016230939 -0.109890945 -0.033754885 0.072893575 0.50628096 -0.466569 -1.0954082 0.34912327 -0.10808215 -0.2681134 0.42629477 -0.43114036 -0.27704602 0.4044822 0.27188808 0.00024110649 0.68811387 -0.49422878 -0.5598815 0.14022279 -0.8389625 -0.36475915 0.033574995 -0.057926368 -0.040014375 -0.2807245 -0.0406726 0.05141813 -0.29811049 -0.25409606 0.10898477 0.23523372 0.006749902 -0.69886214 0.4340144 -0.45988792 -0.34342566 -0.08998152 -1.1425301 -0.33783302 0.0353355 0.31032762 -0.048918933 -0.013415256 -0.0998541 -0.1959196 0.09085189 0.06735578 -0.011545749 -0.025333753 0.38728878 -0.22553161 0.101306826 0.51447767 -0.10417282 -0.22490138 0.31865913 0.2921719 0.0707387 0.34753117 -0.29360294 0.56802696 0.19011177 -0.23216519 0.3789329 0.10463559 -0.2303383 -0.7413607 -0.17855094 -0.09887501 -0.24542661 0.3114648 -0.044733327 0.18555073 0.32749897 0.3077604 -0.70980775 0.20550582 0.34940067 -0.5635024 -0.3016664 -0.41214722 -0.45565754 0.051777385 0.58904546 -1.4878776 -0.57897764 0.7123348 -0.89372456 -0.40398952 1.264807 -0.77383703 -0.50921535 0.9858745 0.6376527 -0.37622768 -0.84020174 0.05218167 -0.3113242 -0.48103467 0.34992903 0.112948805 -0.28173485 -0.50173783 -0.51149654 0.067201376 -0.4637221 -0.35843667 0.7079448 -0.41463244 -0.26989108 0.6468653 -0.18827273 0.05503884 0.41500553 -0.14869682 -0.5140566 -0.112404086 -0.12291071 -0.48309705 -0.049163956 -0.05160888 -0.08842208 0.10403392 0.0143694375 -0.008337052 0.09769345 0.025505938 -0.15530893 -0.043088887 -0.011682302 0.030707147 0.05756645 0.08840976 -0.07200257 -0.019941848 0.0014595565 0.041749995 0.04560683 -0.057679996 0.011706682 -0.07227153 0.12111167 -0.05793387 -0.00071890786 -0.06990965 0.10212001 -0.06861425 -0.10392039 -0.014741162 0.06347389 -0.13296206 -0.052565206 0.12197548 0.04059095 0.0945638 0.1846672 -0.05790411 0.10467266 0.016022211 -0.11657336 0.025684461 -0.032212537 -0.07324123 -0.0003464452 0.010334038 -0.01540347 0.21121192 -0.023593495 -0.15659979 0.14777777 0.0573382 -0.08264241 0.19635111 0.32182807 0.33428323 0.08552949 -0.524087 0.23276989 -0.079130076 -0.59005535 0.45612186 0.29181084 -0.406708 0.059722673 -0.113615215 0.107582815 0.085016884 0.009801334 -0.023625854 -0.079849705 0.024925184 0.023110768 0.37580183 -0.7105602 0.79692185 -0.26970488 -0.7658978 -0.19311959 -0.09839716 -0.872245 -0.36961928 -0.9142273 -0.25780603 0.63386846 -0.6687852 0.22696279 0.7745245 -0.4956096 0.12032073 0.30963424 0.10332775 -0.22648232 0.2044051 -0.032524753 -0.08492413 0.23788784 -0.35761034 -0.16511898 -0.016233796 -0.8527507 -0.26811293 0.7364734 -0.478699 -0.11013986 0.72900206 -0.5024994 -0.018232755 0.7038853 -0.049664423 -0.14423883 -0.64415675 -0.53406423 0.121629514 -0.35735106 0.44271988 0.26664135 -0.045578323 -0.35239995 -0.53621525 0.8371744 -0.65743876 -0.3947875 0.7085085 -0.6129019 -0.35724974 0.2426726 -0.09413001 -0.42491978 0.5877224 -0.13790832 -0.27585748 -0.19195686 0.19825648 -0.4521401 -0.23989673 -4.3371423e-05 0.007465733 -0.14892082 0.16493812 -0.103110515 -0.27039212 -0.18553537 -0.06125321 -0.2095474 -0.05318497 0.07360822 0.12002074 0.09006949 0.013326588 0.04241421 0.07040322 -0.045555454 -0.049624126 -0.10059804 -0.29890367 -0.7967271 -0.39111397 0.0038109766 -0.28028324 -0.22560653 0.48918265 0.21296324 0.36202866 -0.21154675 -0.0034376734 0.041407242 -0.41812667 -0.49079874 0.04611645 0.32482076 -0.49205545 0.26696557 0.44106126 0.1878702 0.024558317 0.101349 -0.17588918 0.093360394 -0.036822632 0.10440782 0.080181696 -0.15618855 0.29890877 -0.038830634 -0.6618177 -0.32183304 -0.1411501 0.4627864 -0.5795078 -0.19806935 0.09895292 -0.27833253 -0.0075200927 0.17480211 -0.15762448 -0.29143658 -0.22516343 0.2882148 -0.7483371 0.23164816 -0.09248833 -0.21204287 0.19750133 0.22185463 0.36943114 -0.08209396 0.63451934 -0.22408314 -0.33740917 -0.02068582 0.32724443 -0.2840077 -0.2225294 0.15011062 -0.26295468 0.12270163 0.4600252 0.31505308 0.18543135 0.8406299 0.4902354 0.43345672 -0.18275994 -0.2836668 0.267007 0.12839893 -0.19541259 0.33724532 0.1171927 0.06482738 0.116992414 -0.13262573 -0.21429625 0.06920154 0.7875626 0.0118537415 -0.31527397 -0.034754887 0.047840215 -0.5243255 0.1385347 0.3021645 -0.3440612 0.15442148 0.8302092 -0.3105012 -0.09700457 0.0944312 -0.3988046 -0.054698683 -0.23158583 -0.20868322 0.4606987 -0.062448323 -0.34510407 0.17058632 -0.21161127 -0.70876205 0.2264991 0.07100993 -0.56387055 -0.09837031 -0.08099956 -0.23416886 0.38555762 0.12155248 -0.26446348 0.6355238 -0.1704696 -0.25183186 0.026383579 0.057643227 -0.030154433 0.12651758 -0.05035791 -0.10546676 -0.03697161 0.08281648 0.010622116 -0.086388275 -0.09656475 -0.00032030285 -0.1054287 0.04495988 0.033887066 -0.052608386 0.077093534 -0.0865661 -0.07516146 0.07857668 0.11869779 0.009146732 0.08253028 0.05618177 -0.112461865 0.021707067 0.07173703 -0.27735472 -0.448153 -0.26089463 -0.25342664 -0.51131386 -0.3621925 0.108884 0.057700053 -0.064087346 0.11600187 -0.07003887 -0.044870436 -0.07383354 0.016563099 0.0444054 -0.0070426734 -0.06167547 0.07392737 0.15536037 -0.44699618 0.32188216 0.2295427 -0.40645987 0.38397098 0.29060045 -0.3743618 0.45876467 -0.026627708 0.1261292 -0.8963599 -0.29418474 -0.2081009 -0.717169 0.10367861 0.053952586 0.17787369 0.010968023 0.07180924 0.042845916 -0.056004375 -0.0037801166 0.111427955 0.11480699 0.045949493 0.014135641 0.28448835 -0.7036065 -0.40915576 -0.18215421 -0.85891545 -0.20817454 0.6195773 0.5206989 0.23291682 -0.062040396 -0.2141081 0.77509993 0.7354636 0.12229431 0.35380805 -0.6628645 -0.41104078 0.13389409 -0.061341636 -0.079099745 -0.016622005 -0.24945591 -0.0825611 -0.10057233 -0.0053474205 0.01597091 0.1471858 0.76072794 0.11513919 -0.1849088 0.03178476 -0.09139342 -0.44674918 0.46042705 0.19938362 -0.8177976 -1.1382488 1.6786736 -0.36741924 -0.056605298 0.84970796 0.24202098 -0.98354423 -0.41984463 -0.6372137 0.099047005 0.4152954 0.12412707 -0.25136268 -0.370898 -0.344688 -0.28970885 0.22606553 0.05056256 0.531626 -0.18982829 -1.1019065 -0.27836606 0.07831553 0.016542614 0.13333358 0.8043067 0.010727748 -0.12406088 -0.33685112 -0.3336031 0.0055983225 0.08064972 -0.38836983 0.046286203 0.16899472 -0.13414669 0.11400969 0.060450785 -0.05807426 0.11140889 -0.046798494 -0.03388079 0.0550826 -0.10219696 -0.050641794 -0.20055623 -0.18900752 -0.05101143 0.16640408 -0.026372291 -0.4318773 0.0015533076 -0.12035363 0.1245637 -0.61218405 0.99597913 -0.26594195 -0.84565014 -0.43253422 0.9336702 0.087460354 0.19657822 -0.388482 -0.21187203 0.2227509 0.43547162 -0.2199104 -0.29485655 0.3114398 0.019910505 -0.49806473 -0.06530413 0.077489935 -0.28071406 -0.30575395 -0.16289157 0.20076151 -1.1425847 0.13346341 -0.41561395 -0.88331413 -0.28574663 -0.22501047 -0.26563615 0.07186544 0.063060425 0.12705031 0.008735231 0.28138334 0.24648048 0.43017787 -0.28623143 -0.2325778 0.039298363 0.33542055 -0.04814413 -0.3680607 -0.071124986 0.085527584 0.5764874 0.41481993 -0.03201804 -0.90011775 0.20331635 0.38171852 -0.14892195 -0.35390082 0.44754052 0.17172399 0.03030856 -0.29709923 -0.35939497 0.13724944 0.1791318 0.26791912 -0.4506249 0.05170999 -0.5342912 0.46900573 0.057938993 -0.13056563 0.32934374 1.4050736 -0.03675499 0.66548514 -0.013436425 -0.33271226 -0.4517665 0.48316535 0.5313327 -0.6821888 -0.13496791 0.7672219 0.044543494 -0.48820692 0.024738908 -0.43029472 0.37151128 0.050463088 -0.113106884 -0.17491637 0.0018337616 0.07290114 -0.15484978 -0.004155886 0.09402936 0.2644162 0.17836505 -0.26289615 0.28701434 0.033749387 -0.26830304 -0.19937898 0.11301772 0.19747305 0.17149721 -0.57728475 0.33639523 -0.22676182 0.11671305 -0.3923745 0.046032775 -0.00065659283 -0.054569677 0.067712754 0.00897854 0.09332969 -0.07639658 -0.05482911 -0.08181417 -0.13031141 -0.054613706 0.02699525 0.09196945 0.09648727 -0.050641477 -0.0693024 -0.10541079 -0.11803935 0.08469467 0.05479802 -0.07535948 0.006234714 -0.027311545 0.005482131 -0.016701538 -0.073102206 -0.07187193 0.082608126 -0.06015555 0.0998328 -0.035227057 -0.168291 0.016703038 0.044526983 -0.20668744 -0.14971708 0.07616424 0.0745112 0.10800252 -0.073804796 0.08972414 -0.014575032 -0.023716718 0.048575364 -0.11922928 -0.09974215 0.112568095 -0.033659916 -0.01129423 -0.07245036 -0.5365739 -0.1526012 -0.3167399 -0.23019132 -0.06976994 -0.07780222 0.5666271 -0.32116207 -0.22551435 0.13632604 0.27876875 -0.20726904 -0.40334144 0.23670906 -0.11481959 0.058262195 0.09144947 0.09036129 0.01598419 -0.11025663 -0.036689024 -0.037810516 0.03462567 0.34516567 -0.6183099 0.01215936 -0.0012352824 0.526779 -0.5304685 -0.58664703 -0.2519044 1.0237131 -0.16127257 -0.15494405 -0.015228578 -0.20862688 -0.58931094 -0.20444341 0.37071776 -0.08484867 -0.43992844 -0.05628248 0.019358175 0.07772527 0.10732439 -0.050498355 -0.030306853 0.028100653 0.024685405 -0.11078813 0.28606522 -0.5098181 0.2887152 0.13234228 0.26317868 -0.6233304 0.16172123 -0.12304301 -0.120996304 0.19550456 -1.1106454 -0.21341719 0.27257904 1.0489663 -0.504888 -0.45447847 -0.15697739 0.5578986 -0.17596458 -0.12817933 0.045094628 0.0012899198 -0.35758346 0.014350039 0.1909883 0.0109390505 -0.4949739 0.46560663 -0.76552993 -0.3298068 0.15900403 0.07689923 -0.7307901 -0.20523988 -0.055928674 -0.18218319 0.10674239 0.03755268 -0.021961566 0.072468415 -0.12411551 0.024120195 0.0015893603 -0.07465683 0.10730907 0.0397608 -0.07800745 -0.100287326 0.04744232 -0.08671936 -0.03742737 -0.09837145 -0.08276153 0.10615523 0.017658345 -0.065453954 -0.018363688 -0.06718045 0.0070361164 0.0051476657 -0.03700118 0.055933386 -0.08378877 0.058032136 0.07997118 -0.04705668 0.0887452 -0.107559234 -0.093666665 -0.0639455 -0.05716239 -0.021549972 -0.06682693 0.06873928 -0.035321992 -0.016793255 -0.048492566 -0.078688264 -0.00030054362 -0.09424415 -0.11925258 -0.009383196 -0.09436752 0.084881365 0.03238633 -0.11569499 -0.030819517 -0.09863517 -0.09968601 0.07813458 0.025737645 0.020089954 0.090388894 0.068089 -0.0066595543 0.02202574 0.055810865 0.039931547 -0.04553789 -0.050912302 0.03613998 -0.026867697 0.019409008 0.082386054 0.0049409266 0.05220644 -0.0371933 0.11369487 -0.090317026 0.07043932 0.085338816 0.041814163 -0.045038454 0.071116045 -0.076408006 0.09109421 -0.08047372 0.107962884 -0.06844698 -0.12880951 -0.099686064 0.070685826 0.06642238 -0.026976282 -0.06435854 -0.054347105 -0.069179095 0.104732744 0.10452721 -0.028755588 -0.029249778 -0.033276346 -0.011314064 0.0382483 -0.10526498 -0.09411795 -0.04962763 0.11598216 -0.03045386 0.027428083 -0.10876181 -0.051768284 -0.008215769 0.09094177 -0.093456544 -0.11961385 -0.044589803 -0.11997872 -0.08676795 0.088089876 0.04924166 -0.0041693375 0.036684755 0.063364916 0.01356 -0.045706864 0.017206075 0.100801595 -0.0858471 0.030328972 -0.06588217 -0.030756697 -0.06061336 -0.045037303 -0.10441736 0.089858495 -0.059016064 -0.02940129 -0.09603141 -0.029796768 -0.05645926 -0.014320526 0.011274348 -0.056019243 -0.12100985 0.085126944 -0.08504926 0.117766485 0.011762141 0.10570109 0.021743689 -0.10011081 -0.042970948 0.11628847 -0.053537223 0.031053549 0.085062504 0.07565258 0.08494768 0.08906991 0.07190168 -0.08207708 0.11331597 0.071110785 0.10694036 0.034412567 0.05621287 0.072635725 0.10640452 -0.045568276 -0.12063322 -0.08051102 -0.012390236 0.08870108 -0.109919205 0.0012929271 -0.0052174986 -0.02225028 0.07040638 -0.026311865 -0.08075815 0.02554519 0.03993261 -0.014801851 -0.09151239 0.031795077 -0.008857964 -0.11753027 -0.11114991 -0.02589081 0.01409657 0.022888916 -0.025759641 0.03415016 0.09956812 -0.11607005 0.047494806 -0.08962904 -0.006415629 0.018827396 -0.05251192 -0.050930258 0.08393606 -0.022071486 -0.07215176 -0.007668547 0.076732345 0.06270151 0.10932072 0.078426 0.025396014 0.03645285 0.0129669495 -0.07386349 -0.119109415 -0.04053208 -0.12209338 0.020559775 -0.02788686 -0.06305631 -0.10403571 -0.022664038 0.022622963 0.006918741 0.056969427 -0.10728712 -0.13164164 -0.12990724 -0.06807639 -0.027429597 0.012376764 0.026118325 -0.101570815 0.039980102 0.030376144 0.033190154 -0.124521405 -0.009059833 -0.10578725 -0.10867218 -0.03046043 -0.12393832 0.09444455 0.032307155 -0.123288296 0.016235923 -0.01244706 -0.12514599 -0.06590888 0.045054078 0.0351074 -0.048343107 0.09862332 -0.088066585 0.045399927 -0.053642668 0.019149251 -0.11886329 -0.011870404 0.016064424 0.035154488 -0.010671116 -0.052470718 0.029672377 0.06473737 -0.08902246 -0.10945978 -0.04258814 0.041812386 -0.014860791 0.084556796 -0.075171806 -0.08442449 0.05794264 0.046766233 -0.066317804 2.5209384 -2.4117467 0.07198791 -0.3334467 0.020775435 -0.57679564 1.469545 0.8947665 -0.65800667 -0.3357235 -1.244919 -0.14321895 -0.09960384 -0.15368415 -0.11788527 -0.63177073 0.06304456 -0.21755512 -0.18318978 -0.36303365 0.0698414 -0.02944679 0.17325586 -0.34740245 -0.08654377 -0.4408724 0.3107721 0.3465491 0.31748068 0.033816334 0.06925194 0.52359533 -0.28099385 -0.1188701 0.65747905 0.3473321 0.045802232 -0.17299804 0.14086658 0.027439056 -0.32094252 -0.066794865 0.1885837 -0.027650172 -0.23393565 -0.14222902 0.09317115 -0.12612864 -0.35882053 -0.010286953 0.0599822 -0.16757314 -0.3124212 -0.16589522 -0.11431924 -0.08093981 -0.40987846 0.11005153 -0.10043348 -0.19547683 0.040526975 -0.11140786 -0.51247317 0.013573407 -0.27316913 -0.31599787 0.44333908 0.041624185 -0.30557686 -0.14649801 0.21984395 -0.16088876 -0.11051179 -0.052110974 0.2391318 0.13094386 -0.025825337 0.3292684 -0.1335289 -0.42699352 0.2074985 -0.24741623 0.25157174 -0.07294768 0.39627004 0.084515885 -0.38073826 -0.011088248 -0.06633098 -0.192394 0.04346826 0.08781393 0.1379412 0.36771518 0.95021564 0.478625 -0.23530652 0.10616573 -0.14469218 0.07648202 0.1998919 0.08185265 -0.28452438 0.2031166 0.3166391 0.020833809 -0.0037647611 0.15432929 0.17822027 0.18580186 0.19952956 -0.034398686 0.44674274 0.21607323 -0.081907086 0.16540812 0.24509402 -0.30577153 0.19183496 -0.022637028 -0.4980824 -0.23311085 0.17469113 -0.08749676 0.36005932 0.3291458 -0.08818771 -0.36140865 -0.18044856 0.022535738 -0.41355866 0.13936086 -0.33436793 0.23603877 0.17508246 0.0663382 -0.16826276 -0.38239157 -0.19687204 0.26745266 -0.057377093 -0.036329374 0.072403654 0.15709281 -0.19676387 0.03754448 0.36955062 -0.3274061 -0.47093254 -0.08869914 0.05207609 -0.2841551 0.18497479 -0.4336719 0.10470227 -0.21637583 -0.12319728 0.07012645 -0.08897895 0.005290947 -0.23920663 0.063754514 0.009305641 -0.025068568 -0.2588276 0.2477887 0.37221774 -0.012662048 0.2918327 -0.0068118656 -0.59701496 -0.15093203 -0.04439705 -0.006478914 0.028869722 -0.4075991 0.33711416 0.100999594 0.095374696 -0.040405534 -0.65607625 -0.16847952 -0.20239784 0.2858352 0.101897314 0.14860387 0.42574552 0.012690486 0.17412387 0.12722605 -0.20427798 -0.11515924 0.28186774 0.009773812 -0.19608805 -0.09208911 -0.16478865 0.07246502 -0.026385967 0.2716469 -0.3857894 0.3974748 -0.14015295 0.012530508 -0.07535912 -0.18244754 -0.002170353 -0.2245793 -0.16247424 -0.07379111 -0.0025869447 0.31884047 -0.16019528 0.061518583 0.017305441 0.3088625 0.3360667 0.08204311 0.03777166 0.12327768 0.2602243 -0.04862753 -0.27067637 0.037946463 -0.5277769 -0.22171019 -0.10413987 0.23310846 -0.15073663 -0.1512854 -0.10418153 -0.35338646 -0.005255563 0.044159442 0.17642832 0.18755163 -0.030293455 0.14311214 -0.15879709 -0.13941295 0.28619477 -0.46525198 0.22667792 0.14040975 -0.065880716 0.17032456 0.32176125 -0.33644748 -0.10399541 -0.05160155 -0.13868573 -0.6595528 0.24879856 -0.015946234 -0.1964527 0.26773706 -0.38905907 -0.13645244 -0.033819713 0.120198734 0.37295106 -0.21346498 -0.20931919 0.2090055 -0.09778627 0.03148966 0.047556136 -0.0033491328 0.14453617 -0.066214226 0.21091151 0.10129937 0.3202932 0.039819174 -0.42132357 -0.27886927 0.36004314 -0.16661012 0.026975041 0.35314378 -0.09491049 -0.1462259 -0.0055727856 -0.30906644 -0.12261487 0.3610039 -0.083204925 -0.015461845 -0.29277533 -0.22383925 0.00011679294 0.13684846 0.27023005 -0.028818645 0.4830202 -0.093556255 -0.08993257 -0.10143422 0.07245465 0.079807095 0.12534067 0.041758984 -0.1797667 -0.042300206 -0.2975505 0.14358723 0.2987052 -0.06004581 0.048427753 -0.14081499 0.026395658 0.3147009 0.07008418 -0.16667141 0.12268685 -0.1959712 0.054370306 0.1249428 -0.14330082 0.22292092 0.19506079 -0.1497769 0.037135903 0.08340546 0.24473584 0.08219373 -0.026260342 -0.04261509 -0.2237044 -0.19681758 -0.12552069 0.11630738 0.25651738 0.11748369 -0.1131103 -0.10333632 0.06924171 0.0014729404 0.23851864 0.15363456 -0.3168984 0.08616039 0.09589013 -0.14012931 -0.07389999 -0.27860323 -0.0666554 -0.22950071 0.13160233 0.14362401 -0.17014134 -0.13078362 0.14290352 0.24096721 -0.050476566 -0.386299 0.04003718 0.06880742 -0.2577009 0.08591838 0.36103955 0.443739 0.16143525 -0.09262735 -0.03523747 -0.25355732 0.031971827 -0.24074382 0.021400873 -0.43570882 -0.38556245 0.19284843 0.020486776 -0.067710474 0.08562381 -0.027120339 -0.03996434 0.1524285 0.22830242 -0.15529749 -0.38650617 -0.2605709 -0.0841569 -0.39312494 -0.007745438 -0.19292861 0.052663404 -0.02850799 -0.018263122 0.22359015 0.39104122 0.60680664 -0.42495444 0.14817393 0.026315501 -0.065509126 -0.0021102289 -0.2565041 -0.0025063884 0.08401759 -0.15050898 -0.054182194 0.049852498 0.12701203 0.084616415 0.09762826 0.4456037 0.035986945 -0.025809696 0.21703868 0.093845956 0.25835407 -0.2344704 0.046914976 -0.31848043 -0.3292124 0.1712075 -0.34600917 0.07190708 -0.045988753 -0.12113534 -0.24508889 -0.10659855 -0.20994723 -0.19834481 0.08752101 0.034928165 0.036676653 -0.18270025 0.2564883 0.21992321 -0.13533182 -0.3359195 0.22236809 0.2702017 -0.0994644 -0.19125189 -0.21618426 -0.10472588 0.08293845 0.009433738 0.13754934 -0.04622364 -0.13365915 -0.37430456 -0.06074481 -0.02219569 0.26725253 0.028790955 0.1646571 0.0069715925 0.070891865 -0.070956945 0.18117827 -0.24661607 0.31440648 -0.034480136 -0.19985382 -0.061942812 -0.12362454 -0.50014645 0.095497936 0.09411303 0.3632835 -0.20192471 0.17833772 0.08525293 -0.110794775 -0.002228366 -0.13269597 -0.0909398 -0.0954679 -0.23075338 -0.119362205 -0.0027380032 0.18394528 -0.03418884 -0.17762361 -0.10974478 0.0043813647 -0.3375498 -0.40874192 -0.123015925 -0.089306265 -0.19692746 0.31545398 0.29998818 -0.033104204 0.054247163 0.07811374 -0.022088977 -0.38897574 0.25379592 -0.1414343 0.08548638 -0.14044334 0.34321493 -0.2014061 -0.12691545 0.5066493 -0.08556207 0.076999135 -0.61834687 0.26469797 -0.25419584 0.12874345 -0.3445967 -0.0038465322 -0.06902745 -0.087105416 0.37586388 -0.10745727 0.30994377 -0.11550669 0.10345866 0.34311518 -0.26720497 -0.17288888 -0.14869364 0.31432652 -0.34446767 -0.4997758 -0.20879309 0.05543897 -0.14876108 -0.26737043 0.55005634 0.2036075 0.037768688 -0.6613633 -0.11511419 -0.16608055 -0.012848811 -0.106785126 -0.08953954 0.16683596 0.36992127 -0.2818927 0.18669575 -0.3303569 -0.13390541 -0.30262357 -0.21030034 -0.13361077 -0.3215816 0.02633075 -0.13345288 0.018124998 0.45377734 0.048637353 0.1439107 -0.4687112 -0.1127163 0.08077695 -0.15532255 -0.33031604 0.20132016 0.16182728 -0.11708307 -0.2456071 -0.1664959 -0.3341905 0.29088616 -0.5234757 0.41931418 0.15081841 -0.056205057 0.39121577 -0.29125834 0.0037255555 0.06372301 -0.12352246 -0.055579416 -0.20325695 0.08523239 0.2332529 0.61179686 -0.26872453 -0.5724927 0.19404422 0.24917948 -0.12761705 -0.16398071 0.036260724 -0.37117448 -0.2855103 -0.09526494 -0.44541427 -0.30380958 -0.20841388 -0.03380638 -0.2815459 -0.09992739 -0.44785032 -0.3089417 0.0897856 0.44868478 0.035379604 -0.17536245 -0.14610009 0.09672772 -0.36026067 0.1506295 0.29964104 -0.31475267 -0.19395095 0.19108301 0.24122162 0.012998089 0.3453804 0.18155101 -0.3616161 0.16230132 -0.0139115555 0.006760481 0.055488504 -0.17266546 0.025291277 -0.3540427 -0.024000503 0.3369351 -0.34420624 0.011132244 -0.37952965 0.0883963 -0.0034456286 0.05961656 0.15366532 -0.2633072 0.20310545 0.12983578 -0.17681034 -0.25456342 -0.041043837 -0.06935723 -0.10205609 -0.028795417 0.03466296 -0.06437069 0.02790326 0.09103148 0.13624537 -0.09502742 0.062405754 0.10937368 0.075935945 -0.027790744 0.035108984 0.14717625 -0.041601434 0.0435913 -0.05348598 -0.28749916 0.029354021 -0.05262061 -0.022225214 -0.1305391 -0.18459484 0.047595594 -0.121074796 0.25320712 -0.29072282 0.0896049 0.013339868 0.0720565 0.061470218 -0.16816078 0.20971435 -0.2838338 0.105403915 -0.26064292 0.33189264 -0.4190759 -0.08379408 0.1981127 -0.10498483 0.12363193 0.12172594 -0.09331414 -0.02526976 -0.09080996 -0.023326589 0.03512275 0.44765413 -0.1484902 0.037333183 -0.41832897 0.275157 -0.16837215 0.07803319 0.19348724 0.3057907 -0.14180546 0.25582728 -0.08525747 0.1440903 -0.4003573 -0.07807923 -0.14254582 -0.005715687 -0.16991195 -0.21235342 -0.2390119 0.13841529 -0.24242926 -0.0038585071 0.20327666 -0.14390655 0.064571515 -0.076558195 -0.046606563 0.2205821 0.027165094 0.13720348 0.09521659 0.14899465 0.022426426 -0.052163184 -0.17427604 0.05093191 -0.030521521 -0.4022789 0.12767638 0.31902322 0.084053546 0.16082081 -0.008990574 0.05380558 -0.18836628 -0.007062689 0.1482274 -0.2556062 -0.22106096 -0.004494103 -0.38291988 -0.27024615 -0.10640106 -0.22405729 -0.04434347 0.1668635 -0.015435615 0.24045876 0.07741247 0.32805762 0.2144094 0.4128698 -0.5160563 -0.21380772 0.1427323 -0.06012363 0.10663842 -0.49630696 0.19481367 -0.016669627 -0.26790634 -0.015581867 0.5793935 -0.24366786 0.07966767 -0.047162518 0.32386804 0.11243453 -0.32947025 -0.3551503 -0.1361835 -0.1563212 -0.3707536 0.4243138 -0.4081323 -0.40005657 -0.28744608 0.19577992 0.5440625 -0.04280135 0.1760884 0.014543047 -0.17362411 -0.3839519 0.074833356 0.4396052 -0.10071918 0.07468513 -0.09278281 -0.26245138 0.092981026 0.18819937 -0.0017429045 0.06278723 0.1954123 -0.1194533 0.46430156 0.18595447 -0.011846696 0.14216577 -0.23827207 0.020672861 0.20581864 -0.14115576 -0.23468263 0.03328141 -0.08549951 0.4361284 -0.33497226 0.057954222 -0.3746613 0.24436975 -0.000490738 0.10036689 -0.09592079 -0.32592064 0.05020121 -0.08261192 -0.07226194 -0.42328095 -0.23211046 -0.3864511 -0.022050695 0.009105667 -0.296005 0.01392011 0.20535597 -0.036074862 0.0009313324 -0.53622127 -0.17744146 0.12656751 0.021751173 -0.24049622 0.02357713 -0.17390324 -0.06833246 0.40966696 -0.6098339 -0.42351848 -0.010849515 -0.36526257 -0.37159 -0.29508406 -0.23075387 -0.08780923 0.06566831 0.20013843 -0.2902104 -0.0662574 0.3060889 -0.19468702 -0.39219153 0.48290265 -0.23979688 0.40040603 -0.08401527 0.13070202 0.08892198 -0.098521575 0.116364956 0.07414518 0.09929457 0.07629081 0.12331048 -0.45279634 0.00836025 -0.22610904 0.06294488 0.305978 -0.27699187 0.26487666 0.25366843 -0.15192033 -0.14312783 -0.07987948 -0.21540849 -0.04249095 -0.36235592 -0.5362772 -0.05489504 -0.037898865 -0.16271263 -0.024683086 0.05863278 -0.12260023 -0.23116289 0.19895288 0.19178519 0.1641222 -0.10677812 0.05435112 0.31388807 -0.41896307 -0.1677355 -0.2678269 -0.072098106 -0.3436318 -0.25051683 -0.016913148 0.00069105177 -0.19090037 -0.23939791 0.010727712 -0.09261144 0.07101791 -0.20733286 0.08616253 -0.2280034 0.23829852 0.49210575 -0.032597963 0.110485435 -0.108545445 -0.599985 0.05898002 0.14851926 0.121112205 -0.37545845 -0.33948937 -0.0044935113 0.055722587 0.30156437 -0.22175069 -0.1281015 -0.31200692 -0.03956413 -0.07803594 -0.06813632 -0.057744246 0.2271067 0.115494765 0.001594617 -0.23396355 0.2916744 0.100674234 -0.14128605 -0.38924146 -0.30269745 -0.15600818 0.19921933 -0.13058096 -0.42935216 -0.24672215 -0.162964 -0.14435436 -0.15321353 -0.32534096 -0.2821271 0.10154193 0.14040376 0.27123964 -0.07813728 0.48148882 0.023899732 -0.13909835 0.09998829 0.15026115 0.051682197 0.40375122 -0.17833802 0.19887419 -0.3892466 -0.20315519 0.055089988 0.03090169 -0.41708532 0.07634279 -0.25633717 0.18081726 0.099686295 0.219446 -0.30000287 -0.44263598 -0.10975394 -0.031459965 -0.08529819 -0.04459869 -0.38902977 0.3434847 0.111507006 -0.14108479 -0.056645364 0.10437842 -0.112796195 0.26912752 0.037537567 -0.11744001 -0.14386049 -0.376823 -0.002331709 0.36168328 -0.38294882 -0.10418534 -0.24403358 -0.2521273 0.13281319 0.32170194 0.65553457 -0.056684107 -0.059603084 0.53697014 -0.0054801228 0.561402 0.065207094 0.011953486 0.3149637 -0.347976 0.1303191 0.07179068 -0.016308427 -0.030718127 -0.20306908 -0.28104576 -0.04564483 -0.3434742 0.30173457 -0.064392805 0.22903752 0.27859622 -0.18334608 -0.196219 0.0346006 -0.35584262 -0.059261452 -0.1944205 0.14887972 0.075703844 -0.012679106 0.16446854 0.10590406 -0.107318476 -0.1335044 0.04734039 0.5520676 -0.013152706 0.31317633 -0.22610268 0.15588243 -0.19878522 -0.07966418 -0.06603653 -0.20204775 -0.06740751 0.018693423 0.04230066 -0.2451564 -0.06620082 0.061438642 0.09456719 -0.05860031 -0.4213371 -0.05355976 -0.30063045 -0.17263888 0.21816996 -0.46970385 -0.325725 -0.16454133 0.06607842 -0.30994657 -0.3433372 0.33490604 -0.25283775 0.0021549456 -0.46133515 -0.02270286 0.2692211 0.05876489 -0.11060608 0.3805129 0.19326487 0.12425525 -0.22809672 0.15216039 -0.27463844 0.17035496 -0.067165986 -0.10043243 -0.08312576 0.010634451 -0.052292775 0.1424306 0.051036082 -0.06209008 0.021904781 0.067590736 -0.037703518 -0.086033516 0.1319708 -0.11251805 -0.019765763 0.2593483 0.118070364 -0.060374655 0.115868084 -0.2478342 0.02126074 -0.22609617 0.017626591 -0.25231826 0.39864767 0.020479644 -0.064005345 -0.06214407 0.058643445 -0.30550954 0.15873751 0.23225501 0.5614576 0.08690243 0.26221532 -0.09919542 -0.022667794 -0.33092752 -0.020104893 -0.19227764 -0.0020504692 -0.082085304 -0.01680916 0.21575084 -0.12258534 -0.24831915 0.382774 -0.110349156 0.42594865 0.22494957 0.18151625 -0.18855967 -0.42620823 0.050957836 0.13978344 0.39396903 -0.54972893 0.3797076 -0.093927085 -0.07499557 0.23249409 0.1457289 -0.124291874 0.029598642 -0.18206169 -0.22412215 0.041201793 -0.13348834 -0.013545401 0.2273803 -0.05939697 0.16236116 -0.274214 -0.19602823 -0.28500566 -0.17434503 -0.22934145 0.024439158 0.06630087 0.030948699 -0.0063485154 -0.24996942 -0.16778453 -0.25136513 0.08418072 -0.061857603 -0.09600118 -0.16670604 -0.030390283 0.17186488 0.12357778 0.092032984 0.1892559 -0.011860952 -0.16187535 -0.12246837 -0.29230094 -0.24166022 -0.18827401 0.23067002 0.15432462 -0.21869256 -0.22595678 -0.47723788 -0.20834221 -0.0060112798 0.033238333 -0.022705873 -0.21577457 -0.39457905 0.06603634 -0.025774388 -0.24769776 0.017482815 -0.075404316 0.07457724 -0.064398095 0.2370448 0.03843144 -0.067325324 0.0494292 -0.032284044 -0.1283014 -0.28070435 -0.08971798 0.090091825 0.09888142 -0.38385192 -0.09275579 0.063960716 0.3002405 -0.08720532 0.11090412 -0.06723407 -0.22434942 0.0058745593 -0.3852759 -0.39856443 0.07599743 0.0818518 0.06524628 0.20234752 -0.04602426 0.080047265 0.104758844 0.20093869 0.08409193 -0.10477956 0.029373394 -0.33575237 0.15958583 -0.056329083 -0.43156144 -0.013114745 -0.2288836 0.26230237 0.1194855 0.11777735 -0.21009013 -0.01384627 0.33921814 -0.5036203 0.3060185 0.2930968 0.15615901 0.020236623 -0.30256397 -0.06555917 -0.20979418 0.25107735 -0.7460511 -0.21480022 -0.19075748 0.103900306 0.43258438 0.13997929 -0.14350456 0.0015981805 -0.2788268 -0.016290365 -0.1730663 0.3951351 0.09592543 0.022578424 0.10926418 0.04908084 -0.4988284 -0.020409185 -0.00023312533 -0.06619358 -0.26034307 -0.0029702957 0.27333042 0.06079755 -0.13420959 -0.2881291 -0.2492489 -0.27446556 -0.027612422 -0.08166086 0.09697971 -0.399054 -0.13623118 -0.13630235 0.03397841 0.3192117 0.2820865 0.13223276 0.5425383 -0.0060991985 -0.0341176 0.21190508 0.2623736 -0.31677613 0.26445818 -0.110673055 -0.1905661 -0.37488684 -0.34482816 0.20284319 -0.020105768 -0.15483715 -0.2210366 -0.45008823 -0.15753971 0.1375827 -0.2073745 -0.28496128 -0.13062268 -0.07505288 0.20096269 0.030474864 0.44437292 0.10218938 0.13633493 0.07099746 0.06008626 -0.01041912 -0.29569575 0.065125175 0.053649995 -0.18190004 0.23702307 -0.05490695 -0.19767863 -0.41946322 -0.08441321 -0.39755577 -0.014321089 0.06473004 -0.015368279 -0.078247465 0.24842648 -0.36775535 -0.21029727 -0.04124909 -0.11216162 0.1165142 -0.08721202 -0.09346118 0.43274564 -0.10829332 0.24518368 -0.05523562 -0.30431527 0.041878145 0.21242249 0.123994105 -0.04844654 0.15146245 0.12932657 -0.0094723385 -0.4112809 0.26804444 -0.011861478 0.10125444 -0.36614224 -0.30060768 -0.14431952 -0.089971446 0.34897038 -0.2738202 -0.0780931 -0.13766654 -0.20636873 0.32080746 0.42611942 0.08511373 -0.11558119 0.40525496 0.24518883 0.56848127 -0.21362038 -0.0021407877 -0.043471716 -0.19690081 -0.06269566 -0.0069506457 0.42318818 -0.04989822 -0.09151039 -0.13154563 -0.29185688 -0.23301347 0.04132809 0.1170749 0.3137176 0.15992115 -0.008652943 0.27386168 -0.29088393 0.47139642 -0.33896416 -0.281339 0.26166186 0.2676787 0.09355912 -0.18068117 -0.046607457 0.5564031 0.11924254 -0.16425073 0.43100533 0.07448162 -0.010816237 0.1039829 -0.3672487 -0.087937966 -0.003838732 -0.03630733 -0.14283462 0.17012441 0.12354979 -0.016994208 -0.02554334 -0.16891061 0.1766446 -0.6007347 -0.110926114 0.33927965 0.3101609 -0.22065058 0.014488643 -0.2345859 -0.37321812 -0.02633736 0.0362304 0.03754886 -0.081108466 -0.54975075 -0.20292546 -0.0048556784 0.17871796 0.08876909 -0.124276266 0.12345959 -0.007377954 0.17511915 0.09440596 -0.0495384 0.04971887 0.1669578 0.15338644 -0.093601145 -0.054549757 -0.44416443 -0.30350855 -0.09597223 -0.08050401 0.52560234 0.24891764 -0.050998714 0.4184147 -0.1402871 -0.013071665 0.15381272 -0.013448752 0.14204116 -0.016672391 -0.004945016 0.08461876 -0.093290105 -0.065658845 0.09578364 -0.013774817 0.058432054 -0.08961821 0.07089311 0.08279757 -0.0012901571 -0.043318193 -0.09498117 0.05497551 0.084694594 0.054793708 -0.025722539 0.038830634 -0.036102265 0.09349827 0.06358161 0.063503645 0.05521209 -0.08124425 0.032707706 0.07938902 0.04505405 0.022238499 0.041579217 0.044624407 0.08653422 0.03823909 -0.06711246 0.04065851 -0.09853999 -0.0355568 0.096894495 -0.08978593 0.010875304 -0.09982294 -0.062176477 0.0075685084 0.09151403 -0.06580497 -0.08704593 -0.095096074 0.0317532 0.07357634 0.0003753191 0.047972754 0.03397674 -0.057378527 0.057606578 -0.018689943 -0.09072326 0.08622068 -0.033953067 -0.010883525 0.09585701 0.058988694 -0.09540508 0.07676104 0.02231037 0.07480746 -0.007996155 0.09008397 0.06615315 0.06533757 -0.084770195 -0.05214305 0.029928254 0.017234363 -0.036406368 -0.02236564 -0.009015933 0.021810295 0.100365385 -0.07276476 -0.066791914 0.04540696 0.09786759 -0.074248664 0.07439846 0.06018746 -0.013763071 0.07594319 -0.07965459 0.028376885 0.08104366 0.047936156 0.015560115 -0.03179674 0.0940545 0.053462148 -0.09158217 0.088904016 -0.027980978 -0.08997948 0.027844165 0.029032165 -0.07006371 -0.08988358 0.07171347 0.0418503 -0.05154913 -0.088318616 0.075444326 0.05195434 -0.02235379 -0.041908804 0.020316606 -0.08253498 0.019861989 -0.09447595 0.09093803 -0.0237215 0.025986042 0.077232845 -0.025988253 -0.01879872 0.016381253 -0.016165888 0.018293265 0.03506009 0.20892112 0.014165266 -0.05400226 -0.19960015 -0.20952626 -0.09033404 0.045650724 -0.10101338 0.019866474 -0.45228544 -0.2561431 -0.5523777 -0.024978925 0.45515907 0.088473074 -0.11642819 -0.063821934 0.13136953 0.045556217 -0.04734333 0.10930886 0.1606935 0.18890542 0.0647233 0.105276175 -0.05820245 0.39401367 0.07801277 0.41576937 -0.04517496 -0.13861683 0.24030831 -0.06633301 -0.24059474 -0.053728733 0.09465137 -0.017038085 0.198798 -0.27835685 -0.30649415 -0.3089665 0.36571434 0.17914627 -0.1334866 -0.1022143 -0.09497091 -0.042523112 0.11145821 -0.3975531 0.08733744 -0.09383223 -0.334618 0.0062794257 0.08337896 -0.17527202 -0.04978909 -0.19094642 0.12658863 -0.12994653 -0.24608955 0.057983775 0.038015813 0.43987334 0.27548787 0.24067539 -0.16200079 0.08751108 0.0046444177 0.009040808 -0.17778431 -0.12374301 0.042048834 0.08969175 0.0065030754 0.21380278 0.1988997 -0.24352768 0.21850848 -0.1524012 -0.29080653 0.14893776 -0.0717229 -0.38424456 0.11979841 -0.19109578 0.12561291 0.05479359 0.09771669 -0.07712432 -0.13045461 0.4917632 0.0916921 -0.1402871 0.09755801 -0.18227592 0.32035628 0.099546544 -0.06230744 -0.19758837 -0.21991274 0.14151967 0.09043765 0.14714229 0.06923856 -0.15559655 0.0487148 -0.27143797 0.28944814 -0.12594706 -0.3037844 -0.0073333327 -0.18023065 -0.2546312 -0.0007765934 -0.11791289 -0.21528102 0.213249 -0.29908732 -0.18991615 0.13513702 -0.13776237 -0.16142336 0.1931257 -0.18751964 -0.22872038 -0.036033064 0.085590966 0.051552594 -0.3249837 -0.13177033 -0.12645546 0.10481304 0.15918912 0.30534 -0.0301038 -0.030443318 -0.09736085 0.32303163 0.42410463 -0.43601993 -0.114333026 0.35164475 -0.10548924 -0.14076042 -3.7752383e-05 -0.21071458 -0.5487306 0.4715805 0.29679194 0.05846706 0.11992739 -0.33793047 -0.07885265 -0.19823115 -0.009883775 -0.34591374 -0.18580876 -0.10295886 -0.3603185 -0.19720863 0.10966942 -0.040504597 0.09644351 -0.2539087 0.09222643 -0.26877382 -0.38835606 0.32131147 -0.10543895 -0.107925855 0.13758765 -0.2794973 -0.07879226 0.113608375 0.1760457 0.26279393 0.23558088 0.017989231 0.12639715 -0.08967372 -0.3827502 0.090068296 0.26258314 0.32482278 -0.20521 -0.3412966 -0.0070616 0.007982075 0.029441634 0.2646608 -0.18291293 -0.22100535 -0.20430806 -0.024613006 0.093405895 0.06685829 0.050089303 0.12198772 -0.0009949853 -0.10106696 -0.19365135 0.22530364 -0.16714975 -0.040432736 0.016121361 0.0940505 0.07221093 -0.10330885 0.027390325 -0.33715844 -0.04924251 -0.2457958 -0.2639577 0.40693077 -0.18587236 -0.122200556 0.2917819 -0.3361754 -0.28180707 -0.10892374 -0.11902554 -0.07773776 0.18029445 -0.07815496 -0.11355173 -0.07080325 0.13926102 -0.5838232 -0.043109518 0.10231912 -0.11233185 -0.029653586 0.38742244 0.11434651 0.26921964 -0.020899868 -0.08516814 0.052093398 -0.4339643 -0.18696761 -0.32501912 0.13752607 -0.06487521 0.08811791 -0.16901994 -0.006258162 0.28427744 -0.08484961 -0.11565007 -0.09200968 0.24883257 0.14732799 -0.14657532 0.3425013 0.056936346 0.09673141 0.16712046 -0.2201219 -0.19804715 0.11880083 -0.097955115 -0.101757206 0.028158512 0.078488134 0.14465106 0.16925067 0.28412992 0.007479138 -0.25680104 -0.18023874 0.22254236 0.5843674 0.035871103 -0.16406915 0.07175806 -0.21294457 0.21269828 0.010481397 -0.18326749 0.08303401 0.4309911 0.12465617 -0.0362266 0.104924545 0.041398432 -0.04865425 0.33214074 0.014686762 0.10372678 -0.10773422 -0.11244128 0.117520265 0.20452525 -0.12423646 -0.0028542269 -0.18427692 -0.23961826 -0.22134863 0.27951348 0.013238736 -0.14395949 0.12850216 0.25102943 0.03302653 -0.13624169 0.06314138 0.09494741 -0.30702525 0.013928577 -0.13594861 -0.023234477 -0.07591142 0.10447934 0.04573461 0.44163328 -0.040251438 -0.23661323 -0.10150236 0.1010769 -0.020055221 0.09667375 -0.012232279 0.22700068 0.056796763 -0.18060346 -0.09206539 -0.08583787 -0.18676938 0.21031223 0.282242 -0.09983772 0.0055217994 -0.0589402 -0.008722098 -0.012491082 0.10556312 0.058718488 -0.20614342 0.067264125 0.14825676 -0.08884912 -0.18089536 0.1266758 0.09653696 -0.17295386 -0.12033562 -0.35213888 0.11009723 -0.012226689 0.056035496 -0.29163787 -0.2269431 -0.0769191 -0.060614236 -0.17521474 0.09015451 0.065623835 0.040929373 0.0819029 -0.3266188 0.16184944 0.018998122 -0.05729489 -0.31223312 0.004393157 -0.32401854 -0.2251532 -0.122058064 -0.18093649 0.053187378 0.011384365 0.018284827 -0.28145388 -0.18073872 -0.14945556 0.17725326 0.15511331 0.104869016 0.39890373 0.06665792 0.18719749 -0.15784827 -0.20752457 -0.23748212 -0.08879579 -0.027707433 -0.063291 -0.22443648 -0.07929704 -0.23924105 0.4015611 0.21200971 0.2636508 0.040313866 -0.03481628 0.09533308 -0.22674829 0.13150872 -0.087144874 -0.0368319 0.079512164 -0.425472 0.16081366 -0.5227107 0.06197001 -0.07364102 -0.454212 0.38063738 -0.016876888 0.038885947 0.3517979 -0.29848027 0.23156491 -0.10867228 0.0028097637 0.0793331 0.24734725 -0.14686124 0.12426286 -0.15687814 -0.025010215 -0.1748274 0.07099547 0.113630876 0.0538846 0.28353077 -0.03370868 -0.2994302 -0.27205527 -0.21821338 -0.28040227 -0.10028438 0.20316887 -0.12842639 0.29510653 -0.05053281 0.11914156 -0.16055442 0.23411262 -0.30190986 -0.31053606 0.121223524 0.36113596 -0.07430853 -0.18533856 0.10416398 -0.07150806 -0.04753272 -0.3565707 -0.10642821 -0.24756785 0.093881786 -0.09028302 0.27576062 -0.02635775 -0.20979454 -0.059076734 0.022997199 -0.30400044 -0.03203086 -0.14128506 0.08738978 -0.12121097 0.17405692 -0.04265885 0.08789184 -0.1647233 -0.35303587 0.06267938 0.15177138 0.056475606 0.027981076 -0.050593775 0.01994892 0.02462049 -0.054460082 -0.16499358 -0.18052779 -0.055488423 -0.14964966 -0.26338145 -0.37483138 0.0607131 -0.07253544 -0.27192378 -0.1572769 -0.09115186 0.28854737 0.18922064 0.2752526 -0.39943874 0.1559357 -0.17169373 0.008310838 -0.3992916 -0.12464342 -0.044281475 -0.30253577 0.32325676 0.08742808 0.058845483 -0.12216713 -0.27090308 -0.021681517 -0.060730338 -0.23942289 0.10148558 -0.04151046 0.015662732 -0.463282 -0.18548574 -0.11613052 0.0684529 0.3581433 0.057544515 -0.38614726 -0.27363965 0.109542735 0.09778336 -0.36151448 0.10585533 0.41272065 -0.046679083 0.10396913 0.16740102 -0.118371285 -0.31049624 0.016387302 0.21097562 0.12964869 0.09617323 -0.12227359 -0.013850204 0.022517608 -0.11732562 0.095522836 -0.41495755 -0.45459932 0.25079346 -0.018089699 -0.12762316 0.089881994 -0.24010353 -0.0554255 0.020576088 0.39723283 -0.033618655 0.10254016 0.11345685 -0.1714971 0.018808708 -0.06329716 -0.09455804 -0.20120625 -0.2747373 -0.36385816 -0.51686174 -0.5056284 0.23509726 -0.10660227 0.2270893 -0.04730012 -0.07507939 -0.2475469 -0.25818872 -0.24280843 0.05562642 -0.039288193 0.17610423 0.2035968 -0.1725518 -0.20442769 0.09639836 -0.2149734 -0.038363922 0.15923274 0.099788696 0.45736307 -0.3067332 -0.10721598 0.14143929 0.22473742 0.45993596 0.23845573 0.176468 -0.024862392 -0.14372155 0.11066158 -0.24875438 -0.1175907 0.07771238 -0.39240772 -0.11755812 -0.03157158 -0.05112401 0.050247345 0.025369491 0.25826392 -0.057557352 -0.12132963 0.045387495 -0.036794953 -0.04120488 0.3139118 -0.26076454 0.13306573 -0.22453754 0.10172217 -0.06749441 -0.10893026 0.20806117 -0.16014096 0.3356708 -0.20188658 0.034759037 -0.1862576 -0.03922881 -0.2222893 0.0060622306 0.09500954 0.2710186 0.09010382 0.21476617 0.0764365 0.021836223 0.1290107 0.31304747 0.052323554 -0.11916581 0.2339393 0.41208345 0.28467798 -0.40851694 -0.14031892 -0.39553422 -0.10610726 -0.40065014 -0.037954275 0.2002235 -0.07829832 0.29102623 0.15843508 -0.19136718 -0.08710067 0.057087526 -0.02151961 -0.048719615 0.45337397 -0.21487756 0.09088506 -0.08888788 -0.100246534 -0.06945721 0.2320556 0.1846668 -0.25613517 0.16752677 -0.065711305 -0.047845066 -0.2955619 0.05759837 -0.12300124 0.09238791 0.025212063 -0.18956219 0.2481483 -0.14074145 0.018085614 -0.091136605 0.12967663 0.07091017 0.045991488 -0.24353115 0.12573451 0.1376505 0.26946595 0.31702775 0.04765678 -0.0671322 -0.09411234 0.10044797 0.19262107 -0.073177755 0.090750396 -0.13497846 0.021501519 -0.025982765 -0.13685483 0.013983345 0.23102443 0.11072252 0.21482812 -0.19939162 0.07342397 0.051843937 -0.095225535 -0.09655434 0.2141921 0.17581485 0.03945276 0.05347101 -0.14605798 -0.009605164 -0.147146 0.030426813 0.08932071 -0.15647034 -0.19005227 -0.17215623 0.08893572 0.22822408 0.035028595 0.27295697 -0.04045777 -0.20449464 0.18617988 -0.27290517 -0.00039744814 0.04849959 -0.19337457 0.07829357 0.14051345 0.1638397 0.011563406 0.12536111 0.00071622327 0.43615574 -0.041303027 -0.08804844 0.047001813 0.03690894 0.09574962 -0.30956528 -0.03178565 -0.115020536 -0.2785946 -0.1537841 -0.45646957 -0.15842636 0.0701324 -0.37053165 0.20266141 0.30480984 -0.2720123 0.030355727 0.032462865 -0.11373807 -0.27683786 -0.07153225 -0.074761234 0.032786068 -0.1112579 -0.17159738 -0.30133492 -0.17224686 -0.33216032 -0.0054566036 0.05084635 0.17888008 0.09316957 -0.009508751 0.27105632 0.20618163 -0.2277185 -0.16021486 0.14315288 -0.072311215 0.045763683 0.031006344 -0.097219974 -0.435172 0.18876494 0.34479856 -0.07381792 0.22569473 0.04767261 -0.33554754 0.17168361 0.15538692 0.2740198 -0.01780075 -0.2568622 -0.12459398 0.14364822 -0.12052302 -0.11949958 -0.10844246 0.069359444 -0.3829666 -0.028897315 -0.036644854 0.027281314 -0.103119776 -0.15409186 0.37105846 -0.09363443 0.06871943 -0.08394511 -0.048266068 -0.18197022 -0.43999624 -0.16070975 0.107672416 -0.12985861 -0.14843561 0.2337275 0.1516083 0.017378433 0.15370661 0.08731469 -0.064816356 0.07289251 -0.20265923 -0.36866075 0.14803155 -0.20217596 -0.1234381 0.07418147 -0.03347915 0.3363823 0.071729586 -0.32546812 0.27656507 -0.32287398 -0.2378509 -0.055772223 0.073509134 -0.11021394 -0.17753819 -0.14247927 0.21557435 -0.16057344 0.15074076 0.023503533 -0.17943445 0.51067823 -0.42457944 0.17889334 -0.24832205 -0.11678143 -0.4109803 -0.24391599 -0.101938985 0.12153775 0.11922137 0.18200861 -0.19537345 -0.38509104 -0.13971888 -0.024516245 -0.17994183 -0.32728145 0.45302024 0.0642461 -0.12107105 -0.04760298 -0.15437047 0.19570117 -0.27992293 0.03423856 -0.24002181 -0.009272837 -0.33870202 -0.21417508 0.07302942 0.386472 -0.13088655 0.34794956 -0.18467778 0.122839 -0.17502558 0.10578462 -0.06679864 0.12794021 0.07272512 -0.2334559 -0.036257606 -0.3096631 -0.42028755 -0.45882872 -0.10006863 -0.16930765 -0.4542159 -0.105206974 -0.0025740608 0.013292158 -0.038123146 0.0024654234 0.056841496 -0.004911024 0.45562726 -0.16329108 -0.15375018 0.16988207 0.05379039 -0.11990124 0.32023376 -0.54743916 -0.2592315 -0.16259593 -0.273457 -0.00047577434 -0.18492797 -0.5317771 -0.27101442 -0.050783597 0.038640365 -0.08388049 -0.26488912 0.26392606 -0.08582884 0.04882083 -0.2782061 0.06016826 0.21494721 0.055543106 0.39468855 -0.052552752 -0.23008087 0.26428467 0.27462122 -0.13184497 -0.084437095 -0.09613766 0.08549979 -0.06971982 -0.25418216 -0.102032214 -0.23755914 -0.26141798 0.18678468 0.00031165977 -0.30087373 -0.36769012 0.250195 0.09351173 -0.12758087 0.2805291 0.37625986 0.260561 -0.12356562 -0.09572131 0.18855754 -0.10096925 -0.09431292 0.0132646505 0.033043418 -0.055641323 -0.4032641 -0.16160162 -0.15442024 0.16584025 -0.019436 -0.3277656 0.061785456 -0.19699049 -0.06296773 -0.44188592 -0.16181634 0.33183938 -0.1555621 0.025036532 0.05090621 -0.4204059 0.057960093 0.19410475 0.077167645 0.2681592 0.03107382 -0.19826321 -0.46509373 0.060821757 -0.2173906 -0.07600555 -0.24842362 -0.1295007 0.2231564 0.028653983 0.085601136 -0.36031127 -0.22756363 0.10128925 -0.1910034 0.18351781 0.03254176 0.2104987 4.4289e-05 -0.046086233 0.23721689 0.2947359 -0.11707735 -0.2320595 -0.21053416 -0.23047806 0.032002132 -0.2091408 0.114778355 0.0876788 0.061075408 -0.2605087 -0.13395801 0.45896882 0.1946814 -0.32255042 0.060209658 -0.5648432 0.46629113 0.21872312 0.05352765 0.048601083 -0.100091696 -0.4047806 0.03523307 0.0884715 -0.32335806 -0.02467368 -0.27388975 -0.36205602 -0.14863998 0.18352233 -0.05702848 -0.048482966 -0.061276276 0.14166023 0.13951093 0.14433308 -0.15785435 -0.086883515 -0.2537739 0.37704968 0.05423033 -0.2644523 0.120864555 -0.1620591 -0.1641957 -0.20231359 -0.34093156 -0.24860694 0.16258755 0.16755013 -0.06456878 -0.39578408 0.076265834 -0.23580691 0.04778463 -0.11736086 0.016059715 0.25329754 0.09517752 0.41054234 0.4546874 -0.103713356 0.22944257 -0.37204874 -0.036640327 -0.140649 -0.2472147 -0.05855029 0.03330828 0.48952082 -0.36962283 -0.24163674 0.33289734 0.1803517 -0.2546557 0.03083244 0.07846849 -0.6436808 -0.22383939 0.10373101 -0.1621591 -0.09357893 -0.2965462 0.17132118 0.010917169 0.45557636 -0.43383485 0.6371157 0.06533597 0.09820289 0.013488329 0.051404662 0.45220843 -0.019829657 0.051568415 0.022913462 0.039613217 0.016406402 0.100576624 0.15339726 -0.27108082 0.10770878 0.0917509 -0.30819947 0.05114172 -0.15484752 -0.3378172 -0.14473647 -0.15356861 -0.046927556 0.3040298 -0.14929499 -0.15869473 0.33700058 0.01697321 0.48758668 -0.1569931 -0.15492535 0.20596172 -0.06497003 -0.019927913 -0.17921728 0.17987831 -0.27823353 0.08592947 -0.18019764 -0.28638828 -0.2791692 -0.3394608 -0.37942082 -0.044941496 -0.046746105 0.01080754 -0.36954287 -0.049871955 0.112298235 0.2670751 0.013364263 -0.1109541 -0.21080376 -0.22639358 0.039569907 -0.4219587 -0.30900714 0.018400615 0.3356516 0.27769879 0.18619014 0.15086922 -0.071834445 0.09010037 -0.059668362 -0.21018575 -0.059340816 0.037886683 0.07445588 -0.2140201 0.05720588 0.30387813 -0.35212028 -0.05486808 -0.07956125 0.0940922 -0.09453468 -0.38028252 -0.17921628 -0.018405354 0.07206143 -0.2706777 -0.4900026 -0.27195778 -0.064267755 -0.36921164 0.012917776 0.07550229 -0.23927642 -0.24370278 -0.24552849 0.25700885 -0.045410164 0.20294061 -0.38153386 0.22092445 -0.040358193 0.10815666 0.12127736 -0.06893275 0.030626947 0.18525237 0.27845225 0.26242942 -0.24299166 0.26655635 0.042751938 -0.47327432 0.026545178 -0.1520781 -0.3123965 0.08765821 -0.038568392 0.054718167 -0.08633287 -0.23291686 -0.33546522 -0.23889883 -0.015206086 -0.30260867 0.23169814 0.14993294 0.043890513 0.052283417 -0.13829137 0.08200242 -0.15948457 -0.23316762 0.04423798 0.13398434 0.3474406 0.2717359 -0.4090344 0.14934303 -0.07559925 -0.3803847 0.038623944 0.1941975 -0.6026674 0.110413395 0.31365848 -0.21756832 -0.30037335 0.24029887 0.17707257 -0.294431 0.27654544 0.16341339 0.06411377 0.12247988 -0.16996388 -0.3828226 0.13305432 0.018901745 -0.33917204 -0.14270279 -0.07050581 0.16099948 0.07898524 -0.41920993 0.049424663 0.062795915 0.017765574 0.050329246 0.14159097 -0.25905153 0.07174686 -0.038713235 -0.0378206 0.25743645 -0.8212115 0.49870986 -0.23819895 -0.14712101 0.024809629 -0.30843177 -0.15771668 0.12697698 -0.059338838 -0.3467608 -0.35176727 -0.32469514 0.34068495 -0.06729966 0.29033527 0.048426073 0.28387025 -0.012196948 0.2748321 -0.13766025 -0.07210133 -0.18687187 -0.21653941 -0.29572856 0.22042355 -0.21090797 -0.38997188 0.24666983 -0.2991423 0.5664022 0.05008629 0.0830816 0.118304424 -0.15746503 0.2873546 0.13911147 0.13361244 -0.06888507 0.37828583 -0.0515087 -0.05090206 0.38597175 -0.18496782 -0.00503386 0.17274675 -0.11138871 0.1730284 0.25190282 0.0051607336 -0.17728248 0.022210164 0.012188963 0.025613133 -0.07233363 0.24636073 -0.44727916 0.18575148 0.056454513 -0.085184045 0.06473667 -0.08562919 0.14258105 0.26247743 0.062015977 -0.15400168 -0.32687002 -0.00030826652 -0.113183 0.19341102 0.24847536 -0.1322568 -0.021447781 0.23304468 0.14000751 0.13451213 -0.18604313 0.089147724 -0.08594175 -0.11045288 0.021925658 -0.05339441 -0.041559223 -0.35608593 0.088226736 0.07968459 -0.08842474 -0.21705008 -0.211871 -0.05864741 -0.009421442 0.18683453 0.32530683 0.2921692 0.057610717 0.00010978398 0.0009717272 -0.14141405 0.004761569 -0.06593235 0.13183014 -0.07883884 0.16130209 0.027860494 0.033112753 -0.3511154 -0.03486742 -0.12778543 -0.1937248 0.059487138 -0.13472031 -0.23388222 -0.21812224 -0.29180244 -0.51383555 -0.112296954 -0.07261722 0.286039 -0.1364101 0.12814464 0.055337388 -0.31596825 0.4030006 -0.2784358 -0.08032343 0.3722344 0.27901247 -0.24920303 0.08276663 0.05812241 0.32255802 0.5323514 0.087092176 -0.38296863 0.040499892 0.20845075 -0.17122884 0.03903263 -0.00023926006 0.064086676 -0.024494827 -0.49760628 -0.0589225 0.025153227 -0.33673534 0.2084405 0.051075097 -0.09005865 0.4397521 0.51481825 0.22448382 -0.1197706 0.086978324 0.066286296 -0.45529523 -0.30516142 0.26413387 0.034424122 -0.28503144 0.103446245 -0.32263532 -0.33694673 0.0026166772 0.20851976 -0.38672084 -0.009624051 0.2176176 0.0982784 -0.1098032 0.25050062 -0.017704802 -0.30667883 -0.030952148 -0.54496586 -0.13226607 -0.10519727 -0.46323946 -0.16168553 -0.22070482 -0.13366991 -0.17218228 -0.14520569 -0.5559209 0.7298538 -0.5044768 -0.06154482 -0.12540579 0.13082622 0.04357327 0.020915493 -0.040423173 -0.017982604 -0.021937866 -0.031518705 0.024009436 0.08595799 0.0573826 0.038066827 0.031393062 0.071289375 -0.097245425 -0.03797258 -0.099036306 -0.046426665 -0.024202788 -0.0958102 0.07718466 -0.073589936 0.013237339 0.080201685 0.012784827 -0.06922247 -0.012101272 0.0478363 -0.045536723 0.011808612 0.0475497 -0.04938004 -0.069637835 0.032745313 -0.055046823 0.00505433 0.06534245 0.013547153 -0.073670805 -0.020041257 -0.08286084 0.09890049 -0.0020631691 -0.05976029 -0.0564999 0.013624022 -0.07458899 -0.016645463 -0.015946148 -0.00097427564 -0.076702215 0.016027803 0.043137357 -0.0014349183 0.045933656 0.093906984 -0.076853 -0.0061056423 0.017809328 0.07179756 -0.039025668 0.019449562 0.037250888 0.004597567 0.026867602 0.06409185 0.072645366 -0.07135479 -0.08540906 -0.074461654 -0.03551893 0.052906115 0.03427871 0.10113428 -0.08479631 0.020178549 -0.03464622 -0.07138913 0.030400569 -0.0984973 0.030387558 -0.0038043426 0.081329025 -0.07347728 -0.04605037 0.0033446047 0.021112455 0.07341672 -0.031100603 -0.031157777 0.036726795 0.022531135 -0.08651189 0.09303809 0.034173258 -0.088233575 0.057727814 -0.08202027 0.050408464 0.07708823 -0.03923102 0.03598422 -0.086854935 -0.014523768 -0.0013302675 0.090149656 -0.024708407 0.066141315 0.06276454 0.0588334 -0.087582774 -0.02644496 -0.07421461 0.074560665 -0.030826392 0.036267594 -0.07996492 -0.04694791 0.0022316186 -0.01556209 -0.050751194 0.023788782 -0.006890398 -0.0017909028 -0.000102162114 0.014900073 -0.07168031 -0.32378578 0.5505441 0.1946362 0.16678388 0.22559439 -0.3977058 0.031406634 0.15986979 -0.16263959 -0.039572623 0.16022788 -0.1438065 -0.28320983 0.023718633 0.109757505 0.004411887 -0.104980715 0.16278869 0.053725604 -0.15912247 0.101062946 -0.16610529 -0.02400968 0.12900707 0.0687351 0.057014763 -0.051507257 -0.0061089084 0.39399314 -0.039345995 -0.04165766 -0.1637238 0.2760007 0.12240133 0.006016843 -0.080502965 0.19443089 -0.02878554 -0.020081177 -0.21494773 0.17888993 0.08145167 0.09442509 0.2416887 -0.049173214 -0.021574913 0.072249666 -0.11249258 -0.11315813 0.08922729 0.1831396 0.01745888 0.22026457 -0.35732082 0.027642023 0.5668944 -0.3072098 -0.15884233 0.24895743 -0.029255176 -0.3180623 0.005863058 0.016033713 0.101730175 -0.21182568 0.37471485 0.14175202 -0.075806014 0.07530547 0.08909599 0.3377579 0.16279973 -0.33936796 -0.29569453 -0.1359158 -0.10564457 0.010107806 -0.1101124 0.018607022 -0.06916644 0.064595036 -0.108501285 -0.10139841 0.17891727 -0.032129966 -0.11113669 -0.1412739 -0.12282159 -0.029252904 0.13087201 -0.11559419 0.05572899 -0.15573622 -0.058088865 -0.3953232 -0.13168018 0.17881855 0.062389493 -0.07939452 0.010133049 -0.11885707 -0.16592418 0.29054657 -0.14918357 0.25916985 -0.2030076 -0.03538063 0.08233741 0.27855247 -0.08345061 -0.5385771 0.022933314 0.03964901 -0.22787155 -0.33772808 0.03941934 -0.104493015 -0.24932382 -0.06954571 0.28439832 0.019744076 0.022201907 -0.0893811 -0.068140656 0.087112546 0.014887182 -0.21010126 0.021787716 0.08111999 -0.008184224 -0.028626531 0.05748804 0.21485536 0.33172545 0.15070982 -0.2535399 -0.021630889 -0.27324837 -0.1359647 0.477464 -0.24847025 0.29383636 0.26231137 -0.2686873 0.04840542 0.0026766 0.17166369 0.024321308 0.30333707 -0.15883794 -0.16333403 0.15387096 -0.20975941 0.028662343 0.068169884 0.17231092 -0.1465994 -0.4875338 -0.045418635 -0.31074703 -0.18297149 -0.1989295 -0.33648443 0.083732806 -0.21910703 -0.14032179 -0.2701294 -0.25598764 0.334523 -0.17574081 -0.019144287 -0.11692457 -0.14735441 -0.06201897 0.16143936 -0.26290196 0.38713044 0.068686396 0.08748183 0.1781858 0.1381632 -0.10835961 -0.21817555 0.20641461 0.15093385 -0.12987936 -0.28490424 -0.1156648 0.03185766 -0.088615626 0.46511018 0.008883989 0.16949522 -0.0029061928 -0.3225893 0.102471896 -0.15517324 -0.12610322 -0.04506377 -0.3501853 -0.36583096 0.07296038 0.10158413 -0.11656836 0.18749641 -0.6119016 0.18811752 0.10578866 -0.07194247 -0.11604718 0.33662167 0.12173834 -0.15524898 0.25258663 0.5537041 0.047179088 0.2328544 -0.1379285 -0.029370055 0.1700733 -0.2817741 0.28470787 -0.14745766 0.023935663 0.08086747 0.0702476 0.04665635 0.00868917 0.032899313 -0.15696017 0.300082 0.085572325 0.035620242 -0.13093664 -0.32615075 0.069077216 0.053681757 0.13321137 0.25338718 0.024485858 -0.04297737 -0.13421498 0.022147104 0.01530377 0.046387006 -0.05970388 -0.023114331 0.015438516 -0.21536116 0.35837588 -0.47168377 0.12408542 -0.3268134 -0.20431907 0.10090079 0.05972504 0.19706622 0.39278105 0.13095826 -0.44028762 0.38499132 -0.23625106 -0.28438652 -0.03158729 0.117300004 0.2391794 0.17369516 0.20516321 -0.10838986 0.036481146 -0.2614206 0.12121143 0.17202854 -0.19330658 -0.14973588 -0.37162685 -0.13053364 0.08990068 -0.089428835 -0.27088198 -0.10769312 0.03790865 -0.2399915 -0.029457405 -0.058171432 0.0717619 -0.23804757 -0.20587963 -0.36593124 0.05999599 -0.077431165 -0.19349091 0.15827146 0.3465343 0.016388532 -0.051783312 -0.05173443 -0.24196663 0.071061574 -0.103703305 0.11056022 -0.20500396 -0.045456693 -0.07672064 0.09004487 0.18401317 0.33008215 -0.049843617 0.100579366 0.023786115 -0.16530308 0.104308195 0.008078957 0.17498025 0.43058616 -0.06178935 0.04960003 -0.036564555 0.2706051 0.33818796 -0.049910642 -0.059243623 -0.021961886 -0.00020358378 -0.10207975 0.42690465 -0.4007316 -0.3526091 0.030592045 -0.06431067 -0.13022721 0.07841808 -0.07943356 -0.044781063 0.026065096 -0.26559284 -0.049769554 0.09725045 0.025866166 0.2573409 0.3937448 -0.29777858 -0.15420583 0.062805854 0.13812195 0.012727923 -0.08140189 -0.58793104 0.22058475 0.053789955 -0.14537178 -0.21979359 -0.16792521 0.08796143 -0.29052997 0.036429007 0.12586004 -0.05976169 0.04405822 0.028753154 -0.31245083 -0.08946252 -0.27714452 -0.01133605 -0.045337234 -0.21182193 -0.037902243 0.314324 -0.18360068 -0.0019329838 0.65976894 -0.10239264 0.02350788 -0.051953297 -0.1531065 0.007546841 -0.24596368 -0.09752392 0.15921888 0.15319584 0.082306966 -0.2026918 -0.32731548 0.09231278 -0.09712674 -0.022001581 -0.21102662 0.10149858 -0.2595134 -0.38498366 0.054288097 -0.19932114 -0.21440865 0.072830155 0.2111491 0.21482857 -0.09700201 -0.34334713 -0.06931016 0.1945223 0.032437854 -0.19696182 -0.4208044 -0.12037551 -0.7217323 -0.090645656 -0.42954922 -0.24191268 0.27716708 -0.109987415 -0.14155826 -0.0016251081 -0.47108573 -0.10911258 0.3379707 -0.07291988 -0.13085757 0.31471363 0.46140498 0.64277536 0.14543638 -0.165647 0.1682926 0.13734268 0.060997743 -0.14101793 -0.33440274 0.03501617 -0.3592128 0.1796177 -0.056784593 -0.21531045 0.12020225 0.0122054275 -0.35319006 -0.16033341 0.45474917 -0.0092807 -0.18169996 -0.26124096 0.1551207 -0.28114936 0.1570562 0.12565835 0.026929442 -0.0740159 -0.19207275 0.1718631 0.24526505 -0.30251676 0.22395197 0.212218 -0.052646186 -0.31582463 -0.06559133 0.18366583 -0.16562293 -0.03430576 -0.2823937 -0.14094406 -0.058849014 0.14422134 0.13782425 0.27108333 0.41231 0.005324904 0.15511711 0.18904023 -0.40010676 0.19064397 0.37284663 -0.17161106 0.32032987 0.04116004 -0.16133538 -0.038332447 -0.3788432 0.03412382 -0.20234092 0.10715744 -0.13815702 -0.075815454 -0.019287055 0.037093267 -0.2519586 0.09381622 -0.17987199 -0.0085247755 0.0111719 -0.08440543 0.08620934 -0.015394684 0.23580624 0.33736876 0.62850654 -0.30114415 0.43356687 0.043998536 -0.4262256 -0.2924137 -0.28264448 0.17445704 -0.27310807 -0.2574133 -0.25798267 0.0038575951 -0.26590392 0.32477564 -0.015257784 -0.08294274 0.22628112 -0.13618596 0.117390834 -0.5488302 -0.24543366 -0.1283734 -0.2372952 -0.3932468 0.17555887 -0.02038514 -0.10177909 -0.10653782 -0.28398785 0.16226536 -0.2769476 0.103097275 -0.20256527 0.15796502 0.07447348 -0.027956031 -0.21800672 -0.288414 -0.17051692 -0.29683775 -0.106083885 -0.071687154 -0.09799474 0.21813615 -0.15651534 -0.47202778 0.2476607 -0.21113159 -0.30272526 0.0004899482 0.04031583 -0.105457336 -0.057671413 -0.22455849 -0.040187784 0.13118999 -0.004218203 0.16913545 -0.14219454 0.07134361 -0.050910532 -0.099349156 -0.122878216 -0.29380524 -0.19841054 0.0049739657 -0.11013297 0.026476208 -0.21993804 -0.12902926 -0.09993733 -0.42291275 0.25324264 0.016568057 -0.19720398 0.23128486 -0.023467544 0.43349776 -0.38232464 -0.05345219 -0.0037349416 0.08312974 -0.0926571 0.1444541 0.42282176 -0.48779202 -0.12856314 0.15507978 0.30141804 0.4736337 0.061743382 0.08549057 -0.14357732 0.05280895 -0.5377665 -0.2098048 -0.19603351 0.08836124 -0.21421993 -0.15540282 -0.15584755 0.060406636 0.561004 0.2815172 -0.0353234 0.03429043 -0.20606829 0.07814465 0.07542306 -0.023161538 0.026765876 -0.2825597 0.18158849 -0.16161843 -0.37710744 0.2701496 -0.00024790905 0.2171435 -0.25394547 0.041883167 -0.14221878 0.21768245 -0.032941222 -0.20952596 -0.2925596 0.0534035 -0.32271624 0.15598698 -0.018016366 0.19237582 0.02039796 0.16619197 0.41135332 0.11313547 -0.06765978 0.030345239 0.014882347 0.064135544 -0.097064056 -0.16345723 -0.22685182 -0.080793 -0.10299921 -0.3317612 0.28149867 0.30004445 -0.27034137 -0.00039862836 0.07256333 -0.19004512 -0.19854409 0.09972196 0.03947438 -0.16362964 -0.0026412401 0.13080764 0.034151617 0.030677445 -0.019042706 0.027309231 -0.007394479 0.030832175 0.23521255 0.12811317 0.5910001 0.30374423 0.028865723 0.056738626 -0.12950829 0.24488902 0.16714974 -0.15029837 0.011014998 -0.07866673 -0.14120536 -0.17087355 -0.18382984 -0.07179557 -0.035610307 -0.063127376 0.12276952 0.13270882 0.06357423 0.09624946 0.057466693 0.13069504 -0.0806319 0.03656019 0.12825975 0.002668486 0.1281742 0.099426985 -0.33191118 0.014252855 -0.11332436 -0.116659194 0.14982574 0.03808785 -0.03281638 -0.18995519 0.031332597 -0.17014587 -0.10710301 0.26901516 -0.13610564 0.10150688 0.4463751 -0.13035427 -0.069309264 -0.25280535 -0.07215202 -0.12052024 -0.112846896 0.23383862 -0.17872803 -0.2068657 0.42660415 -0.4628829 0.0361968 -0.0066509717 -0.08381604 0.10502459 -0.11508056 -0.32839733 0.3503675 0.02533905 -0.14340855 0.2595434 0.36628965 -0.060715124 -0.32878506 -0.25981477 -0.16306624 0.09562014 -0.54562247 0.021644853 0.14151505 -0.08551084 -0.022628702 -0.01576528 0.205542 -0.2531037 -0.4508953 -0.12430326 -0.29010427 -0.26823753 -0.13159963 0.13919893 0.08486908 0.024377938 -0.26503837 0.14933965 -0.020298487 -0.25265142 0.07406116 -0.2071209 -0.08910757 0.2566689 -0.32052666 -0.047932886 -0.060341902 -0.5086601 -0.067071244 -0.21876788 0.075001195 0.2663975 -0.27735096 -0.12256316 -0.096971236 0.19819833 -0.37763426 0.123142324 -0.15481164 0.022242509 -0.30328804 0.08561247 -0.10236117 -0.00605205 0.26770836 -0.3109395 -0.105190404 0.27836573 -0.18662845 -0.22355932 0.09967063 -0.1671591 0.22660841 -0.18383937 -0.15378454 0.004589853 0.12666133 -0.26720774 0.2120075 -0.29294446 -0.14600626 0.23330873 0.047346104 -0.16531065 0.06367356 0.06461605 -0.010162175 0.04498584 -0.16841502 -0.082592 0.057900038 0.12732951 -0.045319434 -0.34794986 -0.19633067 0.19480985 -0.1974323 0.21082403 0.0035281826 0.31036916 0.064222924 0.0929678 -0.26985976 0.026782608 -0.13327502 0.06092635 -0.07551749 0.09894091 -0.14058213 0.22967425 0.03044143 -0.040094614 0.11546613 -0.11924607 -0.06797303 0.28876397 -0.23407243 -0.41103098 -0.08160047 -0.20408398 -0.04446839 -0.27390218 0.0625208 -0.038006146 -0.044289872 -0.15373011 0.20793872 -0.17017886 -0.05174475 -0.007842228 -0.015860613 -0.13642825 0.014318464 -0.0058105756 -0.3729163 -0.07444874 -0.008724347 -0.09488634 -0.14268571 -0.35760412 -0.15501457 -0.52936244 0.104082406 -0.17377894 -0.32769987 0.22649741 -0.11368194 -0.1860286 -0.35793135 -0.01549348 -0.048227347 -0.18214309 -0.41814727 -0.17113899 0.08041384 0.06626629 -0.055803 0.1468376 0.3391587 -0.095445186 -0.04890156 0.032759488 0.112466075 -0.20001037 0.07502302 -0.41167063 -0.031884555 0.012375761 -0.18508787 0.23314835 -0.19610612 -0.07234838 -0.1403254 0.007883119 -0.13118245 0.1704862 -0.0629321 -0.15157792 -0.17888965 0.14049993 -0.042920485 -0.051943846 -0.1440325 -0.05250093 0.14839838 0.012021093 0.18554854 0.16655625 -0.19689856 0.17290054 0.13994807 -0.18370809 -0.23143972 -0.08255111 -0.18581298 -0.3669019 -0.32972914 0.006956813 -0.049672615 0.04874996 -0.659256 -0.060886256 0.13535817 -0.111647464 -0.060876273 -0.09919644 0.023010006 0.16475812 -0.027274791 0.05302243 -0.00063805556 0.09149396 -0.023000479 0.23194239 0.21261437 -0.1252491 -0.25920153 -0.008649446 -0.05857048 -0.043611035 -0.28832543 -0.41120103 -0.115953304 -0.15424791 0.28209034 -0.21863978 -0.3378067 0.189598 0.10589295 -0.12288417 -0.14677072 0.22690098 0.33635977 -0.026865682 0.26162076 0.38656887 -0.14651112 -0.25818244 0.08550467 0.012055724 -0.042916913 -0.16792692 -0.6835638 0.06609787 0.015054624 -0.19038893 -0.13535304 -0.049939375 -0.21773265 -0.20721193 -0.07276956 -0.09237891 0.09040312 -0.002459766 0.10119535 0.1986304 -0.27117097 0.18516746 0.2420697 -0.013727771 -0.4160452 0.18973689 0.2780096 0.051058892 0.07596518 -0.0825899 -0.29797843 -0.28176928 -0.20371185 -0.178017 -0.101871826 0.39733902 0.33398858 -0.16849922 -0.06367791 -0.1325614 0.20756572 -0.11884045 0.27175048 0.24098589 -0.12482277 -0.19307682 0.39378607 -0.13037883 -0.35327682 -0.17851685 0.2725702 0.008573396 0.2708054 -0.25325304 0.08495927 -0.17851783 -0.2365883 0.041835234 -0.028063638 -0.020334024 -0.31042236 -0.004066403 -0.02533141 -0.011982508 0.6461371 0.2843155 0.008997596 -0.09768355 0.015094041 -0.49661848 -0.19422859 -0.63613063 -0.11548694 0.0062575564 0.065726355 0.2674784 0.4901329 -0.02589606 0.5215111 0.16086408 0.3915858 0.048808903 0.25577497 0.13686803 0.09593209 0.041244604 0.3459485 0.17721355 -0.029513035 0.16046898 -0.3153947 -0.09414582 -0.364342 -0.38132593 -0.47962278 -0.21166322 -0.24801989 0.21350631 -0.43899372 0.23613396 -0.21312553 -0.2454011 0.23998232 0.1809326 -0.05332109 0.20654422 -0.026590321 -0.28301337 -0.07946546 -0.01348049 0.12572539 -0.24048664 0.024870774 -0.042284742 0.29113013 0.07930319 0.17208685 0.1736971 -0.18140157 0.23135908 0.26679963 -0.058193453 -0.07578839 0.1236274 -0.17183974 -0.071666226 0.4009907 -0.12972906 -0.10449912 -0.18912734 -0.19685097 0.043093942 0.051392272 0.10537144 0.3047986 0.055769734 0.29165524 -0.1865549 0.06834817 -0.51295465 -0.21510634 -0.10280804 -0.28568286 -0.17295659 -0.28353757 -0.100087576 -0.11649283 -0.26620552 0.024767857 -0.15537901 0.45027283 0.13627143 -0.30381432 0.3358044 -0.026852977 -0.093070045 0.36896434 0.03959589 -0.021173505 0.23552242 0.19810383 -0.052294064 -0.018738406 -0.15550326 -0.14615965 -0.082887895 -0.20694834 0.33222365 0.33547503 0.094669156 -0.013391672 -0.03523851 0.19319607 0.084454805 -0.07176112 0.070989706 -0.14267547 0.32216632 -0.2617345 -0.11958272 -0.5814314 0.17092401 -0.18391418 0.3043248 -0.4024779 -0.5392551 0.026653983 -0.16304652 0.036581945 -0.2003633 -0.35452104 -0.34522402 0.030211337 0.15764081 