0.07914347 -0.23059669 0.4449193 0.11630371 -0.3119149 0.11962336 -0.09880832 0.039496977 -0.14418072 0.11390369 -0.36249688 0.0042982176 0.53179944 -0.254362 -0.43231595 0.3735397 0.38094264 -0.40784425 0.4441393 -0.45914498 -0.510474 0.6759842 -0.1012421 -0.54535246 0.4373622 0.3057627 -0.39111504 -0.5527202 -0.48459193 -0.33600086 0.34826052 0.69266754 0.66065586 -0.13838354 -0.093422666 -0.29595804 -0.4959683 -0.36388767 -0.12442604 0.4178659 0.7220297 0.551146 -0.17541763 0.057354465 -0.5343043 -0.18013395 -0.29247996 -0.11520375 0.49577832 0.5249966 0.5375 -0.31685883 -0.15011464 -0.47636428 0.0012762315 0.12374279 -0.38036913 0.39631745 -0.3509413 -0.33745056 -0.2965999 -0.49290323 -0.028811527 0.1454413 0.17803565 -0.048510324 0.59532297 -0.10625501 0.036137413 -0.16062683 -0.40470898 0.25483513 -0.0145485755 0.18425372 0.016298529 0.28624874 -0.19753167 -0.16271658 -0.079328984 -0.45879656 -0.117480375 0.45440874 0.6404712 0.24604143 0.060086947 0.46087492 0.23643593 -0.30010197 0.0157083 -0.23445424 -0.42441002 -0.3389961 -0.269946 -0.4684624 -0.4310238 -0.110160284 -0.25504175 -0.32619268 -0.06578729 -0.15131237 -0.1084546 0.08120234 0.06400838 -0.058160182 0.07975105 0.08568362 -0.074762575 0.38684434 -0.08455824 -0.13354209 0.039559767 -0.11866658 -0.16386637 -0.18135418 -0.1601218 -0.09563192 -0.18693689 -0.05268586 -0.24641305 -0.11708486 -0.07880178 -0.0006896114 -0.067490846 -0.017775977 -0.15332499 -0.24185297 0.26349476 0.044812523 -0.17297776 0.54268074 0.4280642 0.2616418 0.5599548 0.37877 0.05571738 -0.43541834 -0.49325684 0.042656373 -0.23777723 0.33078292 0.33705094 0.24446417 0.3636297 -0.07753942 -0.19666742 -0.41141593 0.12033167 -0.40019903 0.19680244 0.2830084 0.24280192 0.18556635 -0.19129165 -0.116182834 -0.34161162 0.16590911 -0.2857515 0.35943216 0.24072208 0.1737146 0.008902001 -0.2826788 0.22723305 0.18833743 0.3046353 0.19766307 0.06558275 0.22376342 0.17662302 -0.04674479 0.14462095 -0.10107577 -0.22721623 -0.3403422 0.0082373535 -0.43578553 -0.20716245 -0.13503136 -0.27969268 0.099759154 0.1402435 0.014107557 -0.1728896 0.23880072 -0.18058951 0.05559222 -0.11902625 -0.052720714 0.2547247 -0.16387472 -0.021370793 0.013711883 -0.36086914 0.074937604 0.0050729876 -0.15976672 0.08270719 -0.008550937 -0.18900886 -0.0032318453 0.053348124 -0.30987853 -0.08875701 0.15699625 -0.17697081 0.18217826 0.090125 -0.07465351 0.21462187 0.2895558 0.013511006 0.1667102 0.32649598 0.17356515 0.23052393 0.3896521 0.1416734 0.14349109 0.0079493495 0.18425639 0.021164946 0.10687145 0.13516495 0.058801 0.18652241 0.07644415 0.07728919 -0.08811266 0.17794591 0.019708747 -0.086578794 -0.122670226 -0.26796156 -0.15872101 0.31201828 0.37273145 -0.19792533 0.37264785 0.18828738 -0.12983702 0.013334834 -0.02570591 -0.19840582 0.67442524 -0.65615165 0.034334615 -0.7674837 0.05708135 0.5039338 -0.13875365 0.52551454 -0.546073 0.766749 -0.75582767 -0.27767208 -0.47897786 0.25498128 0.32289255 0.027387386 0.7256726 -0.3234219 0.52504873 -0.5873696 0.25917065 -0.7797008 0.12084654 0.51992685 -0.14001499 0.39427796 -0.35463125 0.5652222 0.7571145 0.4322689 -0.2166085 -0.11995667 0.11687328 -0.48144352 -0.5410828 -0.49886057 0.13837878 0.21715772 -0.031955592 -0.23725331 -0.035655268 0.20352788 -0.49748927 -0.2989887 -0.428445 0.09875606 0.081959814 -0.12851799 -0.066186085 0.2702462 0.3219236 0.019071251 0.30232865 0.02114734 -0.24702862 -0.4629672 0.057218496 0.5226126 -0.32077608 -0.72778827 0.121537454 0.85221845 0.45273346 -0.06744747 -0.32795927 0.40467927 0.49138904 -0.38530278 -0.627138 -0.313209 0.70526105 0.12283767 -0.19596179 -0.18663111 0.8551915 0.121433385 -0.48257512 -0.6202132 -0.12685731 0.46379197 -0.14699093 -0.11103938 0.160773 0.015326222 0.4203266 0.44127795 0.18494779 0.38369197 0.29806387 0.23380068 -0.1323416 -0.2738781 -0.21809873 -0.5930203 -0.6512435 -0.5159913 -0.40246418 -0.33262765 -0.2528213 0.2699966 0.23315714 0.31243402 0.17922272 0.04805847 0.1976336 0.13292414 0.17597108 0.20420998 -0.5832491 0.21638893 0.47169402 -0.05368753 -0.37208223 0.32758057 0.637508 -0.14056703 -0.688208 -0.48855388 0.08382678 0.42489213 -0.1012909 -0.19696106 0.22825886 0.701369 -0.05690298 -0.64925677 -0.5250292 0.13355407 0.17432618 -0.123172835 -0.18240294 0.30842343 0.66390806 0.02423325 -0.51549053 0.31279165 0.26408377 -0.07058668 0.22951362 0.19535738 -0.16103852 0.34636515 0.08131518 -0.1632828 0.08058311 -0.20359105 -0.536461 0.16197433 -0.16625178 -0.554247 0.0940947 -0.15655011 -0.30519378 0.14190888 0.21992625 -0.12250472 0.15714099 0.1574534 -0.22928728 0.18237157 -0.07640011 0.03264763 -0.003666885 -0.14874077 -0.20120129 0.03078943 -0.2152075 -0.014882718 -0.33078676 -0.041882724 -0.10470204 0.18333693 0.23972467 0.09084112 0.47902784 0.4959114 0.22150648 0.06838861 0.44589332 0.43579036 0.051850278 -0.04669526 -0.31543154 -0.19053212 -0.24356563 -0.061321333 -0.35554874 -0.4019316 -0.3785587 -0.22755027 0.5396748 -0.3165348 -0.15813448 0.5939702 -0.5035828 -0.07093205 0.56276256 -0.3193898 -0.38168404 0.49543235 -0.33905733 -0.51265764 0.6313145 -0.39772075 -0.3518968 0.6960423 -0.31262454 -0.22389875 0.59406084 -0.12072018 -0.39522713 0.5866234 -0.22638613 -0.444839 0.57476294 -0.11788063 -0.23420371 -0.38792965 -0.5011162 -0.020634845 -0.0732437 -0.32166767 0.48943406 0.53751105 0.40064648 -0.15075421 -0.22599809 -0.23401512 -0.14904547 -0.0077631813 -0.07598978 0.20915312 0.33445203 0.11241066 -0.12343461 0.054525066 0.044426534 -0.1304218 0.070554666 0.13691805 -0.031588912 0.24736929 0.2989777 -0.7400343 -0.063190185 0.3031292 -0.34886333 0.4215948 0.71538275 -0.5635241 0.22192128 0.50319684 0.21601671 0.13336378 -0.16449574 0.05866603 -0.123419255 -0.05802491 0.08941951 -0.01864432 -0.06605549 0.53048456 -0.0051510143 -0.14318292 0.38192606 -0.32807347 -0.733798 0.4442403 -0.20598926 -0.5081914 0.70735276 0.4440817 -0.36541063 0.33270764 -0.689811 -0.22284532 -0.14331889 -0.11314148 0.14035624 0.36621788 0.40259713 -0.23685984 0.06508671 -0.7146949 -0.13802004 -0.23341775 0.06262993 0.35103455 0.041060753 0.24494116 -0.34011036 0.20929772 -0.7203969 0.07560104 -0.15171918 0.05486363 0.5875242 -0.18292342 -0.13257964 0.03065572 -0.12520726 -0.35324565 -0.22244129 -0.31561816 -0.33597264 -0.21277475 0.13415673 -0.053393066 0.0038701668 0.071777605 -0.011622936 0.08390474 0.011673759 -0.008790788 0.18758816 0.16643482 0.29138827 0.12694009 0.13113467 0.34124887 0.27154896 0.3212223 0.23390506 0.086469054 -0.096173845 0.101868786 0.17488563 -0.19431496 -0.11637308 -0.13911848 -0.1389066 -0.09648624 0.11422766 0.044418506 0.14675221 0.3215363 -0.01707571 -0.111045904 0.29537478 -0.19023667 0.007672846 0.12842166 -0.07150499 0.26814455 0.240052 -0.12052465 -0.07108455 0.08489385 -0.20000474 -0.022806719 0.14319605 -0.15233174 0.18083006 0.2824428 -0.23050345 0.13822637 0.10001218 -0.52298945 0.42604804 -0.014452467 -0.4272699 -0.14277273 0.32953486 -0.49682152 0.12221873 0.4153147 -0.60951406 0.27256173 0.35630435 -0.2988692 -0.010969808 0.21937431 -0.39399865 0.19128066 0.13653383 -0.45461506 0.29153293 0.21429914 -0.14682637 -0.05836079 -0.098626874 0.18652356 -0.32604685 0.09405855 0.37606734 0.09074368 -0.29205927 -0.16770557 0.20421077 0.33986807 -0.09733056 -0.3580629 0.35099158 0.19599023 -0.044442475 -0.07466788 -0.07972624 0.3443923 0.4331343 -0.04706957 -0.40880564 0.23782499 -0.066833764 -0.27274257 -0.40639752 0.12717445 0.048566 0.12503831 0.1811124 -0.050680496 0.03693814 -0.08503925 -0.35941812 -0.27416682 -0.046674747 -0.36254534 -0.28458813 0.11476002 0.26942715 0.19574365 0.12726526 0.18044117 0.23416522 -0.381026 -0.5147933 -0.48919514 0.13465697 0.2689889 -0.010295705 0.22675104 0.2987252 0.3183924 -0.07582233 -0.32214874 -0.32659292 0.14259651 0.52418566 0.3601776 -0.41495287 -0.310831 -0.14887477 0.018084927 0.041212358 0.007041225 0.3852729 0.5965491 0.82871807 -0.6619663 -0.41741064 -0.068670414 -0.06909362 -0.34457153 -0.25572142 0.29764715 0.58786774 0.23636322 -0.18673664 -0.2978816 -0.048019964 -0.3242676 -0.20823848 -0.29897055 -0.48696268 -0.47507456 -0.036922857 -0.49287993 -0.17224374 0.036097124 0.41035324 0.27044827 0.14276367 0.24693957 0.1588544 0.18773253 0.29639494 0.43591377 0.2837863 -0.16544907 0.034511898 -0.022604262 -0.111735344 -0.017385006 -0.053814467 0.033177454 0.0725423 0.14676833 0.5028189 0.37582606 -0.84598666 -0.19831082 0.32557485 -0.1266233 -0.4437454 -0.6521658 0.8380855 0.29435292 0.26092497 -0.6842418 -0.3286819 0.14783627 0.14439437 -0.3072375 -0.61349684 0.8917477 0.37562698 0.40463996 -0.9357462 0.1195202 0.4026973 -0.13766347 -0.1766317 -0.5617619 0.699819 -0.037270524 -0.3547298 -0.244464 -0.36540288 -0.3689419 0.08899597 -0.34748742 0.07427614 0.11452783 -0.00088878855 -0.14695916 -0.11478018 -0.23543459 -0.3432221 -0.066501565 -0.19861303 -0.026886733 0.2050955 0.4041383 0.036773425 -0.013966875 0.17169534 -0.12441878 0.116603196 0.04427882 0.35059118 0.30096093 0.27524874 -0.715762 0.16191627 0.6027397 -0.87189466 0.38896185 0.50404716 -0.9270855 0.35434046 0.35612306 -0.8874155 0.2571854 0.71418047 -0.86977535 0.77649194 0.21130154 -1.0782516 0.663286 0.10704338 -0.61109716 0.38421747 0.4779376 -0.5211708 0.50043666 0.25919402 -0.8056667 0.2824405 -0.36502486 -0.35473913 -0.8199803 -0.699646 -0.19709037 -0.65207356 -0.17636387 -0.89891076 -0.4767438 -0.23110065 -0.84603316 -0.2651246 -0.8106567 -0.51099694 -0.38944808 -0.30848175 -0.47861588 -1.1743268 -0.6430571 -0.4618475 -0.00019865803 -0.5766425 -0.3357327 -0.49171764 -0.4569742 -0.4454498 -0.26078522 -0.33952865 -1.2153254 -0.44651005 -0.33690396 -0.22828934 0.13283841 -0.38302013 -0.013054385 0.003385944 -0.3286328 0.28109863 0.23381354 0.23695543 0.26379448 0.05841724 0.25094247 0.06447254 0.09519083 0.13948011 -0.12815149 0.028305372 -0.13799688 -0.018389843 -0.00029046816 0.079167016 -0.06352623 -0.0052479953 -0.015533882 0.04321307 -0.27838412 -0.045216247 -0.011616413 -0.072161786 -0.039444946 -0.10007426 0.016085077 -0.12456828 -0.10669609 0.068665735 -0.45308936 -0.35407418 -0.10456207 -0.202987 -0.025671277 0.29786965 -0.16260916 -0.009449819 0.31265175 0.028585255 0.17795612 -0.09295836 0.020401469 -0.032357983 0.08652401 -0.119096376 -0.13722958 0.08541298 -0.06458442 -0.20227331 -0.24865165 0.0036645858 -0.038744368 -0.023414925 -0.0014149876 -0.039262418 -0.06385899 -0.19104078 -0.26107493 0.18488772 0.0139825335 -0.1326288 0.28085223 -0.08199688 -0.37783834 -0.004906055 -0.32125828 0.05047344 0.27783474 -0.4115256 -0.15106632 0.063060276 -0.37483817 -0.0256603 -0.14228396 -0.007485954 0.03709726 0.049762964 -0.21986593 -0.078863 0.06662967 0.0098281475 0.2508489 -0.22261314 0.32626742 0.22479074 0.048871767 0.02714201 0.053315885 -0.3011253 -0.42409542 -0.53757346 -0.310735 0.12860967 0.1092862 0.014547675 -0.04882368 -0.20341377 -0.1661736 0.017715823 -0.19292349 -0.12351751 -0.07865951 0.048746206 -0.07267957 0.13948633 0.14506282 0.14476186 0.049995903 0.045099996 0.21448824 -0.26694345 -0.28210402 0.05749394 -0.40971565 -0.4839876 -0.069172874 -0.42834914 0.10711069 -0.09824298 -0.22509053 -0.13104351 0.082363896 -0.17755158 -0.123503655 0.20435762 -0.038852755 0.10817722 0.18545374 -0.14048761 -0.12416567 -0.27053463 -0.14545819 -0.13278253 -0.17382894 -0.12843959 -0.24018691 -0.15794313 -0.20007081 -0.11760204 0.053582124 0.044095475 0.063742585 -0.018680437 0.049207848 0.118907966 -0.10537382 0.040786892 0.05632263 -0.17656837 -0.14804524 -0.103020914 -0.17905553 -0.14604785 -0.13355888 -0.12008333 -0.041377295 -0.023589559 -0.032546207 0.08666551 0.087698996 0.0880435 0.03656119 0.23995487 0.18941908 -0.15037195 -0.039151136 0.14875798 -0.1468808 0.10172767 0.16268103 -0.19011259 -0.05987752 -0.15996124 -0.31284901 -0.4275564 0.010653324 -0.14996545 -0.06547558 0.3478462 0.14354864 0.152885 0.60015875 0.09892014 0.053238835 0.2545618 0.17124076 0.05044246 0.1851884 -0.029993616 -0.086313136 0.014553157 0.05748321 0.14826845 0.32281944 0.09835323 0.1650436 0.36754698 0.24753958 0.5308671 0.09867274 -0.21370146 -0.112990916 -0.08748024 -0.18663856 -0.20330025 0.03395766 -0.09660917 0.015345493 -0.041532125 -0.05831854 -0.04648469 -0.14992057 -0.088848524 0.029915795 0.005334218 -0.094785 0.011638624 -0.014443822 0.23256864 0.16059162 -0.114379466 -0.0044404464 -0.03913427 0.088861905 0.19146286 -0.019827897 0.052898347 -0.104332924 -0.21877912 0.124724105 0.322413 -0.004130233 0.22710522 0.358578 0.24569324 0.30249053 -0.18105 -0.003224831 -0.122464634 -0.26492402 -0.22324729 -0.29258254 -0.26579833 -0.013097046 -0.23501457 0.16474117 -0.074341275 -0.085542515 0.12683184 -0.21601407 0.24559237 0.13121736 -0.028130082 0.16813606 0.04697524 -0.032036394 -0.17828128 0.1693037 0.1842897 -0.028641459 0.150762 0.038396053 -0.10723652 -0.111353606 0.050864376 0.021082124 -0.07963048 -0.09263219 -0.08186717 0.038475975 0.07695847 0.041648988 -0.053515736 0.03167733 -0.04847662 -0.012058737 -0.008430318 -0.019141622 -0.09118051 -0.09962738 -0.017099146 0.030867495 -0.11962098 -0.07958242 -0.0720963 0.09049865 -0.09146461 -0.055868585 -0.039192628 0.03147217 0.0341127 0.026299829 -0.013022532 -0.05213502 0.1044834 -0.0051847557 0.044087935 -0.118967146 -0.06798289 -0.02820668 0.06003578 0.09388864 -0.076774225 -0.10958293 0.099688545 -0.00655023 0.037770834 -0.10466417 -0.0018180583 -0.06630046 -0.015154652 0.043840125 0.07597454 -0.0037573609 0.07760008 -0.092057176 0.051231217 -0.007116557 0.09815023 0.025199482 -0.052428924 0.108608074 -0.025562126 0.011603089 -0.035539903 -0.049670596 0.013432835 -0.12905735 -0.0006098831 0.054970015 0.022019275 -0.12781678 -0.0005457291 0.062955245 -0.07103461 -0.095144354 0.06948416 0.075517885 -0.058260877 -0.054882165 -0.10605667 -0.040734682 -0.11347735 0.064256236 -0.041170686 0.08204671 0.020707488 0.08210098 -0.057306956 -0.11311021 -0.098823324 0.02577233 -0.049647246 -0.07366941 -0.043109443 -0.12898523 -0.04447386 -0.0034845548 0.0088043045 0.06936489 0.00907884 -0.12604894 0.023678718 -0.07331364 0.0051363194 0.04909078 -0.00081531843 -0.0056193694 -0.016821593 -0.13021451 0.062470496 0.05794529 -0.08176852 -0.06666971 -0.026452247 -0.124674544 -0.08409558 0.08239667 0.047727786 0.033823766 0.033877652 -0.10224252 0.02217403 0.031114256 -0.12530765 -0.048210464 -0.0734438 0.043575548 0.032653045 -0.06529798 -0.062361795 0.0005872165 -0.080682896 0.03325759 -0.072863914 0.103472814 -0.08822028 0.05852716 -0.11854131 -0.105754815 0.08061186 -0.09700976 -0.11595125 -0.1266973 0.034218393 -0.092663005 -0.10427778 0.03668535 -0.08773456 0.02666401 -0.10312802 -0.11989606 -0.131374 -0.03795087 -0.029227676 -0.09719317 0.09056082 0.001864798 -0.032942902 0.048648734 -0.120324686 0.05903188 -0.13112782 -0.07207659 0.039496925 0.052461557 -0.07563553 -0.09417974 -0.049337465 0.04959739 0.11042015 -0.123851545 -0.049907204 0.0936629 0.04387723 -0.0020017696 -0.054214492 -0.07589769 0.015886812 -0.14204112 -0.071368925 -0.025538003 -0.020400442 -0.031304784 -0.07399555 -0.1188176 -0.116239816 -0.0936804 -0.11910718 -0.13734241 -0.11132734 -0.08298454 -0.037639815 0.017448653 0.0576633 0.07039598 -0.12690075 0.043718994 0.0049421648 0.09059565 0.01852223 -0.06850029 0.088995844 -0.0649289 -0.10795176 -0.023747014 0.00011383572 -0.09395986 0.020433296 -0.03351251 0.07638976 0.017286472 -0.03335576 -0.070571795 0.0022245713 0.09861905 -0.07801467 -0.07907581 0.060854632 -0.057843838 -0.046845917 -0.0009492534 -0.016782038 0.052711386 -0.036607124 0.1040687 0.06583605 -0.12736571 0.104854815 -0.024957502 -0.01047166 0.06247135 0.055941373 -0.13192669 0.0021774846 0.044853758 -0.08169769 0.103477985 0.03619722 0.0903395 0.054483213 -0.13787554 -0.03801429 0.09128341 -0.006411546 -0.077362694 -0.121002465 0.06635937 -0.029895082 0.07881428 0.013524251 0.081515454 0.04330899 -0.018236028 0.026785534 -0.018109221 -0.0037721565 -0.08231728 -0.037583034 -0.13371986 0.029938478 0.094383836 -0.013356978 0.06292013 0.041760586 0.047051243 0.047958493 -0.008910291 0.088251874 -0.043369062 -0.074684314 -0.13361892 -0.026508875 0.034864888 -0.28089255 -0.41421902 -0.0776234 -0.0019252977 -0.20376159 -0.064688146 -0.03219248 0.10571671 -0.3022855 -0.054841585 -0.20771675 0.10964554 0.11882755 0.119356096 0.19810589 0.14752483 0.45051306 -0.14576378 -0.24075247 -0.20286955 -0.26337466 -0.080645874 -0.069795795 -0.099433005 -0.2369022 -0.30257764 -0.09352195 -0.08899789 -0.13929203 0.22234675 0.17255749 -0.07030006 0.06490009 -0.1378527 0.15180218 0.06488508 -0.009323133 0.14316925 0.13486075 0.0438421 -0.018980583 0.12105825 0.03124769 -0.078987986 -0.099266335 -0.0119105475 0.014034595 -0.14248095 0.04300035 0.05201094 0.24077316 0.017513104 0.1799191 -0.058543425 -0.011597152 -0.13733368 -0.019903842 0.022845175 0.020787043 -0.056067504 -0.025781794 0.22790274 -0.027587263 0.012140214 0.33088073 0.07114971 0.0030753105 0.017140055 0.11960254 0.03418475 -0.040735427 0.116328545 -0.1302493 0.16545545 0.016612582 -0.09211445 0.009231241 0.15710193 0.036761828 0.12196506 -0.043049645 -0.08019955 0.0046592103 0.055249732 -0.16066132 -0.20241971 0.19864304 0.2735474 -0.033439238 0.16412987 -0.07983531 0.31049383 0.16534932 0.0011710433 0.01286227 0.046068326 -0.10593288 0.015008365 0.06028958 -0.3393656 -0.30041057 0.36820522 0.19187334 0.042562507 0.014084356 0.21510004 0.4646293 -0.0981609 -0.121754505 -0.23285426 0.14744797 -0.17462297 0.09676646 0.10399583 -0.012944033 0.11648854 0.02454218 0.11237566 0.08631643 0.13429469 0.13561283 -0.1604085 0.014255651 -0.06783038 0.025566213 -0.07713225 -0.15423942 -0.23806608 -0.13005245 -0.26394826 -0.1878548 0.06984836 -0.07763182 -0.062212292 -0.12751317 -0.022785813 0.058899965 -0.16982117 -0.02671535 0.11511052 -0.15581223 0.021796174 0.11452478 -0.3171868 -0.34808534 -0.29750246 -0.1408053 -0.35752374 -0.27561137 -0.0045902 -0.12511529 -0.016637253 0.2661273 0.20801015 0.24194546 -0.017632227 0.12344962 0.11581135 -0.038160793 0.056295473 0.20741697 -0.038960677 -0.09400946 -0.15780254 -0.05800193 -0.13552491 0.013765111 0.05286942 0.09086333 0.21965306 0.051361423 -0.0017181332 -0.29886773 -0.20496356 -0.02787569 -0.055700444 -0.0821052 -0.042646773 -0.022771928 0.25675148 0.12821975 0.103567906 0.11135999 -0.036940515 -0.178814 0.28413755 0.083975285 0.028189763 -0.12085927 -0.0625953 0.22532915 -0.104793705 -0.118082 0.007822441 -0.024929442 0.0657621 -0.00041706185 -0.27631873 -0.069673926 -0.036326457 -0.02212855 -0.044186242 -0.3787824 0.11770931 0.11732878 -0.26233554 -0.12496521 0.02588532 0.22295375 -0.026625415 -0.08422884 0.0011004789 -0.021877933 -0.057387218 0.14720675 -0.15965489 -0.09264721 0.02460391 0.246149 0.10210796 -0.04872174 0.03365826 0.29244664 0.061952025 -0.020915665 -0.02615989 0.06846107 0.18407777 0.021299465 -0.00936363 0.059288517 -0.033985205 -0.07536271 -0.14370677 -0.10922757 -0.027956713 -0.08040034 -0.0649673 0.18632948 0.1379323 0.17504013 -0.009352769 0.20944382 -0.14085808 -0.04442149 0.15842487 -0.028755434 -0.34982905 0.009988517 0.03558275 0.06258847 -0.25147146 -0.33353564 -0.10864342 -0.052819476 -0.16235973 -0.02670123 -0.19735537 0.033231083 0.02926483 -0.27462065 -0.4739899 -0.44137943 -0.10232641 -0.39612436 -0.23088072 0.24375015 -0.02168276 0.084663525 0.42184213 -0.18305518 0.02728363 0.15821235 -0.12161609 -0.23016535 0.13776888 -0.014586619 -0.40801138 -0.14247727 0.042582113 0.087544784 -0.20539047 -0.1507367 0.33071083 0.06378992 0.1010145 -0.0033721852 0.17968428 -0.08472325 0.07412685 0.02030711 0.23716526 0.04457169 -0.023208698 0.114790514 -0.05554751 -0.2734656 -0.2122524 -0.13361967 -0.25629607 -0.3649521 -0.27462506 0.29998222 -0.058829684 0.037830725 0.20940074 0.043209706 -0.09227118 0.4007071 0.17745358 -0.07096375 0.13864323 0.06392653 -0.06615191 0.10281888 0.041539002 -0.121439904 -0.20149195 -0.21679728 0.155567 -0.27711806 -0.1008201 -0.024537643 -0.30688202 -0.12846327 -0.14498886 -0.29225048 -0.261926 -0.113088585 0.03492701 0.03609869 -0.14550336 -0.16600463 -0.27789563 0.003916016 -0.1480832 -0.15328686 0.038944595 -0.11226726 -0.0024633368 0.00090416445 -0.035092108 -0.11893195 -0.097742066 -0.37205946 -0.34269717 -0.15295933 -0.20415236 -0.08338843 -0.16088241 0.26586944 0.117109306 -0.12065024 0.15716442 0.15836906 0.00950308 -0.021029789 0.06987227 -0.040305577 0.092813 -0.05894946 0.037023272 0.008119516 -0.3097776 0.10666259 -0.14256963 -0.041467905 -0.08519543 0.1366066 -0.21613076 -0.042783897 -0.14093935 0.037501898 -0.12565982 -0.026807707 -0.15072492 -0.11489584 0.043105796 -0.05094058 -0.010493776 0.058017816 0.10556608 0.09756342 0.36410284 0.18766738 0.23210312 0.2742348 0.11544561 0.105588965 0.15432872 -0.0403046 -0.034104288 0.15449044 0.177003 -0.14317541 -0.053703472 -0.22249357 -0.13580984 -0.2491265 -0.27617776 -0.1868821 0.06238713 0.013196234 -0.21179384 0.027243594 -0.17923364 -0.07861771 0.10811025 0.31002814 0.37908667 0.18204516 0.093986936 0.1628841 0.18810372 -0.14317876 -0.105942324 0.21202959 -0.122867264 -0.20312706 0.15902321 -0.15863575 -0.21432231 0.06860241 0.06871293 0.0046899607 -0.2098942 -0.026551114 0.09524905 -0.057625774 -0.09665495 -0.04862473 0.10981045 0.06314385 0.101629876 0.32560924 0.21462359 0.1518639 0.24534789 0.2887433 0.1421444 0.030485475 -0.10487478 -0.12990609 -0.2096588 -0.09147366 -0.0025448392 -0.22645488 0.037453264 0.2009475 0.28919294 0.17751384 -0.02822022 0.38537568 0.1839618 0.004468094 0.06521762 -0.07584927 0.05141914 0.008394102 -0.13286193 0.076040484 0.014244436 0.0006171672 -0.15908407 0.07611577 0.045301985 -0.14068078 0.2851304 -0.087056436 -0.074855454 -0.007622802 -0.16641718 -0.32005975 0.17307931 0.09179263 -0.3183781 -0.06854193 -0.14340237 0.11051874 0.073369846 -0.065691546 0.016194168 0.15257525 -0.0062499614 -0.25179833 0.0768176 0.08386291 0.008254917 0.001023038 -0.33025616 -0.15447076 -0.12173158 -0.13065928 -0.10954767 -0.031651832 -0.08497732 -0.09165965 0.1614865 0.029907158 -0.05579241 0.07673384 0.11429065 0.12830082 0.24462159 0.00029201098 -0.22230689 -0.11106528 0.066115215 -0.12361892 0.08063691 0.02220958 0.15248235 0.13169749 -0.12866051 0.25761876 0.1985563 -0.013862193 -0.16507474 0.33858728 0.03714984 -0.18352121 0.009485125 -0.11447406 -0.23778978 -0.057610538 0.10699208 0.10632143 0.25483835 0.11900772 0.18450303 0.09366263 -0.30585364 0.039411187 0.041377824 -0.182708 -0.42862386 0.25293633 0.08327002 -0.38568664 0.049959946 -0.12753807 -0.10595789 0.13102953 0.043458067 -0.03778575 0.0804478 -0.051487006 0.24194677 0.0017866855 0.09670046 0.109128945 0.0065375464 0.14341366 0.1494044 0.05548979 -0.04768767 0.059946854 -0.031819277 -0.0146443695 0.033104353 0.022103159 0.07428335 -0.07251793 -0.06612803 0.022058258 0.04548582 -0.15731803 -0.016865471 0.072835445 0.09936462 0.09398608 0.16157195 -0.115886554 -0.085956 -0.12119326 0.007214966 0.028236834 0.010709779 -0.20701367 -0.17813392 0.028947603 0.13965118 0.20938113 -0.1047557 0.0490964 -0.0734746 -0.24724309 -0.12330404 -0.11105243 -0.08767934 -0.2764379 -0.17917351 -0.32960778 0.052338153 -0.09179433 0.031389896 0.19932537 -0.05913523 -0.19486146 -0.13877411 -0.1943203 -0.014554965 0.010452143 0.062020298 0.5712404 0.08218233 -0.02964911 -0.022004297 -0.41178942 -0.1824359 -0.05530913 -0.042495906 0.09750718 -0.064876065 0.14040124 -0.037871987 0.0379218 0.3428408 -0.114594534 -0.24812599 0.1028662 -0.05965277 0.13864005 0.011102851 0.076885305 0.19368687 -0.08719296 0.12008736 -0.17514578 0.25782734 0.14060222 -0.25673592 -0.5363733 0.1409004 0.5383171 0.24619883 0.22682476 0.010110982 -0.11579959 0.2785502 0.36122897 0.2970596 0.15318146 -0.00756317 0.23526818 -0.1848001 0.09632481 0.20257391 0.36524755 0.29609704 0.008463118 -0.008615395 0.050059833 0.08718992 -0.03545013 0.09656639 0.1915846 -0.17682184 -0.16690609 0.13661136 0.1532005 0.17045715 0.18470609 -0.1509189 0.20251079 -0.043188162 -0.11805242 -0.3145897 0.067335755 0.013110513 -0.067314126 -0.15548232 -0.0920498 -0.07812986 -0.15929079 0.11499264 0.1840613 0.1645055 -0.08764603 0.20929408 -0.08217912 -0.2825686 -0.10546196 -0.070702896 0.11937224 -0.03557195 0.06679079 -0.078703135 -0.07074106 -0.042028315 -0.11705943 -0.10847053 -0.2775688 -0.1908526 -0.21992819 -0.45651478 -0.02339217 -0.30479223 -0.07880493 -0.20673405 -0.14814252 0.21959901 0.24953952 0.025300346 0.0020945275 0.0496367 0.08039979 0.016045593 -0.15146166 -0.02621987 -0.03291927 -0.07073614 -0.21058978 -0.1141666 0.071737066 -0.05388915 -0.016824994 -0.006879416 0.042558905 -0.02238986 0.14713505 0.20795676 0.0005134522 -0.055241264 0.12751423 0.08575455 0.0475906 -0.041016705 -0.04159231 0.14608306 0.121761516 -0.10316709 0.026102372 0.15027678 -0.014562179 -0.052812546 -0.033974648 -0.043992713 -0.14916445 -0.2238028 -0.038641866 -0.06853129 -0.05299487 -0.069360144 -0.16365781 -0.010452578 0.2582707 0.046582196 0.26680627 0.049170822 0.047055874 0.24481754 0.08637184 -0.19003347 0.00493012 -0.033136547 0.11471228 -0.060675003 0.06778697 0.11409594 0.11098075 0.12566982 -0.04641606 -0.018840238 -0.16374713 0.16516525 0.24915464 -0.06831477 0.051360246 0.15130429 0.10810824 0.1885897 0.08637268 -0.108469106 -0.16941015 0.07336069 -0.048039958 -0.22328167 -0.13840441 -0.084664546 -0.04353441 -0.07194173 0.24679208 0.36824125 0.23038712 0.18359283 -0.25484496 0.12895307 0.17596918 0.19394907 0.12373785 -0.21315672 -0.19592434 -0.12523346 0.05863877 -0.15848324 -0.061326206 0.04970418 0.07533133 0.15815291 0.055733744 0.035868272 -0.011353863 -0.05259611 0.061048515 0.15196055 -0.010953681 -0.30902874 -0.11079079 0.22657637 0.13865578 0.39974892 -0.0709659 -0.25961304 -0.08293727 -0.56171894 -0.62852776 -0.41480762 0.36543998 -0.028803721 0.0767708 0.3740727 0.24619846 0.16489841 0.19072057 0.0038009288 0.07623114 0.24782346 0.017299412 0.104091786 -0.08497381 -0.09449706 -0.029941367 -0.25094643 -0.43088487 -0.1622466 0.04478934 0.08507077 0.13374983 -0.1699727 -0.36856675 -0.27890173 -0.1843625 -0.050081886 0.05268149 0.039030954 -0.061376408 -0.03346255 0.015789682 -0.004839075 -0.055162404 0.15277009 -0.035264794 -0.0422142 -0.1305284 -0.33339292 0.06928203 0.064027965 0.1488548 0.095405914 0.3329545 -0.03893342 0.26216573 -0.17503136 -0.08538411 -0.004037828 -0.21475229 -0.35780126 -0.01295489 0.1299951 0.007561544 0.18483652 -0.19525775 0.16277574 -0.08689323 0.040426385 -0.124693535 -0.0722614 0.025803627 -0.0997792 0.1423219 -0.009284094 -0.13828292 -0.2810701 -0.14271817 -0.1242108 -0.0746728 0.2106064 0.12215571 0.010017599 0.09778432 0.07662309 0.41915303 0.18102445 -0.040823564 0.07925478 -0.28119838 -0.37878916 -0.25799078 0.013943059 -0.12425954 -0.030126957 0.18365991 0.13274044 0.12648584 0.14804922 -0.027033852 0.43027106 0.16823314 -0.022418214 0.25047407 0.4311379 0.18921307 0.32456738 0.030226298 -0.16248809 -0.050055295 0.10556383 -0.20828263 -0.23662455 -0.14576283 -0.22094531 -0.2226518 0.27817854 0.41843015 0.47493955 0.055868343 0.025473893 0.08834349 -0.115371816 -0.19339024 -0.2377105 -0.34925932 -0.22368434 -0.087730676 0.24114248 -0.018981794 0.22725148 -0.20954089 -0.1476539 0.008526448 -0.10708435 -0.1976719 0.06979154 -0.26053807 -0.22718655 -0.23535277 -0.032009624 0.14199458 -0.08752774 0.18890604 0.30980107 0.011523989 0.3912551 0.26501217 0.10471188 0.032903623 -0.1961962 -0.04060417 -0.41352078 -0.38781738 -0.21829273 0.0009113521 -0.043070648 0.08038047 0.028011091 -0.0956169 0.14913893 0.4692091 0.21541235 0.5400209 -0.017713126 -0.009604319 -0.038152467 -0.17820889 -0.013074254 -0.036689367 -0.02498418 -0.06934491 -0.025652697 0.029401936 -0.07884405 0.11362898 0.102077655 -0.13195157 0.022130588 -0.057028476 -0.14402972 -0.19527228 0.022077193 -0.12368915 -0.11625287 -0.12867841 0.023572914 0.08245097 0.016226366 0.070127636 0.1244931 0.001716217 0.16554949 -0.17136365 -0.02005472 -0.038076453 -0.06943966 0.027707353 -0.043428082 0.02765654 0.14315814 0.2454526 0.17118199 -0.21167268 -0.08607255 -0.24603388 -0.39854476 -0.4844797 -0.6206984 0.021982584 -0.061330087 -0.19086349 0.1697811 -0.17092298 -0.1340982 -0.20424473 -0.021826953 -0.06305717 -0.062328864 0.0127031 0.028358832 0.2452216 0.15333411 -0.00571405 0.022562854 0.018443719 0.12490989 0.23193973 0.03230844 -0.019438261 0.054639556 -0.0864256 -0.17976895 0.12954497 0.001965669 0.11705818 -0.12871435 0.23239273 -0.023528585 -0.07711586 -0.07715188 -0.08459625 0.00027069804 -0.0066741235 0.033123046 0.12950581 0.0862272 0.19895534 -0.09325492 -0.20808978 -0.17351131 -0.28046492 -0.34413794 -0.063579276 -0.09100284 -0.013952169 -0.03762823 -0.07153254 -0.07749011 0.22731973 0.021416452 0.12819308 0.09452961 0.07768821 0.29154512 0.3768898 0.088226065 -0.29631853 -0.15217873 -0.6185847 -0.804804 -0.3537386 0.08630199 -0.02909864 -0.008583417 0.180619 -0.29856703 0.31519413 -0.34510532 0.18263432 -0.24858724 0.17697881 0.22622181 0.19482484 -0.085126705 0.35487384 0.038103007 0.1551313 0.1377093 0.12258479 -0.13699283 -0.017755305 -0.09347054 0.040771954 0.06760316 -0.14823103 -0.17349099 -0.27078298 -0.113652475 0.06108018 0.10475832 0.21455444 -0.23189999 -0.058401488 0.069415 -0.31527483 -0.19842716 -0.10698807 -0.112533115 -0.11150189 -0.011013027 -0.255213 -0.2957956 -0.5561262 -0.27520254 -0.15769538 -0.4233455 -0.2860931 -0.09315951 0.010025755 -0.08765204 0.25566337 -0.18103434 -0.078584716 -0.029064173 -0.06670631 -0.0071620448 0.027210226 0.17196517 -0.18104106 0.023731718 0.13421102 -0.00035695633 0.10552218 0.06551494 -0.09801982 -0.20009433 -0.027384486 -0.24623609 -0.30453557 -0.28234765 -0.11081354 -0.16087602 -0.34757867 -0.21048182 0.030144183 -0.24774799 -0.32716677 -0.13646331 -0.34632125 -0.052044015 0.12182371 0.087559685 -0.13927439 -0.043784175 0.2335309 0.08330364 0.14342493 0.14922601 -0.032380044 0.10518505 0.48743856 -0.051178657 -0.017244887 -0.0704819 -0.31841442 -0.2964045 -0.06322479 -0.15512514 -0.220042 -0.13570555 0.011556802 0.17764057 -0.009297742 0.25903267 0.0110903215 0.3458105 0.16164073 -0.13025762 0.267809 -0.13767058 -0.06309106 -0.012076263 0.11136663 0.0017240305 0.062458936 -0.149839 -0.07053685 -0.10752283 0.15003791 -0.051236596 -0.012928244 0.27386007 -0.2276959 -0.0036443176 0.06586128 0.2984697 -0.31160486 -0.04592026 0.09258707 0.09871691 -0.14319777 -0.02431597 -0.1267241 -0.073547825 -0.06604514 -0.1985436 -0.09563661 0.08938592 -0.13512985 0.064177796 0.030257415 0.43805465 0.09792424 0.035801973 0.32624853 -0.0017657056 0.2376073 0.0035173767 -0.04350065 -0.021775605 0.018506154 -0.1003175 0.045931887 -0.27733126 -0.4386282 -0.046629146 -0.030013079 -0.23260874 -0.28381488 -0.10753036 -0.30171415 -0.45218864 -0.14154005 -0.14057718 0.04045376 -0.09201122 -0.22485064 -0.28205368 -0.10223261 -0.34245676 -0.352493 -0.3330615 -0.047426216 -0.042821743 6.0798484e-05 -0.2575081 0.10448123 0.07231647 -0.0026131477 -0.16098052 -0.16586235 0.12942718 -0.11952353 0.14834069 0.1442712 -0.18626845 -0.061073933 -0.017034605 -0.09809807 -0.39559457 0.0035761925 -0.2252914 -0.040464744 -0.16894738 -0.13723907 -0.1256393 0.027775468 -0.052038517 -0.2986068 0.008360882 -0.02175092 -0.07520392 -0.122603685 0.23279582 -0.18226188 -0.16950203 -0.23195858 0.06809074 0.042109758 -0.042310525 -0.048931405 -0.17217763 -0.03727964 -0.06222813 -0.018911244 -0.1534325 -0.06416057 -0.086267024 0.09454961 -0.01591008 -0.15679403 0.01094692 0.03382233 -0.20518889 -0.20040579 -0.05264539 -0.0044742743 0.07283108 -0.015657438 0.08559395 -0.105574 0.092400946 0.15330853 0.1018926 0.111276075 0.15914352 -0.0069038104 -0.25334385 0.24163374 0.25278792 -0.03356173 0.12115763 0.09811101 -0.13760048 0.21688214 0.15512903 -0.10686987 -0.0018510283 -0.07342889 -0.14594752 0.6943064 0.09057113 0.0053008 0.23317824 0.06634098 -0.032835465 -0.1914158 -0.25762606 -0.13203351 -0.28912047 -0.2875171 -0.45218676 0.15712814 -0.19877112 -0.3392558 -0.09178553 0.103805505 0.36683092 0.109748445 0.41279683 0.20109804 0.16048865 -0.16978201 -0.28958747 0.30745104 -0.061224386 0.26156786 0.19437815 0.101183325 0.023635183 -0.20912144 -0.182635 0.10066163 -0.051543955 -0.06281653 0.13441959 0.0015327949 -0.15422001 0.40531293 -0.1560829 -0.07486869 -0.10477834 0.18225968 -0.2685993 -0.068466194 0.02679357 0.033168215 0.22546968 0.013100382 0.17925623 0.030489387 -0.0067577492 0.09599778 -0.12221743 -0.14841236 0.08651394 -0.09036805 -0.126632 0.04087039 0.06824188 -0.022021031 0.098777644 -0.009434016 -0.19784309 0.010554511 -0.11417378 0.014994909 -0.12499027 -0.09624918 -0.054019913 -0.22469833 -0.049800035 -0.24684915 -0.3088522 0.058164965 -0.017073698 0.067788094 -0.12796095 0.049655486 0.014989159 0.0072113145 -0.06794813 0.0494645 -0.01864314 0.13627473 0.04759161 0.13186109 0.022103775 -0.37928814 0.022746943 0.098976634 -0.11908916 0.12218672 -0.061523583 0.21447212 0.3811035 -0.44278994 0.08057245 -0.14769839 -0.25398836 0.056743965 -0.18367405 0.20006667 0.04882022 -0.032268718 -0.13375415 -0.2526937 -0.08490586 0.07422634 -0.22551213 -0.05717519 -0.04500067 -0.25112802 0.11904634 0.05373233 -0.29111347 0.10580674 -0.4141792 -0.25048962 0.13911718 -0.035170007 0.07852392 0.14317603 -0.29294086 -0.044110935 -0.14180443 0.018049572 0.002623942 -0.03274195 -0.1621192 -0.07210579 0.12804304 -0.0076934523 -0.18377204 0.13558438 -0.16525252 -0.07019297 -0.16151695 0.17767046 0.034904364 0.022333821 -0.15847676 -0.24333519 0.16045678 0.0034035174 -0.12633358 -0.19728115 0.2616751 -0.26320803 -0.36834547 0.23610917 -0.12824154 -0.07798026 0.2381777 0.07445744 -0.01889106 -0.077602565 -0.040966626 0.261159 -0.087870926 -0.24190512 0.1005429 -0.24213195 -0.2235676 0.050438147 0.33760163 0.06989998 -0.016914697 0.2814321 0.17490722 0.19853328 0.37555078 0.22516464 -0.013474716 -0.20024234 -0.18141806 0.16783245 -0.31443098 -0.1740038 0.08834832 -0.19720429 -0.020377321 0.33596432 0.22563139 0.04115701 0.13044663 0.113692716 0.033372134 -0.032222245 0.13915794 0.14194232 -0.051986832 -0.07861121 0.17470747 0.12341654 -0.03450308 0.039356686 -0.010308274 -0.06474231 -0.053043928 -0.04961054 0.13155285 0.24942794 0.10464077 -0.09171303 -0.04391512 -0.12484865 -0.026703727 -0.1170246 -0.118075594 0.11485317 -0.05374123 0.16391897 0.08880017 -0.21557373 0.04881261 -0.035706643 -0.36054847 0.052246206 -0.07940413 0.034904588 -0.21240512 -0.15974031 0.5882796 -0.048298147 -0.019976676 0.32249767 -0.09946805 -0.064522594 -0.039093185 0.20392904 -0.18412358 -0.09606149 -0.0106481705 -0.0822137 0.04582049 -0.02182571 -0.17002137 -0.06716717 0.062403876 -0.263069 -0.16883977 -0.046503246 -0.44278145 -0.31192127 -0.028304376 -0.070207596 -0.12305269 0.024645675 -0.014993493 -0.25948814 0.11174867 0.06678858 0.19646162 0.17371972 0.07702949 -0.089707814 0.06445075 -0.009578682 -0.23655237 0.21751106 0.06504531 0.024915097 0.2052703 0.20330052 0.14714885 -0.1326884 -0.06920728 -0.13986225 -0.24786374 -0.054918803 -0.07636494 -0.17450918 0.11534495 0.071339995 -0.020621609 -0.1762758 -0.020172518 -0.1067972 0.062042754 -0.096188866 0.2539067 0.34604502 0.31627938 0.017833559 0.33071288 0.15378156 0.31014958 0.6197235 0.045307647 0.15703349 -0.076595016 -0.13588825 -0.06722808 0.16996723 0.09540369 -0.14464578 0.2473858 -0.045859776 -0.07466136 -0.043461617 -0.12656811 0.054264188 -0.011013492 -0.07062945 -0.009726154 0.03902182 0.09763716 -0.13598965 0.035016105 0.13520467 -0.18048967 0.12855779 0.15183719 -0.07623776 -0.06732245 -0.080017835 -0.12617904 0.06500704 0.22416034 0.010886755 -0.33946633 0.12688847 0.34531462 -0.3312046 -0.16480704 0.16409169 -0.023594167 -0.009759506 0.0071498565 0.1818187 -0.064593874 -0.0069047664 -0.03345974 -0.031799685 -0.25376493 -0.17522061 -0.3677635 -0.21115176 -0.0755239 0.060521215 -0.06514511 -0.182324 -0.0344655 0.16342594 0.06455208 -0.13211538 -0.016892564 -0.0853736 -0.090389125 0.0768685 -0.041916415 -0.11747906 0.06445994 -0.057500403 -0.2801423 -0.15665406 -0.037265185 -0.3043395 -0.09731798 -0.13288803 -0.1711674 -0.0584278 -0.34291196 -0.23813216 -0.276854 -0.14023954 -0.083160736 -0.12009096 -0.26318485 -0.2713454 -0.13079381 -0.021115405 -0.12122983 0.090578124 -0.13952795 -0.020970007 -0.15201867 -0.20803349 -0.09981898 -0.15713704 0.051818687 0.03243824 -0.33291385 -0.3790001 0.22921121 0.2681692 -0.076759756 -0.19854438 0.41049713 0.051662236 -0.2302213 0.1357395 0.49865383 0.20245646 -0.3414186 -0.112314954 0.16671784 0.2436053 -0.055708002 0.050676133 -0.120049715 -0.24194956 -0.038648855 -0.15543659 -0.09953427 -0.22827037 -0.09777443 0.26893446 -0.039832894 -0.061957676 0.14923929 0.26965696 -0.2653325 -0.12361034 0.01615342 0.29974866 -0.08610706 -0.21624015 0.10816919 0.1989059 0.06547454 -0.10146348 0.24045423 0.08860305 -0.17805603 -0.26102874 0.18613352 0.0013780344 -0.22416869 -0.034803256 -0.07931678 -0.20516315 -0.11586221 -0.09882237 0.05150603 0.18421124 -0.14158444 -0.1369071 0.02773807 -0.06625283 -0.23598589 -0.040255193 -0.30329672 -0.19794488 -0.088518485 -0.25897932 0.099002324 0.0851758 -0.009987286 -0.12826991 0.23980688 0.37257266 -0.1249261 -0.07596644 0.0797376 -0.081467114 0.12826206 0.039515417 -0.05545844 -0.06729255 -0.00637176 0.058329437 -0.30500948 -0.120987795 -0.056162354 0.053015325 -0.08531024 -0.12054411 -0.16658574 -0.22632712 -0.054743506 0.06282357 -0.052803077 -0.1601375 -0.10012265 -0.06430819 -0.26289216 -0.25082272 -0.25899458 -0.062823504 -0.12136712 -0.06934091 -0.13471957 -0.055415038 -0.11951802 -0.17135075 -0.008698879 0.029445348 -0.023853358 0.39195848 0.2268281 -0.3162495 0.16259177 0.48135257 -0.43084365 -0.15006885 0.29704797 0.141509 0.061409824 -0.051621053 0.033964295 0.20421317 -0.09769958 -0.07858155 -0.134616 0.005129503 -0.1618619 -0.10896042 -0.19404377 -0.10154701 -0.050024044 -0.229014 -0.20683572 0.062210776 0.044844996 0.028755229 0.18100028 -0.034393054 -0.082948565 0.20290048 0.41204458 -0.2797591 -0.12735392 -0.012630575 -0.14723887 0.053703498 0.10664759 -0.21899384 -0.099518396 0.029339528 -0.21487948 -0.082322665 -0.23835671 0.22354199 0.114083976 -0.011268342 0.0013956069 0.10946722 -0.014367045 -0.07552428 -0.23218578 0.10726523 0.09605097 0.059354354 0.115409665 0.12498744 0.21156414 -0.0790735 -0.17629726 0.12411399 -0.06411739 -0.18570437 -0.061691165 -0.23085907 -0.1320347 -0.06376243 -0.24594694 -0.3870931 -0.29056236 -0.08729358 0.041088693 -0.072143756 -0.045847833 -0.07718386 0.055149466 -0.15186322 -0.016204845 -0.066469155 -0.33720753 0.0659178 0.2546211 -0.14524998 0.22340995 -0.103418134 -0.031413347 0.028906595 0.004791439 0.06661484 -0.12898983 -0.072264954 0.4056307 -0.11709319 0.21687637 -0.06602609 0.23148532 0.29771692 -0.023269717 -0.019287137 -0.12836637 0.08043595 -0.075719744 0.11644723 0.181733 0.17832145 -0.14279507 -0.00065824535 0.26811767 -0.19688855 -0.25127164 0.30845883 -0.26174143 -0.030414946 0.02483818 -0.10391551 0.108857475 0.012284436 0.09074882 0.118977144 0.15105805 0.16184562 0.119598 0.035564616 0.2599854 0.56838834 -0.20484002 -0.1700333 0.18620357 -0.06834433 0.061764058 0.06552204 0.0318237 0.13960022 0.0042464025 0.10167278 -0.012176646 -0.06896994 0.07798006 -0.038357917 -0.08985223 0.18965054 -0.009291156 -0.1128036 0.036221154 0.08173142 0.140514 0.0008801426 -0.20355915 -0.05490389 0.09733415 -0.061488338 -0.20367943 0.06613103 0.23924541 -0.025760097 0.07718744 0.19636518 0.43152946 0.03443195 0.2798774 0.3093423 -0.19649084 -0.14152998 -0.02093213 -0.26620695 0.039872203 0.014332619 -0.1425029 -0.02673657 -0.07960868 -0.005662547 -0.23460102 -0.26387516 -0.10326196 -0.15656191 0.08039444 -0.14100777 -0.04670083 -0.17066616 0.12431374 -0.02756509 -0.2223025 0.16576986 -0.08096987 -0.28322408 0.10415137 -0.2271215 -0.10811107 -0.05528925 0.34712678 -0.08144858 -0.022178007 -0.10247422 0.21773794 0.019411128 0.051812537 0.24310067 -0.16811933 -0.14955465 0.27738583 0.057888187 0.07391389 -0.028993994 0.24214187 0.17492677 -0.03949309 0.09141877 0.13005069 -0.08384994 0.0942412 0.10361528 -0.11894808 -0.09484449 -0.17091484 -0.32351747 -0.02977516 0.10683314 -0.029893363 -0.068121575 -0.1036884 -0.19790183 -0.2053447 -0.19222564 -0.17483172 -0.041320015 -0.085676774 -0.25411463 -0.05496299 -0.06422144 -0.27495646 0.022173572 -0.09176667 -0.042505924 -0.078633755 0.12535182 0.15599592 0.059636272 0.251123 -0.027054116 0.086931385 0.11830316 0.20474282 0.1318023 0.011646072 0.2544989 -0.056498002 0.3982269 0.2687574 0.2771142 0.46029964 0.15685835 0.23505577 0.001979684 -0.13164154 0.20191526 -0.24015583 -0.16295367 -0.03742016 -0.06347314 0.20555452 0.16159739 -0.023585951 -0.07463059 -0.08427452 -0.21601923 -0.14535905 -0.06186012 -0.223802 -0.38501847 0.1018864 -0.26349446 -0.21597432 -0.03000608 -0.22232668 0.30338943 -0.21546355 0.40052256 0.3346422 -0.06786465 -0.08930822 0.009402302 -0.23502378 -0.13266729 -0.09237615 -0.13269153 -0.16922474 -0.23727286 0.04364561 -0.16232948 -0.018795414 -0.010978561 -0.07340697 0.16796136 -0.29965237 0.047399603 -0.08377355 0.07689335 -0.20396325 -0.13176122 -0.0651719 -0.18493372 -0.14525162 0.0906393 -0.25860155 -0.3927618 0.24856125 0.06757673 -0.15096518 0.2322985 -0.14645079 -0.26847583 0.049355667 -0.13731197 -0.025380602 0.022669822 -0.10870383 0.014975686 -0.1399843 0.1740371 0.38589898 0.08799802 0.17606717 0.065654404 -0.040871114 -0.042367097 0.06585804 -0.13501513 -0.011242854 0.3297442 -0.037076917 0.2018738 -0.03024509 -0.0481951 -0.067793876 -0.18884258 -0.048984427 -0.2942303 -0.00011437477 -0.018819477 -0.12745121 -0.2158337 0.028550247 0.2187146 0.15318364 0.12981533 0.2529598 0.22210655 0.28832284 0.5127139 -0.013882062 0.123310044 -0.13926634 0.0271549 -0.11891672 -0.2792996 -0.30874318 -0.20400786 -0.2803192 0.01039063 -0.272277 -0.04977416 0.29209715 -0.16216968 -0.11106043 -0.06547436 -0.18036933 0.06368834 0.19221275 -0.050765224 -0.21269286 -0.008806576 -0.33294865 -0.30038673 -0.09617766 -0.030342456 -0.19259149 0.14288524 0.35299897 0.16860937 -0.14025846 -0.012417179 -0.07689208 -0.2823262 0.09875356 0.038261764 -0.149532 0.10280487 -0.1669601 0.054655828 -0.18694809 -0.045047775 -0.20473719 -0.069878966 -0.12294104 -0.13160141 0.056369342 0.041283153 0.050911263 -0.012101411 0.07869971 0.035583332 -0.062055096 0.05277214 0.028535452 -0.026158521 -0.033559524 -0.057223383 0.14012268 -0.15062937 -0.10729975 0.33742684 -0.0054670367 0.054384105 0.108920954 -0.0059774914 -0.035130925 0.15676117 0.23632489 0.00031787402 0.26097792 0.13427943 -0.103742 -0.012601351 -0.093053244 -0.110747166 -0.110981636 -0.19532558 -0.03284673 -0.038786627 -0.13476525 0.12931634 -0.038881477 -0.3157461 -0.24388233 -0.30455378 -0.15741841 -0.19089851 -0.37446946 0.0055188835 0.13274722 -0.010650348 -0.12366083 -0.1731063 -0.2626894 -0.15536943 -0.03148494 -0.3303449 0.10767557 -0.1657621 0.07550895 -0.26609316 -0.15273519 -0.0994225 -0.16478866 -0.2800615 -0.07658363 -0.25176463 -0.2242542 -0.027042754 -0.107993245 -0.20990174 0.027395954 -0.16269238 -0.19116119 -0.076345496 0.07525422 -0.096608154 -0.055872228 0.097721584 0.42385504 -0.026517147 -0.011484959 0.11089758 0.06223131 0.3675512 0.18348674 -0.120722085 -0.10059356 0.14142182 -0.074061304 -0.08159708 0.071308345 -0.03693377 0.08537653 0.15183419 -0.13292648 -0.055717833 -0.092985675 -0.12597364 -0.008826643 -0.090703405 0.0003547368 0.039720755 -0.17189507 -0.05660391 -0.12599726 -0.1342019 -0.2695475 -0.21643436 0.028649816 -0.112524666 -0.17675312 -0.023396477 -0.061345525 0.05259873 0.039432697 0.038559698 0.21028154 -0.07400508 0.13165386 -0.021314643 0.016374584 -0.13263778 -0.17926836 0.16291568 -0.30558103 -0.037775435 0.027792554 -0.2075974 0.01144824 -0.010888166 0.37930822 0.106820196 0.0144195035 0.14117932 -0.030839924 -0.1299661 0.086938575 -0.025775146 -0.1410209 0.12801988 0.0009921093 -0.06748988 0.062777065 -0.067639716 -0.1569853 0.14308892 -0.13673462 -0.14979267 0.05203933 -0.14456818 -0.23661906 0.051226515 -0.08252211 -0.19677739 0.4085764 0.070915684 -0.21260116 -0.002773495 0.025146995 -0.11473549 0.020175064 -0.09033312 -0.13172403 -0.09276357 0.13797493 0.07007153 0.0022479359 0.00550117 -0.08855382 0.036086816 -0.112472326 -0.11757574 -0.22172284 -0.15749364 -0.06913405 -0.13672185 -0.26044607 -0.07468638 -0.4257765 -0.23824994 -0.07086809 -0.20746785 -0.26695612 0.27986163 0.07579038 0.0035834312 -0.06833181 0.0128949955 -0.059177916 -0.29606777 0.040173486 -0.15377694 0.05098087 0.25497785 -0.07595906 -0.16934757 -0.1423693 -0.13205768 -0.03237699 0.23149385 -0.18520424 -0.023189066 -0.20260054 -0.083943084 -0.17595887 -0.19422089 -0.30589113 -0.1890368 -0.0714057 -0.19590376 -0.028892023 -0.18045996 -0.09374926 -0.24464369 -0.11295882 0.0413429 0.03752116 -0.1018433 0.08203607 -0.22641547 0.29350677 -0.20289639 0.06531853 0.45791745 -0.33950305 -0.106379405 0.163908 -0.07319361 0.099135555 0.013253287 0.24165425 0.03961347 -0.028691268 0.041247454 0.08663975 0.11665474 0.26939002 0.04142152 -0.18904127 -0.13612294 -0.2535294 -0.06971402 -0.2983218 -0.16231465 0.03939058 0.11254287 0.46507886 0.06306154 -0.05054345 0.36805797 0.096300274 0.36329716 0.446691 -0.1415859 -0.10492824 0.080444396 0.04353071 -0.119451806 -0.12966502 0.04205301 0.10873737 -0.11149207 0.14421977 -0.08729715 -0.034582395 0.34070146 0.17160535 -0.038516294 -0.15977228 -0.14022183 -0.111825734 -0.23331071 0.06485062 -0.112301715 -0.1232677 0.082632735 0.4768408 0.024922013 0.31040028 0.36521906 -0.09585745 -0.1565765 -0.08368993 -0.010742482 -0.17536856 -0.04781895 -0.15802015 -0.07766833 0.08995021 -0.3057256 -0.06126622 -0.12132453 0.1144306 -0.045388073 -0.14247489 -0.011718354 -0.18417989 -0.18650283 -0.120877974 -0.28286877 -0.26140553 -0.011566866 -0.26267245 -0.21211636 -0.09269894 -0.26207456 -0.14200127 0.1314695 -0.005513933 0.085478365 -0.010308834 0.39622325 0.28544444 -0.17936677 0.03177126 -0.10176331 0.2070286 0.50797033 0.62373835 -0.1552654 0.051834866 0.029916078 -0.19004443 -0.09049038 -0.108367 -0.109731264 0.0945515 0.053426947 -0.07723177 0.14058699 0.17044947 -0.08116243 -0.07082125 0.10991642 -0.245711 -0.34611195 -0.13316388 0.027247377 -0.31220978 -0.20842203 -0.26053828 -0.31327507 -0.36112815 -0.01162562 -0.1369108 0.18911698 0.019977093 -0.01829669 0.38398463 0.23467903 0.04913731 0.1919909 -0.16431718 -0.3568219 -0.046229806 0.01769715 0.12723875 0.21250077 0.11142922 0.1171243 0.016629158 0.0057286774 -0.15602764 -0.16679119 0.03582608 0.10287034 0.24390589 0.163268 0.042898353 -0.023176419 0.10058719 0.09157269 -0.015058951 -0.041960984 -0.010246483 -0.08263944 -0.26693335 0.16931547 0.016388597 -0.030040462 0.28387263 0.12614782 0.37790853 0.25568917 0.26526755 0.41540122 0.27259958 0.20696972 -0.014181019 -0.043584425 0.036946807 -0.17847064 0.036706228 -0.067977674 -0.281651 -0.029661307 0.020434678 0.0071165483 0.2089249 0.2324649 -0.09813072 0.04890243 -0.16324134 -0.11302766 0.041246396 -0.095373936 -0.11213675 -0.09260033 -0.029445611 -0.15211643 -0.19126165 -0.20619273 -0.020591233 -0.07233629 -0.011573185 -0.1330652 -0.09572891 -0.082067735 0.25512615 -0.21025084 0.12240458 0.27742022 -0.4941886 -0.16653387 0.23647651 -0.30522925 -0.007196629 0.036015287 -0.21382573 -0.106364585 -0.025169108 0.023474498 -0.049919095 -0.09187209 -0.08944638 -0.025476368 -0.1550516 0.16921243 0.06926291 -0.19768514 0.11238509 -0.08802853 0.18748683 0.18322875 0.12949015 -0.022645522 0.08701139 -0.09419895 0.069185816 -0.005427981 0.004878111 0.16292353 0.5241149 0.28123087 0.12150656 0.05360464 -0.105563074 0.052803315 0.13356845 -0.010240834 0.099622644 0.15533572 0.0059858765 -0.119586475 -0.20593344 -0.2112929 -0.61039 -0.5458596 -0.40438917 -0.1355555 -0.22893229 0.092839256 -0.17505004 -0.27006093 -0.22964165 -0.13942656 -0.13916913 -0.21426669 0.29024914 0.1505997 0.13588826 0.23478484 -0.023909139 0.2005393 0.06576704 0.14031895 -0.009801086 0.06704873 -0.01066952 0.036944944 -0.012591782 0.48769155 -0.012390113 -0.05655704 0.31645164 0.5460837 0.29799604 -0.084312834 0.13883734 0.09041325 -0.110181816 -0.50159097 -0.1284733 -0.18912382 -0.35872477 -0.21007155 -0.30500445 -0.22401848 -0.14708805 -0.3322687 -0.03882247 -0.034061998 -0.12577319 -0.20097886 0.18230757 -0.034566242 -0.24084328 0.10564037 0.039161455 0.025431573 -0.019372076 0.047160614 0.13841435 0.041501723 -0.023744904 0.13886844 0.3463915 -0.1761748 -0.40115845 0.14609577 -0.032146275 -0.15783235 0.024133429 -0.06892093 0.21465245 0.1510694 -0.16871409 -0.20222165 -0.0027926494 -0.117400736 -0.23129335 -0.18155898 0.00295928 -0.30924562 0.22938517 0.14613687 -0.08866552 0.09869198 0.13573554 -0.0959747 -0.31785846 -0.027442062 0.1788532 -0.096095435 -0.21502754 0.04880594 0.1404202 -0.033506613 -0.092162736 0.07375962 0.07617651 0.18597862 0.0635634 -0.1097683 -0.11678907 -0.0299325 0.028969698 -0.13885677 -0.13201344 0.01957625 0.09871086 -0.13572247 -0.13374205 -0.34434524 -0.117093414 0.07263895 -0.2326776 0.07572091 -0.10199529 0.16635394 0.11976669 -0.11832536 0.075688295 0.018898822 -0.07571226 0.25169143 0.02019575 -0.033683527 -0.2523918 -0.4388688 0.45691884 0.4784753 -0.30605984 -0.06971629 0.6319744 -0.033594165 -0.42664874 0.21025845 0.07144654 0.032564867 -0.10621428 -0.017318377 -0.029819284 0.055392265 -0.0062854 0.0372783 0.013169382 -0.057386916 0.21594143 0.1490765 0.37936667 -0.09587423 0.41016018 -0.006773277 -0.004044651 -0.12457733 0.047679134 0.34544078 -0.14487799 -0.09517092 0.027296824 0.26871273 0.055584405 -0.28286445 0.052092306 0.00965184 -0.12215169 -0.07789484 -0.10310651 0.055149794 -0.038189717 0.11744086 -0.082674034 0.048417475 -0.12620291 -0.17194946 -0.054015253 -0.17953101 -0.14564204 -0.006984774 -0.16481791 -0.14500809 -0.21192552 -0.05220029 0.15575214 0.120946005 0.018165505 -0.13338673 -0.11262465 -0.18105601 -0.10501428 -0.034485098 -0.01374634 0.14058198 -0.025774973 0.08819585 0.0103459535 0.092446536 -0.089901276 0.06015524 0.17145874 -0.072400466 -0.17389672 -0.21896686 -0.22793926 -0.26801896 -0.30538177 -0.04551763 -0.18368874 -0.18091068 0.092876345 -0.21778186 -0.34735632 0.24780683 0.07985966 -0.3428063 0.268811 0.23036231 0.020090695 -0.16970627 -0.042418778 -0.028413108 0.07303528 0.00020604886 0.06813487 0.088821545 0.20417354 0.027337274 0.10991822 -0.24685024 0.23098572 0.008038824 -0.10420103 -0.011502744 0.24965602 0.33963406 0.022207731 -0.12728247 0.048174515 0.1635381 0.003125286 -0.08911905 0.1875564 -0.18149237 -0.06292567 -0.015458349 0.025037427 0.34791893 0.08152195 -0.1839811 0.075393006 0.06474373 0.0126559315 -0.0844543 0.2575925 -0.00508117 -0.16786572 -0.023990236 -0.10050569 -0.18810469 -0.14026158 -0.08568551 -0.011944899 -0.05394468 0.2536824 -0.19589522 -0.19534524 0.14899872 -0.007850058 -0.33233622 0.3470696 0.08653606 -0.0015582533 0.2594807 0.23367746 0.024819711 -0.10432693 0.16055275 0.29945472 -0.041202214 -0.052594725 0.12826347 0.1116807 -0.16961937 -0.29561487 0.2792837 -0.10039904 -0.2708547 0.21686988 0.13599744 -0.10692704 -0.040454242 -0.10667051 -0.2172767 -0.07265124 -0.10617066 0.089167066 -0.17121577 -0.066071756 -0.14260013 0.4957603 -0.06778423 0.16602047 0.03632117 -0.79795516 0.23329383 0.8910418 -0.5920233 0.2662088 -0.3527355 1.494703 -0.3893638 -0.23312306 -0.21789515 0.20987485 0.060025 0.10540234 0.19733244 0.030133834 0.04298751 -0.047670677 0.05082233 0.035994876 0.04973888 0.07902996 -0.088161945 -0.03090083 -0.09972458 -0.08953523 -0.006112451 -0.020728584 -0.01249202 0.02744489 0.08063651 -0.19349915 -0.010784772 -0.06736827 -0.22658075 0.052604556 0.07602668 0.003316824 -0.08395887 -0.022781035 -0.052560836 -0.081051596 -0.1253419 0.025423305 0.10042292 0.0022042238 0.044799738 0.041805252 0.057926204 0.07303444 -0.04548389 -0.007656818 0.017227253 0.09183625 0.08180718 0.07388901 0.03780259 -0.10291395 0.0016000438 0.18770184 -0.053366907 0.1436782 -0.059595514 -0.15174294 -0.1249529 -0.07820632 0.056357805 -0.025527634 -0.0060242084 -0.058735907 0.048459947 -0.102304116 0.21533935 -0.07270951 -0.035578925 0.04306991 -0.20826055 0.15495375 -0.047241315 0.15019651 0.07091568 0.07431961 -0.0437852 -0.018804347 -0.062404685 -0.01125759 0.057826612 0.02385762 -0.032307606 0.02298662 -0.05842135 -0.0444144 0.04275827 -0.078390725 0.16643189 0.03830845 0.36817965 0.10117907 0.09434902 0.0972874 0.01258365 0.16370764 -0.053046964 0.027449856 -0.12176533 -0.064858615 -0.0007705948 -0.021360548 0.081642434 0.05642573 -0.088951215 0.076458424 -0.08347542 -0.054697767 0.14131309 0.097591646 -0.10000253 0.027732972 0.015183861 0.076903194 -0.05174654 -0.06086812 -0.0007090299 -0.00081301655 -0.027825985 0.11221627 -0.015468873 -0.1125945 0.12584029 -0.063827015 -0.07863933 0.059831284 0.06258713 0.093652725 0.04918845 -0.068138875 0.096659176 -0.06795459 0.06421321 -0.092319295 0.101662286 -0.0726478 -0.015260658 -0.004129144 -0.094151326 -0.06100749 -0.02806714 0.03355047 -0.0021002993 0.08844669 0.00166072 -0.06834244 -0.032394715 0.030056534 -0.045965347 -0.033625674 0.072181635 0.085831754 -0.09959106 -0.03288955 0.094205916 0.05186593 -0.005967639 0.0788557 -0.02769419 -0.0019745056 -0.038340084 -0.027448531 0.097908966 -0.06810583 -0.08167876 0.013391709 0.09266975 0.09245439 -0.10054394 0.08544672 0.018103514 0.032675598 0.055955887 -0.064994335 0.04810691 0.08909109 -0.101163 0.04295615 0.08419012 -0.054506283 -0.040530533 0.05956042 0.052977473 0.07155719 0.093206435 -0.09290445 -0.032325976 0.0025847945 0.07656902 0.091877334 -0.009753603 -0.061639138 -0.009868682 0.066450104 -0.055789433 0.07569814 -0.06769813 0.082798935 -0.028481042 -0.075633824 -0.038984597 -0.0001974342 0.07148014 0.012917526 -0.07036771 -0.04848382 0.04580793 -0.052268557 -0.025270382 0.09936174 0.055999815 -0.095077924 -0.09463507 -0.0535434 0.0791233 -0.04739966 0.064519785 0.038007326 -0.04810839 -0.07417334 -0.055374686 -0.050075077 0.09901942 0.040706955 0.074346684 0.09941576 0.040028747 0.08978932 0.008145678 -0.019503988 -0.035082117 0.011325776 0.09151388 -0.016644683 0.0796812 0.040771306 0.05439582 -0.08399233 0.011884945 -0.0926478 -0.041885678 0.045587987 -0.084962875 -0.08477022 -0.04826338 -0.10521669 0.061791252 0.012059483 0.07344575 0.07614444 0.059308123 -0.11958564 0.024789156 -0.1343354 -0.111155905 -0.110244125 -0.024281552 -0.12619685 0.14585611 0.041432507 -0.068428636 0.14617683 -0.012979132 -0.16642281 0.06491957 0.14730592 0.16535696 -0.09725058 0.13646655 -0.13739842 -0.03358356 -0.10599455 0.23448448 -0.11043466 0.087247096 0.053711254 0.034004416 -0.13833652 -0.14598723 0.015388798 -0.05635325 -0.008851714 -0.09034643 0.08791333 0.03148279 -0.11149748 0.054868292 0.078080654 -0.05162503 -0.13369502 0.08346187 0.1001628 0.02990095 0.1946098 0.07094541 -0.056925613 0.012168448 0.01655997 0.12961236 -0.0078911465 -0.0042633354 -0.14997229 0.0831531 -0.11484359 0.027252113 -0.19834289 0.03735123 0.011373501 0.005480934 -0.24581885 0.25154352 -0.14071815 0.04318894 -0.10924181 -0.16423057 -0.0987641 -0.20284031 -0.033423293 0.15543938 -0.30490243 0.20933804 0.072312094 -0.17572369 0.057877306 0.011279953 -0.009943574 0.16158763 0.040288318 0.034256585 -0.046896234 -0.007571893 0.04586962 -0.097328596 0.12397965 0.14989465 0.156875 -0.16124311 -0.00772278 0.027030835 0.012104396 0.07082638 -0.1686363 -0.17150047 -0.10042433 0.12090148 -0.08118229 0.28987002 -0.12599783 -0.10293997 -0.042115208 -0.0037129926 -0.116106495 0.060658075 0.060410313 -0.11259338 0.05837458 0.103036515 -0.07109006 0.02665947 -0.07579157 0.013826901 0.047350395 -0.0052218693 -0.08263792 -0.0355662 0.07170774 -0.0065739066 0.037727974 -0.19436494 -0.03801087 0.1205886 -0.17546916 -0.15215361 0.051727932 0.1373708 0.08595051 0.058417477 0.100212745 0.05584311 -0.06550157 0.040512938 -0.013523204 -0.10252004 -0.016784135 0.10222254 -0.021635098 0.052933216 -0.028626159 0.13699695 0.044777654 0.000120856996 -0.15493898 0.032189567 -0.047892813 0.006632465 0.14169371 0.11943886 0.037095502 -0.012408887 -0.11623477 0.03364436 0.18931548 0.18651895 -0.009032484 -0.050417144 -0.06327564 -0.08854359 -0.0025430936 -0.10507048 -0.08239136 -0.17747599 -0.00050845864 -0.09378786 0.05045604 0.017622182 -0.06287969 0.120124765 -0.013378759 3.6422418e-05 0.032307893 -0.060447413 0.004999823 -0.010747192 -0.121138684 0.015382361 0.007568069 -0.07329979 -0.22085343 0.03565557 -0.08961601 -0.10054445 0.04082366 0.048845254 0.13077684 -0.0043515232 0.1456796 0.088937305 0.0408737 0.041121196 -0.1117223 0.18539727 -0.055335913 -0.1108984 -0.115967065 0.016273636 0.09826859 -0.14429285 0.060698673 0.019802036 -0.02466058 -0.0015032631 -0.17949398 0.03329305 0.0003855476 0.017742978 0.010476391 -0.10105374 0.061371297 -0.06999297 0.09058281 0.061552282 -0.11069653 -0.051277135 -0.029330786 -0.021291103 0.1588386 0.18224551 -0.085801505 -0.013261087 -0.07882364 0.018812062 -0.040008307 -1.6001766e-05 0.28220066 -0.06416782 0.032104764 -0.0100982515 -0.06913362 0.04498196 -0.055475093 0.1190008 -0.0032921045 -0.03517849 0.023044825 0.07880284 -0.08632477 0.044074465 -0.07078178 -0.07385777 -0.023718584 -0.04072073 -0.20102473 -0.06957396 -0.0052251737 0.05783219 -0.076930076 0.004617651 -0.023017365 -0.121177115 -0.05755522 -0.016849343 0.0701062 0.20495166 -0.03394042 0.14033616 0.066283666 0.08710045 -0.19526927 -0.14146332 -0.0462924 0.086644016 -0.047770005 -0.041060098 0.027625276 -0.23325679 -0.02416903 -0.021878645 -0.15736528 -0.1480102 -0.11098287 0.07134738 -0.124497026 0.08817167 -0.0042760503 0.0052512744 -0.12249904 0.057450026 -0.11121494 0.091406986 -0.03003045 0.069094256 -0.028521296 -0.106740326 -0.10826476 -0.065090306 -0.09162723 0.06467423 -0.032166652 -0.05059195 0.053346537 0.029939359 -0.14105712 0.025787974 -0.2251868 0.103338525 0.025026284 0.035176188 0.050875537 0.12830222 0.067395344 -0.038941633 0.042468626 -0.008404635 -0.023989841 -0.012847162 -0.017626248 -0.10042583 0.036312897 0.27972165 -0.21313077 0.0019864396 0.1446099 0.008261741 0.035752963 0.029879648 -0.14086108 -0.20504463 -0.040221073 0.038300913 0.06654427 -0.06772172 -0.16232283 0.011916654 -0.07068918 0.010898228 0.046961553 -0.16006283 0.18390898 -0.05311449 0.08513293 -0.08545663 -0.0068562925 -0.06555861 -0.28008002 0.026171546 -0.13475776 0.14047648 -0.15373765 -0.1048314 0.033619065 -0.0289864 -0.1183529 -0.00052698667 0.03617025 0.04607754 -0.0366121 -0.03907949 0.12831192 0.01208014 0.014167857 0.2411011 0.019455086 0.22976343 -0.11445147 0.08812485 -0.04388557 -0.028330501 -0.10544428 0.12638041 -0.038806804 -0.0056953016 -0.06186551 0.036039937 0.04822016 0.097602434 0.060923196 0.032313026 -0.017635282 0.043816946 -0.0780317 -0.14497545 0.00976581 0.03951021 -0.086600535 -0.062181633 -0.047025383 0.078897335 0.10559116 -0.15310064 -0.03316207 0.16988544 -0.05851646 0.07339705 -0.05400276 -0.16742577 0.20198101 0.020013021 -0.094360635 -0.15479483 0.08034627 -0.07317367 0.027973102 -0.1937494 -0.09610601 0.10385085 -0.038068864 0.00022173178 0.06501646 -0.0061429534 0.12598076 -0.037550345 0.12699582 0.07020837 -0.023268493 0.03405947 0.060667094 -0.032026403 -0.17348099 -0.12835513 -0.09024766 0.15863393 -0.11117899 -0.100774005 0.008404578 -0.046439078 -0.06275658 -0.00019585282 -0.07244898 -0.0788723 0.010740753 -0.063868195 -0.09125513 -0.025455873 -0.06594256 0.07701228 -0.095487684 -0.0028997187 0.03756239 -0.11208369 0.07858438 0.06603378 0.06877378 0.053629313 0.09641082 -0.036048997 0.013759334 0.16185787 0.044848397 -0.14377502 -0.0068639065 -0.004619451 0.018566044 -0.119230695 -0.06476001 0.059594043 0.12470341 0.017602582 -0.06590733 0.0038820046 -0.092944615 0.05900771 -0.06295368 -0.08869484 0.027390093 0.09730068 -0.08889787 -0.12947816 0.029968828 -0.08581291 0.22086795 -0.026437761 -0.12391825 0.274215 -0.003546642 0.014767728 0.020120416 -0.010420369 -0.17162699 0.03880309 -0.018945994 -0.0018005812 -0.17294386 0.12859257 0.037574135 0.05316407 0.030451627 -0.07146148 -0.10416559 -0.0065553538 0.003004286 -0.17144847 0.12401614 -0.10111518 0.14753647 -0.030808108 0.08470222 -0.08235144 -0.02142372 0.08799159 0.009869013 0.008435054 -0.060693026 -0.04796206 0.042726446 0.081331864 -0.013206427 -0.06793773 -0.08415517 -0.0759097 0.007718745 0.04343414 -0.14987622 0.06289364 -0.1038463 0.046419766 0.13509409 0.052824844 0.096245736 0.07337214 0.1301015 -0.0509033 0.03123214 -0.038060706 -0.041588172 -0.030566601 -0.036071938 0.16711931 0.14809926 0.0059130723 0.12338465 -0.1332092 -0.19728066 -0.08697011 -0.043914437 0.049997393 0.04545498 0.08317113 0.1052964 -0.18247606 0.031288702 -0.12572753 0.056189716 -0.016294014 -0.06711068 -0.060081158 0.12560402 -0.04740185 0.02120928 -0.19644113 0.052153125 0.017736057 -0.17978176 0.13679361 0.07539012 0.08300716 0.08685866 -0.061758254 0.07466656 -0.16674075 0.091658294 -0.11646003 0.0055533857 0.12829313 0.035182096 0.07218473 -0.069092944 0.053053632 -0.10284085 0.057832364 -0.0026580824 -0.00527107 -0.024456333 -0.08982656 -0.045555513 -0.05482595 0.061952922 0.034210976 0.10797562 0.023893258 0.027718764 -0.014014516 0.0026124115 0.09929966 -0.14761524 0.0055478527 -0.085696034 0.031540763 -0.015802842 -0.014845965 0.1471829 -0.08748397 -0.003958796 -0.028762152 -0.09038686 -0.048034873 -0.02702503 -0.038627837 0.046230987 -0.11403712 0.052786477 0.11018351 -0.018913414 0.14992884 0.13097544 -0.17951065 -0.030887904 0.09390348 0.03610953 0.07594952 0.030784037 0.03630867 -0.052595545 -0.056954645 -0.0341711 0.115920044 0.085859805 -0.027437186 -0.04053579 0.15982509 0.042286344 -0.052327823 -0.23746534 0.14714326 0.04009005 -0.0659055 -0.20269431 -0.06622224 0.032627378 -0.15830922 0.08007798 0.049921975 -0.10920475 -0.19210292 0.031646013 -0.07417008 -0.009679202 0.040239982 -0.07933208 -0.03884951 0.020260526 -0.068465434 0.018617323 0.08037783 0.022829741 -0.09919851 -0.09136951 -0.1888101 0.09545253 0.052039377 0.17134088 0.0025212602 -0.1538148 0.07106286 0.08780029 0.13432969 -0.0025892772 -0.17432036 0.072175786 0.063262925 -0.08854798 -0.12729688 0.1591124 -0.11648421 0.077228434 -0.17060687 -0.031024272 0.0059109386 0.115421854 0.008973092 -0.0884886 -0.018307395 -0.0759955 -0.22327113 0.019464504 0.11406151 0.019727431 0.12019666 0.054799974 -0.0012816467 0.053602103 -0.04819498 -0.11474458 -0.168298 -0.082731344 -0.00967418 -0.05306436 -0.009715784 -0.08324185 0.14871797 -0.017407456 0.07139752 0.0049047335 0.040417522 -0.09276211 0.085440464 0.016420899 -0.088618174 -0.13391702 -0.094433635 -0.16374189 -0.09002073 -0.03764058 0.10492199 0.16834545 -0.086534835 -0.123136476 -0.028223429 -0.02906018 0.01757867 0.08701406 -0.035824176 0.10470867 -0.10969991 -0.020546166 0.07877194 -0.067568764 -0.021164794 0.26590008 -0.1293576 -0.023142777 -0.038294367 0.15795115 0.058945507 0.050359868 -0.056292452 -0.117129415 0.041691545 -0.08984692 -0.009128149 0.14371619 -0.005242181 -0.007257774 -0.036945228 -0.113466755 0.07643209 0.03435563 -0.047933865 -0.012909259 -0.019215804 -0.053040408 -0.21949704 -0.048664436 0.06388363 -0.0025264635 -0.050942972 -0.009906623 -0.11981093 0.00964043 -0.0835591 -0.13585751 0.004446592 -0.044270422 -0.11903898 0.07126853 0.0039029312 -0.14770265 0.0074347467 -0.07903367 -0.11641411 -0.13904464 0.045132387 -0.07497967 -0.19077523 -0.057569604 -0.020193705 0.09729968 0.04997424 -0.09450771 -0.06500865 -0.020799903 -0.13708527 -0.06145504 -0.042488925 -0.07719463 -0.102898315 0.050512366 0.07627254 -0.031539768 -0.06588107 -0.18945755 -0.052119322 0.07388411 0.014548183 0.06291454 0.04075469 0.13711713 0.07828744 -0.07675113 -0.121612035 0.051373344 0.0062243287 0.027432997 -0.04780336 0.06530614 0.0044509396 0.063810594 -0.056457367 -0.027313914 -0.093299896 -0.01962771 0.053654507 0.03425123 -0.10120668 -0.0082072215 0.060262445 0.044155598 0.21871585 -0.117328525 0.024423823 0.10161197 0.01623856 0.04411459 0.034210462 -0.17775358 0.048787825 0.008952382 -0.027058795 0.0018223033 -0.11477747 -0.010579791 0.015688747 -0.0065601426 0.04770847 -0.06889872 0.014821252 0.16381799 -0.0124144005 -0.032407116 0.06823757 -0.026876494 0.002538797 0.016798994 -0.18305993 -0.025140164 0.018762698 0.13782087 -0.03432727 0.10627684 -0.003263748 0.019862855 0.10221286 0.08416308 0.058935434 0.0808033 -0.020222882 -0.0028889708 -0.17621763 0.14964707 0.20099959 0.19168472 -0.34944618 0.022224968 0.0555084 0.031407554 0.04064313 0.009795999 0.033675577 0.07289193 -0.008777361 -0.053033818 -0.06738573 -0.07857092 0.08770996 0.1117411 0.099262595 0.06812305 -0.15316737 -0.0672184 -0.19130945 -0.039989974 -0.035775434 0.1968924 -0.31602538 -0.058939766 0.075937696 0.0406938 -0.15765704 0.13406461 0.19630264 -0.045029283 -0.040372178 0.036144793 0.28763226 -0.12384276 -0.01058408 -0.12770997 -0.17768535 -0.07622793 -0.04140178 0.1586993 -0.083231576 -0.008542435 -0.011320749 -0.036084164 0.036664754 0.1046295 0.044089794 -0.07508787 -0.1505909 -0.1944954 0.10086249 0.038840353 0.32294905 0.09881338 -0.16235515 -0.10341167 -0.041437697 -0.032211617 0.028629178 0.17155153 -0.09142857 -0.08969485 0.028743329 0.098852955 0.0053958204 0.063441075 -0.051438242 0.0823838 0.20971963 -0.10323162 -0.3060829 0.22112086 0.14760035 0.05094995 -0.07531375 0.16564386 0.030105662 0.1315044 -0.15556157 -0.010890594 -0.12878634 0.013185783 -0.0074408697 -0.20803586 0.03777695 0.15329318 0.14848712 -0.1918384 -0.0043046447 0.04561657 -0.030798273 0.09944869 0.06059066 0.07135444 0.023324192 -0.28485927 -0.10787189 -0.25822467 -0.067520425 0.09180982 0.0087015815 0.0020460933 -0.003862323 0.056134906 0.12340493 -0.21202643 -0.0018803602 0.0007035694 0.06328964 0.004609706 0.07095568 0.06091055 -0.11440808 0.13978757 -0.078208774 0.11478824 -0.12371296 -0.03865356 -0.13454576 0.0688014 -0.046779756 0.18563338 -0.17741986 -0.07683045 -0.12839788 -0.0984385 -0.017476372 -0.080182865 0.08522443 -0.10065352 -0.24751571 0.010538451 -0.024804635 -0.009026882 -0.009173274 0.0989182 0.16386922 0.055192195 0.042407926 -0.09466737 -0.099404216 0.19300698 -0.030026294 0.0019649067 0.043889835 -0.09842886 -0.069544785 0.12205178 0.17765972 -0.1994528 0.019527726 -0.12278602 0.015578136 -0.025181832 -0.16647306 0.00683812 -0.033397995 0.007592067 -0.006678157 0.050882895 0.047598347 0.141643 0.01521572 0.10095541 0.082099825 -0.013561984 0.019711487 0.11523877 0.085190795 -0.035740543 -0.17292364 0.027415391 0.08747102 0.029038109 0.073576495 -0.13502695 -0.1462853 0.024946623 -0.012096748 -0.16342567 0.13793099 0.047159463 -0.050431557 -0.10704397 -0.11839361 -0.10882845 -0.2291698 0.14052387 0.2841846 -0.013490051 0.082888976 -0.036650818 0.0013240895 -0.0929584 0.0329833 -0.043642323 -0.013388948 -0.024093412 -0.13973223 -0.02223433 -0.026707932 -0.07561136 0.07836023 0.074569635 0.039049953 0.13271537 0.08139832 -0.12991275 0.070531346 -0.16545188 -0.05854005 -0.08687207 -0.10058148 -0.23399045 0.05704368 0.012733034 0.057805173 0.039204787 -0.12015685 0.0012407473 0.1710554 -0.022370942 0.14435972 -0.058820434 0.06429541 0.033621382 -0.03927528 0.048693646 0.09285759 -0.030252717 -0.07784958 0.059763033 -0.14347616 0.08118165 0.11009474 -0.14198482 0.0037589744 -0.06256121 0.068683386 0.11311711 -0.101489134 -0.0007875678 -0.02934542 -0.019151542 0.033673573 0.048392247 -0.17437394 -0.09016486 0.102146454 0.018408421 -0.13281788 0.0424504 -0.028598137 0.044412352 -0.14042147 0.072143316 -0.0577286 -0.06070534 -0.121381626 -0.048967745 -0.008107987 0.02982848 -0.00674577 -0.03852772 -0.12365691 0.029754166 0.12380494 -0.026351728 0.048562028 -0.12395179 0.081439264 -0.043170445 0.016120026 -0.05163555 -0.023331981 -0.03544656 -0.012660553 -0.06780032 0.05903461 -0.029811623 -0.06572679 0.008018129 -0.14046058 -0.090252 -0.037902612 -0.108274445 0.15206954 0.019355996 -0.024232233 -0.059674285 0.0379522 -0.023628088 -0.085981056 -0.0042991373 0.0930804 -0.12068897 0.07307748 -0.13163775 -0.14003806 0.08297832 -0.015602691 0.07919041 0.10467163 -0.026466973 -0.019023344 0.1400366 0.15838628 0.004241351 0.020826288 0.07855027 0.026641129 -0.014891675 -0.044712555 -0.0010075156 -0.12879205 -0.10167696 0.10906011 -0.056180224 -0.056103297 0.03528286 0.033007324 -0.06972643 -0.08955066 0.042876285 -0.07547976 -0.01627454 0.050439484 -0.07837974 0.14950478 -0.010433747 -0.009953656 0.022301987 -0.10028232 -0.012605327 -0.029431287 0.14924009 -0.15958402 -0.079255596 -0.15121585 0.099308476 -0.088471435 0.13600828 0.08666851 -0.057989173 -0.13258103 -0.013325706 -0.046232473 -0.03878324 -0.063358456 0.02714618 0.0031672155 0.07418371 -0.1879817 -0.14927156 -0.048769858 -0.058255445 -0.0044448576 0.042675793 0.07294654 -0.12999411 0.23490056 0.032830056 -0.12324158 0.063388236 0.1776874 -0.12296636 0.19276966 0.14906156 -0.014492266 0.10756854 -0.095202126 0.07553514 0.016701039 -0.10749834 0.026485153 -0.15387583 -0.037842337 -0.03505156 0.08637645 -0.12607688 -0.0077787875 -0.08559263 0.035395358 0.017656922 -0.03810035 -0.1199995 -0.022005774 -0.08691509 0.020446181 -0.013920517 -0.017238885 -0.0028840734 -0.08460568 0.10708691 -0.14922455 -0.04222119 -0.02016602 -0.11672651 0.042553566 0.130881 -0.03544794 0.08080706 -0.025994692 0.23838195 -0.011379213 -0.07473963 0.11240955 -0.13372734 -0.1837605 -0.16206016 -0.13663647 -0.120616116 -0.1573096 -0.06939065 -0.042327493 0.06588685 3.184659e-05 0.09201997 -0.07194838 -0.009015569 -0.01609773 0.004360649 -0.08047977 0.10576096 -0.060869213 -0.029486194 -0.044537663 -0.08446049 0.015916541 0.030476417 -0.062091533 -0.1392305 -0.04223336 -0.11328031 -0.12460498 0.043286394 0.31273723 -0.023388991 0.04021546 0.16486308 -0.07215889 0.008950453 0.0004071638 -0.11132015 -0.03928876 -0.065249614 0.10184928 0.08553338 0.04222551 0.1493055 0.02945976 0.10334226 -0.037806667 0.07257649 -0.05983123 -0.0016597195 -0.13784477 0.09298144 0.009030551 0.05413261 -0.2582242 0.2336345 -0.124375105 -0.055935744 -0.014903571 -0.07405963 0.030504048 0.09209342 0.01584465 0.09731354 0.14494905 -0.051028684 0.15805344 0.02347155 -0.09939526 0.098978825 -0.08414373 0.027355157 0.013717687 -0.014422296 0.035532165 -0.15281689 -0.058330506 0.030179089 0.038747102 0.09808695 0.036128737 0.06750859 0.019756755 -0.10216984 -0.024940442 -0.1334736 0.008054944 0.10006523 0.024158793 -0.13619825 -0.01876728 -0.060172774 0.15130295 -0.053767085 -0.01297407 0.03893528 0.04691657 -0.18513232 0.048179448 0.07140356 0.05525119 -0.16107228 -0.0033504053 -0.017428143 0.09230908 0.1294662 -0.12365462 0.046995524 -0.17657873 0.12539656 -0.042441614 0.10701385 -0.026345758 0.3278957 0.05213961 -0.014022054 0.06238581 0.12591982 0.08019839 0.00087844813 -0.15670122 -0.02714745 -0.10341525 -0.088198364 -0.0572418 -0.031492736 0.26980776 0.07544462 -0.03828919 -0.009286058 0.15852122 0.05301535 0.07704923 0.21071163 -0.2061619 0.075084634 -0.04517591 0.047989726 0.037590686 0.046621352 0.053678166 -0.056395702 0.18311012 -0.051882714 -0.09885508 -0.0071700844 -0.01653914 -0.056299094 0.050021358 0.029467054 -0.041894056 -0.02440106 -0.04143908 0.08283101 -0.079680316 -0.043320034 0.0014752122 0.13174313 0.052191798 0.016614243 0.031325117 0.031839725 -0.11488123 -0.07887026 -0.0132086575 0.036395047 0.02070194 -0.016295478 -0.04192905 -0.013792095 -0.029764827 -0.03681529 -0.0056221774 -0.06199191 -0.17209299 0.023105187 -0.09967974 0.08449088 0.010916453 -0.1099089 0.07598951 0.068329416 0.024579205 -0.081927374 0.06369995 0.0041291774 0.0020707161 0.005083381 -0.02254847 0.039858274 0.06906962 -0.099826 0.058331378 -0.073048204 -0.06388397 -0.015772454 0.017462179 0.018024726 0.028847963 0.07206233 -0.08039246 0.0360405 -0.013734545 0.035226032 -0.05588225 0.050044987 -0.07702946 -0.027704189 0.082247645 -0.009599376 -0.05738662 0.07683537 0.04191371 -0.08013066 0.052437454 0.092774175 -0.0067832475 0.016693912 -0.052133325 -0.049549848 -0.06602215 -0.03612436 0.0013965395 0.013384847 -0.049375575 -0.032334466 -0.01857489 -0.07339434 -0.057813402 -0.08988809 -0.012621237 0.036964264 -0.073533826 0.101694666 -0.012634822 -0.073422074 -0.03464444 0.039402835 -0.0775456 -0.0069214767 -0.07527514 -0.008127139 0.09754733 0.09843754 -0.09607009 0.05587101 0.019346487 0.011848715 -0.07532567 -0.045372058 0.04810012 0.07183975 -0.03281404 -0.08746295 -0.019792791 0.049684092 -0.00023715755 -0.024771003 -0.08584278 -0.06980568 0.08283451 -0.0025272842 -0.058431186 -0.055213485 -0.066939406 0.092440724 0.009537375 0.0030368844 0.0904279 0.015816908 0.04181654 0.07189661 0.09735616 0.05894442 -0.012222234 -0.033379935 0.06890808 -0.007443069 0.018228458 -0.030104402 -0.056832787 0.09668147 -0.038884617 -0.028049415 0.0812996 -0.04908559 0.06318906 0.04744705 0.029400812 -0.086334705 0.01000905 -0.08226871 0.056443565 0.05939593 -0.053686075 -0.06335569 -0.06626327 -0.025688935 0.054216713 -0.06818695 -0.02100237 0.044216096 -0.018772898 -0.04933088 -0.05852739 0.09587315 0.015041845 -0.07977749 0.099963926 -0.06481864 -0.032743722 0.010389569 0.089534506 -0.0028191106 -0.07697997 0.028347403 0.0053213313 -0.109051034 -0.024832396 -0.0631502 -0.09925227 -0.027964342 0.10085165 0.01258604 -0.051975157 0.060682867 -0.05804824 0.049265657 0.07548014 -0.038260017 -0.008514316 -0.10571022 -0.07896366 -0.082537435 0.020384349 -0.060105916 0.007816789 -0.09892535 0.008242718 -0.09760511 -0.10205698 -0.09557571 0.03165425 -0.14505939 -0.077207185 0.035444282 0.021677587 0.019443348 0.01310084 -0.0032819866 -0.006720403 0.15459365 -0.033605766 -0.1733458 0.08397515 -0.0072289966 -0.1080154 0.021475712 0.07042749 -0.1175512 0.028455278 0.04593068 0.20057891 -0.07562348 0.015085206 -0.09826297 -0.20011717 -0.074825324 0.028336348 -0.1940341 -0.031731866 0.021118505 0.016835263 -0.07851933 0.04571337 0.070536874 0.038418688 0.013405161 -0.095782354 -0.07722684 -0.16014752 -0.041354652 -0.006769996 -0.154365 0.005631707 0.17444675 -0.1426744 0.023378406 -0.12635373 -0.13305229 0.07844882 -0.01789981 -0.14528829 0.015622378 -0.16784565 -0.07244936 -0.1584743 -0.008128514 -0.05380694 0.009542987 -0.0048915436 0.11845864 0.14428617 0.001876266 0.009394649 0.019396149 0.060857218 -0.03506382 0.010749991 -0.07405009 0.062597945 -0.023204518 -0.12230412 0.07169983 0.0039223945 -0.16982773 0.034487385 -0.0829937 -0.08963106 0.019199915 -0.092915885 -0.0075400756 0.047574256 -0.067992784 -0.043415576 -0.097204156 -0.13603143 0.107127056 -0.10292749 -0.022715006 0.012910316 -0.06142141 -0.03775322 -0.11910158 0.06666657 -0.16258425 -0.19854806 0.086062096 0.017652838 0.069126986 0.023457013 0.042547792 0.049967133 -0.06262815 -0.055908438 0.026837455 -0.16301443 -0.067721516 -0.025505157 0.15504469 0.0336726 -0.07107782 0.07995209 -0.09016785 -0.05326824 0.028596723 0.14777909 -0.10280334 -0.081592366 -0.084365994 -0.1517254 0.10204262 0.017548328 0.039988175 -0.051152565 -0.025747774 0.06413408 0.0388814 -0.05063774 -0.05579531 0.082195036 0.12937509 0.07020518 -0.03355956 0.071258225 0.12898467 0.0905982 -0.16982502 -0.009425954 -0.17123061 -0.038100265 -0.06838637 -0.14767048 -0.1515319 -0.041610364 -0.024597548 0.008436095 -0.040109366 0.01282879 -0.06584852 -0.07175174 -0.24273096 0.011877563 -0.15116134 -0.07664072 0.05062325 -0.17008486 0.04351088 0.03468878 0.0691476 0.114583634 0.0031221942 -0.07408239 -0.094160244 -0.021607429 -0.004067408 -0.16200286 0.022505648 0.010670309 -0.04087746 -0.15582842 0.076630965 0.11366185 -0.03660229 -0.13978125 -0.082916625 0.02907175 0.0692596 -0.073316395 0.07098918 -0.05967255 0.07163514 -0.119236365 0.14616846 -0.028197082 0.035731707 0.010818742 0.11825753 0.02137345 -0.01745572 0.14057004 0.05441952 -0.04751417 -0.12908857 -0.095275335 -0.07199092 -0.06518989 0.03654911 -0.0810937 0.031241203 -0.10889068 -0.08611318 0.0025070559 0.0723672 0.101498604 0.059008993 -0.20027962 -0.07068663 0.04808296 -0.008607261 0.028740268 -0.04818997 -0.08180164 -0.012405395 -0.026131714 -0.010053145 0.07012583 0.04148653 0.053291667 -0.088535994 0.043475866 0.040378653 -0.0010228534 -0.09798744 0.19234248 0.09928611 0.20424834 0.067451335 0.24868321 0.09741705 0.17959228 -0.15413806 0.008024202 0.008890257 -0.04730271 0.045821525 -0.02237703 -0.004344381 -0.07982568 0.06596596 -0.15116774 0.02401522 0.028071081 -0.20747562 -0.031284813 -0.2478538 0.22669436 -0.09420027 -0.13418922 0.08555865 -0.13380283 -0.05649106 0.06470714 0.030143667 0.0057038334 -0.060667206 -0.116979375 -0.1443331 -0.058578484 0.13495916 0.0090454845 -0.07823121 0.033073526 -0.0050651073 0.06531184 0.0044452585 0.014379512 0.06817621 0.022344342 -0.008741326 0.032075707 0.20383297 0.06348083 -0.044721205 0.03883268 -0.164667 -0.0922216 -0.20829387 -0.08054222 -0.04655536 -0.10067876 -0.10573604 0.099116355 -0.28677863 0.09097043 -0.0933481 -0.07322172 0.025782341 0.11459984 -0.07741265 -0.17936432 -0.0763249 -0.005948854 0.04690684 -0.12917477 -0.05175872 0.041825518 0.18232687 -0.17313243 0.2686978 -0.06648751 0.06149031 0.028261831 -0.036704823 -0.057823997 -0.026699068 0.008837741 -0.18821469 0.0071677454 0.007484067 0.15215564 -0.022472436 -0.005569189 0.008819002 0.12080628 -0.17074847 -0.06925925 0.07577426 0.08471311 -0.03685557 0.076700985 0.12231916 -0.14428574 -0.03845975 0.17566845 -0.006140748 -0.0043872814 0.10030049 -0.07715363 0.029817162 0.055859897 -0.000944291 -0.009850186 -0.114701405 0.009520415 0.046413317 -0.12961143 0.16854604 0.2125307 0.120507106 0.0769144 -0.23330535 0.12943125 -0.013001893 -0.22027558 -0.006825608 -0.10850644 -0.11238407 0.052791975 -0.15335105 0.06270714 -0.08118747 -0.004582808 0.10851372 -0.031500004 -0.026529329 0.20839307 -0.041482113 0.06172246 -0.022142436 0.005321474 -0.12618698 -0.020302458 0.056890536 -0.07850844 -0.06614263 0.056193873 0.03288104 0.09394727 -0.061126098 -0.09621712 0.029536955 0.120208554 -0.006377426 0.04371212 0.15514751 0.13154553 0.13096036 -0.07851067 0.08109998 -0.13505615 0.029434584 -0.064115524 0.029285278 0.118363485 -0.032107655 0.046759754 0.10190037 0.10581132 0.021962808 0.043161474 0.1557963 0.024220008 -0.013551207 -0.045260042 0.09219568 0.18546829 0.11973302 0.03120875 0.049623936 -0.14612348 0.026280124 0.0034215716 -0.07794005 0.10582029 0.13183445 0.07176893 0.04095582 -0.06504805 0.0509388 -0.054974813 0.0681301 -0.11723009 -0.04088571 0.017193858 0.0058165086 -0.114621125 0.032878205 0.08843722 0.138019 -0.10388718 -0.1020156 -0.12355616 -0.19169995 0.112081334 -0.061753586 0.07615487 -0.08525984 0.17820336 -0.20245902 -0.031190107 -0.14019927 -0.0012788965 -0.027255392 0.021414189 -0.04131126 0.0099153165 0.10626967 -0.004272104 0.04695057 0.016145658 0.12991667 -0.091677725 -0.08846184 0.037701156 -0.039770044 -0.068435915 0.069631316 0.11731451 -0.029332688 0.06354605 -0.014816161 0.04483003 0.032113053 -0.10419701 -0.030796606 -0.0038299852 0.09205153 0.08450841 0.11345838 -0.11752849 -0.04394548 -0.04871717 -0.016889017 -0.007752758 0.03670201 -0.17859961 -0.027847165 0.012348633 -0.0032047012 0.103915416 -0.040379554 -0.031848107 0.08937809 -0.01800927 -0.11149246 0.10040435 -0.027751805 0.0004977538 0.059644025 0.062801674 0.08609068 0.08237666 0.0936836 -0.0034354678 0.07445854 -0.023035008 0.017052468 0.07386955 0.056107108 -0.0028369443 0.02205632 0.052741356 -0.13475926 0.00024466577 0.038683727 0.036670204 -0.01529012 -0.14960028 0.12241052 -0.056612287 0.013709901 -0.114337824 0.051078446 0.11671748 0.013614799 -0.107447885 0.029866315 -0.027316472 -0.020315722 -0.13765226 0.018646114 -0.078261666 -0.08091693 -0.02808442 -0.16488688 0.10638098 -0.15684707 -0.09891113 -0.07171554 0.05497919 0.08391851 -0.16733706 0.04032386 -0.14160185 -0.11218363 0.021274595 -0.12154315 0.045706574 -0.011819141 -0.042219073 -0.014133636 0.11370297 -0.016189286 0.06749136 -0.055970017 -0.090088755 0.042351928 0.063656434 -0.16828644 -0.025600571 0.06693011 -0.034434434 0.045358222 -0.076146446 -0.08280986 -0.09869012 0.015849326 -0.09933659 -0.06976639 -0.06587476 0.047274105 -0.0138345985 0.009602901 -0.021968119 0.028333163 0.06630879 -0.12854691 0.020637294 -0.042372435 -0.116322905 -0.0030778344 -0.04683505 -0.03546796 0.08594213 0.0011679308 0.25292453 0.13907045 -0.19926682 -0.039078638 0.09298006 -0.10700905 -0.028877454 0.08091274 -0.085431434 -0.0040299213 -0.10138568 -0.005813047 0.005832218 -0.046010923 -0.058203265 0.036960512 0.21956216 0.124264196 -0.05419233 -0.060035348 -0.05755253 -0.16331449 -0.1017628 -0.07673152 0.11817987 -0.01614448 -0.064671285 -0.024367742 0.088365175 0.18425739 -0.115477026 -0.073561504 -0.060397316 0.009703671 0.08842949 -0.01712422 -0.17867357 0.04183179 -0.051504355 0.097065136 0.030354347 0.043177456 -0.08917768 -0.055101756 -0.118709914 0.13852896 -0.10085368 -0.0643942 0.07875282 -0.058837093 0.12553626 -0.034626197 -0.102564186 -0.075272545 -0.41229275 0.013810945 0.009541519 -0.18391241 -0.10132958 -0.099989146 -0.19129968 0.00022667111 -0.1597706 0.21335563 0.09930383 -0.03973615 0.010155364 -0.11527441 0.16087297 -0.033936698 -0.040463686 -0.07553798 0.030590042 0.08183357 0.07275306 -0.07893462 0.08594461 0.07859637 -0.061415143 -0.19966535 -0.057463657 0.00392442 -0.0024971778 0.10053322 -0.03163922 -0.063088566 0.16902192 -0.15538633 -0.0918873 -0.033914458 0.15284516 0.08338416 0.03201671 0.019024298 -0.07356027 -0.15347596 -0.09059744 -0.19567299 -0.021958547 -0.023376385 -0.052420057 -0.11846959 0.12412378 -0.1104527 0.08825431 -0.20424211 -0.10516499 0.0041266433 0.08864508 0.053995498 -0.2014286 -0.12963156 0.09005808 -0.0858141 0.0180847 0.18233325 -0.045241836 -0.06745818 -0.0021734284 0.03393282 0.14965107 -0.07894634 0.03359567 -0.16218817 0.01696542 0.062242083 0.07976286 0.09102912 0.03765131 -0.057996865 0.075906575 0.048741605 0.09117604 -0.17418543 0.07848006 0.05520582 -0.121219404 0.06925954 0.023308212 0.016648693 0.16563308 0.022339297 0.09812094 -0.025606073 -0.0329609 0.03598042 -0.02540171 0.07405791 0.012164089 -0.05922956 0.012794342 -0.13009714 -0.06948453 0.014326749 0.13396123 -0.054974187 0.097231895 -0.06606796 0.0040584193 -0.11181907 -0.061912816 -0.0883185 0.07524812 0.02236583 0.06509069 -0.029580833 -0.007984323 0.052848812 -0.22559866 -0.11297245 0.05938106 0.13939083 0.07527077 -0.091976106 0.120858446 -0.037245575 -0.069638565 -0.14798085 -0.09738418 0.044432122 0.10479833 0.08433426 -0.10314605 0.23758292 0.06581236 0.0690041 -0.069517575 -0.05198368 -0.015466942 0.006600037 -0.099420324 -0.059385512 -0.019728092 0.0715148 0.033079457 -0.021878308 -0.11312683 -0.08377762 0.03990626 -0.07423836 0.050646286 0.057163525 -0.0071271816 0.090660624 -0.041599415 -0.057304855 -0.002719728 0.08144295 0.12950689 0.04416916 -0.03638001 0.13672504 -0.08167767 0.0027831988 -0.03728579 -0.08300972 0.053392876 -0.11288441 -0.012130633 0.06276894 0.07155714 -0.11409198 0.037445262 0.24789119 -0.091154106 0.09143791 0.016842268 -0.16094358 -0.06773774 0.10111148 -0.066092424 -0.085685104 0.120427944 0.0065106996 -0.10717642 0.18931292 -0.10281992 0.082028024 -0.022979327 -0.023359714 0.0048250062 -0.012814863 -0.12407461 0.17712028 -0.011923692 -0.035862543 0.046891414 0.048703484 -0.015382187 0.1998208 0.09798803 0.1073409 0.28876996 0.12643017 -0.05940641 0.20394424 -0.2582016 0.13929388 -0.0090472475 0.054775734 -0.023714412 -0.08480595 -0.10827124 -0.14502823 -0.26505423 -0.04019081 -0.25730896 -0.05938834 -0.0759777 -0.16025813 -0.324854 -0.20618431 0.079134986 0.06822182 -0.137984 -0.029459044 0.21867667 0.16236277 -0.07922269 0.05027659 -0.0050424817 0.016641352 0.002912486 -0.1943075 0.0033460471 0.1351281 -0.21287136 0.090395674 -0.027073134 0.050701447 0.033108197 0.0972479 -0.06361643 -0.07344847 -0.0017361064 -0.06883763 0.07164817 -0.043942776 0.034154676 0.045901474 0.15524085 -0.037916906 -0.25386518 -0.039206676 -0.07600747 0.045733515 0.11148943 0.2182342 0.0071764216 0.011448225 0.0043380028 -0.07715348 0.13875411 -0.020523362 0.08908514 -0.069829114 -0.0053444696 0.10295297 -0.14124496 -0.33258918 -0.06601345 0.020782128 0.14044712 -0.031013738 0.12621658 -0.09461178 -0.16779853 -0.022526981 0.065898746 -0.0907074 0.010509369 0.060693923 0.06072183 0.10952806 0.08361567 -0.01212875 0.028797429 -0.06405915 -0.042616893 0.024761844 -0.13156465 0.05036478 0.015516885 -0.17409201 -0.079360515 0.0534439 -0.050621483 -0.1811266 -0.14977245 -0.039689045 0.16692387 -0.036074754 0.064844795 -0.20369725 0.05629047 -0.025757141 -0.026271595 0.054102987 -0.08966328 -0.008551705 0.099984206 0.11980211 -0.13244876 0.13047281 0.12042819 -0.050037913 -0.10338537 0.19271165 -0.012421083 0.111485876 -0.08139381 -0.005630002 -0.012640026 0.059562717 -0.05117251 -0.15835936 0.12734021 0.038912013 -0.08110717 -0.04190449 0.0022038184 -0.08914505 -0.09728889 0.24698791 0.017853513 0.0893372 0.19998793 -0.15832543 0.022121865 0.19044463 0.033459745 -0.05659088 0.11054043 0.016432645 0.005290988 -0.003067437 0.01342783 0.07175134 -0.0037981223 0.055685323 -0.07551651 0.06026518 -0.037536032 0.056744963 -0.08957791 0.15186453 0.026236486 -0.073218964 0.08105245 0.17794006 0.0050467476 0.090356536 -0.0031738821 -0.091778174 -0.08209849 0.05222721 0.0799527 -0.016453676 -0.122768626 0.0026089903 -0.13304463 -0.094216436 -0.041326273 0.0050858012 -0.0044138427 0.012283157 -0.2032545 -0.07979599 -0.028059572 0.107097216 -0.09214029 -0.1050441 0.11764119 -0.018176364 0.0010690109 0.062863916 0.07259247 -0.059194356 0.07863669 -0.08406869 -0.014913824 0.013982044 0.045458287 0.10820665 0.058709044 -0.0643484 0.075599454 0.060380805 0.086826205 -0.124292664 0.08007401 -0.023307309 -0.044061456 0.058493372 0.10254244 -0.027190834 -0.00013100368 -0.08416917 0.041976724 0.092047825 -0.06118331 -0.14513743 -0.10468094 0.09351987 0.2637452 0.05543854 0.077899046 -0.023322398 0.14350821 -0.07603029 0.054996572 -0.18857327 0.03570801 -0.010164011 -0.084089145 -0.05665237 0.09041206 0.04775476 -0.056193005 0.1249453 -0.23853035 -0.1032759 -0.06850673 0.022073038 -0.02497213 -0.020690352 0.08112226 -0.16401844 -0.026468823 0.22179027 0.15703112 -0.023010653 -0.14988469 0.019539516 0.036293197 0.023863347 0.044310156 -0.02453207 -0.10534136 0.032945637 0.13162148 0.07941575 -0.0032531712 -0.05779187 -0.19227093 -0.02043201 0.073816046 -0.21091123 0.020789932 0.03535439 0.005262271 0.19730856 -0.09475734 0.045303088 0.01563181 0.030800607 0.06755878 -0.10069642 0.042132568 0.028678251 0.0926673 0.01520454 0.011653432 -0.072502814 -0.005949721 -0.064758144 -0.074205495 0.025317164 0.07658573 0.068459444 -0.13151862 0.036319476 -0.042293273 -0.08385653 0.031608574 0.08584404 -0.04710669 -0.11488125 0.023196515 -0.053444084 0.12773678 -0.104385056 0.09128728 -0.119941235 -0.068448685 -0.07936119 0.015879434 -0.12774834 0.023397772 0.0474243 -0.009240468 -0.023039645 0.14937684 0.22594357 0.14628777 -0.03563189 0.014871107 0.028933961 0.1325968 -0.060018864 -0.007107985 0.06534803 -0.026033547 -0.1661445 0.09861954 -0.11992189 -0.09600597 0.061907806 -0.09324512 -0.08037107 -0.062702976 0.017907454 -0.09023426 0.12544757 0.109567106 0.07730501 -0.074916184 -0.08096257 -0.08118207 -0.099249825 0.04575842 -0.120955326 -0.03480605 0.07901227 -0.0040884297 -0.17873786 0.048838336 0.092861205 0.15375856 0.017194223 -0.1250538 -0.17218994 -0.026894474 -0.047134608 0.06323116 0.059376497 -0.030159388 0.021431634 -0.0005724736 0.03752295 -0.20553617 -0.02933947 -0.10714531 -0.103869125 -0.0052854656 0.034868777 -0.008291311 -0.0028224373 0.23236862 -0.0054596355 0.029200852 0.012397506 0.08330201 -0.12295381 -0.064671054 0.07477675 0.10302779 -0.04389971 -0.0978309 0.1915815 0.113316014 -0.25362074 0.029740654 -0.13790037 0.042640787 -0.011714676 0.04433427 -0.12072486 0.05263508 0.06476672 -0.07903907 -0.04716655 -0.23301913 0.016314765 0.07551537 0.009281088 -0.28303337 -0.20573816 -0.07644274 -0.056828655 0.08615844 -0.08961349 -0.071797274 0.006539933 -0.009549398 -0.032809313 -0.056611396 -0.09290289 -0.030081408 0.00969837 0.067819774 -0.013770642 0.03138986 0.15471232 0.04101073 -0.08960856 -0.069464535 0.11490051 0.14143306 -0.14716947 -0.061002497 0.0534068 -0.20494665 0.08237113 0.017003939 0.021184854 0.012328301 0.015283103 -0.024841832 -0.1411798 0.11640067 0.054520063 -0.07625643 0.17926294 -0.103958346 0.03979275 0.040757943 -0.023124183 -0.100740924 0.025300283 0.17090093 -0.15424407 -0.0990246 0.23387305 -0.10647873 -0.0821826 0.0044683875 0.199767 0.08622358 -0.19664006 0.18024102 0.15875952 0.17568277 0.12113015 -0.02651632 -0.077591285 -0.060716342 -0.06149171 -0.09656308 0.21111533 -0.10908333 -0.09011441 -0.15143166 0.101799406 0.099144876 0.0030657328 0.03058899 -0.013821041 0.0385741 -0.12114345 0.05475584 -0.05070837 -0.048115645 0.118154764 0.07920352 0.032003775 -0.0003913551 -0.0802953 -0.05654446 -0.0029482201 0.058294583 0.07268414 -0.11901308 -0.11787009 -0.1604125 -0.08831328 0.03121816 0.002561933 -0.046953056 -0.034341134 -0.18489075 -0.098103516 0.083145514 -0.017083561 -0.012358979 -0.011350321 -0.058388535 -0.03692454 -0.09100437 -0.19237253 0.025335746 -0.1330029 -0.0037655714 -0.1338705 0.0038700798 0.14412573 0.022241201 -0.04175 -0.04618149 0.069067195 0.098707825 0.11570165 -0.02285178 -0.039619107 -0.060028538 0.00910804 0.053503636 -0.097207 -0.05852101 0.039525423 0.10687284 0.03200137 -0.13847439 0.13557957 -0.0077141863 -0.10937414 -0.047628105 0.284432 0.13329875 0.0659308 0.0036620002 0.069073014 0.005705159 0.013155484 -0.11182616 -0.04612989 -0.03663467 -0.061414562 -0.08685728 0.0025600593 0.12238757 0.005139507 0.13413855 -0.06858246 0.053262454 -0.01775828 -0.032511838 -0.07306639 0.009454959 0.079489075 0.019607574 -0.089031845 -0.033273127 -0.044222455 -0.10796106 0.065333284 -0.0948679 0.033924386 0.11606686 0.027361829 0.0053733876 0.0008366532 0.027662124 0.018318802 -0.11254527 0.10335877 0.12576091 0.06479825 0.09957557 0.12784795 0.051479474 -0.10406504 0.014719558 -0.12426638 -0.26117912 -0.045780063 -0.17179947 0.014070587 -0.011866477 0.09305353 -0.14251947 0.094489984 -0.023157835 -0.023956845 0.017659694 0.025985662 -0.032224838 0.032494646 -0.052935038 -0.031611796 -0.122006945 0.042316087 0.023977118 -0.008661277 0.020617291 -0.097515434 -0.071047515 0.05089243 -0.05274743 -0.027346555 0.034599174 0.033251345 -0.038599994 -0.06183308 0.025994414 -0.07408162 0.075031675 0.041791677 0.08788497 -0.055721324 -0.08110429 -0.0021095204 -0.015492482 0.047600027 0.0064000306 0.035234846 0.010688384 -0.04638349 0.035020076 0.0045030587 -0.06070836 -0.09333366 0.023789013 0.053715806 0.07123175 0.031724866 -0.04117823 -0.096460745 0.04954555 -0.027545359 0.0052013197 -0.055222403 0.028516559 -0.0040321113 0.08605064 0.054520942 -0.047077805 0.05905151 -0.02452158 -0.05183593 -0.029142799 0.072298266 0.089257576 0.041800383 0.0042448123 0.00866108 -0.013211416 -0.07862399 -0.04018778 -0.054170158 -0.08524572 0.0034739713 0.04838582 -0.070146576 -0.07221843 0.09429518 0.058548674 -0.0671203 -0.06908837 0.061769057 -0.09889419 0.016713144 0.03541886 0.048684154 -0.043546356 -0.000610182 -0.0646464 0.05408745 -0.021936016 -0.01582698 0.03718907 0.032156374 -0.09196076 -0.06378853 -0.048572198 -0.0022553517 0.025458617 -0.09644534 -0.04856077 -0.0037233168 -0.032734122 -0.077758 -0.010015663 -0.07459502 -0.021814097 -0.062246334 0.078489676 0.049292088 -0.011143719 0.092916265 0.06423312 -0.07495671 0.08990234 -0.06716831 -0.00808134 0.06433511 0.08537025 0.07377091 -0.10133002 0.02164772 0.044693705 0.10128452 -0.019358926 0.044682823 0.08645016 -0.07249631 0.032062795 0.022341048 0.0710066 0.0861532 -0.03658428 -0.060086347 -0.09907535 -0.0298713 -0.02871087 -0.002699454 0.07235756 -0.01552279 0.077855624 0.08889001 0.08442945 -0.096259326 0.025733422 0.09891935 -0.14341937 -0.042218022 0.113187075 0.11397837 -0.08677992 0.057638608 0.10844866 0.011614828 -0.15946586 -0.13350789 0.0003342321 -0.056594696 0.06389165 0.010924919 -0.20610756 0.062255554 -0.02594933 0.12123229 0.028444165 3.5882054e-05 0.0049055577 0.07307321 -0.07121558 -0.21325903 -0.0542935 0.16214916 -0.095798954 -6.935396e-05 -0.02772112 0.025369318 -0.06702772 0.013378507 0.00828188 -0.12015406 -0.078250855 0.082740426 0.14174035 -0.05448262 -0.08211225 0.07149285 -0.016437784 0.13324454 -0.020481724 -0.048702456 0.0040023103 -0.13677338 -0.12163934 0.047202267 -0.02101331 0.039139923 -0.09722762 0.029388666 0.048468966 -0.08481871 0.040203456 -0.04162415 0.02493633 -0.12518571 -0.085657656 -0.1707057 0.0043148915 -0.01254642 0.19295762 -0.060953192 -0.008383129 0.028000494 0.097666375 -0.2409786 -0.13706139 0.04349798 -0.09032257 -0.16041191 0.08270248 -0.092569485 0.025422545 0.018095588 -0.10307391 -0.076098375 -0.20200251 -0.050700516 -0.065837376 0.0038504193 0.0024019128 0.0331616 -0.13103738 -0.044113837 -0.017815301 0.024949096 -0.057398494 -0.021298252 0.031563744 -0.015435632 0.0102484 0.13870877 0.04429209 0.050946843 0.076575376 -0.07463332 -0.007127878 0.038277738 0.0076499875 0.08171612 -0.15615062 0.0042986805 -0.0010241413 -0.030520007 0.03049526 -0.096388124 0.04382221 -0.08464095 -0.12113376 0.20635566 -0.033449274 0.0034167797 0.093430825 0.08197736 -0.19681764 0.15341288 -0.07816973 -0.066730395 0.10296143 -0.03901486 0.095691554 -0.10023299 -0.06605216 -0.1978471 -0.07196136 -0.07641247 0.08731418 0.054631114 0.14118901 0.10662009 0.06429907 -0.026367424 -0.037471484 0.028046576 0.14499056 -0.17087732 -0.013043473 -0.010672751 0.11181451 -0.010180338 -0.08282574 -0.0024323722 -0.11620171 -0.05068141 -0.026163172 -0.04461372 -0.13713314 -0.13810298 -0.112360306 -0.0025550893 -0.102329336 -0.08812271 0.008875255 0.03538196 0.031299047 -0.011483948 0.03182802 0.033532843 0.08251638 -0.00072167773 -0.05937458 -0.063538924 -0.008456319 0.062411826 0.024625149 -0.14068347 -0.0017494385 -0.04895626 -0.024398 0.087753095 -0.018832382 -0.04257168 0.19230406 -0.18875316 0.09212649 -0.09017317 0.10874763 -0.06509158 0.0009875075 0.04222354 0.010352518 -0.014354975 -0.09089469 0.10649591 0.028049715 -0.0374079 0.15334244 -0.025059532 0.05379619 -0.08616521 -0.1005832 -0.06171194 0.17567423 0.03924771 -0.059820488 -0.014089968 0.020681163 0.104991905 0.044333097 0.13081126 0.052105322 -0.017119382 0.09906873 -0.026132118 -0.085315414 0.007389408 -0.17324235 0.1774182 -0.086098045 0.05904793 -0.051638775 -0.02603115 -0.07336659 -0.06973764 0.04905858 -0.059467554 -0.004804908 -0.062924445 -0.043514647 -0.0862673 -0.016402392 -0.14120628 -0.114179745 0.02110794 -0.08569374 0.059908386 -0.057004556 0.120199606 -0.008104076 0.13216674 -0.021954842 0.054554656 0.034925833 -0.006647295 -0.04681038 0.1671681 0.044589337 0.103743434 0.08003735 -0.12398713 -0.15272485 -0.04586975 -0.1434653 -0.05754297 -0.059152313 -0.06929377 -0.029988721 -0.14596413 -0.010089823 -0.0062598092 -0.16660006 0.046651933 0.008020096 0.18595517 -0.22722532 0.0035814042 0.08911322 0.053606857 -0.0068138205 -0.15943928 0.043955695 -0.06920923 -0.070542626 0.06883112 0.17190066 0.14356849 -0.028454145 0.024080567 -0.16527513 0.15731746 0.15275896 -0.1817853 -0.080935374 -0.18060106 -0.055848967 -0.19433087 -0.037641212 -0.13549513 -0.15394475 0.013295428 -0.061121777 0.090573974 0.07588487 -0.1460588 0.0052957465 0.059560347 0.003916287 0.12304921 -0.07641205 -0.11687457 -0.0141216265 -0.05069168 -0.19496645 0.043524373 -0.103114754 0.23210192 0.09823827 -0.077947676 -0.042169448 0.066302665 -0.0030927362 0.011781082 -0.001835322 -0.053293623 -0.076083325 -0.002556843 0.0024674092 -0.010048528 0.00032787083 -0.12626837 0.19917652 -0.1365949 0.029130043 -0.08918094 0.11211603 0.08773568 -0.08621312 -0.02948467 -0.06333194 -0.002488718 -0.21675839 0.031002235 -0.11685909 0.028340925 -0.04281596 0.17129725 -0.1656251 0.083383285 -0.022754844 0.1629157 0.10400331 0.025728552 0.046426576 -0.0033114776 -0.09036093 0.006002525 0.18499644 0.18189763 0.16463284 0.05015114 -0.119202286 -0.061973542 0.08565847 0.043359973 0.09754399 -0.08877672 0.068151474 -0.023815699 0.13229765 0.124482796 -0.15889318 0.0069106715 0.13246888 -0.08758862 -0.010874255 -0.079016685 0.026150279 0.053417627 0.09994896 -0.0733303 -0.024709543 -0.005990726 0.07671683 0.0036472918 0.06375895 0.076832384 0.047946367 0.25461555 -0.061323483 -0.23993112 -0.027877586 0.037007432 -0.13548763 0.09262607 -0.14325354 -0.1025068 0.074193425 -0.16182323 -0.023979522 -0.078821994 -0.06760097 0.11368511 0.010587511 -0.1350533 0.113129236 0.033801883 0.21821876 -0.046916947 -0.07666347 -0.08267086 0.16837958 0.0005661187 0.042649258 -0.04770165 0.013680261 -0.026650693 0.08855694 0.09987572 0.057882413 0.05978564 0.08219537 0.08907108 -0.020304464 0.026810186 -0.022916494 0.17158017 0.0095382845 0.008630175 -0.2594967 -0.05236333 -0.04903556 -0.11585253 0.0828069 -0.058253706 -0.05886546 0.03567088 -6.352798e-05 -0.13759558 0.0005327232 0.015784046 0.004831983 0.105628185 -0.0031350583 0.05484031 -0.03822421 0.06847195 0.032357674 0.01649543 -0.10854075 0.059031397 0.16726834 -0.12588401 -0.04840789 0.025007073 -0.017678732 0.028529191 -0.018662767 0.103553295 -0.042900413 0.029733332 -0.100979574 0.13538457 -0.070646614 -0.11852815 -0.050695203 0.057676096 -0.040991653 -0.079046614 0.04757104 0.037964024 0.031086316 -0.09599403 -0.03140506 -0.051737648 0.0019370362 -0.021706428 0.16103822 -0.01107384 0.026014147 -0.15217666 -0.12753093 0.06537818 -0.00783482 -0.09724227 -0.0030045575 -0.10022127 -0.088842034 -0.05205108 0.0030130267 -0.012955053 0.03560185 -0.05850255 0.07028446 -0.04699391 -0.1327825 0.020105517 0.097551785 0.075391725 0.13159 0.06758656 0.032057032 -0.060855307 -0.04948082 -0.03028866 0.10347219 0.024495978 0.07698222 0.019534068 -0.051167134 -0.074802674 -0.07855421 0.012285375 0.032391742 -0.054598384 -0.11012015 -0.030837689 0.1277877 -0.15210967 0.029577987 0.07540408 -0.05148808 0.094880044 -0.012203426 -0.012248171 -0.012164692 -0.13903838 0.001801698 -0.006806712 -0.087016396 0.04016663 -0.0527889 -0.044062212 0.047845267 0.08501841 0.15052849 -0.10032308 -0.07803962 -0.013074887 0.18664186 0.008012312 0.1303407 -0.07406371 -0.015862873 -0.025377408 0.09469651 -0.031975567 -0.0909814 -0.026132613 -0.06894622 -0.006847614 0.04259959 -0.12213836 0.1393887 -0.050711602 -0.05309579 -0.026730679 -0.028497096 0.18271576 -0.00029066682 0.07434263 -0.04263049 -0.15970236 -0.17128126 -0.17390056 0.109282464 -0.11013628 0.100628525 -0.01779206 0.025348796 0.1886952 -0.19950518 0.011651607 -0.03179219 -0.04982687 -0.049174163 -0.08097156 -0.07587147 0.020921977 0.09058985 -0.064553395 0.0021613038 -0.07034653 0.034418736 -0.04037758 0.08123547 -0.043984823 0.121685356 0.021447243 -0.037208352 -0.039915707 0.17057139 -0.07150744 0.06950384 -0.07065626 -0.15278694 0.086534984 -0.06162363 -0.10088371 0.020738222 0.028908242 -0.06739222 -0.027746838 0.08822961 0.0029002512 -0.03876637 0.0214034 -0.031714384 -0.1384944 -0.0691305 -0.12211082 0.0020723988 -0.07172547 -0.04036426 -0.19735858 0.11589952 0.023760062 0.1766482 -0.07708716 0.035841987 0.00450262 -0.030475847 0.15805347 0.019462109 -0.104883514 0.032433704 -0.0042063612 0.07458104 -0.16841356 -0.047603052 0.16881257 0.0071103536 0.07123016 -0.27958274 -0.006681512 0.064725414 -0.20982872 0.06603851 0.038408995 0.22093593 0.038993374 -0.004762948 0.023092378 0.15787832 -0.0984125 -0.013827048 0.12756324 -0.09686003 0.007520786 0.0033335786 -0.043207753 -0.10013637 0.08475059 -0.028846195 -0.15826084 -0.13155426 -0.12506875 -0.07159978 0.008142384 -0.09386397 0.015109492 -0.1623115 -0.04475402 0.10770193 -0.07717129 0.13470978 -0.079235904 -0.043728985 -0.015720878 -0.2466244 0.042984698 -0.031235466 0.11882253 -0.0043959403 -0.28708875 -0.15047461 0.12057857 -0.029193396 -0.0028113094 -0.036282014 0.032577276 -0.1756194 0.11590165 -0.0059408816 0.044426154 -0.06572434 0.04044304 0.22124553 -0.075513415 0.060024068 0.054408632 0.14808603 0.16147788 0.100937985 -0.13233466 -0.21658207 -0.11518394 0.008011341 0.20838618 -0.040197033 0.09160663 0.075159706 -0.10991804 0.021400353 -0.03616891 0.007116654 0.25892562 0.028976994 -0.06400141 -0.10725532 -0.02851938 0.033961114 -0.23967111 -0.10132759 -0.07775232 -0.14055187 -0.054206274 0.01129623 0.0983563 0.06793266 -0.13627636 0.14930657 0.1186094 -0.1430647 0.014513679 -0.030784976 -0.0053396807 0.03345015 0.16688557 0.09870564 0.16455622 -0.009956133 0.07543524 0.0725892 0.018763408 0.06365467 -0.021700054 0.13403946 0.0029014554 0.026727796 -0.105383344 -0.10476134 0.08557922 -0.020519564 0.044068817 0.13342157 