-0.03229673 -0.09007643 0.13459045 -0.0019239455 -0.08686628 0.1792961 -0.028458199 -0.012234605 0.14356369 -0.032942362 -0.15444124 0.10393021 -0.0693855 -0.10775557 0.13848653 -0.13567817 -0.1090228 -0.04624962 -0.090457685 -0.12447713 0.12454789 -0.10124418 -0.045997147 0.0574233 0.040294036 -0.063300334 0.0934359 0.6648257 1.1053876 0.7186922 -0.86618537 -0.745474 -0.2587175 -0.1465812 -0.30759847 -0.22976458 0.7224811 1.2346427 0.7873148 -0.9262537 -0.6357263 -0.4141993 -0.41411838 -0.5944289 -0.39089364 0.88179857 1.0650313 0.8505341 -0.56024337 -0.5331789 -0.2181639 -0.2563388 -0.4524267 -0.42414752 0.36931315 0.5359818 0.5360479 0.42105716 0.8231833 0.61752236 -0.13481176 0.12176537 -0.0986276 -0.55578446 -0.7062694 -0.6802795 -0.5729091 -0.86071026 -0.8436209 -0.40371987 -0.5053812 -0.5390752 0.29403004 0.14189683 0.14043218 0.051221874 -0.14197579 0.035517216 0.63447523 0.34942538 0.5121051 0.056033712 0.1398926 0.1229825 -0.46464705 -0.53475296 -0.608661 -0.54045933 -0.5801647 -0.8204575 0.19547985 0.29411116 0.40420628 -0.33069584 -0.21988928 -0.13953455 -0.31661344 -0.35919482 -0.4432691 0.40961376 0.74496204 0.8672973 0.3458324 0.3499068 0.31736207 0.17981763 0.2739741 0.07516468 0.4654797 0.5377349 0.3536649 0.40611973 0.09777475 -0.05736908 0.2877 -0.20692345 -0.23577051 0.24690828 0.22607434 0.18368208 0.35048184 -0.16057079 -0.23893218 0.0497757 -0.32024935 -0.27943256 0.34266382 0.44014046 0.22379631 0.49475828 0.13629055 -0.33598578 0.3211973 -0.20962904 -0.55810696 0.5282452 0.059803624 -0.29398352 0.83432704 0.21177483 -1.0715652 0.9591425 0.23882817 -1.025616 0.47880313 -0.37463343 -0.81818765 0.8349834 0.02029574 -1.1809162 0.9528196 0.13831316 -1.172573 0.3254114 -0.34584755 -0.1973593 0.7780978 0.018430334 -0.8461061 0.75136214 0.30453917 -0.8066018 0.054326415 -0.030792803 -0.03584917 -0.033459257 0.09825311 0.097272046 0.0139392605 -0.058695465 -0.035709843 -0.12753332 0.017035097 0.0045062522 -0.055998184 0.0025117106 -0.033559546 -0.13690293 -0.02404587 -0.08496323 -0.052583087 0.11195519 -0.107449785 -0.034253415 -0.09053909 -0.13972332 0.091129 -0.059246436 -0.120551236 0.022088284 -0.13319941 -0.11533625 0.08049573 -0.010164227 -0.11324358 -0.0437671 0.091763996 -0.03890632 -0.082241595 0.016272075 0.13087852 -0.11444938 -0.12397923 -0.05452971 -0.05778814 0.033751637 -0.07077245 -0.00610928 0.0607531 0.044795174 -0.08496028 0.010153204 0.05729583 -0.0093944715 0.07838658 -0.06352575 -0.20260179 -0.42941958 0.08254283 -0.31458417 -0.5366575 -0.059052113 0.061712738 -0.3867708 -0.4188152 -0.087497145 -0.11402238 -0.07058609 -0.3093409 -0.26845106 0.074827306 0.14686865 -0.118607886 -0.01536718 0.013824961 0.2628847 0.36668786 0.093170136 0.018598588 0.4335801 0.10331618 -0.17398643 -0.16156483 -0.046656247 0.09205994 -0.02147608 -0.08424841 -0.098976076 -0.024899945 -0.054335408 0.03515984 -0.1232337 0.031314146 0.090030394 -0.043545865 -0.11678567 -0.12849304 0.13006686 0.07918811 -0.060522042 0.108492754 -0.070911594 0.11551431 -0.1505593 0.015988676 0.10776229 -0.04300688 -0.11723341 0.096869834 -0.10526084 0.055141598 -0.03633832 -0.053395573 -0.09067562 -0.13355137 -0.119095035 -0.040876664 -0.063049 -0.065382764 0.07745005 -0.14190799 0.0076215686 -0.08734562 -0.09099103 0.09635438 0.10031434 -0.0077305473 -0.08014048 -0.058779683 -0.08429805 -0.019038925 0.087991536 -0.049743462 0.051656883 -0.1254823 0.050939173 -0.049907852 -0.25117958 -0.4833265 -0.40010932 -0.26910657 -0.7021967 -0.59607035 -0.45183605 -0.6810175 -0.5535182 -0.094093405 0.0023385189 0.03429395 -0.009306797 0.13691378 0.21620335 0.032269526 0.043257203 -0.09839138 0.58926445 0.47496918 0.464938 0.58518744 0.6718469 0.6544949 0.408011 0.37789333 0.49636045 0.31293452 -0.5524763 -0.9047435 -0.75724375 -0.7748528 -0.2654011 0.32084394 0.98509073 1.0558673 0.6283184 -0.44107106 -0.5050043 -0.5652149 -0.7460111 -0.08531694 0.30717945 0.9972091 0.793818 0.5806121 -0.28480804 -0.6673774 -0.5963865 -0.8292703 -0.36333767 0.15744586 0.91144115 0.7671424 0.4837276 -0.6282187 -0.30992538 0.56423396 -0.13119242 -0.59880567 0.50345796 0.19216026 -0.39391884 0.32282618 -0.7627837 -0.47978917 0.52067894 -0.07183478 -0.5587446 0.2958447 0.3146959 -0.5743873 0.37914318 -0.6008696 -0.44085246 0.65995 -0.032762773 -0.71146524 0.458031 0.4761369 -0.38580072 0.02138883 -0.10137662 -0.1300938 0.11509899 -0.021239819 0.08714058 -0.014249322 0.12100959 -0.10623426 -0.032927755 0.016707258 0.055602085 -0.021879092 -0.07999328 0.11802704 0.0814484 0.009259598 -0.1378795 0.063215904 -0.08272513 -0.1267241 -0.07405202 -0.018050503 0.1119389 -0.142049 0.0015874751 -0.073789954 0.06313715 -0.06510317 0.05309278 0.003990945 -0.11228556 -0.05457238 -0.109921746 -0.12523027 0.019410398 -0.061304923 -0.02203289 -0.116821304 0.08213913 0.10553051 0.0040017674 -0.16323149 -0.0745864 -0.070698544 -0.04223326 0.08251983 0.13064426 -0.033308808 0.11445419 -0.071903415 -0.18688074 0.0352274 0.0473611 -0.21688624 -0.46841675 0.29417747 0.38414007 0.6508029 0.68867046 0.6168992 1.0172919 0.7412883 -0.56907344 -0.6175557 -0.14597684 -0.41677776 -0.20575969 -0.15010668 0.049166173 0.07362406 0.06980705 0.15194592 -0.09418637 0.70527816 -0.61140996 -0.45122293 -0.06701958 -0.49509546 -0.4542307 -0.50840545 -0.13586652 0.02163957 0.026416259 -0.08805681 -0.036905166 -0.07126181 -0.0108345505 -0.012461736 -0.04751309 -0.014967638 -0.0752547 0.027958144 0.07009187 0.057202075 -0.00461843 -0.11413299 -0.03160516 -0.14056703 0.0069423947 -0.029395137 -0.06946639 -0.0649647 0.021879328 0.03171204 0.0072524445 0.12503538 -0.08864424 -0.4743621 -0.5398112 -0.97480977 -0.6975838 0.16222854 0.09271677 -0.53308207 -0.15721986 -0.6357455 0.63861513 0.7554088 0.4037691 0.59227324 1.4600657 1.2544389 0.6398954 0.88111484 0.5036671 -0.28105935 -0.40932673 -0.6425258 -0.7092728 0.008634267 -0.31910932 -0.61558884 -0.68154126 -1.0273466 0.0026468013 0.08350487 -0.025754364 0.0436932 0.060707957 0.041958317 -0.07774853 -0.060062807 -0.08112805 0.0963976 -0.09030638 -0.08833754 -0.055280708 -0.0062281555 -0.032725736 0.012156994 0.0071792654 -0.035659578 -0.10407287 -0.05209603 -0.0058843717 -0.0511052 0.051632077 -0.086629964 -0.07388295 -0.018955737 -0.13902707 -0.03883213 -0.12949806 0.08840373 -0.06964984 -0.0006481293 0.07102671 0.11883215 0.12627012 0.062060244 0.11736957 0.0530863 0.12665859 0.009219241 -0.029408976 0.06070455 -0.13069333 0.050094653 -0.102397375 -0.1436022 -0.104781136 0.0148239145 0.015336819 -0.08292223 -0.15967558 -0.11479418 -0.16205963 -0.09094605 0.5351088 -1.2740929 0.60405815 -0.45197067 -0.9191959 1.2134026 -0.47557783 -0.004897766 0.6488294 0.21634655 -1.501848 0.5354713 -0.60021603 -0.7734575 1.3741115 -0.5211491 0.061812624 0.71476454 0.08886294 -1.2453655 0.63345534 -0.5405307 -0.5827078 1.237764 -0.33768758 0.16167869 0.6288439 0.33678636 1.1144792 -0.25175864 0.7335188 -0.8942844 -0.9173126 -0.1553883 -0.8829411 0.64978445 0.6642598 0.9037293 -0.35052064 0.86837983 -0.81444937 -0.9811908 -0.12626913 -0.9846035 0.7645426 0.12110678 0.65102917 -0.21587491 0.7320017 -0.6735874 -0.67243534 -0.28563148 -0.74639404 0.7819532 -0.5633239 0.7163144 0.6890488 -0.93000275 0.25259498 0.7163243 -0.7053913 -0.44407886 0.49510932 -0.9442856 0.2280623 0.5295892 -1.2953174 -0.28266293 0.8521519 -0.7397663 -0.85540813 0.49676546 -0.4176644 0.68123794 0.4514199 -0.8717504 0.08708908 0.71989274 -0.38053226 -0.5427415 0.5199205 -0.31145555 -0.2644735 -0.140039 0.114288256 -0.14323187 -0.12701805 0.1455649 0.11990991 -0.012341508 -0.5402557 -0.44384065 -0.4674377 -0.0709298 -0.17611785 -0.14597161 0.3571273 0.278257 0.03364241 -0.40342402 -0.44497913 -0.4792493 0.22576696 0.05936415 -0.03815406 0.6850003 0.4641647 0.4788418 -0.29009745 -0.38224664 -0.21975245 -0.04127903 -0.2206655 -0.2089575 0.4282722 0.4508754 0.29734018 -0.21285005 -0.362683 -0.32790047 -0.071691886 -0.27566695 -0.5177062 0.51848984 0.28839803 0.17123407 -0.36421448 -0.49464235 -0.29046482 0.17267185 -0.13020094 -0.38055223 0.71307826 0.4533972 0.32934278 0.83790845 0.7364064 0.7267799 0.60105634 0.4787147 0.45432723 0.2152023 -0.119005695 0.024634674 -0.43925345 -0.30863145 -0.32964307 -0.529081 -0.5903202 -0.45839864 -0.45793393 -0.8106198 -0.46815914 -0.0049355617 -0.08314993 0.14467351 -0.37797764 -0.39548898 0.040133927 -0.28444064 -0.28497773 -0.21838026 -0.5846291 -0.5870471 -0.3553416 0.3708368 0.58407116 0.6370009 0.6035165 0.37042138 0.28196174 -0.4210745 -0.34676644 -0.23190574 0.19147478 0.21396738 0.38335678 0.0054540522 -0.07951217 -0.03209293 -0.19129224 -0.33498842 0.00074446853 0.20324503 0.44581097 0.36519364 -0.028919952 -0.21542461 -0.13721687 -0.012545541 0.12019923 -0.14689186 0.12887877 -0.019353075 -0.0918424 0.01150198 -0.1198062 0.16671103 -0.17380007 0.06391385 -0.15663022 -0.06801681 -0.12466462 -0.05564865 -0.021617804 -0.13818754 0.06701526 0.058165316 -0.05696111 0.019519605 0.0034583474 -0.08925987 0.0818133 -0.057782333 -0.067694135 -0.04769237 -0.33516696 -0.13749006 0.072080545 -0.12618385 -0.08610082 -0.18961091 -0.2029598 -0.30196422 -0.20262 -0.31301326 -0.14877166 -0.012240543 -0.15535325 -0.17377628 0.07163812 -0.40352654 -0.07140828 -0.11242548 0.3841024 0.6793317 0.55928457 0.3449099 0.6687271 0.7380636 0.3441557 0.39752892 0.6720599 -0.14344345 -0.1691731 0.027839884 0.18315509 -1.9640496 -0.026477776 -0.023503248 -0.0351056 0.9118083 -0.03909292 -0.0021995003 -0.119787715 0.12560676 -0.07463708 -0.033287372 -0.1004305 -0.01630092 -0.0036989024 0.05984719 -0.024033487 -0.050029617 0.08435395 0.23669843 -0.10482896 -0.1189366 -0.25723207 0.51164824 -0.5557716 0.16018191 -1.0912858 0.09822 -0.054622762 -0.05589261 -0.11219861 -0.06401684 -0.100806914 -0.074324004 -0.04893375 -0.14007023 -0.0025562728 0.07644777 -0.29771256 0.18911915 -0.29768234 -0.19455928 -0.75782526 -0.6308842 -0.35128376 -0.0032314823 0.16429459 -0.025863579 -0.16232486 0.032837644 -0.055590972 0.121221766 0.36678523 0.11106059 -0.20991243 -0.08775543 0.037295453 -0.15476248 -0.032145754 0.22095777 -0.30779892 -0.14634144 0.5423305 0.083795115 0.18324047 0.10185371 -0.32064196 -0.25388694 0.329205 -0.3674487 -0.40109485 0.17598478 -0.07935779 0.0005677629 -0.026848646 0.044527385 0.10675304 -0.13670771 0.22544867 0.43866053 -0.00014391693 0.11643456 0.02818296 -0.10515156 0.039048176 -0.062591374 0.07520129 -0.11776114 -0.005609229 0.09408106 0.03503283 -0.06106499 -0.10464571 0.09584705 -0.020518498 -0.01648694 -0.09458811 0.08532871 0.031499848 0.15329473 0.18695596 -0.051577978 0.19745518 -0.030166963 -0.14217462 0.21825352 -0.047406625 0.14386663 -0.01808229 -0.024168855 0.10419782 0.045454726 0.054660574 -0.003103212 0.02304738 -0.08424082 -0.02472307 0.10086588 0.05317414 -0.0019990578 0.10473866 0.01480648 0.08162592 -0.07694915 0.08134595 0.058439437 -0.5727755 0.027985731 0.35935056 -0.6273809 -0.13464671 0.6926558 -0.5067467 0.06385867 0.6565901 -0.065093614 -0.06601106 -0.106447965 0.118735 -0.34496236 0.050568566 -0.4160084 -0.5450109 -0.032366674 -0.33837134 -0.01092377 0.13703781 -0.24382736 0.048115287 0.15468949 0.0029558963 0.22336659 0.4136807 0.03332499 -0.037004665 -0.019654611 0.00577872 0.05435628 0.04567883 0.05041997 -0.12126224 -0.11926886 0.06454926 0.09328923 0.0156736 0.04528573 0.042230114 -0.098520696 0.01610556 0.033705957 -0.0008694398 0.5559794 0.09282662 -0.4106624 0.27480823 0.039432038 -0.29242262 -0.29698357 -0.032103494 -0.10103842 0.08322637 -0.045400348 0.083352745 0.11352359 0.023961315 -0.028813485 -0.025805686 0.057943158 0.05134095 -0.5176023 -0.5286516 -4.0542945e-05 -0.38527167 -0.2973126 0.38180375 0.15323696 -0.035237115 0.44940847 -0.10171564 -0.03432498 -0.021850727 0.07080134 0.07227297 0.038432706 0.09103213 0.0034480426 -0.097870484 0.039258327 0.027779507 0.06258113 -0.09390023 -0.012338697 0.06910732 -0.097585484 0.0901795 0.017103903 -0.03943465 -0.11878077 0.03855854 0.39626497 0.1829172 -0.14503366 0.5798124 0.3036916 0.0932201 0.23969314 -0.17419964 -0.25661293 0.27446452 -0.10668014 -0.27221072 0.22562335 -0.00919345 -0.15255465 -0.34074944 0.07332022 0.46841243 -0.082588986 0.022947371 0.07917419 0.2303009 0.1050522 0.31848773 -0.10763223 0.0837917 0.09162755 -0.11037148 -0.01244516 0.10689932 -0.34181046 -0.24790551 -0.034823634 -0.11579036 0.014234323 -0.076162264 -0.16620459 0.023457145 0.11771886 -0.3441613 -0.27336717 0.01017486 0.44435734 0.59607244 -0.17098403 0.061538246 0.15820472 -0.4409074 0.09135984 0.14993581 -0.17892879 -0.10552926 -0.066572405 0.21371023 -0.27513677 -0.16024052 0.2570811 -0.3642433 -0.20253387 0.17803329 -0.03707302 0.016881434 -0.0009727783 0.15621665 0.0773129 0.0015295035 -0.059135713 0.06440957 0.04172672 -0.1866371 -0.051788375 0.38197634 -0.4589026 -0.093751855 0.42751378 -0.462218 -0.20738944 0.32412463 -0.13875748 0.07180091 -0.08831299 -0.108603686 0.031389445 0.116230294 -0.007898553 -0.05158191 -0.06593728 0.1512387 -0.39584637 0.15432355 -0.09337708 -0.08978554 -0.25814384 0.10829451 -0.041453067 -0.18063104 0.019532947 -0.0634777 0.050419766 0.07818623 0.060122084 0.21498664 0.08670047 -0.0054374523 0.22706892 0.034714565 -0.08228863 0.10957259 -0.223329 0.04970402 -0.10419673 -0.20929146 -0.1883008 -0.13408957 -0.18847124 0.22453295 0.35588384 0.21649091 0.49446884 0.008502016 0.17903833 -0.037381664 -0.123546295 -0.6539794 -0.10213249 0.0008596983 -0.17998654 -0.09201287 -0.018893437 -0.04643748 0.33275726 -0.051610086 0.015268795 -0.114640996 0.07871582 -0.06398592 0.09812987 -0.10977085 -0.048356343 0.032579627 -0.083346814 -0.076398775 0.11076082 0.033673335 -0.0046289805 0.07669967 0.03237804 -0.07640802 -0.096009456 0.0053551802 0.08113667 -0.20169267 -0.07116844 -0.10643106 -0.094728194 0.111502774 -0.2409504 -0.052702945 0.1394217 -0.083874986 -0.01955307 0.061866023 0.12240883 0.027226798 -0.007659319 -0.10557251 -0.09687204 0.02183989 -0.037163246 0.04934901 0.01261633 -0.071583666 -0.011473978 -0.010557526 -0.012004053 -0.037480507 0.07463481 0.036846712 0.42343765 0.18809852 0.017922418 -0.092206895 -0.28656656 0.12712277 -0.0095269475 -0.155282 0.5032552 -0.27442163 -0.5005819 0.1707516 -0.367138 -0.4071913 -0.19511876 -0.3053255 -0.122857034 -0.3145194 -0.19670746 -0.28193438 -0.26864734 -0.2535418 -0.15169625 -0.13888772 -0.030003002 -0.029037673 -0.046891686 0.09028242 -0.103980795 -0.09112544 -0.066314906 -0.07016149 0.11200423 0.12208303 0.030726708 0.107727066 0.12707773 0.046314828 0.090503566 -0.099890985 -0.10276732 -0.017313914 -0.043388013 -0.08075264 0.48355812 0.12089601 -0.1447295 0.2425485 -0.2570064 -0.07002843 -0.03853068 -0.4300184 0.13906036 0.12389338 -0.093942605 -0.085014045 -0.033726335 -0.09612379 -0.03902862 -0.043939088 -0.09279014 0.087767616 -0.2728288 -0.15927823 -0.4055634 -0.13457024 -0.12154275 -0.04738512 -0.057417996 -0.0033044328 0.042252857 0.08892395 -0.00902842 -0.054613262 -0.05383481 -0.09286655 0.053511806 -0.019692723 0.048655067 -0.011647261 -0.049469106 0.09711217 -0.0615664 0.00239476 0.10736965 0.033582684 -0.0638272 0.05386827 0.11380063 0.50961685 0.28363612 -0.49271563 0.07381897 -0.35606313 -0.4572853 -0.20507275 -0.34932426 -0.2504353 -0.41286206 -0.33702502 0.39007777 -0.2112829 0.33564395 0.2953017 0.0005561644 0.13788928 -0.030923344 -0.03247476 -0.08278347 -0.5152478 -0.1713713 -0.39930683 -0.29169118 -0.06051355 -0.316012 -0.02689288 -0.09103697 -0.26018548 -0.28054652 0.103689566 -0.15096632 0.03758182 -0.11320233 -0.12817255 -0.043870177 -0.02103716 -0.27506313 -0.14105725 -0.12216291 -0.04325012 -0.16788279 -0.07809174 0.09237251 0.020087568 -0.048816506 -0.51054436 -0.030827912 -0.19736375 -0.2680568 0.20876198 0.07722976 0.26655954 0.53751016 0.3441418 0.32074448 -0.108995385 0.3177683 0.043048207 -0.24841295 -0.010120596 -0.19934092 -0.15854833 0.034838703 -0.0680467 -0.0840539 0.11935753 0.04460517 -0.036204576 0.07641922 0.07355389 0.06250265 0.092086695 0.31347626 -0.047296893 0.14516541 0.0181986 -0.21872078 0.15564488 -0.14001325 0.06789666 -0.0059316647 -0.008025153 0.03254391 0.06230198 0.09528685 -0.13561168 0.0011984793 0.008827688 0.06647661 0.11279975 0.03253894 0.20471536 0.3151876 -0.22120288 0.06265643 0.05665449 0.8025048 0.19086921 0.21637987 0.6543932 0.5749578 0.052060872 0.25987393 0.12640305 -0.25923043 -0.26046035 -0.35558996 -0.08442112 -0.16009821 -0.4464324 0.16835085 -0.4176237 -0.3291437 0.38556322 0.6142119 0.14600539 -0.0963885 -0.16339892 0.032155223 -0.1105539 -0.21998425 -0.04001793 -0.019821981 0.18244487 -0.000665915 0.38523778 -0.14431387 0.07311468 -0.36881432 -0.048459187 0.09681683 0.2775935 -0.21655872 -0.5509941 -0.066981934 0.12520595 -0.10733875 -0.09448978 -0.0077225324 0.100282185 -0.0022425088 -0.031861164 0.09198869 -0.0072858366 0.0121085765 -0.034547683 0.056230243 -0.10933897 0.10160663 0.060796075 -0.06105787 -0.080999956 -0.40811005 -0.38913384 -0.12535381 0.2095402 0.034848932 -0.058670398 0.50310045 0.61545306 0.26078618 -0.008963006 0.100092165 0.025518337 -0.04011376 0.059745632 -0.10209299 0.025996571 -0.11715451 0.075611494 -0.11995516 0.022125734 -0.078357555 -0.06084024 0.014427977 -0.06682795 0.06442047 0.046268493 -0.025186947 0.06776179 0.16202046 0.1670345 0.21578282 -0.18198666 -0.17930762 0.09514492 0.09976685 -0.1592432 -0.20024279 -0.04772205 -0.2650256 -0.10496071 0.35074398 0.02081025 0.23285055 0.06608257 -0.1596883 0.12551588 -0.10738576 -0.1371666 -0.16710338 0.027012877 0.06994335 0.27440742 0.10955099 0.0097089335 -0.081294745 -0.06747022 -0.11726594 0.123883754 0.03950082 0.039817158 -0.11530163 -0.019587776 0.0057435143 0.110436864 0.1172262 0.060113993 0.013398603 0.09143295 -0.030199474 0.076995514 -0.066783376 0.006269867 0.14523548 0.65867853 0.46263877 -0.28194746 0.330208 0.2970194 -0.5820224 -0.84871787 -0.79506516 -0.055245038 0.1228238 0.003985383 0.09015087 0.003414731 -0.022608507 0.046950888 -0.064471476 0.06595349 0.48707107 0.16465448 -0.020410135 0.14892456 0.32922786 0.030236706 -0.5317728 -0.15228134 -0.046020195 -0.0034403112 0.01583869 -0.10474677 0.06380614 0.11568238 -0.11475619 0.043803737 -0.014279851 -0.04242131 0.056356374 0.019585976 -0.07161297 0.13240498 -0.061120752 0.0010956354 -0.0034799897 0.11815045 0.13735896 -0.21413966 -0.4487417 -0.1437476 0.088926986 0.0727168 -0.098502 -0.15168376 -0.030736215 0.039213933 -0.04966168 -0.26100293 0.16608909 -0.1137207 -0.21846731 0.14916854 0.17580475 0.09115268 0.0211723 0.06211141 -0.031952232 0.06774858 0.3411626 -0.24453261 -0.3051098 -0.031622306 0.1755551 0.019904858 -0.08988266 -0.04415345 -0.13680063 -0.062749244 -0.009422358 0.07372272 0.244207 0.054939024 -0.014294284 -0.12585172 0.10998012 -0.20732686 -0.0748713 -0.0010213503 -0.17031564 0.16597986 -0.07809391 -0.13040958 -0.13072166 0.256951 0.4858395 -0.00095186086 0.1787988 0.19617121 -0.22814353 0.07468758 -0.04800629 -0.07108408 -0.0269451 0.13795464 -0.06333843 0.18509263 -0.040637612 -0.15606979 -0.09365176 -0.05641096 -0.11022366 -0.05074606 -0.0711297 -0.050148252 -0.024525154 -0.033103976 0.11726021 -0.022332042 0.09936267 -0.17928635 0.07967167 0.2149173 -0.11072727 -0.13588338 -0.13200033 -0.015963893 0.015784929 0.019259004 -0.027125174 -0.09410582 -0.09750184 0.11597086 -0.09040138 -0.17226356 0.0010522219 -0.09883973 0.050020106 -0.25933275 0.10458534 -0.12202813 0.2570696 -0.18511458 -0.4786061 -0.26080236 -0.2723573 0.08766472 0.144467 -0.27447036 -0.27499333 -0.11263593 -0.4146824 -0.22034204 -0.35442466 -0.3166051 -0.28628415 0.095983915 0.29087776 -0.4239994 0.22314887 -0.1920471 -0.17236373 -0.06581651 -0.048503857 0.024958074 -0.30654842 0.26114234 -0.33956113 -0.21968053 -0.17346697 -0.13118358 -0.15905021 -0.054553397 -0.24213421 -0.02645094 0.22514677 -0.38242546 0.02905135 -0.31584978 0.052890882 -0.0694329 0.104549356 0.15535513 -0.09909722 0.01349424 0.06920552 0.055745922 -0.047518224 0.021092147 0.03554295 0.11173267 0.015609517 -0.06789409 0.028401911 -0.12298851 -0.04987418 0.07697786 -0.093364485 -0.08161738 0.08529908 0.0123596145 0.14520065 0.07247551 0.17484626 0.13312344 0.25209796 -0.15979081 -0.0064273416 0.25316703 -0.12076151 0.09206975 -0.107135095 -0.10870731 0.009589009 -0.008961868 -0.0051263757 0.007567126 -0.07205817 0.04166293 0.057205506 0.0893621 -0.089821525 0.052509613 0.051218737 0.11617765 0.011309205 -0.11799827 -0.096574575 0.22746554 -0.13639681 -0.15434298 -0.0030797592 -0.23451936 0.04724024 0.121327445 -0.27224857 -0.089693345 -0.21688591 -0.25739092 0.88976604 -0.1318464 0.60867745 -0.35472283 0.05896528 -0.1282678 -0.009793029 -0.16661942 -0.3325108 0.14462844 -0.22913057 -0.14433444 0.15043917 0.16609715 -0.12275461 0.12194341 -0.04669229 -0.05089377 0.07998369 0.0026097854 -0.07903504 -0.11275013 -0.09427179 0.027635299 0.01873855 -0.091005884 -0.018213132 -0.014786653 -0.026126828 0.07741006 -0.011149294 -0.084359124 -0.12076455 0.028941263 0.070012376 -0.88680464 0.43098244 -0.5757145 0.40844053 0.26609796 -0.077326044 -0.0024197632 -0.0021844208 0.0025440247 0.001455373 -0.009260952 0.03140091 -0.031131314 -0.0767369 -0.0759103 0.02521634 0.11842519 0.6726579 -0.35724705 -0.23576105 -0.14971463 -0.25680146 0.031832833 -0.17717852 -0.20158969 -0.28206953 0.110775806 0.01435203 0.055338252 -0.12921497 0.0030957656 -0.074340954 -0.08788304 -0.07836904 0.021535374 0.11229689 -0.09801101 0.12287412 -0.017319527 -0.07387357 -0.09807232 0.026260542 -0.0022728902 -0.103552304 -0.18709126 -0.4538899 0.24962397 -0.14763285 1.0024984 -0.32345748 0.40348953 -0.21864852 0.39208448 -0.4336908 1.0606792 -0.52899075 0.83213806 0.20009056 -0.3263277 0.30470532 0.036115758 -0.07276791 0.086630866 -0.27990657 0.053771567 -0.22637947 -0.008927926 -0.16802068 -0.04550685 -0.019193342 -0.25277996 0.048355304 -0.12659906 -0.16035216 -0.051647194 -0.15062495 -0.11638249 0.057867445 -0.1873773 -0.124616966 -0.2802865 -0.25746074 -0.21932434 -0.0011568066 -0.29340926 -0.13593729 -0.0199781 -0.23318964 -0.11493865 -0.04935938 0.4184592 0.06869353 0.31240758 -0.08079247 -0.10623348 -0.13784993 -0.12312042 -0.03180131 0.1407673 -0.38414267 0.100240946 -0.21838166 -0.14777592 0.26928037 0.11299591 -0.118860886 0.0728266 -0.028361682 0.024745569 0.07340107 0.028097907 -0.07955367 0.059395112 -0.049240716 -0.060751896 -0.003473369 0.2142106 -0.033869892 -0.2778497 -0.033797126 -0.056498878 0.021156168 0.12342599 -0.3492956 -0.16588977 -0.04337914 -0.023602102 0.024336772 0.10662686 0.0031992283 0.13541791 0.040110458 0.011264663 -0.054119952 -0.55768245 -0.3422388 -0.11998557 -0.556543 -0.41164598 -0.2963106 -0.39454535 -0.2707978 -0.07670152 0.13097897 -0.06647004 -0.029353641 0.037976645 0.037776228 -0.13979225 -0.018198656 0.09805741 -0.039229088 -0.14833173 0.11843664 -0.0031053554 -0.10132492 -0.19068445 -0.21192282 -0.054091297 0.11022569 0.10296335 -0.095894374 -0.054072335 0.08404342 -0.18579163 0.08813052 -0.17585877 0.054149814 0.22857298 -0.0024148477 0.80585176 -0.26686573 -0.06563663 0.6624793 -0.39611167 -0.1932759 0.37248334 -0.5536219 -0.4293548 0.06832622 -0.11183776 0.09327333 0.08528862 0.0016238379 -0.036477573 0.061766595 0.009222279 0.112770535 0.11583777 -0.020080388 -0.053402837 -0.051603593 -0.0772171 -0.09193258 -0.04722362 -0.06358256 -0.06851732 0.1157761 -0.11373865 0.07991439 0.011108788 0.12854452 -0.09162447 0.089273065 0.17385387 0.07786212 0.08890786 -0.11222644 0.076528534 0.06460334 0.07107259 -0.024015056 -0.04357593 0.043501772 0.09069373 -0.042893276 0.09958503 0.010089901 -0.11210994 0.08124363 0.10678099 -0.0054633864 -0.0919593 -0.086581714 0.1599059 0.2645812 -0.048175547 -0.043569364 -0.051985897 -0.10787502 0.073422395 -0.16874966 -0.13375029 -0.51217693 -0.06774388 -0.016335117 -0.36173078 -0.07414373 0.37039164 -0.27506784 -0.22475299 0.09869008 0.21954042 -0.08408554 0.14094257 0.13172264 -0.24561998 -0.07807871 -0.07972539 -0.26711488 -0.08217411 -0.00693057 0.10682812 0.0959385 0.088868804 0.080212526 0.09967607 -0.060782548 -0.09119242 0.060493693 0.095414355 -0.018946653 -0.011575244 -0.108814724 0.09943038 0.04512341 -0.03631371 -0.08962459 0.022809118 -0.2522243 0.093837366 -0.107816845 -0.17258336 0.030865265 -0.031702556 0.05742371 0.103551246 0.028574863 0.080770835 -0.07503885 0.009109477 -0.02766488 -0.10297814 0.053404443 0.08419617 0.029029915 0.05877894 -0.08034274 -0.20528044 0.11400211 -0.1891555 -0.09903198 -0.0011702166 -0.16780825 -0.0690376 0.15677258 0.06358966 -0.009300023 0.084295616 -0.12098186 -0.082553916 0.08442688 0.00075168035 0.04714683 0.040574484 0.086850695 -0.055432905 -0.08941278 0.03670874 -0.0013798695 -0.06833165 0.06573868 -0.0007402764 -0.025244528 0.05697711 0.64681715 -0.123155855 0.07495801 0.29488015 -0.045785148 -0.019264823 0.10868008 -0.29107216 0.05215607 -0.08639433 0.27620384 -0.120731875 -0.16838217 0.17356083 -0.008302534 0.03266685 0.07106925 -0.118148945 0.031753436 -0.20046808 -0.07583238 0.07708815 -0.25407323 -0.15798603 0.113173954 -0.3813864 -0.23702961 0.004860129 -0.012457238 -0.16789211 -0.07590503 0.0058906917 -0.19575816 -0.08226762 -0.048973996 -0.36730286 -0.22285603 0.012735272 -0.1817819 -0.014689662 0.03803289 -0.22258794 -0.019975282 -0.1176314 -0.0028790326 0.04990946 0.023820309 0.014017394 -0.09506527 0.08906922 -0.12269386 0.016642964 0.0007951316 -0.14226381 -0.04724598 -0.07784592 -0.20693329 -0.06150094 0.06863455 -0.07555301 0.13133942 0.14653158 -0.024242098 0.03354246 0.05597454 -0.13302678 0.030655881 -0.06114361 -0.08950574 0.12957236 0.07961308 0.009265246 0.042240582 -0.15013514 -0.07895866 -0.15359849 -0.14342166 0.06640321 -0.014306014 -0.050086904 -0.04969241 -0.08760515 0.08419183 -0.04830307 -0.008936121 0.027249953 0.06168407 0.02589975 -0.08212382 0.3773886 0.06327775 -0.101136304 -0.037221853 -0.3393907 0.3172603 0.060744185 0.16942526 -0.32794502 0.16132453 0.017084002 -0.05896522 0.15710886 -0.089239955 0.09269799 0.15962683 0.11658298 0.014685755 0.01822559 0.16644461 -0.27599677 0.1988896 -0.056340594 -2.5356843e-05 0.22946937 0.31517363 -0.17866418 0.33451295 0.16212188 0.18061663 -0.23473181 -0.22376068 -0.058478232 -0.026367292 -0.0701876 -0.01588141 0.19026999 0.17824818 -0.3532382 -0.07039713 -0.03957452 0.18187055 0.28092462 -0.06883909 0.33812156 -0.04017728 0.070022054 0.11341567 0.042992886 0.09655024 -0.05752634 0.06935153 -0.112121545 -0.0019530556 0.056038953 0.07713219 0.07361343 -0.09129877 0.10652528 0.09365918 0.11932008 0.0005272056 0.0044415914 -0.23470864 -0.2507534 -0.07304903 -0.22175416 -0.27649385 -0.038725957 0.20763841 0.027788602 0.046314117 -0.010646525 0.078687415 0.115957595 -0.04907341 -0.118399665 0.04881005 -0.07507681 0.016800309 -0.053898297 0.011992716 -0.06420523 0.07307161 0.103038706 0.012322598 -0.057069045 -0.12136795 -0.102509156 -0.033876486 0.41406783 0.17273267 -0.16758068 0.33118555 0.24630708 -0.1775648 0.06340491 -0.054457217 -0.19868127 0.065833 -0.028371826 -0.077783644 0.10990466 0.6069407 0.14723903 -0.36556518 -0.19206545 -0.25397846 -0.00910007 0.045607023 -0.16037504 0.104835786 -0.022095716 0.19469395 0.10198492 -0.12812582 0.14542145 -0.00024079591 0.0660723 0.08244693 -0.037281193 -0.050722428 0.06890576 0.11586778 -0.11233135 0.04944897 0.03292193 0.082113795 0.040327303 -0.11392483 0.09832234 0.117516965 -0.10061547 -0.11105326 0.11091135 -0.021427346 -0.21194142 -0.40732342 -0.24734282 -0.5382017 -0.43249765 0.40858984 0.21722668 0.16997068 -0.09497994 0.009398836 -0.11729411 -0.008471921 -0.06362877 -0.0571161 -0.0070831366 -0.01486775 -0.10062686 -0.120635904 -0.2252493 -0.00029483114 -0.35861707 -0.25576776 -0.030167425 -0.038689967 0.043194976 0.06692239 0.12209895 0.12144548 -0.08407179 -0.10981525 -0.05019079 -0.08248668 -0.048127897 0.10332866 0.038497582 -0.12853594 -0.05541682 0.040778674 -0.08843124 0.021350099 0.034688447 0.11245986 -0.04252012 0.049365126 0.09260597 0.1132952 0.023218649 0.15394373 -0.037490625 -0.11580286 0.23742394 0.23021448 0.16828348 0.2973923 0.41389975 -0.36333972 0.07787612 -0.092761666 -0.110902004 0.1470005 0.1648297 0.13785864 -0.09443528 -0.05662844 0.035355125 0.22566317 -0.26659754 -0.017073218 0.08709422 0.20085657 -0.0016175166 0.15235734 -0.040659804 0.06993337 -0.00631422 -0.09117278 0.08448041 0.010536676 -0.1462697 -0.058532417 0.012108313 0.040641252 0.034833085 -0.09798563 -0.03900737 0.15229723 -0.042526297 -0.09187546 -0.06555963 -0.21507312 -0.27938735 -0.524072 -0.32628217 -0.4859125 -0.38248873 -0.25653294 -0.23874272 -0.17829202 0.1344212 -0.05818408 -0.08217081 -0.15391827 -0.13043094 0.00088164734 0.2518924 -0.047188886 0.075462855 -0.10377477 0.016088815 -0.07349637 0.090196356 -0.055680286 -0.079835996 -0.07252582 -0.09896585 0.02495042 0.28715298 0.06855677 0.06568165 0.19299424 0.09645152 -0.2651932 0.038067456 0.08925897 -0.008795724 0.047784563 -0.0073586814 0.022577886 -0.12268552 -0.07606695 -0.06683977 0.033981252 -0.11826957 0.031182924 0.11199878 -0.18182936 0.059371233 0.017919736 0.19082133 0.16381301 0.49577036 -0.052390277 0.24340762 0.17402709 0.17465252 -0.064265095 -0.18809122 -0.053043406 -0.081245534 0.077526174 0.011627835 0.14182101 -0.1702343 -0.36175895 0.011478444 0.33298397 0.5758695 0.44778118 -0.17323801 -0.47183564 -0.3965198 0.38831857 0.20328528 0.04079487 0.21239626 0.06071553 0.014473827 -0.31269687 -0.47306967 -0.09531367 -0.011114619 0.18539679 -0.09560307 -0.32717866 -0.3207546 -0.36464328 -0.2169743 -0.3340977 -0.1322814 -0.07214195 0.11362959 0.07085346 -0.09759966 0.07817955 0.014911876 0.044622213 0.024248365 0.016138 -0.12050016 0.114455186 0.048631165 -0.025901722 0.08718059 0.058968082 0.057165273 0.118905775 0.0049272245 -0.11967141 -0.050997354 -0.0077660773 -0.048560075 -0.08064034 0.037674412 0.07761446 -0.07222131 0.12372137 0.10597888 -0.0063422676 -0.055544093 -0.042399302 0.023802476 0.08669831 0.027338006 0.11146263 -0.120885834 -0.012033978 0.06743488 0.08747169 -0.0041336315 0.09995449 0.096011765 -0.006531121 -0.028673746 0.029968847 -0.19302347 -0.083182715 0.14908989 0.27021587 0.45033127 0.3091822 -0.2127588 -0.22886299 -0.44321656 -0.004635818 0.09376233 0.006934122 -0.04777437 -0.05082621 0.19290704 0.7229477 0.35754237 0.42053595 -0.22077624 -0.16148618 -0.3254587 -0.17153768 -0.29203415 -0.36988667 -0.4316041 -0.15105812 -0.28392905 -0.027236551 -0.069157206 -0.06476814 -0.105978526 -0.11338464 0.048844755 -0.059035808 -0.043548573 0.031842403 -0.107638024 -0.021318398 -0.034695778 0.114096284 0.06646012 0.09100848 -0.099620685 -0.08152404 -0.03817576 0.16474643 0.20084056 -0.028053602 -0.46201414 -0.71483237 -0.62113684 0.45479515 0.41677505 0.5678303 -0.08206527 0.08126338 -0.10532171 -0.11707172 -0.08346593 -0.02348223 0.0063022887 -0.023167154 0.018137038 0.12950854 0.032436967 0.057964537 0.09574951 -0.22063823 -0.04703567 -0.060360212 0.0077998596 0.24410737 -0.06143673 -0.124590956 -0.098980784 -0.0689512 0.071632534 0.041899618 0.05026841 -0.085460566 0.083146654 -0.04388715 0.007485387 -0.09466942 -0.008988859 -0.091802254 -0.07290398 -0.082387604 -0.04527991 0.0046172068 0.46386853 0.28884932 0.3452779 -0.17085761 -0.3620436 -0.10126761 -0.2916609 -0.42543516 -0.3199508 0.5304324 0.115640454 0.22920354 -0.10529451 0.16977912 0.45898744 0.23876302 -0.17936774 -0.036752492 -0.15443014 -0.093103126 -0.23509194 -0.24013206 -0.40255207 -0.6093526 -0.40641046 -0.53294015 -0.45205218 0.03707086 0.084754124 0.026669908 -0.010707137 -0.014422577 0.0024700384 0.16291165 -0.09768553 -0.28069124 -0.13635309 0.01636557 -0.0044621537 -0.12456206 0.08392326 0.084129356 0.002405915 -0.18316805 -0.19666992 -0.050027646 0.06464743 -0.1555198 -0.34607056 -0.252315 -0.32351497 0.3486059 0.21558757 0.3437937 -0.04596225 0.047722925 0.113825254 0.03059304 -0.2029839 -0.32600597 0.39784998 0.24796793 0.06378125 -0.0077606007 -0.025986899 0.12027689 -0.093396194 0.115651205 -0.0056291586 -0.108413935 0.024887798 0.023496361 0.06881883 0.034449488 0.14863142 -0.010093467 0.15146859 -0.024486493 -0.19162738 -0.36079198 -0.33446392 0.017631877 -0.11318015 -0.033389006 -0.05037689 0.09787539 -0.0029325872 0.036641106 -0.12710917 -0.058774002 -0.1912498 0.03508803 -0.21927826 -0.3472376 -0.24527737 -0.03013949 0.03454501 -0.07545828 -0.18437989 -0.09222247 0.017504286 -0.08471315 -0.14967346 -0.09531757 0.0764752 -0.086100265 0.00972019 0.14314584 -0.19416219 -0.15454015 -0.22921689 -0.13150558 -0.25951692 -0.05511596 -0.28083634 -0.17813237 0.12962934 -0.00047846464 -0.18176495 -0.21063083 0.08414197 -0.19925155 0.18222775 -0.1420755 0.2979845 0.043549776 -0.041917477 0.11006635 -0.06838754 0.07312147 -0.37957224 0.05114386 -0.08942696 0.36499614 0.07520847 0.09686153 0.12012885 0.029880842 0.083504096 0.018595798 0.037792116 0.09872941 -0.12462026 0.05578883 0.11172244 -0.049046315 0.12382579 -0.077051505 -0.021314574 -0.06379626 0.038631704 0.04411128 0.119454116 -0.029143032 -0.13113 0.0022764946 -0.19768079 -0.29393086 0.05318369 -0.19685328 -0.15964316 0.16593726 0.08695259 0.008375761 0.11834556 0.064716935 -0.029203072 -0.121990494 0.09271444 0.109305784 0.10085496 0.06349287 -0.09091827 -0.11416776 0.027247023 -0.06854366 0.1170997 -0.09601025 0.1185182 0.015627988 -0.2831596 -0.15783551 0.131326 -0.53679407 0.07132968 0.3179055 -0.41715276 0.13603346 0.5782603 -0.09074052 0.012276307 0.1687347 0.14317545 0.35898465 -0.22250204 0.3278921 -0.5388021 0.39788383 -0.045851536 0.046998363 -0.13424835 0.022819348 -0.19103065 -0.30035993 -0.04825456 -0.15903354 -0.23239976 0.04040303 0.039308913 -0.104437776 0.04644761 0.006681038 -0.02133912 0.008945666 -0.040403083 -0.03351769 0.030366631 -0.01311702 -0.084827036 -0.07002746 -0.013216194 0.046928156 0.00027779624 -0.09909195 0.06842878 -0.11969131 0.09265607 -0.009809755 -0.101612374 0.61643827 -0.36184543 0.4229211 -0.32193756 -0.089332655 0.021311358 -0.07158697 -0.106041655 0.061275125 0.020795349 0.061390262 0.025258098 0.01938067 0.08749028 0.13343956 0.19183391 -0.040559936 0.20540324 0.38930294 -0.01727284 0.3383129 0.12382796 -0.25466326 0.06832009 0.11140486 0.03821421 -0.057822622 0.010306435 0.046001676 -0.11884032 -0.11822578 0.11521815 0.03138869 -0.10659714 0.059751812 -0.068423785 0.020847075 -0.089006424 0.013645577 -0.04487609 0.09570109 0.064417236 0.41284707 -0.11297071 0.012648954 0.6166728 -0.27565894 0.051987197 -0.45689544 0.455451 -0.18756516 0.13695131 -0.01194397 0.38480908 0.25295433 0.18472789 0.10180367 0.6293554 0.032942493 -0.2642568 -0.017137045 -0.22194174 -0.26065576 -0.32495025 -0.60451114 -0.18810646 -0.34793392 -0.24707821 -0.32160372 -0.2041952 -0.14169686 -0.13661613 -0.19689795 -0.13852939 -0.34563458 -0.21615574 0.048924055 -0.16443071 -0.1991426 -0.048175763 -0.32721522 -0.41791466 -0.031851806 -0.28429216 -0.370132 -0.036726497 -0.1990699 -0.11202445 -0.035235696 -0.38386017 -0.48910254 0.22221941 -0.13276967 0.05564154 0.52939475 -0.060886543 -0.174711 0.09128067 -0.10968524 0.25948837 -0.07352444 0.16380072 0.18925802 0.048345365 0.011903097 0.034689307 -0.04631945 0.03350663 0.05995598 0.10374392 -0.035165124 -0.12690267 0.06887342 -0.25757867 -0.33431438 0.05375155 -0.40282235 -0.12120389 0.10900784 -0.36902952 0.23179512 0.44350618 0.028438324 0.057086594 -0.053572517 -0.009387627 0.0122566335 -0.017272234 -0.110050306 0.005778066 0.026284935 -0.06785688 -0.029670877 0.038297437 0.06671445 0.020331193 0.049818363 -0.06682385 0.012206183 0.15275694 0.07169147 0.109691925 0.012881761 0.16093084 0.05276315 0.026746588 -0.06324234 -0.18826932 -0.045549363 -0.023606118 -0.07744591 0.10576298 0.018531837 0.21218784 -0.010241687 0.03683416 -0.04507176 -0.077940546 -0.26409 -0.225381 -0.12895754 -0.13798831 -0.1988806 0.09635787 0.166288 0.11457573 0.34560525 -0.8775718 -0.842166 -0.37679008 -0.80219144 -0.68757296 -0.24743852 -0.5668916 -0.30631587 0.10682715 -0.055199 0.08855386 0.048703335 -0.015802156 -0.028767858 -0.01659275 0.08587506 0.03759653 0.049484357 -0.059939757 0.056898277 0.116984285 -0.123861775 -0.028585372 0.02895279 -0.03875968 0.058499485 -0.035638053 -0.101534285 0.05869817 -0.09119068 0.111506306 -0.08941507 -0.024108507 0.007397808 -0.059511207 0.120023 -0.006937903 -0.07908354 -0.09412045 -0.026134867 0.12144481 -0.046872493 0.11986635 -0.11320671 -0.022849709 0.0957752 -0.12385845 0.0348012 0.042337593 -0.04116306 -0.05767287 0.049985167 -0.0228294 -0.12138566 -0.1906643 -0.09499189 0.07739308 -0.0619103 -0.015809914 -0.05471517 0.18973903 -0.082549 -0.13540544 -0.3383135 -0.51394445 -0.54496753 -0.179856 -0.13455519 0.27328715 0.169876 0.25552037 -0.05263762 -0.34219378 -0.5550651 -0.32541472 -0.38826334 -0.47234556 -0.27934852 -0.0518359 -0.33046335 -0.059995737 0.012044805 -0.09501087 0.015176345 0.019509511 0.10669836 0.102549225 0.0987284 -0.04614571 -0.013000066 -0.051856413 0.0735229 0.08114322 -0.07403987 0.03834552 -0.070187144 -0.10281818 -0.017166503 -0.0578882 -0.12552884 -0.26000446 -0.0439265 -0.15290314 -0.16448414 0.2190651 0.04554722 0.29075652 0.42863077 -0.12152803 -0.017601492 0.022819608 0.081483744 -0.0866781 0.08506141 0.067206904 -0.017434072 0.008219841 -0.030981122 0.09984256 -0.30493 0.14175737 0.13800983 -0.074881524 0.20037213 0.09924045 -0.08516177 0.06172626 -0.023475112 0.058395047 0.066633426 -0.028318044 0.017137479 -0.033957303 0.08087146 0.022681687 -0.0044452758 -0.124617875 -0.05340267 0.087179214 -0.022915559 0.039973654 0.009842699 -0.053291485 0.07712473 -0.5993769 -0.8541404 -0.48559895 -0.7064942 -0.45565817 0.119472064 -0.1572968 -0.16375718 0.3466157 -0.42137322 -0.2745369 0.03574361 -0.32942763 -0.24140702 0.25937724 -0.23343642 -0.2117259 0.23890913 -0.34827372 -0.34443286 -0.1565698 -0.37922734 -0.38702506 -0.24126802 -0.49626133 -0.2888343 -0.29867476 0.005391759 -0.09687208 -0.101238824 0.16190769 0.033913583 0.115145594 0.22310556 0.24725027 0.10290145 0.055056438 -0.064816706 6.394833e-05 0.060339816 0.11639933 0.027721709 0.1732222 0.24339871 0.05766623 0.19415884 0.09575196 0.08904963 0.05780932 0.15111777 0.09403228 -0.22420463 -0.14296505 0.08506988 -0.1416326 -0.32802996 -0.2129075 -0.2137975 -0.100508876 0.050112713 0.34514728 0.2884046 0.47063848 -0.007905814 -0.002944303 0.1361184 0.04793447 0.07978237 0.12772755 -0.024999525 -0.06570214 0.14325228 -0.0052775643 0.009522424 0.23618883 0.017669177 -0.13321444 0.075752124 0.13083741 -0.030272167 -0.13955492 -0.081982344 -0.029734507 -0.105238385 0.0963955 -0.023325304 0.050560206 -0.012010892 -0.035079006 0.08960169 0.06122877 -0.06825174 0.038583357 -0.1922677 -0.14675613 -0.22402532 0.032677304 -0.09455029 -0.38579264 -0.13548073 -0.08574988 -0.012486272 -0.051085416 -0.10022319 -0.07719094 -0.09705149 -0.1044244 -0.1956089 0.07067305 -0.22585589 -0.09611148 0.106907845 -0.039065134 -0.15565044 0.03664262 -0.030809412 -0.27884543 0.097678 -0.3824793 -0.45982048 0.37755135 -0.07118848 -0.4844132 0.4550836 0.096714236 -0.24575736 0.0029752604 0.31547835 0.040528562 -0.3676912 0.13873577 0.49770454 -0.19626705 -0.1162509 0.36653307 0.094845556 -0.12237302 -0.017603327 0.049064487 0.016500738 -0.034636486 0.008608749 0.05102371 0.065404475 -0.08589542 0.022688076 0.013892676 0.09254103 0.118616246 0.08227342 -0.06431328 -0.06521071 0.04967349 -0.08300961 0.081042275 0.2099186 -0.17925039 -0.052320123 0.20204775 -0.20709132 -0.02096691 0.036132965 0.012841675 -0.036610495 0.070224114 -0.119260825 -0.058705065 0.10439519 0.005354393 0.016413534 -0.02904802 -0.041737583 0.105016015 0.022604365 0.0007539262 0.06155112 -0.044110805 -0.075970985 0.0452262 0.106359534 0.39146048 -0.3234444 -0.6737457 0.49250975 -0.010797794 -0.84939146 0.50539535 0.20452818 -0.38900983 0.54797417 0.08942184 -0.3790602 -0.12555099 0.041681543 0.036764313 -0.19235988 0.022774344 0.016584188 0.16949244 0.37584588 -0.027462726 -0.2535807 0.22217011 0.2663498 -0.07980035 -0.3286619 0.14717409 0.025759717 -0.04492367 0.05717989 0.07757725 -0.051005647 -0.011113362 0.040676937 0.002971386 0.010554863 -0.04733458 -0.10789505 0.020966874 0.09796401 0.0710343 -0.07250333 -0.12479952 -0.07411329 -0.10910226 -0.017116487 -0.07168659 -0.059958745 -0.09193537 -0.2039594 0.21425027 -0.017261026 -0.21333471 0.013976976 0.11510404 -0.066829935 -0.03442568 -0.044967152 -0.067359075 -0.013910558 -0.00092100055 0.0131588625 -0.12181511 0.283344 -0.18850462 -0.39001757 0.24044168 -0.040633887 -0.22076938 -0.0034230766 -0.1775556 -0.34193963 0.11841666 -0.05890872 -0.106459334 0.100938715 -0.07335151 -0.0616229 0.031800587 -0.019079886 0.0033469829 -0.0375383 -0.016923938 -0.07213255 -0.012333921 0.011392588 -0.084502734 0.07134297 0.115454875 -0.009637162 -0.5739052 -0.48724857 -0.28966233 -0.3879911 -0.2857281 0.100596495 -0.14595106 -0.21290094 0.14178777 -0.21020646 -0.038727574 -0.12613969 -0.19562611 -0.088775255 -0.26405305 -0.054836795 0.11117081 0.082255766 -0.2697201 -0.18963899 0.17969139 -0.3046874 -0.2580105 0.08410871 -0.19460526 -0.44804728 -0.15162979 0.07587937 0.21271868 -0.19510172 -0.095172174 0.022658454 -0.10057376 0.113471754 -0.052119996 -0.05277175 0.2964477 0.25689414 -0.27391744 -0.090924874 0.014342967 -0.15541093 -0.08465164 -0.032840542 -0.21620443 -0.22528525 -0.039917093 0.4029893 -0.1599327 -0.050532065 0.29102463 -0.19171853 -0.39297727 0.05316254 0.43100703 0.07952799 -0.57880765 0.12850223 0.045244638 -0.31013897 0.028979812 -0.07677479 -0.102396 0.013858467 -0.09909084 -0.07495682 0.04889762 -0.04726299 0.12290064 -0.06859966 0.03192142 -0.08215804 0.21299626 -0.40818813 -0.34981245 0.20467049 -0.1921487 -0.32981223 0.23909344 0.045173474 -0.24291798 -0.10019855 -0.017986841 0.10941891 0.05946408 0.077062465 0.07222923 0.062113725 -0.058372736 -0.046307947 0.073308825 0.02831982 -0.038417697 -0.10579171 -0.03676394 -0.07613576 -0.07117088 -0.055447437 -0.075376965 0.00463825 -0.031154027 0.09241283 0.06393998 -0.105442576 0.07284548 -0.06817401 -0.06797712 0.034698937 -0.02246277 -0.09437078 0.06216452 -0.08642298 -0.11208635 -0.12625398 -0.04536425 -0.13494638 -0.015214114 0.076891385 -0.12980266 0.009056022 -0.13405463 0.10455738 0.038344193 -0.13382247 -0.08936929 -0.008118181 -0.051245853 -0.06035061 -0.10761221 0.030719731 -0.030884748 0.10039805 0.011976905 -0.08937286 0.046369273 0.05755277 -0.024681823 0.08203582 -0.093761235 -0.02893419 -0.01199698 -0.101279706 -0.10281056 0.12046245 0.033891544 -0.027675169 -0.016967941 -0.03199828 -0.0696952 0.013095377 -0.099875435 -0.061632633 -0.102640375 0.095769696 -0.1195475 -0.100617446 0.05204433 -0.09004799 -0.109306954 0.03465506 0.07975556 0.053116217 -0.02334863 0.04544435 -0.12004528 -0.01640329 -0.095103 0.10587942 0.0008207688 0.057794694 0.041402984 0.120195076 0.038345806 0.027721435 -0.11202494 -0.11844277 -0.09481253 -0.006808244 -0.109343305 -0.022387903 0.07354785 -0.025297698 0.042008337 -0.09151824 -0.086918965 -0.09977685 -0.10653833 0.06890477 -0.036181163 -0.06590098 -0.04822848 0.06998231 0.053887405 -0.017816104 -0.046027094 -0.019714061 -0.07570758 -0.095566146 0.07802763 -0.024542432 -0.11441761 0.08053554 0.012346332 0.05893306 -0.040169053 -0.015183751 -0.052260615 0.08514383 0.09035357 -0.07668695 0.07080958 0.11095068 -0.00623713 -0.089304745 0.090569265 -0.049061704 -0.11402969 -0.04532604 -0.114413664 -0.1102739 0.053511437 0.02681996 0.11953306 0.06684518 0.11258722 -0.009718166 -0.013071235 -0.11778843 0.08794656 -0.12774329 -0.10598867 0.07330562 -0.13054667 -0.09900709 0.119462214 -0.09813429 0.08464749 0.12056972 0.10984839 -0.11079228 0.07105109 0.080169834 -0.020854425 -0.028332096 -0.059326887 0.04498213 0.018453622 -0.041767932 -0.091513276 0.069740854 0.080344014 -0.028229272 0.098971136 0.06541904 0.006059923 0.06978482 0.08712931 -0.029300498 -0.028500905 -0.12018908 -0.018283026 -0.057481572 0.09572071 -0.039577115 0.003253741 -0.037538335 0.12306639 0.03346953 -0.023129044 -0.03490629 -0.12026626 -0.046610087 -0.09077885 0.0054414696 0.021679634 0.10663817 -0.023997491 0.0033208309 -0.09216031 0.049985185 -0.1256981 -0.063253246 0.0311385 -0.09621495 -0.008031087 -0.02589291 0.06722541 -0.1222998 -0.12036605 -0.05015838 -0.066213556 0.006347657 -0.072532505 0.05993866 0.042042922 0.04073942 0.11383368 -0.021947073 -0.052035153 0.08431385 -0.0665218 0.0105131185 -0.102753535 0.033859048 -0.00017124489 -0.004305636 -0.10787603 0.06888321 0.07157474 0.030037628 0.022303142 -0.084751524 0.011958455 0.060584523 0.100970015 0.051066086 -0.025426695 0.091610335 -0.080409996 -0.023706788 -0.076117896 0.11355674 0.03412122 -0.119930655 0.08140823 -0.06657334 -0.1303464 -0.09979029 0.06132028 -0.054852884 0.032528482 0.08529084 -0.11555151 0.083605446 -0.06771137 0.043177564 -0.06329426 -0.057610363 -0.05522953 0.08800093 0.08050062 0.11528004 0.0769307 -0.011047176 -0.04959908 0.043571763 0.0854101 -0.019960728 -0.015960634 0.043481596 -0.0032050528 -0.062893316 -0.047042172 -0.111378275 0.08658957 -0.054720942 -0.012092533 0.062146015 0.10376146 -0.0104774395 -0.21434139 -0.24217105 -0.36728078 0.092914484 -0.09367937 0.13775629 -0.11256558 -0.029125087 0.034280397 0.14764233 0.1697632 0.0059439735 0.08565704 0.037314847 0.006127785 0.3525096 0.25583848 0.23040313 -0.14187787 0.20166847 -0.012817821 0.0193736 -0.15176217 -0.08933138 -0.078936845 0.030976018 0.06599183 -0.3666289 -0.28590682 -0.2795781 -0.16883564 -0.41304347 -0.23227349 0.087055594 0.32391295 0.3449224 0.30378908 0.32692888 0.32131222 0.20346805 0.040719025 -0.19407076 -0.55199105 -0.68317485 -0.63499755 0.0728427 -0.06808041 -0.111905694 0.10788528 0.037659384 0.07853074 0.10510718 0.0065741 -0.031296402 -0.020429013 -0.10682341 0.063489825 0.025129795 0.041843362 -0.090247475 0.05002382 -0.08412372 0.07640252 0.24529096 0.15628985 -0.02078157 0.051680457 0.050378695 0.08681069 -0.060729675 -0.15973255 -0.25629413 -0.030189209 0.11590033 0.108086 -0.06175972 -0.055705015 -0.011973263 0.06845735 0.021334425 0.00020538837 -0.08013621 -0.09926453 -0.066488735 -0.079866126 0.11341284 0.0073948973 -0.07757739 0.1116441 0.0065097734 -0.18803217 0.06415286 -0.21133727 -0.090156056 -0.2026547 -0.2569336 0.11534907 0.29318348 0.28563616 -0.31001145 -0.63705003 -0.2654515 0.02235589 0.4649808 0.48862138 0.24166821 0.12549485 0.03765492 0.1749858 -0.098271735 0.017639287 0.06316088 0.044199605 -0.1351333 -0.14651443 -0.16422491 -0.09767112 0.081401564 -0.0075068874 0.11855965 0.013577636 -0.12109609 0.075755574 0.08558804 0.024700638 -0.064979166 0.10989728 -0.1110034 0.05962205 -0.13358249 -0.060245913 0.02191757 0.03563673 0.039172854 0.00046470025 0.058778986 -0.45945752 -0.53182894 -0.15287948 -0.3099231 -0.14608149 0.4752338 0.517741 0.21155447 -0.030429935 0.038537435 -0.062802345 -0.022584466 -0.06405336 -0.07167552 -0.07174043 -0.032651644 0.04241684 -0.17711394 -0.25918913 -0.40507925 -0.22974584 -0.43215874 -0.11058256 0.33031958 0.31156927 0.25535312 0.006878661 0.061844848 0.061360244 0.03366601 -0.016055062 -0.026968054 -0.08848831 -0.0787814 -0.009530057 -0.007194372 -0.0975091 -0.087191075 0.08292504 0.11229433 0.10683762 0.11270945 0.044264313 0.10240733 0.14616463 0.28897142 0.57605094 -0.12430097 0.12146803 -0.13983402 -0.08538657 -0.36984664 -0.699755 0.035157558 0.24247806 0.30935732 0.047355913 0.048628848 0.063015744 -0.4614344 -0.38288778 -0.26845852 0.40458044 0.052848443 0.26637307 0.16310847 0.10287102 -0.13935727 -0.20517328 -0.29872978 -0.62670165 0.20555305 0.0003228159 -0.083128855 -0.13440669 0.105757035 0.08601949 0.21472538 0.04053829 0.12663327 0.23778418 -0.07781284 -0.03896376 -0.10212511 -0.14927246 0.08474139 -0.030931696 -0.011929801 0.1696186 0.3706433 0.028242098 -0.057707913 0.03030529 -0.2641695 -0.22166447 0.17416072 -0.13484952 -0.05682391 -0.4209287 -0.5899683 -0.6674464 -0.11750445 0.3273332 0.15403719 0.13973582 0.4215325 0.19398516 0.008618681 -0.023768647 -0.101477005 0.00981163 -0.005642113 -0.05990199 -0.11732925 0.08929505 -0.06822526 -0.24744047 -0.16413006 -0.05276327 -0.22913595 -0.32021278 -0.031038253 0.21639855 0.2878513 0.28080624 -0.00798145 -0.030260103 -0.10764736 -0.1213904 -0.054375015 0.033203624 -0.06066589 -0.054531023 0.0041763554 0.06733741 -0.04278261 -0.07776463 0.10019014 -0.35200807 -0.1828946 0.08579371 -0.17196336 -0.15754846 0.08409548 0.03634372 0.030471267 0.0013907974 -0.088875376 0.042947356 0.038425393 -0.07907258 0.061217863 -0.037365153 -0.05643249 0.07505716 0.18239436 0.030356012 0.1538648 0.098084584 0.26109716 0.1387202 0.16216795 -0.03367148 0.022097858 -0.17094004 -0.05915738 -0.123415604 -0.22411405 -0.1402585 -0.27825618 -0.13174719 -0.2495999 -0.35135838 0.0641693 -0.31440336 -0.118826345 0.06404596 -0.029169548 -0.25780326 0.061669365 0.06084729 -0.00705119 0.02278349 0.0786722 0.03685929 0.0025484404 -0.08776731 -0.058775466 0.031153794 -0.024593208 -0.12336013 0.022710374 -0.11447932 0.04870066 -0.06797534 -0.10351717 0.034254145 0.089302145 -0.041521646 0.12831865 0.23846221 0.17530331 0.14526163 0.2867143 0.16948552 0.17469631 -0.07409011 -0.076395586 -0.11185912 0.10139572 0.05331786 -0.085516594 0.017094376 0.04003865 -0.038056232 -0.07816737 -0.039336372 0.054418247 0.07011766 -0.0108163785 -0.029548379 -0.09091972 0.077269614 -0.036501057 -0.33174673 -0.2111171 -0.10535087 0.023261743 0.22127791 0.4185918 -0.25954115 0.47314134 0.5513226 0.054052427 -0.077170625 0.0067360313 0.06964518 0.11724258 -0.114995375 -0.00065336237 -0.0349496 -0.055795137 -0.39054826 -0.2553005 -0.24940677 -0.04985739 -0.05903082 -0.14795987 0.17759728 -0.047451388 -0.11635693 -0.011595573 -0.01344247 0.076871015 -0.072433755 0.04953183 -0.07338504 0.088141516 0.12227734 -0.03022054 -0.04693941 -0.0575876 -0.06784105 -0.07159571 0.0034255527 0.097369164 0.032900628 0.03044694 -0.06872778 -0.06441283 -0.20392235 -0.26327834 -0.15251637 -0.43740186 -0.42684075 0.25587335 -0.18167049 0.07341109 0.080343105 0.08100771 0.121581696 0.00023659843 0.078655615 0.016316725 0.009769976 -0.04338621 -0.12054122 0.05830851 -0.005822051 0.0016777078 -0.034042507 -0.060025368 -0.1539348 -0.009060177 -0.12491523 -0.11775807 0.0028198531 -0.06026946 -0.07273341 0.05640154 0.12239747 0.05290749 -0.071464404 0.0572318 -0.057851233 -0.010936763 0.02353397 -0.11996716 0.10222039 -0.06366069 0.048155215 0.09491887 -0.09734687 -0.011885303 -0.021494968 -0.08331555 0.1460134 -0.03316122 -0.038510032 0.18121773 -0.12981337 -0.0026387656 0.18019417 0.4352065 0.28562427 0.055753216 0.0126994075 -0.08246626 0.02732788 0.027713746 -0.07582432 -0.03267087 -0.4059248 -0.43055102 -0.29835105 -0.08241309 -0.39025244 -0.20492083 0.15962724 -0.048982386 -0.32637155 0.030673556 0.11898339 0.172848 0.055763826 -0.07421904 -0.10394254 0.011372277 -0.072689496 -0.01888318 0.061607964 -0.009489601 0.018272277 0.120094575 -0.099421404 -0.15566234 0.07199732 -0.1419023 -0.03381332 0.079341985 0.07922661 0.108723216 -0.25789633 -0.25757536 -0.27675018 0.08351954 -0.19704336 0.032296184 -0.0019099147 -0.14978491 -0.054065384 -0.011954237 -0.22512339 -0.18831807 0.094917744 -0.1535605 0.08054761 -0.08996112 -0.08758086 0.107371725 0.0487613 0.06272116 0.0423901 0.0013115805 -0.09160281 -0.084310636 0.0987472 -0.06289894 0.0010782582 -0.26831624 -0.09172298 0.0007967128 -0.21207115 -0.052698027 0.11601099 -0.26725695 0.32321143 -0.73452526 0.09995729 -0.15403262 -1.1937859 -0.2176415 0.37814933 1.703671 0.14585441 -0.09911024 -0.48688486 0.6149033 -0.015853113 -0.18054077 0.122529715 -0.006019647 -0.08155354 -0.011174338 0.1256001 -0.0068920725 -0.058392875 -0.021068972 -0.21386124 -0.09367603 -0.09466184 -0.0061853877 0.0011314688 0.030636843 -0.02771365 -0.088629685 -0.15847884 0.017449468 0.032333996 -0.15799522 0.066610344 0.03108239 0.0051440434 0.19630076 0.0016888295 -0.15620707 -0.13104908 -0.10941631 -0.010775727 -0.021983115 -0.0742107 -0.03282001 0.051506177 -0.20411769 0.16441378 0.05944129 -0.020780798 -0.029566946 -0.09444028 -0.09840262 -0.15664163 -0.101504184 -0.08831705 0.109110735 0.030337323 0.001371769 -0.07068536 0.12614559 -0.122761294 -0.005205912 0.28997773 -0.13211349 -0.134688 -0.20525071 -0.22241578 -0.13816632 -0.06929669 0.09835974 -0.042294398 -0.28351802 -0.11250331 -0.11971101 -0.03210285 0.07134137 -0.017226974 -0.20860568 0.06597986 0.054270875 0.034722794 0.041484363 -0.027777648 0.0089162635 0.016233256 0.1336194 -0.15878281 0.027833268 -0.06642172 0.1418165 0.016846256 0.12861988 -0.22583395 0.08705708 -0.112842605 -0.26069447 -0.061692078 0.022684192 0.112243176 -0.042892266 -0.12498086 -0.11772439 0.1507873 0.10187554 0.16366622 -0.13557692 -0.015437364 0.11687949 -0.03811521 0.13176751 0.073801115 0.0077119293 0.1764808 0.06587306 0.052630164 0.114740156 0.08497181 -0.05606188 0.043645043 -0.19198652 -0.14020684 0.14670654 -0.10733599 0.11766435 -0.009390826 0.096136175 -0.14090924 -0.04240241 -0.06645202 -0.32009485 0.02348813 -0.034721043 -0.023592701 -0.19358324 -0.21108215 -0.08050483 0.16319361 -0.024264991 -0.024291433 -0.047026165 -0.13973235 -0.13617021 -0.080590695 -0.051719844 -0.07224655 0.10165422 0.11138002 -0.0148413 -0.018219873 0.10567719 0.039211437 -0.16385421 0.0034102737 -0.033343498 -0.090562336 -0.15851796 -0.12677251 -0.09630053 0.09939884 0.08296442 -0.13953157 -0.013892666 -0.04404569 0.040117156 -0.0064250403 0.015978105 -0.21192223 -0.022136971 -0.017139373 -0.047424305 0.047827967 0.040157776 0.13684326 -0.053945504 0.08894487 -0.0558018 -0.12742586 0.18218488 -0.27939135 0.28196013 -0.14298242 0.19246098 -0.058926247 0.09468817 0.14901619 0.033493515 0.20102777 0.009107986 0.19804278 -0.079918355 0.095357165 0.14133792 -0.16567944 -0.0154741155 0.13425493 -0.16776906 0.15214649 0.07568397 -0.102766454 -0.13770941 -0.26306364 0.20065121 -0.026296277 0.029784212 -0.018661242 0.032244924 -0.15707912 0.022591464 -0.064863205 -0.101042435 -0.15951717 -0.24988271 0.05748078 -0.20820588 -0.019759903 0.3232583 -0.115761265 0.0024246643 0.017783664 -0.056427795 0.11499792 0.17448032 -0.087195314 -0.035794068 -0.12292789 -0.011712652 0.16040911 -0.26513386 0.11656108 -0.05450228 0.05142084 -0.11074114 0.00031505062 -0.1361814 0.098095 0.12210867 0.156417 0.09607633 -0.025192782 -0.026612457 -0.101951 -0.10340412 -0.070969366 -0.0034591286 -0.19227041 -0.12437938 0.018267874 -0.052210547 0.020958016 0.20497364 0.07154243 -0.028717099 -0.028714526 -0.13812102 -0.053741746 -0.036068454 0.028455174 0.025385015 -0.06622467 -0.08781344 0.1942651 0.005408248 0.053042155 -0.07143803 -0.051995475 -0.0510182 -0.20057622 -0.16767327 -0.031054812 0.034761917 -0.085928984 -0.05841828 0.014162548 0.06164118 -0.13039798 -0.057539262 0.024411105 0.024366856 0.13605982 -0.037888043 0.052400067 0.088492714 -0.08415896 0.0053452267 -0.077080384 0.022757772 -0.09811718 -0.049946558 -0.10628702 -0.0073671066 -0.066284105 -0.11509857 0.22781537 -0.12680143 0.11763344 -0.07328132 -0.05828806 0.008686097 -0.14574794 -0.15781203 0.05860575 0.06752383 0.06386873 -0.054858644 -0.071332306 -0.050555952 -0.19674812 -0.07137933 0.14020692 -0.159578 0.12571028 -0.009584339 -0.039475247 -0.2566053 -0.090486765 0.07144706 -0.17332081 0.06485895 -0.11168449 -0.072230764 -0.071191125 0.01737846 0.017663898 -0.1274071 0.03936948 0.051558524 -0.21750663 0.0647609 0.032627504 -0.15890977 0.10636934 0.15519266 -0.025674524 0.060890213 -0.02333892 0.16099887 -0.043480758 0.06564773 0.04955494 -0.08059578 -0.06811016 0.28221974 0.20552048 -0.10602764 -0.019146794 0.04180121 0.026678592 -0.03339167 -0.1332741 -0.09470062 -0.06882173 0.03177639 0.1153106 -0.049832966 0.017853856 -0.009079372 -0.052593593 -0.007932158 -0.08750086 -0.079119876 0.06442059 -0.076348186 -0.079844706 -0.011454619 0.022452975 -0.011548555 -0.24131973 0.123634875 0.016366288 -0.032669935 0.10663481 0.033104904 -0.023307076 -0.043522924 0.24466057 0.027707323 -0.09382687 0.23088421 -0.13600907 -0.031330258 -0.06925249 -0.15125121 -0.030320572 -0.05860162 -0.18362755 0.14015935 0.23689207 -0.056373674 -0.032827064 -0.09946349 0.0023801706 -0.092853054 0.020619027 0.10543504 -0.04678559 0.049448982 -0.28590092 0.032511037 -0.020968769 0.036282647 -0.05962587 -0.11595139 -0.16894913 -0.09152193 -0.14561366 -0.1316783 0.18563326 0.08516683 0.04425426 -0.038436584 -0.120196044 -0.024701929 -0.22929633 -0.07094852 0.050015133 0.17152369 0.09823667 0.10137176 -0.15166993 0.32192564 -0.2047701 0.073824845 -0.07804948 -0.064497106 0.0998611 0.043284543 0.13797577 -0.031323873 0.14105092 0.037860807 0.09778968 -0.11670502 -0.17741369 -0.15665714 -0.0051475265 -0.14104488 0.042006772 -0.05073601 -0.0014899117 0.03706449 -0.08148503 0.01051968 0.016971245 -0.12134804 0.046948563 -0.06596719 0.106251515 -0.00057051657 -0.072582275 0.18922265 0.14594339 0.08852201 -0.028531672 -0.16371064 -0.3390908 -0.1642679 -0.052074462 -0.13781829 -0.1069709 0.12804696 0.34749314 -0.06795964 -0.04310386 0.18373002 0.019575704 0.11324364 0.07403007 0.08727084 0.011489451 0.081355974 0.022780167 0.104474984 0.14280859 0.13055646 -0.09034167 -0.12837382 0.22663678 -0.14507319 -0.0038874715 -0.17795327 -0.06500296 0.029654613 -0.1375848 -0.056425393 -0.051675327 -0.19820765 -0.0949361 0.0367843 0.05034078 -0.20574467 0.024127211 -0.068909556 -0.029404383 -0.10188145 -0.06493891 -0.007049221 0.020105336 0.040006764 -0.014264501 -0.05541155 0.096835256 0.08061864 0.0358922 0.012764853 -0.103553906 -0.16668501 -0.10760202 0.0052915164 -0.08504649 -0.14379041 0.06250923 -0.057474315 -0.025561452 0.010768772 0.04229233 -0.13630973 -0.054426778 -0.105687104 0.1763508 -0.034860246 -0.135886 0.03685501 0.03101893 -0.15103643 0.01074433 0.04091198 0.087941416 0.01542047 -0.111176014 -0.07599351 -0.085777834 0.034530453 0.00090542354 -0.0075650583 0.0040430916 0.17943421 -0.04733407 0.11199921 -0.08236758 -0.010057337 -0.20162219 0.09997305 0.16454957 0.0025700887 -0.05536966 -0.02479831 0.017717686 0.015554467 0.062767446 0.04502094 0.038914204 -0.033106234 0.04730852 0.14046688 -0.053191964 -0.042184643 0.0050984407 -0.04263416 0.009678682 0.023640517 -0.053793285 0.094926916 0.106337614 -0.029696353 -0.057186525 0.04367894 0.015508313 0.029324556 -0.060036723 -0.008800721 0.04034535 -0.084991105 -0.030853806 0.072621755 0.033634108 -0.0038262147 0.098634936 -0.08671325 -0.0089396015 0.08083499 0.017159207 -0.04138917 0.04472714 0.06493778 0.09017956 0.041421533 0.015526296 -0.0055332086 -0.010246034 0.07545955 0.020475399 -0.109167 0.078225076 -0.06813272 -0.08697235 -0.011167401 -0.009514846 -0.09179973 0.08002026 0.05393885 -0.06932274 -0.03497254 0.01901652 -0.0004294956 -0.092636116 -0.04214827 0.11104466 -0.058060806 0.008793202 -0.017243532 0.07986407 0.101147085 0.024556968 -0.12148415 -0.10106498 -0.018349698 -0.016898634 0.012730788 -0.11357984 -0.014629579 -0.16714543 -0.1206492 0.035029408 0.04542458 -0.032396767 0.043568954 0.054537848 0.06617575 -0.08529768 -0.017602047 -0.075648725 -0.08744707 -0.08628404 0.007960763 -0.0027538578 0.10932968 -0.11774552 0.035181843 0.08315763 -0.1441612 -0.034243736 -0.1375457 0.015610991 -0.019928295 0.0925791 -0.13885872 -0.05806882 -0.010675296 -0.0781047 0.056997806 -0.055747252 -0.09330804 0.08020278 -0.0051513575 0.020626003 -0.17606331 -0.09155631 -0.12964907 -0.12957774 0.02382296 -0.06741051 -0.15289262 0.029664088 -0.039571192 0.04911552 -0.053531814 0.040260497 0.10056634 -0.09658773 0.098371536 -0.05556685 -0.08998745 -0.08013756 -0.07261312 -0.0052345726 -0.13195425 0.0837251 -0.09427236 -0.009803006 -0.076976605 0.06369909 0.067633495 0.06840615 -0.08517153 0.0047101118 -0.016011639 -0.02295042 -0.018106814 -0.015672496 0.16732472 -0.13296455 -0.010202021 -0.11155241 -0.11157073 0.08053761 0.20001431 -0.044404868 0.029008625 0.0517111 -0.041982964 0.19136228 0.096926875 0.03209602 -0.06795355 -0.16049547 -0.08210157 -0.0023875064 -0.003998815 0.10291642 0.0012074597 0.03491979 0.20573355 -0.25827932 -0.06662433 0.048385575 0.098579004 0.013341571 -0.022736913 -0.047169555 0.07605352 0.07453259 -0.13264455 -0.0829045 -0.010267619 -0.057035625 0.06559353 -0.18503189 -0.21702439 0.027737116 0.05307321 0.1921299 0.0801218 -0.03424956 -0.15160519 0.16492993 -0.050889365 0.061952375 0.02488988 -0.11574402 -0.021995857 -0.05142308 -0.05989961 -0.12223575 -0.053497717 -0.029589944 0.019982455 0.20688823 0.054514952 0.17501427 -0.030983755 -0.09643405 -0.046269916 -0.016894443 -0.031399384 -0.09033779 -0.13812529 -0.19309749 0.07421281 0.082314186 0.13211906 -0.015625225 0.14651929 0.021765556 -0.2136691 -0.077666886 0.045498393 -0.11184268 0.004829568 -0.037051708 0.047675382 -0.0006617823 0.1831123 -0.057964504 -0.0062655676 0.23664114 -0.05018427 -0.15941659 -0.048488427 -0.028780892 -0.087965764 -0.11099689 0.0363705 0.104851685 0.037718378 0.28541616 0.24901026 0.11418505 0.029396323 0.103086315 -0.036160298 -0.101474255 -0.045207094 -0.1124179 -0.22725408 -0.018060172 0.038708724 -0.22615072 0.23114301 -0.08685468 0.043738145 -0.033925176 0.013198983 0.004820214 -0.0035656877 0.029562373 -0.025255986 0.07312618 -0.041791387 -0.021578962 -0.13976595 -0.16927049 -0.06169194 -0.082192495 -0.032390513 -0.10674673 0.02867905 -0.021603845 -0.039240193 -0.046422828 -0.013296862 -0.07924547 -0.09864058 0.22117724 -0.13572444 -0.09341539 0.14951609 0.0859283 -0.1295308 -0.06090107 0.19777256 -0.049316045 0.20174766 0.030748168 -0.021090811 -0.083970405 0.0896776 -0.109983206 -0.123768285 -0.024528736 -0.03765961 0.34832838 0.0093237385 -0.16238163 0.065290764 -0.02301412 0.053659014 -0.07065064 0.050335534 0.049720727 -0.11275399 0.055450153 0.009883545 -0.009381555 -0.077564485 0.1868371 0.05005988 -0.066255525 0.14676692 0.1649265 -0.041024536 -0.16857351 -0.028235702 0.021117223 0.1454043 -0.1379416 -0.042250205 0.14111367 0.054489877 -0.15151262 -0.016081346 0.037947707 -0.054755904 0.069107346 -0.0036686908 -0.011884948 -0.08067909 -0.2052568 -0.033127353 -0.07075205 0.21803804 -0.15220587 0.025471585 -0.18408579 -0.07604608 -0.071447626 -0.1129511 0.13201775 -0.023406312 0.08164882 -0.07054482 -0.15000933 -0.0859905 -0.07570641 0.017059725 -0.09409397 0.002194463 -0.053753644 0.0032682996 0.07703045 0.2066015 -0.16333479 -0.07323775 -0.25525522 -0.10629308 -0.07723784 -0.23374683 0.2377815 -0.05119346 0.32859194 -0.1063085 0.21350057 -0.08933444 -0.0668925 -0.0512347 0.02754922 0.061666522 -0.06405046 0.2030222 0.2683824 -0.047895886 0.086095765 -0.0036071585 0.030696549 -0.05892169 0.0080674505 -0.086306304 -0.08920934 -0.014949786 -0.035649534 0.04664767 0.02258389 -0.11553999 -0.010991376 -0.06934127 -0.07043287 -0.14127018 -0.035865065 0.105583906 0.044751834 0.19759308 0.29911712 -0.23713364 0.23585035 -0.3420139 -0.030604396 -0.0032226744 -0.20388179 -0.14959359 0.22812115 0.030091906 -0.06770449 -0.27565527 0.20412557 0.11007102 -0.021178685 -0.13717794 0.13590313 -0.19962128 -0.012064685 0.032623976 -0.15179549 -0.033953287 -0.35299245 -0.051752623 0.28956553 -0.29703745 0.07954442 0.05259501 -0.09398169 -0.06863215 -0.08011771 0.049553473 -0.14651096 -0.13777061 -0.11135073 -0.04940653 -0.030868262 -0.08668488 -0.05476373 -0.031350225 0.032290734 0.104832254 0.06798885 -0.04847331 -0.067201585 0.018292628 0.09904645 -0.1869059 0.015951462 0.09150753 -0.00080494257 0.035112724 0.012854482 0.1269486 -0.031230027 -0.18815105 0.0012803408 -0.11164647 -0.0938352 0.06656591 -0.030825127 0.1326784 -0.111123286 -0.025831496 -0.004776274 0.041437756 -0.047601886 -0.06580673 -0.10385119 -0.043072503 0.16306998 0.07931346 0.070826836 0.17304142 0.06532965 -0.028067421 0.08968315 0.018521914 -0.09485191 0.10078548 -0.015336833 0.030717833 -0.21129061 0.03507819 -0.078263834 0.07873663 0.1625965 0.15002064 0.0071383896 -0.08507435 0.016066598 0.00018706857 0.03267888 0.16307741 0.018987894 -0.08972688 0.13857733 0.21344662 0.02673529 -0.14487848 -0.024924349 -0.086383514 -0.23736206 0.036511295 0.087602966 -0.11207092 -0.028436886 0.023975415 0.030846788 -0.04191386 -0.10646412 -0.04056187 0.031609077 -0.074134886 -0.020007338 0.047691308 -0.006300287 -0.05446222 0.051662114 -0.10536411 0.009277516 0.10646979 0.115147434 -0.06306722 -0.005134258 -0.023966506 -0.045977782 0.0065916083 0.12582822 0.021146525 -0.070020154 0.05433995 -0.06813649 0.016893337 -0.052219674 -0.045037955 0.10634264 -0.012743494 0.054315932 -0.014253197 0.075735934 0.04387932 0.110084005 -0.045472752 0.11259348 0.0053234873 -0.021561421 -0.0037951944 -0.041417215 0.066313736 0.10250159 -0.01778895 -0.045883622 -0.10034689 -0.28541827 0.024982532 -0.056887757 -0.20028675 -0.057949252 0.038312357 0.060014956 -0.08259431 -0.08979318 0.052935816 -0.1297703 0.0346872 -0.02145395 0.06826154 0.010528765 0.050114173 -0.012261213 0.059159685 -0.04070105 0.04771204 -0.020553024 -0.19448748 -0.0689601 0.11142928 0.049131274 -0.15803982 -0.09402421 0.070550755 0.12243389 0.041130815 0.22796778 -0.22101127 0.011732936 -0.095827065 -0.005307751 0.028910216 0.16108485 -0.05128403 -0.124871805 0.17619263 -0.141944 0.1514165 -0.10964678 -0.14457232 -0.04904527 0.086405925 -0.050209597 0.059067246 0.09551481 -0.25324857 -0.061591946 0.059266537 0.1504182 -0.22321758 0.031299822 -0.08454278 0.18101099 -0.06848095 -0.038193364 -0.13886568 0.13883354 -0.16470265 -0.07690551 0.008029757 -0.0016139755 0.019190725 0.0011300461 0.041696478 -0.0034771378 -0.055767775 0.022327682 0.013158824 -0.15302432 0.03260612 0.10263666 0.11618708 -0.030103436 0.06467344 0.06006649 0.13807918 -0.0368899 0.14310594 -0.012961601 0.0628204 0.021961408 0.2438682 -0.050482757 0.04169061 0.022909166 0.09551119 -0.02911221 0.048200976 0.045426484 -0.1473274 0.118020624 -0.081739955 0.005363631 -0.08600491 0.01101323 -0.17182082 0.105258 -0.028415771 -0.056822285 -0.04360481 -0.01665533 0.11483741 0.0024706102 -0.2020605 -0.02216497 0.075378306 -0.11251488 0.04445272 0.102163695 -0.02400899 -0.021379001 -0.15652989 -0.002628025 -0.001749631 -0.041101355 0.021087088 0.06327185 -0.020313626 -0.009086246 0.002900646 -0.066098675 -0.08289983 -0.068320885 0.027000949 0.05936389 -0.08146421 -0.044329192 0.009075075 -0.06967188 -0.055400845 -0.03937215 0.06912973 0.038576454 -0.016717672 0.055950128 -0.032366056 0.087716155 -0.028842082 0.037885964 -0.04822848 0.059142467 -0.039171718 -0.014837362 -0.009556323 -0.08087024 0.053574033 -0.039230794 0.05302159 -0.07886397 0.010389582 -0.015936833 -0.030249208 -0.075228125 0.08771713 -0.038219262 0.02993965 -0.015501138 -0.07996354 -0.04857167 -0.08162181 -0.07076084 0.06831857 -0.06641812 0.083671466 0.03094429 0.03298117 0.073779136 -0.07841199 -0.045609284 -0.054104324 0.088171266 -0.01839814 -0.045060743 0.060387567 -0.08726364 -0.07190783 -0.06306452 -0.06923223 -0.030729791 -0.042267438 0.07857388 0.059614774 -0.0799286 -0.046083692 -0.002121544 0.07030613 -0.07860664 0.015562471 -0.07850356 -0.010980234 -0.0821644 0.06633434 0.052889355 -0.04357417 0.0029574723 -0.032372233 -0.0482151 -0.03427201 -0.03790904 0.084328696 -0.055108435 -0.030473143 -0.0026780248 -0.021559497 -0.031956803 0.08281512 -0.0025616535 -0.019521883 0.05551294 -0.0868264 -0.022380093 -0.05847023 -0.022532737 0.004176212 0.0501169 -0.07433942 0.051962096 0.07549726 -0.024799386 -0.01971848 0.014762266 -0.043632444 0.08767685 -0.049293812 -0.029286938 0.06867366 0.06236988 0.04066847 -0.040936153 0.0127888955 -0.04827436 -0.08088107 0.09951568 -0.053016115 0.03214504 -0.03402428 0.054090384 -0.068610825 -0.14357002 -0.09959508 -0.118767105 0.05663033 0.009695375 0.09514447 -0.08731876 -0.01722723 0.089986235 0.120071076 0.0003726924 0.18131551 0.11931537 0.02073839 0.0026838698 0.06960271 -0.015181321 0.090861484 -0.028320422 -0.096386686 -0.07201687 0.0017567668 -0.058035117 0.18799283 -0.07276568 0.098013766 0.1828155 -0.07293612 -0.009736852 -0.07764372 -0.0048396257 -0.08414037 -0.035664693 -0.039396133 -0.05500176 0.019345915 0.06366588 -0.011683359 0.052043702 -0.10931662 -0.047989633 0.027858645 0.03868169 0.007437637 -0.071478285 0.12743434 0.073520735 -0.020002374 0.05539925 -0.0042581693 0.1329803 0.039085604 -0.04964707 -0.10588844 -0.04268007 -0.0638569 0.03162679 -0.052518487 -0.06613812 0.026467085 -0.2115079 -0.0932153 0.036355272 -0.08994923 0.13426298 -0.045587808 -0.006534252 -0.0699991 -0.050295666 0.09030931 0.08663932 -0.06928865 0.04894307 -0.09028359 -0.005530716 -0.049169257 0.024200592 -0.0342813 -0.14722118 0.004601315 -0.051663622 -0.12367713 -0.08993382 -0.07706065 -0.14328857 -0.108438395 -0.10858202 0.21458605 -0.13496694 0.07495077 0.18019786 -0.06675394 -0.03176679 0.080858134 -0.0020251386 0.17401806 0.14899844 -0.20864227 -0.10798044 0.0032602334 0.061301652 0.01027351 -0.10081813 -0.03801013 0.08256531 0.12743387 0.117720306 0.06770446 -0.11538727 0.15519688 -0.2422648 -0.03363952 -0.076314375 -0.14789519 -0.108638994 0.04466047 -0.09652509 0.056386765 -0.005842687 0.06618493 0.036617424 0.19100876 -0.1936771 -0.067843065 0.13145071 -0.06753447 -0.06059213 0.13742132 -0.10980322 -0.08848235 0.0050812815 -0.072179064 -0.051677577 0.009235507 -0.05464889 0.05393701 -0.041920405 -0.020685116 0.057741396 -0.016050242 -0.05128972 0.09367056 -0.10849366 0.1485649 0.054457046 -0.0841913 0.008097114 0.09815497 0.083222285 0.032669213 -0.10344422 -0.019573111 -0.06954023 -0.05860976 0.111142956 0.13675827 -0.04526771 0.07214549 0.027048888 -0.2477776 0.1594933 -0.13006364 -0.13787399 -0.0947253 0.051756017 -0.13642934 0.03124655 0.081132 0.018454468 0.22419259 0.16784579 -0.045428198 0.025716033 0.041428257 -0.028488526 0.10268898 -0.032778986 0.035420448 -0.035186764 -0.15731435 0.14716701 0.04415436 -0.16797534 0.026465978 -0.053775106 -0.08004314 -0.08554229 -0.013222442 0.066849284 -0.12608987 0.1067693 0.015080471 -0.092275895 -0.14849319 -0.0073476876 0.07627696 -0.053387303 0.06693877 0.011119578 0.020039765 0.028962843 -0.044975016 -0.07535989 -0.09546794 -0.04661196 0.108654656 0.056795977 0.16115044 -0.023271915 0.08481005 -0.12008533 0.1183358 -0.0013547691 -0.021226583 -0.11772882 0.06057588 -0.22154021 0.16115153 -0.11301093 0.18375139 0.010762365 -0.11374481 0.066366926 -0.051708166 -0.09677864 0.037655212 0.1479905 -0.09568616 -0.06538002 -0.04471733 -0.1506809 -0.020147892 0.05501818 0.088083714 0.14182621 -0.067589216 -0.046138115 0.010030714 -0.018256368 -0.009556901 -0.0065040435 -0.10497879 0.14124037 0.07135069 -0.049820937 -0.1126378 -0.07354299 -0.25042036 -0.1256739 -0.22101623 0.018323788 -0.1646903 0.0371446 0.107774876 -0.0014328142 -0.0650899 -0.008107114 -0.0063424334 0.021659113 0.103778355 -0.17494722 0.04475413 -0.00092824444 -0.0004841424 -0.012661315 -0.010900859 0.025040671 0.13146031 -0.06895822 -0.13648652 0.071031466 0.04993272 -0.019420402 -0.09467726 -0.09115342 0.0040705386 -0.1266245 0.15478347 -0.06736463 0.10470388 0.0068017244 0.03843132 -0.039195318 0.009263926 0.059932213 0.114743344 0.23928264 -0.1785591 0.12135189 -0.010110973 -0.16126326 -0.054057576 -0.026636444 0.10470651 0.01699311 -0.20766237 -0.01962037 -0.023024566 -0.043667953 0.049575396 -0.09072448 -0.25516367 -0.028260415 0.09812478 0.038325347 -0.07066725 -0.14151369 -0.11816679 -0.042636745 0.077767365 -0.11507072 0.07076471 0.06382114 0.073776945 -0.08678068 0.07009566 -0.21147223 0.09276568 -0.04095856 -0.059817493 0.079623215 -0.1033215 0.14118056 0.08748057 -0.032313626 0.03891285 0.110988185 -0.00803088 0.25491115 -0.012650091 -0.1774249 0.25561184 -0.01497092 0.11804667 0.079547904 -0.17741576 0.11636965 -0.017151307 0.15253752 -0.07753606 -0.03251906 -0.030638592 -0.062179476 0.036917828 -0.28105602 -0.013297117 -0.0011203126 0.21574576 -0.15260205 -0.09380719 0.04786218 -0.110701956 -0.03253644 -0.12558322 -0.049498647 -0.07669032 -0.023362322 -0.12403593 -0.24319142 0.09251926 0.20109834 -0.20707981 -0.019997932 -0.101490825 -0.004558292 0.026168525 -0.10039324 0.09620095 0.0013642056 -0.113672964 0.025419466 -0.04899653 0.069833845 -0.039652478 -0.057391 0.07411338 -0.027056463 0.026671901 -0.10567275 -0.081028685 -0.014353051 -0.024408586 0.120470576 0.06725717 0.014234602 -0.113056175 -0.07906432 0.0018193291 -0.044319768 0.058803756 -0.1335343 -0.11451377 0.15934063 -0.089831635 -0.16797918 0.027787404 0.035594378 -0.07370003 0.03597228 0.09911574 -0.08476808 0.16579896 -0.17540064 0.14829668 -0.07488043 0.17586501 -0.10752596 0.04115659 0.2066662 -0.09111482 0.03728636 0.060915697 0.24801382 -0.000960742 -0.07408633 -0.08847373 -0.03980233 -0.06441692 0.035175923 0.017305503 0.21658449 0.08353983 0.13009477 -0.22544235 -0.057228427 0.15556808 -0.1384958 0.045245305 0.0077095055 -0.061225366 -0.1585255 -0.06671 -0.025231723 -0.066947356 -0.0921798 0.08022007 0.058738142 0.012314441 -0.03931935 -0.03088386 -0.07099529 -0.06257754 -0.05687171 0.057848927 0.22235423 0.16753854 -0.1028068 -0.052316137 -0.08760673 -0.006331884 0.026769293 -0.26565745 0.12079619 0.017427035 0.05875979 -0.10987895 0.18758541 0.11172292 0.16590373 0.15061104 0.0003092817 0.17303385 0.042200804 -0.070444874 0.089330375 -0.025314348 -0.14913034 -0.22636454 -0.07900428 -0.04928884 0.027390447 -0.00092419295 0.113482945 0.18465462 0.13396391 -0.041113347 -0.04184357 -0.13877593 -0.16014233 -0.014900575 -0.047406588 -0.12654455 -0.20605664 -0.05828059 0.051840078 0.12899643 -0.0629415 -0.060761925 -0.2068768 0.19275567 -0.013036843 0.020071981 -0.08115231 -0.018341547 -0.03457204 0.13157041 0.07669761 0.09938185 -0.08172304 -0.19224964 -0.051989328 0.065909244 -0.044577207 -0.1008657 0.0614794 -0.09525789 0.036844898 0.024558296 -0.033199374 0.050478328 0.034099612 -0.015220435 0.019600153 -0.10621816 0.06924875 0.023292204 0.038316365 0.15246056 0.049127255 0.0018547534 -0.055999603 -0.17678949 -0.028827509 0.05135274 0.07215807 0.001102855 -0.027097045 0.061056685 -0.021447452 -0.14645861 -0.115179814 -0.096330635 0.12552835 -0.070393525 0.12953733 -0.07289612 -0.091159366 -0.21129496 -0.17957273 0.042613115 -0.15713437 -0.075531356 -0.010956862 -0.14568517 -0.07422665 -0.08294561 -0.04518848 -0.093604796 0.001797136 -0.03188245 -0.17416885 0.080679975 0.0035011917 0.07324668 -0.07461119 0.011768881 -0.034744535 0.09795012 -0.02830437 -0.012082396 0.030587522 0.22255282 0.15211095 -0.0058187186 0.103160866 0.051659003 0.27212387 -0.1397808 0.1360039 -0.04915117 -0.010827786 -0.0027950504 0.045061316 -0.04065297 -0.04539085 0.066743836 0.10694912 0.16050595 -0.094109796 -0.016780049 0.080397926 -0.08355287 -0.055516254 -0.033033263 0.007001182 0.052356478 -0.11869807 0.029045742 0.19180317 0.027409032 -0.22784872 0.10799636 -0.11234448 -0.1080324 0.13129939 -0.15366006 0.057062555 0.23814254 0.068297744 -0.06654006 0.08058241 -0.015074741 0.03585099 -0.041312117 0.024776544 -0.091203354 0.071443945 -0.076521024 -0.39536402 -0.22889242 0.21264048 -0.06393246 -0.01294344 0.0048383544 -0.018831346 0.21324293 0.012823317 0.069404535 -0.005223983 0.08034956 -0.21600215 -0.07027898 0.123752296 0.036569998 -0.21688904 -0.15310115 -0.17050986 0.15553282 -0.21840277 0.06280295 0.07855796 0.018237635 0.17950378 -0.04546895 0.03192205 0.03794578 0.06285819 -0.1363282 -0.05662269 0.08003248 0.04843767 -0.08307412 -0.107188135 0.25608703 -0.21921124 0.044945776 -0.070572525 -0.033704583 0.11178685 0.11154162 0.03227377 -0.15751918 0.055253092 0.11891296 -0.010752471 0.00950921 0.04463488 -0.116672546 0.035072487 0.029827494 0.17551072 0.0055998424 0.11753814 0.08896167 0.011241498 -0.092732005 0.11556249 -0.016213669 -0.07221448 -0.0053338753 0.06634329 -0.08289034 0.049665466 -0.09902783 0.1354919 -0.006700823 -0.06133347 -0.074072 -0.27338988 -0.252245 -0.016687693 -0.15216051 -0.082360506 0.12439397 0.08258581 -0.011731422 -0.069297746 0.20578334 0.004739392 -0.048360378 0.09367592 0.012349778 0.07538951 0.06405494 -0.02505464 -0.12786876 -0.02049896 0.17337564 -0.1346305 -0.031193389 -0.04793395 -0.15005054 -0.06676873 -0.21148641 -0.11727617 -0.077941254 -0.013777226 0.15125807 0.09952075 -0.005188341 0.24083805 -0.059127703 0.017267525 -0.20883445 0.022656027 0.11447507 0.1449753 0.02307982 -0.025648814 -0.011886161 0.045063697 0.036363255 -0.014742452 -0.04680532 -0.10703065 -0.07375712 -0.107404985 0.0676622 -0.0991742 -0.15093705 -0.07293036 0.054748967 -0.006809255 -0.042431634 0.06266127 -0.056272455 -0.06804477 -0.1048679 -0.057502404 -0.0025447565 -0.018975029 -0.04644388 0.14051251 -0.15958628 -0.03951694 0.017931709 8.813863e-05 -0.020130295 -0.09236518 -0.10792158 -0.036330342 -0.09370198 0.15419741 0.029576689 -0.0044198837 -0.06451836 -0.08769961 0.04024619 0.027543278 -0.044363994 -0.06938207 -0.06383136 -0.00664428 -0.12954597 -0.0424449 0.038379755 0.15049183 -0.0033161435 0.0014582049 -0.029287042 0.037752956 0.0010606995 -0.19293182 0.09948083 -0.030419797 0.0066606626 0.024677856 0.07090345 0.10846694 0.029600265 0.09783098 -0.14541686 -0.016846519 -0.037836943 -0.094164856 -0.022170328 0.023089593 0.009514203 0.02848018 0.10583726 0.03277776 -0.060814742 0.06767524 -0.19107758 0.19776687 -0.08178711 0.017406128 -0.033192437 -0.040089954 0.01989912 -0.043999016 -0.034261018 -0.1561244 0.018583873 -0.09057488 0.09382848 0.034872618 0.053011082 0.09962365 0.07637528 0.13210592 0.051679492 0.022015367 0.012476291 0.041622024 -0.057601284 -0.02726854 -0.02813998 -0.029701851 0.01565086 0.06164574 -0.0075868852 0.087720126 -0.044678073 -0.06234328 -0.10306592 0.017757962 0.06930621 -0.04236782 0.076750256 -0.16309519 0.0005494056 0.009578657 0.071287684 0.020825744 -0.062285572 0.014317961 -0.0028736743 -0.094158486 -0.055679854 0.13648325 -0.09178639 -0.06313959 0.059573427 -0.1266438 -0.13190348 -0.093688875 -0.089179784 -0.11263623 -0.09434375 0.0014747711 -0.080560885 0.055088338 0.035270575 0.05890452 -0.010974698 -0.12650737 -0.10445946 0.020357776 0.10642688 -0.11439719 -0.011603325 0.014436422 -0.047300763 0.029208552 -0.10810582 -0.016172089 -0.08370948 0.012401519 -0.13716765 0.07943885 0.05628957 -0.0850757 -0.03508729 -0.148496 0.16046779 -0.05759587 -0.051294442 0.070823655 -0.2093375 -0.00010127498 -0.10202622 -0.10706634 -0.03546346 0.08615043 -0.048652243 -0.009029139 0.08000477 0.10052521 0.09502362 0.09974205 -0.13727905 0.12743638 0.07289442 0.0038776775 0.17884114 -0.12849165 -0.06588217 0.12497409 -0.050153963 -0.04874092 0.09267775 -0.04102795 0.032594066 0.10013438 -0.07700735 -0.059185952 -0.018764723 -0.017561471 -0.086817004 0.022930358 -0.08671797 0.07017679 -0.042357888 -0.1870228 -0.07345712 0.045004353 -0.07193035 0.09551007 0.24972077 0.08431547 0.10013221 -0.06553892 -0.0618917 0.040798094 0.04331577 -0.1451397 -0.07715335 -0.03951303 -0.015061103 0.026112411 0.045977917 0.05040455 0.16625471 0.06660805 0.057300523 -0.16845092 0.14830919 -0.073526405 0.19592546 -0.18161239 -0.09030164 -0.01441053 0.044407062 -0.004087717 -0.12330063 0.09012398 -0.020632394 -0.05873109 0.010387225 -0.15324706 -0.25013047 -0.01468385 0.16055489 -0.08081819 0.036893945 -0.015777448 -0.28328267 0.036157027 -0.08744251 -0.10800434 -0.040790454 -0.054054078 -0.026097322 -0.1252583 -0.049551282 -0.0263323 0.13806354 0.043162152 0.025774779 0.20934206 0.019444756 0.10087375 -0.074052915 0.036419913 -0.14542542 0.040882565 -0.086082764 0.0040594433 -0.047308672 -0.1593448 0.06720499 0.15273713 -0.0073860716 0.051992286 0.10126432 -0.031009799 0.03123721 0.0051945024 -0.06224854 0.16220507 -0.024069363 0.070359424 0.0036597226 -0.062276974 -0.07610589 -0.061583206 0.30244467 0.18463616 -0.0854386 -0.14457022 -0.0149621675 -0.0031798964 0.27090526 0.028955096 0.017710755 0.035324007 0.12186331 0.12034195 -0.014607623 0.020116646 -0.04276068 0.24355434 -0.12421102 -0.16257866 -0.10848129 -0.06769568 -0.276219 -0.03847667 0.084076814 0.028473374 0.013748005 -0.059020147 -0.12003156 -0.0101044895 0.026662884 0.021605106 -0.015062847 -0.07970587 -0.050482497 0.03192265 -0.04195659 0.09742323 -0.21247189 -0.02718419 -0.10785515 -0.22198057 -0.10165743 -0.12024436 -0.06630725 0.1183599 0.06861644 0.1293454 0.032267306 0.029610526 -0.16450746 0.03855607 -0.05398166 0.12264087 0.04448661 -0.007162783 -0.06345388 -0.056880053 0.029052865 0.064074874 0.058082473 0.04698525 0.080644496 0.19914077 0.0591912 0.01450226 -0.19776356 2.9177376e-05 -0.096136644 0.29488406 0.029051159 -0.11539374 -0.01771475 0.074223205 -0.13566378 0.051788874 -0.05285261 -0.0100965565 -0.32629395 -0.028936917 -0.10266413 0.12271314 -0.070147015 0.09308546 0.07425034 0.018652346 0.07310682 -0.01333176 -0.009766074 -0.07812818 -0.08687142 0.06808565 -0.018516995 -0.3889602 -0.16288036 0.099415995 -0.108857416 -0.22564338 -0.07695457 0.038275793 0.019281777 -0.037352182 -0.0020709392 -0.07921167 -0.025684593 -0.15623173 0.05355672 -0.1108042 0.26356187 -0.1997576 0.013154954 -0.18487725 -0.078842826 0.03200116 0.14552653 0.117788516 -0.0831854 0.076756656 -0.03859441 -0.056743074 -0.077226706 -0.07503152 0.12706658 -0.16143116 0.023370221 0.0032123374 0.14096703 0.019397104 0.10331762 -0.054976724 0.020446502 -0.0755841 0.025886914 0.011876309 -0.10802118 0.05327016 -0.15068556 0.11651789 -0.057762567 0.08845897 -0.13599837 -0.03825339 -0.13535607 -0.05916768 0.010332599 0.07744007 0.046064924 0.2417933 -0.08929005 0.13197184 0.046226155 -0.019988311 -0.0739809 0.0445279 -0.03423444 -0.0007599235 0.049041126 0.0773291 -0.17020528 -0.04394273 0.008029258 -0.03638193 0.039563827 -0.11612202 -0.07374386 -0.14800982 -0.010285604 -0.16854611 -0.015296985 0.05999828 -0.054983288 0.18466671 -0.05207575 -0.11815783 -0.009356219 -0.036938645 0.03179706 0.016855806 0.121370465 -0.052335907 -0.13769297 0.09801556 0.01818762 -0.02375151 -0.15825002 0.02712894 -0.10592902 -0.01582331 0.100742824 -0.19338596 -0.030473242 -0.27189276 -0.1489256 0.11811029 -0.11605137 0.2010014 0.04020737 -0.005232471 -0.025341528 -0.16187409 0.016571201 -0.079976656 0.049994785 -0.012106402 -0.027415665 0.0074666427 0.08901455 -0.099485554 -0.029760106 0.1301625 0.005246763 0.052113723 -0.02233741 -0.24153033 -0.08479362 -0.012922021 -0.14592987 -0.05440437 0.047655683 0.04584952 0.20854568 0.00061408896 0.057015393 0.01814457 -0.25086823 0.07945665 -0.09925166 -0.12428847 -0.018148545 0.041434333 0.20718277 -0.033822615 0.09540535 0.07911269 0.09823775 -0.14845815 -0.0610055 -0.090769 -0.015475801 0.054266565 -0.074221164 0.13574925 0.06985637 -0.08985753 -0.21195091 0.022501364 0.0075541125 0.09801087 0.1622679 0.028485388 0.053172886 -0.17687409 -0.13013268 -0.041096147 0.022982998 0.013184486 0.11545686 0.020158047 -0.117868304 0.16734268 -0.15089469 0.06720705 -0.097677335 0.072579026 -0.17912014 0.21380402 0.2354878 0.14805745 0.031607233 -0.2639482 0.020813735 -0.07714784 0.10354001 -0.0531647 0.0027148135 0.014044598 -0.06466175 0.00085224863 -0.074790336 0.022254799 -0.14231469 -0.020029524 0.10992518 -0.06256534 0.010770945 -0.0098516075 -0.21008332 0.019048061 -0.032838523 0.25483987 0.023414418 0.11605216 0.19251183 -0.03499115 0.033113934 0.087645374 -0.102974944 0.18406011 -0.056698635 0.03491114 0.087711126 -0.15481229 -0.08690531 -0.05384193 0.04173572 -0.067913055 0.015454692 0.015902212 -0.08622062 0.014810941 -0.021819051 0.09977181 -0.21623605 0.14500208 0.06846825 0.07633927 -0.011967647 0.06325824 0.0058872257 -0.02691124 -0.068259306 0.082675435 0.02069841 0.051244915 0.07203164 -0.074046746 -0.09808905 0.017868407 -0.063451566 0.005565068 0.023708638 0.009236434 -0.003500101 0.006898105 -0.05555628 0.08068004 0.07711687 0.26514637 -0.051268432 -0.03943163 0.11741601 -0.10080983 -0.078979954 -0.0957405 -0.16390705 0.27055287 0.01875259 -0.03883824 -0.057011444 -0.14375614 0.006382373 -0.11603911 -0.18317574 0.12247032 -0.0278353 -0.07349321 0.033463478 0.02492349 0.03334443 0.033153135 -0.019129528 0.0070165955 0.053744487 -0.05593189 0.11795938 -0.14598407 -0.12098947 -0.11336948 -0.22124211 0.045331683 0.01929333 0.19770253 -0.18154961 0.002281456 -0.05723675 -0.01906968 -0.21703939 -0.02687717 -0.072580926 -0.05603748 0.0791671 0.037247952 -0.08700478 -0.03126596 0.011745595 -0.07814973 0.0762778 -0.048703317 0.06157923 -0.06560178 -0.04503668 -0.123735175 0.09453286 0.06081154 -0.03931101 -0.08784437 0.049928054 0.034331467 -0.116566405 -0.16637766 0.12491901 0.045435812 0.099154375 -0.07218978 0.2335773 -0.106415145 0.30617347 -0.12215833 0.09303675 -0.12743434 0.07742402 -0.1688462 -0.024777146 -0.08526974 -0.040849265 0.009916643 -0.0239043 -0.030078651 0.025216464 0.013176152 -0.08822165 -0.11417792 -0.08079497 0.102480516 -0.018809104 -0.18469405 -0.03974546 -0.049220763 -0.055316016 -0.019745506 -0.1671042 -0.12666205 -0.01387668 -0.25403383 0.044111945 -0.000464521 -0.10603134 0.11258953 -0.12550843 -0.04255812 -0.020434184 -0.062252186 0.062477972 0.039642867 -0.07553312 0.07509641 0.076236255 0.0075367624 -0.01207794 -0.04014879 0.07490618 -0.050694298 0.013001607 -0.05287639 -0.057863705 -0.043135196 0.05077925 0.016917266 0.045752373 -0.030950867 0.022241645 -0.08558501 0.08220846 -0.0753269 0.020685775 0.052994806 0.07714762 -0.0028943229 0.04206683 0.049394324 0.06756776 0.0315271 0.08636814 -0.08629718 -0.05944279 -0.0146926 -0.032699 0.060935453 -0.039535087 0.010240716 -0.07162074 -0.04271897 0.07518915 -0.0087794745 -0.063329615 -0.0072140144 0.023141235 -0.054602843 -0.06339441 -0.012432662 -0.0010733713 0.013856366 -0.05470094 -0.06836447 0.07225316 -0.054389812 -0.027758444 0.08003553 -0.065720364 -0.08293131 -0.05763668 0.016395692 0.08213574 -0.043992534 0.030978011 0.017423602 0.080864854 -0.056853928 0.055182192 -0.0008015482 0.021953095 -0.0656698 0.008608301 -0.059945367 0.012463879 0.05726199 -0.01594347 0.040140074 -0.06211747 0.017638795 -0.071398474 -0.04056635 -0.0681675 -0.027761688 -0.014973277 -0.0315697 0.025397845 -0.01834168 -0.019288223 0.023959573 0.060205963 -0.08245378 -0.032562513 -0.015550649 -0.04093431 -0.088776976 -0.060241427 0.057675384 0.024474641 -0.010784787 0.07245936 0.07293902 -0.062281493 0.05010154 0.07169569 -0.036710605 -0.07353129 -0.028195463 0.0037993737 -0.040533718 -0.06643255 0.077206805 0.004515721 0.05138144 0.019043064 0.08926193 -0.0038928413 -0.0820475 -0.07606061 0.033907663 0.08240597 0.016233569 -0.021291025 4.7388043e-05 -0.062707156 -0.10545384 -0.17727718 -0.1929489 -0.07399866 0.054465566 -0.04338179 -0.22000423 -0.041951355 -0.19226094 0.06095876 0.0409361 0.101728 0.08880131 -0.040311497 -0.10592783 0.15736155 -0.020828053 0.023604713 -0.03455841 -0.09745337 -0.11806219 -0.12932716 -0.027466979 0.043020114 -0.079301976 0.16110334 0.11474817 -0.07050467 0.16869159 -0.15997304 0.04503814 -0.032924153 -0.1389904 -0.03323063 -0.014377542 -0.14269307 0.03801297 0.014319757 -0.015399366 -0.057415087 -0.0051301164 -0.00028564924 0.013545696 0.08828474 -0.06346724 -0.02445931 0.018456833 -0.038553193 -0.073049426 0.17100091 -0.04305758 0.096021175 0.19429618 -0.14562576 -0.16890697 -0.07720439 -0.039585236 -0.16409113 0.05399629 0.023125453 -0.036899555 0.079354405 -0.010508306 -0.14470805 0.10209241 -0.008231064 0.013852582 -0.00809801 0.07278657 -0.15742998 0.1151819 0.059737083 -0.024487427 -0.21080182 0.16484314 0.04258132 -0.08679616 0.020968081 -0.20490913 0.009632171 0.043785125 0.059172265 -0.057149116 -0.024381625 -0.13367435 -0.02085941 -0.09163265 0.051566355 0.15922701 0.07027336 0.15735725 0.05375716 0.09602697 0.1676242 -0.12020195 0.039870616 0.055156153 -0.05896945 -0.13148639 0.24355038 0.04153466 0.02538176 0.066469476 0.080109484 0.037130307 0.039475292 -0.05637033 0.07567457 0.21466874 0.038999926 0.038886357 0.03413956 -0.003967402 -0.2034649 0.024769284 -0.032070525 -0.025240166 -0.018326929 -0.055040587 0.033570915 -0.057193056 0.14216621 -0.17159349 0.02866969 0.015288936 -0.01527748 0.09833645 -0.019781608 0.023612132 -0.11278519 -0.0030074504 0.09273104 -0.13637726 0.053365607 0.02737013 -0.03791043 0.05674461 -0.06964209 0.047274664 -0.09291126 0.047156136 0.026536467 0.09877118 0.064732805 0.0705901 0.0021131835 -0.06228917 0.035851926 0.004523503 -0.10735177 0.029517679 0.07484778 -0.019101229 0.10731441 -0.07925701 0.10009702 -0.09151121 0.005834631 0.010971447 -0.30978987 0.14582928 -0.2242466 -0.07056601 0.008628485 -0.0012815713 -0.19311969 -0.14815156 0.007779459 -0.10234223 0.07053051 0.12287118 0.084457204 0.13285612 0.019083431 -0.099156685 0.17661254 -0.026465507 0.08999839 0.059866067 0.037954967 -0.025440117 0.0074474877 0.13187875 0.049872957 -0.07296372 -0.109442994 -0.03169479 -0.008516077 -0.04936134 -0.056620378 0.04599477 -0.08731725 -0.055033617 -0.055483814 0.098550275 -0.08713925 -0.071711734 -0.007085018 0.13901378 -0.07039511 -0.035498273 0.057056118 -0.04463815 -0.119082555 -0.037320312 0.037044294 0.06934885 0.124595895 -0.1298793 -0.03504247 -0.08132226 0.008482485 0.039669048 -0.024699077 0.0025109574 0.053177033 -0.04679515 -0.017261758 0.016639369 0.08339217 0.016103698 -0.056893386 0.060021814 0.041745424 -0.056399535 -0.037865523 0.19473524 0.06319503 0.0159976 0.08671581 -0.07792893 -0.061807718 -0.07775399 -0.08769602 0.0074133533 -0.013263552 0.1288959 0.137565 -0.05116477 0.051321432 -0.008671474 -0.14445132 0.071505405 -0.090383954 0.05139788 0.02255825 0.1470606 -0.1980553 0.042742517 -0.13631788 -0.071617216 0.0028828855 0.053305577 -0.010836023 0.040851343 -0.026951734 -0.033886403 0.059276156 0.03349373 0.10194834 -0.033794835 -0.16002847 0.19652584 0.1514703 -0.08858935 0.06101545 -0.09504622 -0.12426071 0.0014213766 -0.024657011 -0.04814062 -0.11507513 -0.075152434 -0.10005961 -0.07470155 -0.006466067 0.14362311 0.14179 0.07683978 0.03802664 0.04530833 -0.15165915 -0.11034633 0.060121506 -0.13443387 0.14663014 0.17884094 -0.07518466 -0.15309978 0.010895954 -0.02015075 -0.13736734 -0.13680007 -0.075017415 0.08098443 0.122355595 -0.12623186 0.0121687455 -0.0995442 -0.02409126 0.06988712 -0.12132308 -0.28433642 0.21904226 0.0293225 -0.14763999 -0.11567089 -0.13597375 0.047517195 0.21685238 0.109729216 -0.025109556 -0.007298696 -0.19583751 0.07301112 0.12306411 -0.044110764 0.093442425 0.06825454 -0.021483023 0.0887161 -0.08627534 0.10969498 0.04328786 0.10748782 -0.005319636 0.013839616 0.24429855 0.16533378 -0.05473945 0.054572918 -0.022060009 -0.18604249 -0.15299068 -0.14182498 0.09489666 0.020233642 -0.03058565 0.03417672 0.22187003 -0.16374257 -0.104024544 -0.03780256 -0.1763196 -0.19881377 -0.05598182 -0.19647409 0.1775154 -0.19325444 -0.088556215 0.025537826 0.057422053 0.018064626 -0.0604492 -0.20556967 -0.14019302 -0.10899423 -0.14235315 -0.09811639 -0.035177454 0.315472 -0.23154017 -0.10795196 -0.026767712 0.03596546 0.051589984 -0.15723231 -0.1356768 -0.06936843 0.22852872 -0.19385187 -0.25423196 -0.0059376503 0.068511575 -0.056156676 0.1017324 0.069440216 0.003562204 -0.07330311 0.044840593 -0.07193899 0.050064202 -0.060418155 0.08898101 0.023004524 -0.0100050755 -0.09250918 0.16239704 0.025067056 0.043568354 0.033122428 -0.0009465375 -0.06588327 -0.029090047 -0.053046487 0.15586625 -0.044308476 -0.165274 -0.07378638 -0.10027369 -0.104847185 0.12123287 0.014330754 0.20652053 0.034112066 0.071181916 -0.10537046 -0.17302588 0.21625832 -0.033006195 0.12182443 0.030756531 0.06168292 -0.09939196 -0.1061501 0.08171149 -0.023131665 -0.09965122 0.055180516 -0.026061034 0.10613476 0.1612896 0.023055825 0.13355629 -0.23931743 0.072242446 0.04151352 0.0033886805 0.08471251 -0.012034167 -0.21318966 -0.061470445 0.049318038 -0.022133384 -0.12375217 0.05716307 -0.06776229 0.082087375 -0.12327918 0.09266687 -0.0040362924 0.061578147 0.03547816 -0.006571093 0.08028874 -0.064417586 -0.055345528 -0.14546546 0.02582567 -0.080273665 -0.16257268 -0.05661167 0.16406354 0.093217686 -0.003677001 -0.034002118 -0.022772564 0.08552306 0.014137875 0.060864948 -0.08299071 0.048842497 -0.08373845 0.070876025 0.07759776 0.011719246 0.07747158 -0.11980734 -0.20225027 0.029584384 0.15483838 0.03399267 0.0408583 0.29963014 0.07704749 0.09603098 0.021090936 -0.23230089 -0.16465099 0.078775436 0.037096452 -0.21845843 0.047033563 -0.034336694 -0.05129805 0.048313748 -0.029545905 0.23393029 -0.16571088 -0.028357564 -0.027176045 0.04472416 0.17057541 -0.09781912 0.036878306 0.053612553 0.10996497 -0.046362106 -0.034089208 -0.11964543 0.0016917401 -0.045267932 -0.21415348 -0.30241507 0.120693676 -0.11893386 -0.025186965 0.051286217 0.14191562 -0.06765292 0.026122833 -0.111994445 -0.060611434 0.06981507 -0.07018636 -0.01693316 -0.08018262 -0.03631807 -0.07720939 0.20614095 -0.1393498 -0.036577884 -0.12864263 0.1309146 -0.024533877 0.012625933 -0.11398225 0.0072417827 0.10657076 0.06639359 0.03133823 -0.058058895 0.0046548173 -0.012412833 0.015656032 0.0044449666 -0.073954456 -0.0684937 0.0070612854 -0.034946896 0.070004985 -0.11412624 -0.10373949 -0.09857797 -0.0046392935 -0.035698444 0.0065934965 0.024884332 -0.0048978473 -0.17849319 -0.033494543 -0.04623098 0.049223445 0.061847445 -0.007182934 -0.085612945 0.047423847 0.15560405 -0.03367025 -0.0068679564 -0.12662847 0.004824659 0.13280492 -0.023412442 -0.13578859 0.09280348 0.19842134 -0.34124112 0.05307859 0.0055647553 -0.1522721 -0.1242151 -0.053056307 0.015247509 -0.055756558 -0.11790842 -0.08309718 0.21455996 0.1298306 0.022534668 0.1212601 0.16502744 -0.024909187 -0.017600797 -0.017576369 0.033443533 -0.094591275 0.086319245 0.09526023 -0.071392745 0.20958094 -0.06714019 0.023143508 -0.19427066 -0.028482059 -0.13749897 0.18733847 0.13376111 0.06369143 -0.06216064 -0.11018463 0.109628774 -0.07498139 -0.08756426 -0.093607605 0.18683441 -0.07895195 0.044837806 -0.034626003 -0.17374712 0.11989336 -0.0036431397 0.033406463 -0.14652115 0.014355625 0.17847432 0.061229173 0.026697882 0.121321075 -0.14394848 -0.091609985 -0.052972365 0.008378534 0.0049101673 -0.0723954 -0.15263152 -0.3141903 -0.090260476 0.1307345 0.0606997 0.017811425 0.050908826 -0.002665268 -0.10208561 -0.0007826255 -0.18396406 0.27013007 -0.11188606 -0.012814656 -0.0155582875 -0.028826345 0.073247276 -0.089533195 0.15350135 -0.1152555 0.14346653 0.085959606 0.0544673 0.08443564 -0.03377217 0.06229626 0.2442551 -0.21184349 0.007740347 0.15490542 -0.10463749 -0.23175357 -0.18476227 0.088995315 0.10014 -0.024464978 0.09691993 0.09356321 -0.081077 -0.052267652 -0.0072755334 0.072738275 -0.02128472 -0.07187747 -0.03368961 0.12945753 -0.022417886 0.04552752 -0.039297033 0.06730493 0.16852434 -0.06410273 -0.1905769 -0.33018506 -0.013427147 0.013879078 -0.1474562 -0.26601037 0.2521327 -0.14479284 -0.0066006617 -0.11980065 0.13980485 0.20491523 -0.036012165 0.008364908 0.048941333 -0.047529552 -0.02784036 -0.16589975 0.0022792583 0.11842581 0.19690879 -0.014350726 -0.10846978 0.006154111 0.051173944 -0.014117019 -0.06515169 -0.11192306 0.041264977 -0.14484623 0.11237529 0.06661089 -0.17129768 0.14989316 0.1196733 -0.037908964 -0.063178174 -0.021324694 -0.044052217 0.032009043 0.02363113 -0.03888691 -0.04731359 -0.06768967 0.091901615 -0.02240611 -0.013729596 0.031260885 0.03619426 -0.020225493 -0.016439723 -0.037287273 -0.094880305 -0.023934675 0.1025645 0.012986258 -0.06263819 -0.03605749 0.031638645 -0.10101318 -0.06530066 -0.0045287414 0.12872279 0.0076462864 -0.105053596 -0.08040594 0.07671245 -0.028038615 -0.15787564 0.05039462 -0.18136364 -0.11662009 0.002017284 0.060179118 -0.033991724 0.071863286 0.0128275715 -0.0032183335 -0.06754887 0.061474834 0.04334942 0.0014603105 0.012857398 0.060204323 -0.14075251 -0.15436357 -0.10042673 -0.051561613 -0.052516468 0.040775154 -0.05665622 -0.12918122 0.019693311 0.046406932 0.007063981 -0.008704473 -0.006187914 0.04371316 -0.022680845 0.044016466 -0.04349467 0.024348909 -0.033254337 -0.12279143 0.058229197 -0.049771894 0.09863729 -0.05121853 -0.060795367 -0.07259557 0.09501509 -0.04500907 -0.020242753 0.050316483 -0.0031565032 0.079619475 -0.1550116 -0.10706509 0.024280537 -0.009500601 0.035109915 0.12653089 0.06081094 0.09367056 0.020084484 -0.109636374 -0.11421753 -0.14904675 0.145374 0.07157994 0.0063267937 -0.0777086 0.07934138 0.0046994393 -0.028373307 -0.018009795 0.040178888 -0.07597418 -0.060822237 0.022424798 -0.040557716 0.13822532 0.09675459 -0.042312097 0.030129008 -0.020986916 -0.0067408793 -0.11037052 0.04501857 -0.029556554 0.037343193 -0.09101439 -0.054303266 -0.014546332 0.0063397996 0.06265417 0.08415407 0.11788709 -0.020057378 -0.08382157 -0.12817247 -0.10110658 0.052353118 0.1246796 -0.11210939 0.07835571 -0.05751352 -0.13372067 0.059562758 -0.06213215 0.08197227 -0.071968175 -0.13770159 -0.0169204 -0.12749352 -0.0022707402 0.020660918 0.03298016 0.14758873 0.05455222 0.008802014 -0.014191004 0.122816466 0.043153662 -0.119919956 -0.09449815 -0.036961026 -0.05762209 -0.025092995 0.17060933 -0.13473243 -0.14343679 0.0102896765 0.045114767 -0.03883274 -0.0485435 -0.070638984 -0.13397191 -0.019606454 0.11600417 -0.020062467 0.04891392 -0.06176919 -0.12608534 -0.15025756 0.07287399 -0.0642324 0.025209185 -0.13704054 -0.0041563693 0.13291675 0.031182563 -0.09035823 0.05336292 0.017890375 -0.058438882 0.02082944 -0.013575401 0.050672136 -0.049926095 -0.016187591 0.107721366 -0.10348351 -0.10664325 0.14991766 -0.116260126 0.10312401 0.041114334 -0.015723996 -0.05750022 -0.023278156 -0.02409436 -0.13638388 -0.13994998 0.055708718 0.076988794 0.12888974 -0.03374727 -0.027079463 0.17742208 -0.24813966 0.06386264 0.25023925 0.030541705 0.1123165 -0.024420576 0.08544031 0.01286877 -0.18676373 -0.09043347 -0.19627501 -0.061389785 -0.086875 -0.05822546 -0.016872335 -0.06613443 0.074957035 -0.144954 0.068324886 0.07244068 -0.09773504 -0.0077520628 0.20582847 -0.08909328 -0.022833025 0.15834564 0.06452091 -0.09781229 -0.01549925 -0.000442005 0.06989081 -0.1887902 -0.08037194 0.042548664 -0.046278574 -0.07628662 0.16394836 -0.22297746 0.19981898 -0.090475895 -0.15650387 0.019065216 0.022542795 -0.06050922 -0.06712539 -0.14368105 0.09258392 -0.06270371 -0.009655997 -0.029054318 0.14571674 -0.099861726 0.039384 -0.053219594 -0.019260395 0.1558095 0.055424556 -0.073483214 0.12883084 -0.07201158 0.09216265 -0.06010641 -0.010571379 -0.094072685 0.16167629 0.045552664 -0.05918521 0.037752725 0.12718147 -0.06406586 0.017481817 0.03432925 0.015829058 0.17606919 -0.12104272 0.1753991 -0.08231597 0.034150913 -0.07290183 -0.04708493 0.112063676 -0.042088706 -0.16849983 -0.08476062 0.02865052 -0.012448811 0.20243709 0.10437223 0.013403799 0.15295601 0.104846805 0.12795796 -0.06710433 0.084407106 0.09112052 -0.029426694 0.036765844 -0.03928267 -0.08018198 0.10442091 -0.28195727 0.059058588 0.064314626 0.1459514 0.016094558 0.11820902 -0.050828807 -0.04790027 -0.113491006 -0.060605858 -0.03434638 -0.041869577 -0.25173956 -0.06790676 -0.02204967 0.053152926 -0.085433565 -0.016491355 -0.23642425 -0.011905318 -0.06622507 -0.19601992 0.12281657 0.15071987 0.02848823 0.07562214 -0.010320365 -0.059954762 -0.04606879 0.03437327 -0.03974198 -0.044394176 -0.015939463 -0.048288077 -0.25257587 -0.1953882 0.12015237 0.07840657 -0.019996094 0.06036535 0.18966778 -0.0219783 0.1338582 0.01878126 0.0015378473 -0.095923655 0.0010596176 0.13898064 0.10424766 -0.057119362 -0.12590453 -0.019374942 -0.15957612 0.12720336 -0.03439671 0.05618285 -0.3430591 -0.1313618 -0.06310425 -0.0036616179 -0.087455876 0.14902526 0.033739235 0.07053896 0.09459303 -0.11130695 -0.07500397 -0.14761408 -0.09658839 0.01417277 -0.06451108 -0.07977931 -0.1612291 -0.19524446 -0.082549475 -0.010555363 -0.0018729779 0.0331963 0.039194304 -0.13891962 -0.13406639 -0.0068111676 -0.048562095 -0.032856107 -0.06498775 -0.030659698 0.20041433 -0.06797978 0.090763904 -0.13526306 0.041122906 -0.0752525 0.013968275 -0.04255277 -0.0035424929 -0.047608234 0.13553074 -0.0072486997 -0.096997164 0.2224107 0.060026508 0.014003121 0.0069213687 -0.07448813 0.017931284 0.07509782 0.039615743 -0.060213584 -0.075316966 -0.07674205 -0.105490595 -0.024113312 -0.10825317 -0.1922471 0.0638771 -0.09882846 0.029365089 -0.120922215 0.04551766 0.021867605 -0.020487059 0.037056863 0.21055046 0.16391176 0.15164043 0.081633545 0.01322221 0.07219336 -0.02766363 -0.11918038 -0.077486634 -0.06443133 0.0063621053 0.049009185 0.07445501 0.012587317 0.021469433 -0.04539255 0.07872936 0.037907068 0.098434076 -0.025316015 -0.105911456 -0.16275838 -0.09269517 -0.09206288 0.013942434 0.23808493 0.095658764 0.08872091 -0.12900385 0.06673356 0.05102515 -0.0895568 0.027748505 -0.01787437 0.06380585 0.060008083 -0.11750386 0.23896927 -0.070350766 0.17350778 -0.20125183 -0.0756425 -0.07151718 -0.006218472 0.019807052 -0.17230134 -0.10350554 -0.18575796 0.11352427 -0.0039153066 -0.006605888 